{"learner":{"attributes":{"scikit_learn":"{\"_estimator_type\": \"regressor\"}"},"feature_names":[],"feature_types":[],"gradient_booster":{"model":{"gbtree_model_param":{"num_parallel_tree":"1","num_trees":"200"},"iteration_indptr":[0,1,2,3,4,5,6,7,8,9,10,11,12,13,14,15,16,17,18,19,20,21,22,23,24,25,26,27,28,29,30,31,32,33,34,35,36,37,38,39,40,41,42,43,44,45,46,47,48,49,50,51,52,53,54,55,56,57,58,59,60,61,62,63,64,65,66,67,68,69,70,71,72,73,74,75,76,77,78,79,80,81,82,83,84,85,86,87,88,89,90,91,92,93,94,95,96,97,98,99,100,101,102,103,104,105,106,107,108,109,110,111,112,113,114,115,116,117,118,119,120,121,122,123,124,125,126,127,128,129,130,131,132,133,134,135,136,137,138,139,140,141,142,143,144,145,146,147,148,149,150,151,152,153,154,155,156,157,158,159,160,161,162,163,164,165,166,167,168,169,170,171,172,173,174,175,176,177,178,179,180,181,182,183,184,185,186,187,188,189,190,191,192,193,194,195,196,197,198,199,200],"tree_info":[0,0,0,0,0,0,0,0,0,0,0,0,0,0,0,0,0,0,0,0,0,0,0,0,0,0,0,0,0,0,0,0,0,0,0,0,0,0,0,0,0,0,0,0,0,0,0,0,0,0,0,0,0,0,0,0,0,0,0,0,0,0,0,0,0,0,0,0,0,0,0,0,0,0,0,0,0,0,0,0,0,0,0,0,0,0,0,0,0,0,0,0,0,0,0,0,0,0,0,0,0,0,0,0,0,0,0,0,0,0,0,0,0,0,0,0,0,0,0,0,0,0,0,0,0,0,0,0,0,0,0,0,0,0,0,0,0,0,0,0,0,0,0,0,0,0,0,0,0,0,0,0,0,0,0,0,0,0,0,0,0,0,0,0,0,0,0,0,0,0,0,0,0,0,0,0,0,0,0,0,0,0,0,0,0,0,0,0,0,0,0,0,0,0,0,0,0,0,0,0],"trees":[{"base_weights":[4.367864E-9,1.3945647E-1,-9.392803E-2,2.6707664E-1,1.17989235E-1,-2.0261792E-2,-1.3339104E-1,7.8120284E-2,3.4632245E-1,1.8146427E-1,7.853925E-2,1.7885415E-1,-3.5572805E-2,7.093849E-2,-1.392465E-1,-1.2851012E-2,9.9642485E-2,3.6965913E-1,2.8286391E-1,1.1128511E-2,1.9963802E-1,-4.0148627E-2,9.376694E-2,1.3498206E-2,2.3370814E-1,7.637084E-3,-7.170173E-2,1.7777814E-1,1.051267E-2,-1.7617823E-1,-1.1830833E-1,6.7569474E-3,-3.6682063E-3,1.06562845E-1,-3.3304156E-3,3.7302077E-1,5.038399E-3,1.6374538E-2,2.297286E-1,2.9850865E-2,-5.5978927E-3,2.1963349E-1,1.2246528E-1,-1.6641727E-1,1.086069E-2,7.536431E-2,1.8868014E-1,-3.5634097E-2,4.800368E-2,2.584073E-1,1.3190195E-1,-1.2668227E-1,4.6664E-2,-9.078159E-2,7.472188E-2,2.534864E-1,9.18629E-2,-6.3668797E-3,3.391745E-2,-1.3749278E-1,-1.8442042E-1,-8.052967E-2,-1.5279324E-1,-5.8745E-4,5.594878E-4,3.0022047E-3,6.105706E-3,4.4368207E-5,-3.2190283E-4,1.885161E-2,7.6201535E-3,1.2171457E-2,4.3334053E-3,1.0223131E-3,4.9272557E-3,1.307972E-2,8.975509E-3,9.087687E-3,2.6611704E-3,-5.5432254E-3,-8.876874E-3,-1.7993686E-3,8.158085E-3,5.5679907E-3,2.050455E-3,8.254012E-3,1.9380111E-2,1.137589E-3,-2.944401E-3,-3.4861956E-4,3.4745627E-3,2.5201878E-3,1.3401422E-2,1.7358415E-3,8.02198E-3,-3.2693509E-3,-7.575977E-3,4.0684603E-3,-3.091796E-4,-6.968385E-3,-2.6273325E-3,1.5653875E-2,4.749952E-4,1.4142257E-2,5.0243586E-3,2.2169256E-3,7.603243E-3,4.089862E-3,-8.1117544E-4,-7.2423974E-3,2.517419E-3,-6.573289E-3,-9.3328E-3,-4.840718E-3,2.0601777E-3,-8.015781E-3,-5.495738E-3],"categories":[],"categories_nodes":[],"categories_segments":[],"categories_sizes":[],"default_left":[0,0,0,0,0,0,0,0,0,0,0,0,0,0,0,0,0,0,0,0,0,0,0,0,0,0,0,0,0,0,0,0,0,0,0,0,0,0,0,0,0,0,0,0,0,0,0,0,0,0,0,0,0,0,0,0,0,0,0,0,0,0,0,0,0,0,0,0,0,0,0,0,0,0,0,0,0,0,0,0,0,0,0,0,0,0,0,0,0,0,0,0,0,0,0,0,0,0,0,0,0,0,0,0,0,0,0,0,0,0,0,0,0,0,0,0,0],"id":0,"left_children":[1,3,5,7,9,11,13,15,17,19,21,23,25,27,29,31,33,35,37,39,41,43,45,47,49,51,53,55,57,59,61,63,-1,65,67,69,-1,-1,71,73,-1,75,77,79,81,83,85,87,89,91,93,95,97,99,101,103,105,-1,107,109,111,113,115,-1,-1,-1,-1,-1,-1,-1,-1,-1,-1,-1,-1,-1,-1,-1,-1,-1,-1,-1,-1,-1,-1,-1,-1,-1,-1,-1,-1,-1,-1,-1,-1,-1,-1,-1,-1,-1,-1,-1,-1,-1,-1,-1,-1,-1,-1,-1,-1,-1,-1,-1,-1,-1,-1],"loss_changes":[5.9626064E1,4.9875336E0,7.904585E0,3.911106E0,3.9171658E0,2.9025955E0,2.1287766E0,1.5595478E-1,1.6940689E-1,1.8582592E0,1.7568865E0,6.136348E-1,1.3790225E0,3.2092476E-1,1.310749E0,1.9480336E-2,4.5961916E-2,8.172989E-2,5.2814007E-2,1.3930556E-1,8.1100845E-1,7.167448E-1,1.4879026E0,3.222657E-2,9.4156265E-2,2.1184657E0,1.3505731E0,9.379476E-2,1.1078868E-1,1.7265129E-1,1.4233751E0,1.1979016E-3,0E0,3.6073327E-2,7.1249626E-5,5.758667E-2,0E0,0E0,3.37826E-2,3.1579316E-2,0E0,6.769943E-1,4.583242E-1,8.571148E-5,5.766723E-1,8.882818E-1,5.885558E-1,1.2201411E-2,1.3478847E-2,6.6539526E-2,2.7711228E-2,1.2863159E-1,5.745722E-1,7.840514E-1,8.676032E-1,1.2004495E-2,2.1868289E-2,0E0,7.094847E-2,1.63414E-1,3.5720825E-2,1.0506897E0,1.6784382E-1,0E0,0E0,0E0,0E0,0E0,0E0,0E0,0E0,0E0,0E0,0E0,0E0,0E0,0E0,0E0,0E0,0E0,0E0,0E0,0E0,0E0,0E0,0E0,0E0,0E0,0E0,0E0,0E0,0E0,0E0,0E0,0E0,0E0,0E0,0E0,0E0,0E0,0E0,0E0,0E0,0E0,0E0,0E0,0E0,0E0,0E0,0E0,0E0,0E0,0E0,0E0,0E0,0E0,0E0],"parents":[2147483647,0,0,1,1,2,2,3,3,4,4,5,5,6,6,7,7,8,8,9,9,10,10,11,11,12,12,13,13,14,14,15,15,16,16,17,17,18,18,19,19,20,20,21,21,22,22,23,23,24,24,25,25,26,26,27,27,28,28,29,29,30,30,31,31,33,33,34,34,35,35,38,38,39,39,41,41,42,42,43,43,44,44,45,45,46,46,47,47,48,48,49,49,50,50,51,51,52,52,53,53,54,54,55,55,56,56,58,58,59,59,60,60,61,61,62,62],"right_children":[2,4,6,8,10,12,14,16,18,20,22,24,26,28,30,32,34,36,38,40,42,44,46,48,50,52,54,56,58,60,62,64,-1,66,68,70,-1,-1,72,74,-1,76,78,80,82,84,86,88,90,92,94,96,98,100,102,104,106,-1,108,110,112,114,116,-1,-1,-1,-1,-1,-1,-1,-1,-1,-1,-1,-1,-1,-1,-1,-1,-1,-1,-1,-1,-1,-1,-1,-1,-1,-1,-1,-1,-1,-1,-1,-1,-1,-1,-1,-1,-1,-1,-1,-1,-1,-1,-1,-1,-1,-1,-1,-1,-1,-1,-1,-1,-1,-1],"split_conditions":[-3.9222884E-1,-1.0974718E0,-2.6347116E-1,-1.3284582E-1,-4.3866506E-1,-1.1502157E0,-1.0524426E0,-2.2220322E-1,-4.1304344E-1,-9.9407357E-1,-2.204086E-1,-5.283705E-1,-1.896053E-1,-1.1639578E0,-1.9092277E-1,-4.0233913E-1,-9.379229E-2,-2.801071E-1,-7.362534E-1,7.5560945E-1,6.947908E-1,-3.266589E-1,-4.8481822E-2,-2.1328378E-1,-3.487823E-1,-1.0688301E0,1.5494642E0,-8.83919E-1,-2.134029E-1,-4.7450265E-1,-1.0315513E-1,-1.1627579E0,-3.6682063E-3,-3.8763165E-1,-3.0172396E-1,-2.1180753E-1,5.038399E-3,1.6374538E-2,-3.941766E-1,-2.556168E-1,-5.5978927E-3,-4.7353742E-1,-1.12218104E-1,-4.315004E-1,4.601352E-1,-4.1934067E-1,1.728006E0,-3.2429785E-1,-3.7984315E-1,-2.062605E-1,-8.1055E-1,-5.404516E-1,-2.8971475E-1,-2.1106365E-1,-3.9194894E-1,-2.0925272E-1,-2.139447E-1,-6.3668797E-3,-1.7688943E-1,2.4668396E0,-7.972827E-1,8.8895464E-1,2.4735277E0,-5.8745E-4,5.594878E-4,3.0022047E-3,6.105706E-3,4.4368207E-5,-3.2190283E-4,1.885161E-2,7.6201535E-3,1.2171457E-2,4.3334053E-3,1.0223131E-3,4.9272557E-3,1.307972E-2,8.975509E-3,9.087687E-3,2.6611704E-3,-5.5432254E-3,-8.876874E-3,-1.7993686E-3,8.158085E-3,5.5679907E-3,2.050455E-3,8.254012E-3,1.9380111E-2,1.137589E-3,-2.944401E-3,-3.4861956E-4,3.4745627E-3,2.5201878E-3,1.3401422E-2,1.7358415E-3,8.02198E-3,-3.2693509E-3,-7.575977E-3,4.0684603E-3,-3.091796E-4,-6.968385E-3,-2.6273325E-3,1.5653875E-2,4.749952E-4,1.4142257E-2,5.0243586E-3,2.2169256E-3,7.603243E-3,4.089862E-3,-8.1117544E-4,-7.2423974E-3,2.517419E-3,-6.573289E-3,-9.3328E-3,-4.840718E-3,2.0601777E-3,-8.015781E-3,-5.495738E-3],"split_indices":[1,3,0,7,1,3,3,5,1,7,5,7,3,3,5,1,5,0,8,10,7,2,2,5,9,7,4,8,5,4,0,4,0,6,0,6,0,0,1,2,0,8,9,2,11,1,4,0,1,5,8,4,0,5,6,0,1,0,0,1,10,2,5,0,0,0,0,0,0,0,0,0,0,0,0,0,0,0,0,0,0,0,0,0,0,0,0,0,0,0,0,0,0,0,0,0,0,0,0,0,0,0,0,0,0,0,0,0,0,0,0,0,0,0,0,0,0],"split_type":[0,0,0,0,0,0,0,0,0,0,0,0,0,0,0,0,0,0,0,0,0,0,0,0,0,0,0,0,0,0,0,0,0,0,0,0,0,0,0,0,0,0,0,0,0,0,0,0,0,0,0,0,0,0,0,0,0,0,0,0,0,0,0,0,0,0,0,0,0,0,0,0,0,0,0,0,0,0,0,0,0,0,0,0,0,0,0,0,0,0,0,0,0,0,0,0,0,0,0,0,0,0,0,0,0,0,0,0,0,0,0,0,0,0,0,0,0],"sum_hessian":[4.55E3,1.831E3,2.719E3,2.62E2,1.569E3,9.49E2,1.77E3,7.8E1,1.84E2,6E2,9.69E2,6.7E1,8.82E2,4.9E1,1.721E3,1.5E1,6.3E1,1.31E2,5.3E1,5.8E1,5.42E2,1.1E2,8.59E2,1.7E1,5E1,4.02E2,4.8E2,1.7E1,3.2E1,6.2E2,1.101E3,1.2E1,3E0,5.9E1,4E0,1.29E2,2E0,2.6E1,2.7E1,5.1E1,7E0,4.29E2,1.13E2,3.1E1,7.9E1,7.21E2,1.38E2,7E0,1E1,3.9E1,1.1E1,9E1,3.12E2,4.25E2,5.5E1,8E0,9E0,4E0,2.8E1,1.12E2,5.08E2,5.27E2,5.74E2,2E0,1E1,1.6E1,4.3E1,2E0,2E0,1.26E2,3E0,2.4E1,3E0,4.6E1,5E0,2.07E2,2.22E2,6E1,5.3E1,7E0,2.4E1,6.1E1,1.8E1,3.51E2,3.7E2,1.25E2,1.3E1,2E0,5E0,3E0,7E0,2E0,3.7E1,3E0,8E0,2.7E1,6.3E1,1.88E2,1.24E2,1.86E2,2.39E2,1.1E1,4.4E1,6E0,2E0,6E0,3E0,1.4E1,1.4E1,1.08E2,4E0,2.3E1,4.85E2,4.65E2,6.2E1,4.86E2,8.8E1],"tree_param":{"num_deleted":"0","num_feature":"12","num_nodes":"117","size_leaf_vector":"1"}},{"base_weights":[3.2148586E-5,1.3255508E-1,-8.9225955E-2,2.5398716E-1,1.1212885E-1,-1.9220868E-2,-1.2672772E-1,7.427926E-2,3.2935438E-1,1.7244789E-1,7.464032E-2,1.7030849E-1,-3.3794794E-2,6.790954E-2,-1.323056E-1,-1.2439476E-2,9.4798334E-2,3.514149E-1,2.6932958E-1,1.0578048E-2,1.8971837E-1,-3.8213816E-2,8.911958E-2,1.2896579E-2,2.2252625E-1,7.237646E-3,-6.810306E-2,1.7049961E-1,9.893455E-3,-1.6740254E-1,-1.124077E-1,6.4169443E-3,-3.5306488E-3,1.013865E-1,-3.219402E-3,3.5457337E-1,4.8704525E-3,1.5586133E-2,2.1883161E-1,2.8472738E-2,-5.352985E-3,2.0870312E-1,1.1644508E-1,-1.5854703E-1,1.0397144E-2,6.8528086E-2,1.6598752E-1,-3.4078248E-2,4.588767E-2,2.4588497E-1,1.2612002E-1,-1.2046734E-1,4.434281E-2,-8.626504E-2,7.12738E-2,2.4294169E-1,8.825178E-2,-7.0480364E-3,2.9677564E-2,-1.3065995E-1,-1.7523064E-1,-7.6508455E-2,-1.4517708E-1,-5.6786835E-4,5.340563E-4,2.860924E-3,5.8073592E-3,-3.1727727E-4,4.8993777E-5,1.7916452E-2,7.3343976E-3,5.517315E-3,1.1880886E-2,9.722852E-4,4.721953E-3,1.2428878E-2,8.528746E-3,9.274698E-3,3.0769547E-3,-5.279874E-3,-8.457451E-3,-1.710851E-3,7.7716494E-3,5.1211566E-3,1.7756289E-3,7.2624567E-3,1.8538704E-2,1.0996695E-3,-2.8217179E-3,-3.355466E-4,3.3225508E-3,2.4361813E-3,1.2748984E-2,1.6707476E-3,7.6654465E-3,-3.1117217E-3,-7.203097E-3,4.29442E-3,2.0390171E-4,-6.6218297E-3,-2.4965133E-3,-1.084041E-3,1.136153E-2,1.4990493E-2,6.8742605E-3,2.1219149E-3,7.3181214E-3,-3.9640372E-4,3.973201E-3,-6.8836E-3,2.4167222E-3,-6.2583187E-3,-8.86712E-3,-4.5992015E-3,1.958804E-3,-2.082067E-3,-7.3937997E-3],"categories":[],"categories_nodes":[],"categories_segments":[],"categories_sizes":[],"default_left":[0,0,0,0,0,0,0,0,0,0,0,0,0,0,0,0,0,0,0,0,0,0,0,0,0,0,0,0,0,0,0,0,0,0,0,0,0,0,0,0,0,0,0,0,0,0,0,0,0,0,0,0,0,0,0,0,0,0,0,0,0,0,0,0,0,0,0,0,0,0,0,0,0,0,0,0,0,0,0,0,0,0,0,0,0,0,0,0,0,0,0,0,0,0,0,0,0,0,0,0,0,0,0,0,0,0,0,0,0,0,0,0,0,0,0,0,0],"id":1,"left_children":[1,3,5,7,9,11,13,15,17,19,21,23,25,27,29,31,33,35,37,39,41,43,45,47,49,51,53,55,57,59,61,63,-1,65,67,69,-1,-1,71,73,-1,75,77,79,81,83,85,87,89,91,93,95,97,99,101,103,105,-1,107,109,111,113,115,-1,-1,-1,-1,-1,-1,-1,-1,-1,-1,-1,-1,-1,-1,-1,-1,-1,-1,-1,-1,-1,-1,-1,-1,-1,-1,-1,-1,-1,-1,-1,-1,-1,-1,-1,-1,-1,-1,-1,-1,-1,-1,-1,-1,-1,-1,-1,-1,-1,-1,-1,-1,-1,-1],"loss_changes":[5.384445E1,4.5156174E0,7.1384163E0,3.5376282E0,3.537325E0,2.6298327E0,1.9316998E0,1.417509E-1,1.5032578E-1,1.6781311E0,1.588429E0,5.560696E-1,1.2435378E0,2.959069E-1,1.1837482E0,1.8004224E-2,4.1654885E-2,7.136154E-2,4.7386646E-2,1.2724866E-1,7.310524E-1,6.5094435E-1,1.349855E0,2.9459283E-2,8.383727E-2,1.9149632E0,1.2237325E0,8.580762E-2,1.0267238E-1,1.5571976E-1,1.2852812E0,1.1066168E-3,0E0,3.247118E-2,7.185556E-5,4.893303E-2,0E0,0E0,3.0844092E-2,2.9128548E-2,0E0,6.113453E-1,4.2078137E-1,1.0210276E-4,5.229707E-1,7.5732493E-1,7.1484184E-1,1.1269532E-2,1.2343582E-2,5.9301615E-2,2.5123775E-2,1.16066575E-1,5.232436E-1,7.0805883E-1,8.1675327E-1,1.2754619E-2,2.0411134E-2,0E0,5.679754E-2,1.484822E-1,3.1615257E-2,9.48874E-1,1.5451717E-1,0E0,0E0,0E0,0E0,0E0,0E0,0E0,0E0,0E0,0E0,0E0,0E0,0E0,0E0,0E0,0E0,0E0,0E0,0E0,0E0,0E0,0E0,0E0,0E0,0E0,0E0,0E0,0E0,0E0,0E0,0E0,0E0,0E0,0E0,0E0,0E0,0E0,0E0,0E0,0E0,0E0,0E0,0E0,0E0,0E0,0E0,0E0,0E0,0E0,0E0,0E0,0E0,0E0,0E0],"parents":[2147483647,0,0,1,1,2,2,3,3,4,4,5,5,6,6,7,7,8,8,9,9,10,10,11,11,12,12,13,13,14,14,15,15,16,16,17,17,18,18,19,19,20,20,21,21,22,22,23,23,24,24,25,25,26,26,27,27,28,28,29,29,30,30,31,31,33,33,34,34,35,35,38,38,39,39,41,41,42,42,43,43,44,44,45,45,46,46,47,47,48,48,49,49,50,50,51,51,52,52,53,53,54,54,55,55,56,56,58,58,59,59,60,60,61,61,62,62],"right_children":[2,4,6,8,10,12,14,16,18,20,22,24,26,28,30,32,34,36,38,40,42,44,46,48,50,52,54,56,58,60,62,64,-1,66,68,70,-1,-1,72,74,-1,76,78,80,82,84,86,88,90,92,94,96,98,100,102,104,106,-1,108,110,112,114,116,-1,-1,-1,-1,-1,-1,-1,-1,-1,-1,-1,-1,-1,-1,-1,-1,-1,-1,-1,-1,-1,-1,-1,-1,-1,-1,-1,-1,-1,-1,-1,-1,-1,-1,-1,-1,-1,-1,-1,-1,-1,-1,-1,-1,-1,-1,-1,-1,-1,-1,-1,-1,-1,-1],"split_conditions":[-3.9222884E-1,-1.0974718E0,-2.6347116E-1,-1.3284582E-1,-4.3866506E-1,-1.1502157E0,-1.0524426E0,-2.2220322E-1,-4.1304344E-1,-9.9407357E-1,-2.204086E-1,-5.283705E-1,-1.896053E-1,-1.1639578E0,-1.9092277E-1,-4.0233913E-1,-9.379229E-2,-2.801071E-1,-7.362534E-1,7.5560945E-1,6.947908E-1,-3.266589E-1,-1.18651696E-1,-2.1328378E-1,-3.487823E-1,-1.0688301E0,1.5494642E0,-8.83919E-1,-2.1863465E-1,-4.7450265E-1,-1.0315513E-1,-1.1627579E0,-3.5306488E-3,-3.8763165E-1,-4.338141E-1,-2.1180753E-1,4.8704525E-3,1.5586133E-2,-1.3249787E0,-2.556168E-1,-5.352985E-3,-4.7353742E-1,-2.8935233E-1,-2.5837824E0,4.601352E-1,-4.1934067E-1,1.728006E0,-3.2429785E-1,-3.7984315E-1,-2.062605E-1,-8.1055E-1,-5.404516E-1,-5.228303E-1,-2.1106365E-1,1.9225495E0,-1.9250746E-1,-2.139447E-1,-7.0480364E-3,-4.054E-1,2.4668396E0,-7.972827E-1,8.8895464E-1,-4.303255E-1,-5.6786835E-4,5.340563E-4,2.860924E-3,5.8073592E-3,-3.1727727E-4,4.8993777E-5,1.7916452E-2,7.3343976E-3,5.517315E-3,1.1880886E-2,9.722852E-4,4.721953E-3,1.2428878E-2,8.528746E-3,9.274698E-3,3.0769547E-3,-5.279874E-3,-8.457451E-3,-1.710851E-3,7.7716494E-3,5.1211566E-3,1.7756289E-3,7.2624567E-3,1.8538704E-2,1.0996695E-3,-2.8217179E-3,-3.355466E-4,3.3225508E-3,2.4361813E-3,1.2748984E-2,1.6707476E-3,7.6654465E-3,-3.1117217E-3,-7.203097E-3,4.29442E-3,2.0390171E-4,-6.6218297E-3,-2.4965133E-3,-1.084041E-3,1.136153E-2,1.4990493E-2,6.8742605E-3,2.1219149E-3,7.3181214E-3,-3.9640372E-4,3.973201E-3,-6.8836E-3,2.4167222E-3,-6.2583187E-3,-8.86712E-3,-4.5992015E-3,1.958804E-3,-2.082067E-3,-7.3937997E-3],"split_indices":[1,3,0,7,1,3,3,5,1,7,5,7,3,3,5,1,5,0,8,10,7,2,2,5,9,7,4,8,5,4,0,4,0,6,1,6,0,0,3,2,0,8,9,7,11,1,4,0,1,5,8,4,4,5,3,1,1,0,10,1,10,2,2,0,0,0,0,0,0,0,0,0,0,0,0,0,0,0,0,0,0,0,0,0,0,0,0,0,0,0,0,0,0,0,0,0,0,0,0,0,0,0,0,0,0,0,0,0,0,0,0,0,0,0,0,0,0],"split_type":[0,0,0,0,0,0,0,0,0,0,0,0,0,0,0,0,0,0,0,0,0,0,0,0,0,0,0,0,0,0,0,0,0,0,0,0,0,0,0,0,0,0,0,0,0,0,0,0,0,0,0,0,0,0,0,0,0,0,0,0,0,0,0,0,0,0,0,0,0,0,0,0,0,0,0,0,0,0,0,0,0,0,0,0,0,0,0,0,0,0,0,0,0,0,0,0,0,0,0,0,0,0,0,0,0,0,0,0,0,0,0,0,0,0,0,0,0],"sum_hessian":[4.55E3,1.831E3,2.719E3,2.62E2,1.569E3,9.49E2,1.77E3,7.8E1,1.84E2,6E2,9.69E2,6.7E1,8.82E2,4.9E1,1.721E3,1.5E1,6.3E1,1.31E2,5.3E1,5.8E1,5.42E2,1.1E2,8.59E2,1.7E1,5E1,4.02E2,4.8E2,1.7E1,3.2E1,6.2E2,1.101E3,1.2E1,3E0,5.9E1,4E0,1.29E2,2E0,2.6E1,2.7E1,5.1E1,7E0,4.29E2,1.13E2,3.1E1,7.9E1,6.79E2,1.8E2,7E0,1E1,3.9E1,1.1E1,9E1,3.12E2,4.25E2,5.5E1,8E0,9E0,3E0,2.9E1,1.12E2,5.08E2,5.27E2,5.74E2,2E0,1E1,1.6E1,4.3E1,2E0,2E0,1.26E2,3E0,5E0,2.2E1,4.6E1,5E0,2.07E2,2.22E2,4.9E1,6.4E1,7E0,2.4E1,6.1E1,1.8E1,3.34E2,3.45E2,1.65E2,1.5E1,2E0,5E0,3E0,7E0,2E0,3.7E1,3E0,8E0,2.7E1,6.3E1,1.53E2,1.59E2,1.86E2,2.39E2,3.5E1,2E1,4E0,4E0,6E0,3E0,1.7E1,1.2E1,1.08E2,4E0,2.3E1,4.85E2,4.65E2,6.2E1,1.5E1,5.59E2],"tree_param":{"num_deleted":"0","num_feature":"12","num_nodes":"117","size_leaf_vector":"1"}},{"base_weights":[6.2153704E-5,1.05136774E-1,-1.0165083E-1,1.5189084E-1,4.6423785E-2,-2.4690581E-2,-1.19767696E-1,1.966032E-1,9.1906205E-2,1.9031568E-1,2.102625E-2,-7.105359E-2,1.9137215E-2,5.8533274E-2,-1.2550087E-1,2.8179914E-1,1.575089E-1,2.4307143E-2,1.1973993E-1,3.4660265E-2,2.5313193E-1,4.376836E-2,-5.6667022E-2,2.0574662E-1,-9.135682E-2,1.6461103E-1,-8.096953E-3,-9.416355E-2,9.16176E-2,-1.5678546E-1,-1.0734409E-1,6.539974E-2,2.9933986E-1,1.3652152E-1,3.118366E-1,-9.7289056E-2,4.0753335E-2,2.0008352E-1,1.04849994E-1,5.05923E-2,-5.6779396E-2,1.6801158E-1,2.7342522E-1,2.5377171E-2,1.23908736E-1,-1.06961474E-1,3.6619354E-2,2.6591465E-1,-6.178183E-3,-1.5731792E-1,-7.0204295E-2,5.891774E-2,2.0875937E-1,4.5924567E-2,-4.8418477E-2,-2.1459083E-3,-7.3537193E-3,1.3473454E-1,-1.5096438E-2,-1.2345188E-1,-1.6443893E-1,-7.773056E-2,-1.3945006E-1,9.5494505E-4,7.7409134E-3,1.6944854E-2,1.2010155E-2,7.6615857E-3,-2.08243E-3,1.9546565E-2,8.723906E-3,-6.193514E-3,1.6679049E-3,5.1908083E-3,8.852016E-4,1.1754441E-2,3.663741E-3,7.0431167E-3,3.0083505E-3,4.7352142E-4,3.5798426E-3,-5.489394E-4,-3.645194E-3,4.4744145E-3,1.1076519E-2,1.6418327E-2,1.208198E-2,6.323084E-3,7.104711E-4,8.018258E-3,1.2417148E-3,-7.903491E-3,-4.006698E-3,5.3246664E-3,-5.9963076E-4,5.597729E-3,1.504536E-2,-8.030797E-3,-2.7154477E-3,-7.7195936E-3,-2.0155592E-3,4.5073186E-3,-3.2408468E-3,1.2084983E-2,7.6466203E-3,5.1151775E-3,-8.620214E-4,-3.7355398E-4,-4.575119E-3,3.4886182E-3,8.736009E-3,-2.0380721E-4,-1.547376E-3,-6.465261E-3,2.3200538E-3,-8.308749E-3,-4.3858066E-3,-4.582816E-3,9.1136416E-4,-7.356923E-3,-4.894312E-3],"categories":[],"categories_nodes":[],"categories_segments":[],"categories_sizes":[],"default_left":[0,0,0,0,0,0,0,0,0,0,0,0,0,0,0,0,0,0,0,0,0,0,0,0,0,0,0,0,0,0,0,0,0,0,0,0,0,0,0,0,0,0,0,0,0,0,0,0,0,0,0,0,0,0,0,0,0,0,0,0,0,0,0,0,0,0,0,0,0,0,0,0,0,0,0,0,0,0,0,0,0,0,0,0,0,0,0,0,0,0,0,0,0,0,0,0,0,0,0,0,0,0,0,0,0,0,0,0,0,0,0,0,0,0,0,0,0,0,0,0,0],"id":2,"left_children":[1,3,5,7,9,11,13,15,17,19,21,23,25,27,29,31,33,35,37,39,41,43,45,47,49,51,53,55,57,59,61,63,65,67,69,71,73,75,77,79,81,83,85,87,89,91,93,95,-1,97,99,101,103,105,107,-1,-1,109,111,113,115,117,119,-1,-1,-1,-1,-1,-1,-1,-1,-1,-1,-1,-1,-1,-1,-1,-1,-1,-1,-1,-1,-1,-1,-1,-1,-1,-1,-1,-1,-1,-1,-1,-1,-1,-1,-1,-1,-1,-1,-1,-1,-1,-1,-1,-1,-1,-1,-1,-1,-1,-1,-1,-1,-1,-1,-1,-1,-1,-1],"loss_changes":[4.8649284E1,6.139162E0,3.2220097E0,3.3237724E0,3.6285708E0,8.994987E-1,1.9209633E0,2.330387E0,1.0018287E0,1.448102E0,1.4972852E0,1.2270833E0,9.0463656E-1,3.066874E-1,1.0135727E0,8.2688713E-1,1.5477428E0,3.1793258E-1,4.3122673E-1,6.697267E-2,1.3716364E-1,9.6224475E-1,9.047399E-1,3.3006662E-1,2.6939952E-1,1.5568298E-1,4.22622E-1,2.351363E-2,2.27492E-1,1.4909744E-1,1.083498E0,7.15659E-2,4.004879E-1,1.2985106E0,5.619221E-1,7.011454E-2,2.0020606E-1,2.4023438E-1,5.080583E-1,3.214433E-2,4.3691825E-3,7.683247E-2,6.7346096E-2,6.010283E-1,4.3666923E-1,1.5872204E-1,2.3225352E-1,3.6349E-2,0E0,7.583976E-3,3.81337E-1,5.2211784E-2,9.010196E-3,2.9734153E-1,1.9513968E-1,0E0,0E0,7.872373E-2,2.4941075E-3,1.332581E-1,5.694866E-2,8.047786E-1,1.616745E-1,0E0,0E0,0E0,0E0,0E0,0E0,0E0,0E0,0E0,0E0,0E0,0E0,0E0,0E0,0E0,0E0,0E0,0E0,0E0,0E0,0E0,0E0,0E0,0E0,0E0,0E0,0E0,0E0,0E0,0E0,0E0,0E0,0E0,0E0,0E0,0E0,0E0,0E0,0E0,0E0,0E0,0E0,0E0,0E0,0E0,0E0,0E0,0E0,0E0,0E0,0E0,0E0,0E0,0E0,0E0,0E0,0E0,0E0],"parents":[2147483647,0,0,1,1,2,2,3,3,4,4,5,5,6,6,7,7,8,8,9,9,10,10,11,11,12,12,13,13,14,14,15,15,16,16,17,17,18,18,19,19,20,20,21,21,22,22,23,23,24,24,25,25,26,26,27,27,28,28,29,29,30,30,31,31,32,32,33,33,34,34,35,35,36,36,37,37,38,38,39,39,40,40,41,41,42,42,43,43,44,44,45,45,46,46,47,47,49,49,50,50,51,51,52,52,53,53,54,54,57,57,58,58,59,59,60,60,61,61,62,62],"right_children":[2,4,6,8,10,12,14,16,18,20,22,24,26,28,30,32,34,36,38,40,42,44,46,48,50,52,54,56,58,60,62,64,66,68,70,72,74,76,78,80,82,84,86,88,90,92,94,96,-1,98,100,102,104,106,108,-1,-1,110,112,114,116,118,120,-1,-1,-1,-1,-1,-1,-1,-1,-1,-1,-1,-1,-1,-1,-1,-1,-1,-1,-1,-1,-1,-1,-1,-1,-1,-1,-1,-1,-1,-1,-1,-1,-1,-1,-1,-1,-1,-1,-1,-1,-1,-1,-1,-1,-1,-1,-1,-1,-1,-1,-1,-1,-1,-1,-1,-1,-1,-1],"split_conditions":[-3.597511E-1,-4.1934067E-1,-2.7649164E-1,-2.4710406E-1,-1.0974718E0,-2.1086779E-1,-1.0660726E0,-6.663206E-1,-8.7963146E-1,-3.896612E-1,3.195211E-1,-1.6994284E0,-8.629874E-1,-2.1328378E-1,-1.9213074E-1,-1.3284582E-1,1.8537374E0,-2.197003E-1,-4.4874433E-1,-1.369794E-1,-1.9659828E-1,-4.8481822E-2,1.0869132E0,2.5210547E0,-3.514751E-1,-3.2033017E-1,-2.1698697E-1,-1.1291236E0,-2.1963574E-2,-4.7450265E-1,-8.680715E-2,-1.0974718E0,-1.0760708E0,1.0158792E0,7.722866E-1,1.9872615E0,-1.0760708E0,4.2070395E-1,-7.807217E-2,-1.355259E0,-4.1020045E-1,1.0355693E-2,-5.510504E-1,-9.236383E-1,-2.7156582E-1,-2.21497E-1,9.876555E-1,-3.4363833E-1,-6.178183E-3,-2.2748163E-1,-2.2016957E-1,-2.8176573E-1,-9.32822E-1,4.456703E-1,-5.012901E-1,-2.1459083E-3,-7.3537193E-3,-2.3767166E-1,-2.6209626E-1,2.4668396E0,2.5555336E0,6.43403E-1,2.4735277E0,9.5494505E-4,7.7409134E-3,1.6944854E-2,1.2010155E-2,7.6615857E-3,-2.08243E-3,1.9546565E-2,8.723906E-3,-6.193514E-3,1.6679049E-3,5.1908083E-3,8.852016E-4,1.1754441E-2,3.663741E-3,7.0431167E-3,3.0083505E-3,4.7352142E-4,3.5798426E-3,-5.489394E-4,-3.645194E-3,4.4744145E-3,1.1076519E-2,1.6418327E-2,1.208198E-2,6.323084E-3,7.104711E-4,8.018258E-3,1.2417148E-3,-7.903491E-3,-4.006698E-3,5.3246664E-3,-5.9963076E-4,5.597729E-3,1.504536E-2,-8.030797E-3,-2.7154477E-3,-7.7195936E-3,-2.0155592E-3,4.5073186E-3,-3.2408468E-3,1.2084983E-2,7.6466203E-3,5.1151775E-3,-8.620214E-4,-3.7355398E-4,-4.575119E-3,3.4886182E-3,8.736009E-3,-2.0380721E-4,-1.547376E-3,-6.465261E-3,2.3200538E-3,-8.308749E-3,-4.3858066E-3,-4.582816E-3,9.1136416E-4,-7.356923E-3,-4.894312E-3],"split_indices":[1,1,0,8,3,5,3,3,7,7,3,9,4,5,5,7,4,5,1,2,5,2,4,3,2,1,3,3,0,4,0,3,3,7,7,8,3,7,3,7,1,2,9,10,4,5,3,1,0,1,5,0,3,7,4,0,0,1,2,1,4,2,5,0,0,0,0,0,0,0,0,0,0,0,0,0,0,0,0,0,0,0,0,0,0,0,0,0,0,0,0,0,0,0,0,0,0,0,0,0,0,0,0,0,0,0,0,0,0,0,0,0,0,0,0,0,0,0,0,0,0],"split_type":[0,0,0,0,0,0,0,0,0,0,0,0,0,0,0,0,0,0,0,0,0,0,0,0,0,0,0,0,0,0,0,0,0,0,0,0,0,0,0,0,0,0,0,0,0,0,0,0,0,0,0,0,0,0,0,0,0,0,0,0,0,0,0,0,0,0,0,0,0,0,0,0,0,0,0,0,0,0,0,0,0,0,0,0,0,0,0,0,0,0,0,0,0,0,0,0,0,0,0,0,0,0,0,0,0,0,0,0,0,0,0,0,0,0,0,0,0,0,0,0,0],"sum_hessian":[4.55E3,2.238E3,2.312E3,1.245E3,9.93E2,4.41E2,1.871E3,7.12E2,5.33E2,1.48E2,8.45E2,2.14E2,2.27E2,5.8E1,1.813E3,2.22E2,4.9E2,1.56E2,3.77E2,4.3E1,1.05E2,6.54E2,1.91E2,1.4E1,2E2,3.5E1,1.92E2,1E1,4.8E1,6.63E2,1.15E3,1.7E1,2.05E2,4.33E2,5.7E1,1.8E1,1.38E2,5.7E1,3.2E2,3.7E1,6E0,2.2E1,8.3E1,5.33E2,1.21E2,1.24E2,6.7E1,1.2E1,2E0,4.7E1,1.53E2,1.1E1,2.4E1,8.2E1,1.1E2,6E0,4E0,3.4E1,1.4E1,1.27E2,5.36E2,6E2,5.5E2,1.2E1,5E0,1.2E2,8.5E1,3.96E2,3.7E1,3.5E1,2.2E1,1.5E1,3E0,3.6E1,1.02E2,4.4E1,1.3E1,1.76E2,1.44E2,1.3E1,2.4E1,2E0,4E0,1E1,1.2E1,2.7E1,5.6E1,5.2E1,4.81E2,8.8E1,3.3E1,4.1E1,8.3E1,2.7E1,4E1,3E0,9E0,4.5E1,2E0,3.9E1,1.14E2,9E0,2E0,1.3E1,1.1E1,4.3E1,3.9E1,5.7E1,5.3E1,1.4E1,2E1,9E0,5E0,1.23E2,4E0,5.23E2,1.3E1,5.24E2,7.6E1,4.62E2,8.8E1],"tree_param":{"num_deleted":"0","num_feature":"12","num_nodes":"121","size_leaf_vector":"1"}},{"base_weights":[8.850016E-5,1.19927876E-1,-8.0626875E-2,1.5846546E-1,6.69269E-2,-4.112401E-3,-1.08798146E-1,2.630093E-1,1.3248111E-1,4.222839E-2,1.1664134E-1,1.8213287E-1,-1.830689E-2,5.6147E-2,-1.1547367E-1,1.930563E-2,2.9734078E-1,1.8475716E-1,8.346086E-2,-2.2299921E-2,6.503158E-2,1.0380434E-1,2.4217254E-1,2.1181742E-2,2.1532772E-1,2.027735E-2,-5.6500286E-2,-1.06076695E-1,9.022369E-2,-8.484954E-2,-1.3638206E-1,-1.2049084E-2,5.9503112E-2,3.0751106E-1,1.9283514E-1,2.0785165E-1,1.14585385E-1,-2.3044929E-2,1.1849753E-1,-5.531651E-2,1.9201074E-2,1.2064589E-1,2.007816E-2,6.791339E-2,1.4650366E-1,2.685895E-1,4.6676765E-3,-8.521537E-3,3.393352E-3,1.3776419E-1,2.3768505E-1,-1.0810236E-1,5.2180436E-2,-7.6922305E-2,8.0448255E-2,-2.053941E-3,-7.484512E-3,1.19243436E-1,-1.4458362E-2,-9.0319686E-2,6.4898014E-2,-1.5996204E-1,-1.2202175E-1,2.6207315E-4,-3.2615543E-3,1.7174622E-3,5.061177E-3,1.5766265E-2,9.047559E-3,1.058332E-2,3.4650657E-3,9.59197E-3,1.9071849E-2,7.0856013E-3,6.445516E-4,-5.976309E-3,1.3746935E-3,4.464836E-3,1.0321772E-2,-8.592568E-4,-4.060145E-3,1.8510846E-3,-1.2713581E-3,3.2567289E-3,8.436564E-3,2.7637025E-3,-2.2047176E-3,6.9855684E-3,1.3893478E-3,1.2568812E-2,6.1823684E-3,1.4099141E-2,5.158216E-3,9.436856E-4,-1.162719E-3,5.989144E-4,8.0861775E-3,1.2391628E-2,6.666104E-3,4.5812127E-4,-5.9799175E-3,1.2875538E-3,6.0174647E-3,-1.8737238E-3,-6.043024E-3,1.391422E-2,4.128805E-4,2.1040032E-3,7.3651546E-3,-1.9463606E-4,-1.4829019E-3,-5.4343995E-3,-2.8786482E-3,4.8534735E-3,-3.4621127E-3,-4.231746E-3,-8.060061E-3,-6.583234E-3,-3.8397305E-3],"categories":[],"categories_nodes":[],"categories_segments":[],"categories_sizes":[],"default_left":[0,0,0,0,0,0,0,0,0,0,0,0,0,0,0,0,0,0,0,0,0,0,0,0,0,0,0,0,0,0,0,0,0,0,0,0,0,0,0,0,0,0,0,0,0,0,0,0,0,0,0,0,0,0,0,0,0,0,0,0,0,0,0,0,0,0,0,0,0,0,0,0,0,0,0,0,0,0,0,0,0,0,0,0,0,0,0,0,0,0,0,0,0,0,0,0,0,0,0,0,0,0,0,0,0,0,0,0,0,0,0,0,0,0,0,0,0,0,0],"id":3,"left_children":[1,3,5,7,9,11,13,15,17,19,21,23,25,27,29,31,33,35,37,39,41,43,45,47,49,51,53,55,57,59,61,63,65,67,69,71,73,75,77,79,81,83,85,87,89,91,-1,93,-1,95,97,99,101,103,105,-1,-1,107,109,111,113,115,117,-1,-1,-1,-1,-1,-1,-1,-1,-1,-1,-1,-1,-1,-1,-1,-1,-1,-1,-1,-1,-1,-1,-1,-1,-1,-1,-1,-1,-1,-1,-1,-1,-1,-1,-1,-1,-1,-1,-1,-1,-1,-1,-1,-1,-1,-1,-1,-1,-1,-1,-1,-1,-1,-1,-1,-1],"loss_changes":[4.4030952E1,3.731306E0,5.8625393E0,2.8446503E0,9.442198E-1,1.9411347E0,2.1954594E0,1.7512684E0,2.1653385E0,7.6366204E-1,3.8739133E-1,2.732618E-1,1.0061839E0,4.4075817E-1,1.2120438E0,3.4747228E-2,1.3626671E-1,6.4224243E-1,1.64837E0,1.8741225E-1,9.5509803E-1,3.4865975E-1,6.5347314E-2,1.4445398E-2,4.1822433E-2,1.398182E0,9.654789E-1,3.353794E-2,1.9918418E-1,6.431532E-1,3.6447144E-1,1.5054641E-2,9.11621E-3,1.0711002E-1,2.9530883E-2,7.8291035E-1,2.850703E-1,5.396513E-1,8.34095E-1,7.362288E-2,4.9454823E-2,4.4545746E-1,4.8352093E-1,3.6776644E-1,2.2299981E-1,1.3005614E-2,0E0,3.2641655E-3,0E0,3.4227803E-2,8.472204E-4,9.2764854E-2,4.8875386E-1,5.1371753E-1,6.403884E-1,0E0,0E0,1.0422546E-1,2.2934643E-3,4.4547033E-1,1.2755498E-1,2.6122093E-2,2.9909897E-1,0E0,0E0,0E0,0E0,0E0,0E0,0E0,0E0,0E0,0E0,0E0,0E0,0E0,0E0,0E0,0E0,0E0,0E0,0E0,0E0,0E0,0E0,0E0,0E0,0E0,0E0,0E0,0E0,0E0,0E0,0E0,0E0,0E0,0E0,0E0,0E0,0E0,0E0,0E0,0E0,0E0,0E0,0E0,0E0,0E0,0E0,0E0,0E0,0E0,0E0,0E0,0E0,0E0,0E0,0E0,0E0],"parents":[2147483647,0,0,1,1,2,2,3,3,4,4,5,5,6,6,7,7,8,8,9,9,10,10,11,11,12,12,13,13,14,14,15,15,16,16,17,17,18,18,19,19,20,20,21,21,22,22,23,23,24,24,25,25,26,26,27,27,28,28,29,29,30,30,31,31,32,32,33,33,34,34,35,35,36,36,37,37,38,38,39,39,40,40,41,41,42,42,43,43,44,44,45,45,47,47,49,49,50,50,51,51,52,52,53,53,54,54,57,57,58,58,59,59,60,60,61,61,62,62],"right_children":[2,4,6,8,10,12,14,16,18,20,22,24,26,28,30,32,34,36,38,40,42,44,46,48,50,52,54,56,58,60,62,64,66,68,70,72,74,76,78,80,82,84,86,88,90,92,-1,94,-1,96,98,100,102,104,106,-1,-1,108,110,112,114,116,118,-1,-1,-1,-1,-1,-1,-1,-1,-1,-1,-1,-1,-1,-1,-1,-1,-1,-1,-1,-1,-1,-1,-1,-1,-1,-1,-1,-1,-1,-1,-1,-1,-1,-1,-1,-1,-1,-1,-1,-1,-1,-1,-1,-1,-1,-1,-1,-1,-1,-1,-1,-1,-1,-1,-1,-1],"split_conditions":[-3.9222884E-1,-2.3411384E-1,-2.785117E-1,-1.0974718E0,-1.9435456E-1,-1.1502157E0,-1.0524426E0,-3.896612E-1,-4.353518E-1,-3.799357E-1,-1.5324171E-1,-5.4530406E-1,-9.0481386E-2,-2.1328378E-1,-9.6322514E-2,-2.2220322E-1,-2.6445532E-1,6.5562284E-1,-2.192519E-1,4.2773232E-1,-4.300354E-1,-1.1151912E-1,-1.5187752E-1,-3.7984315E-1,-1.8128897E-1,-1.0688301E0,1.5494642E0,-1.1291236E0,-2.1963574E-2,7.6668507E-1,-1.5344763E-1,-4.0233913E-1,-2.5273705E-1,-2.8435454E-1,-1.8458669E-1,1.728006E0,-4.4297707E-1,-2.9055774E-1,-1.6743739E-1,-5.86324E-1,-4.1995278E-1,-3.3580545E-1,-2.0752053E-1,-7.092441E-1,-4.525969E-1,1.1620482E0,4.6676765E-3,-3.2429785E-1,3.393352E-3,-2.4514319E-1,-5.0954795E-1,-9.0759027E-1,5.965331E-1,4.9408707E-1,-3.9194894E-1,-2.053941E-3,-7.484512E-3,-9.2177176E-1,-2.6209626E-1,-1.4955719E-1,3.6035115E-1,-1.0222524E0,1.1620482E0,2.6207315E-4,-3.2615543E-3,1.7174622E-3,5.061177E-3,1.5766265E-2,9.047559E-3,1.058332E-2,3.4650657E-3,9.59197E-3,1.9071849E-2,7.0856013E-3,6.445516E-4,-5.976309E-3,1.3746935E-3,4.464836E-3,1.0321772E-2,-8.592568E-4,-4.060145E-3,1.8510846E-3,-1.2713581E-3,3.2567289E-3,8.436564E-3,2.7637025E-3,-2.2047176E-3,6.9855684E-3,1.3893478E-3,1.2568812E-2,6.1823684E-3,1.4099141E-2,5.158216E-3,9.436856E-4,-1.162719E-3,5.989144E-4,8.0861775E-3,1.2391628E-2,6.666104E-3,4.5812127E-4,-5.9799175E-3,1.2875538E-3,6.0174647E-3,-1.8737238E-3,-6.043024E-3,1.391422E-2,4.128805E-4,2.1040032E-3,7.3651546E-3,-1.9463606E-4,-1.4829019E-3,-5.4343995E-3,-2.8786482E-3,4.8534735E-3,-3.4621127E-3,-4.231746E-3,-8.060061E-3,-6.583234E-3,-3.8397305E-3],"split_indices":[1,8,0,3,5,3,3,7,1,2,2,7,3,5,1,5,10,7,5,9,1,3,6,1,5,7,4,3,0,2,7,1,2,0,6,4,1,2,2,4,1,7,5,4,1,2,0,0,0,2,4,4,9,7,6,0,0,9,2,5,9,3,2,0,0,0,0,0,0,0,0,0,0,0,0,0,0,0,0,0,0,0,0,0,0,0,0,0,0,0,0,0,0,0,0,0,0,0,0,0,0,0,0,0,0,0,0,0,0,0,0,0,0,0,0,0,0,0,0],"split_type":[0,0,0,0,0,0,0,0,0,0,0,0,0,0,0,0,0,0,0,0,0,0,0,0,0,0,0,0,0,0,0,0,0,0,0,0,0,0,0,0,0,0,0,0,0,0,0,0,0,0,0,0,0,0,0,0,0,0,0,0,0,0,0,0,0,0,0,0,0,0,0,0,0,0,0,0,0,0,0,0,0,0,0,0,0,0,0,0,0,0,0,0,0,0,0,0,0,0,0,0,0,0,0,0,0,0,0,0,0,0,0,0,0,0,0,0,0,0,0],"sum_hessian":[4.55E3,1.831E3,2.719E3,1.059E3,7.72E2,7.32E2,1.987E3,2.09E2,8.5E2,5.17E2,2.55E2,5.1E1,6.81E2,7.7E1,1.91E3,2.6E1,1.83E2,4.1E2,4.4E2,1.35E2,3.82E2,2.33E2,2.2E1,9E0,4.2E1,3.39E2,3.42E2,1.3E1,6.4E1,7.77E2,1.133E3,1.5E1,1.1E1,1.65E2,1.8E1,3.07E2,1.03E2,1.09E2,3.31E2,7.5E1,6E1,1.7E2,2.12E2,1.28E2,1.05E2,1.8E1,4E0,6E0,3E0,1.1E1,3.1E1,6.7E1,2.72E2,2.98E2,4.4E1,6E0,7E0,5E1,1.4E1,7.5E2,2.7E1,4.25E2,7.08E2,1.2E1,3E0,8E0,3E0,1.54E2,1.1E1,1.5E1,3E0,2.83E2,2.4E1,8.1E1,2.2E1,3.7E1,7.2E1,2.5E2,8.1E1,3.1E1,4.4E1,4.3E1,1.7E1,8E1,9E1,1.37E2,7.5E1,4.5E1,8.3E1,1.7E1,8.8E1,1.6E1,2E0,2E0,4E0,2E0,9E0,2.7E1,4E0,6E0,6.1E1,1.97E2,7.5E1,1.58E2,1.4E2,1.1E1,3.3E1,1.4E1,3.6E1,9E0,5E0,4.79E2,2.71E2,2.2E1,5E0,8E0,4.17E2,5.82E2,1.26E2],"tree_param":{"num_deleted":"0","num_feature":"12","num_nodes":"119","size_leaf_vector":"1"}},{"base_weights":[1.183331E-4,9.5151834E-2,-9.187481E-2,1.3768828E-1,4.1735776E-2,-2.2341883E-2,-1.0824323E-1,4.0339425E-2,1.6075288E-1,1.7215183E-1,1.8717185E-2,-6.5440066E-2,1.8396942E-2,5.2607138E-2,-1.1341518E-1,9.924346E-2,8.5669495E-3,2.766306E-1,1.3755152E-1,3.194973E-2,2.2872485E-1,3.9581485E-2,-5.2557994E-2,1.8824235E-1,-8.404602E-2,1.5425874E-1,-7.040476E-3,-8.6477004E-2,8.27565E-2,-1.415582E-1,-9.621453E-2,1.0260898E-2,1.2335597E-1,-9.8489925E-2,3.0566711E-2,3.452851E-2,2.902027E-1,1.6079058E-1,6.9140166E-2,4.6766892E-2,-5.305055E-2,1.5071546E-1,2.4736166E-1,2.2816198E-2,1.12639524E-1,-9.956513E-2,3.0791102E-2,2.4447864E-1,-5.9097866E-3,6.33175E-3,-9.750976E-2,5.359139E-2,1.9640872E-1,3.380855E-2,-5.225309E-2,-1.9659146E-3,-6.7601907E-3,1.2179364E-1,-1.38472775E-2,-1.1150254E-1,-1.4865233E-1,-6.653681E-2,-1.2469266E-1,3.6136233E-3,-2.9416505E-4,6.76367E-3,1.792134E-4,-5.8177505E-3,1.6661532E-3,2.4463537E-3,-3.1312245E-3,-3.934214E-4,2.6911343E-3,1.4806293E-2,6.0064113E-3,1.0666013E-2,6.890452E-3,9.864948E-3,1.797669E-3,4.3609177E-4,3.3100725E-3,-5.393768E-4,-3.3899124E-3,3.9479504E-3,9.991948E-3,1.3680182E-2,9.683521E-3,5.845957E-3,6.210722E-4,7.301034E-3,1.0973264E-3,-7.2755963E-3,-3.7408601E-3,4.4701723E-3,-6.4234895E-4,5.372331E-3,1.3742181E-2,6.808915E-3,-3.3078492E-3,-7.3342146E-3,-3.9936695E-3,4.1304477E-3,-3.0498805E-3,1.1341389E-2,7.2276215E-3,-1.4906359E-3,4.034095E-3,-3.0456082E-4,-4.1598347E-3,2.8236078E-3,7.891289E-3,-1.858773E-4,-1.4211142E-3,-5.8404203E-3,2.4905808E-3,-7.511665E-3,-3.858364E-3,-4.0189326E-3,1.6888644E-3,-6.571079E-3,-4.323578E-3],"categories":[],"categories_nodes":[],"categories_segments":[],"categories_sizes":[],"default_left":[0,0,0,0,0,0,0,0,0,0,0,0,0,0,0,0,0,0,0,0,0,0,0,0,0,0,0,0,0,0,0,0,0,0,0,0,0,0,0,0,0,0,0,0,0,0,0,0,0,0,0,0,0,0,0,0,0,0,0,0,0,0,0,0,0,0,0,0,0,0,0,0,0,0,0,0,0,0,0,0,0,0,0,0,0,0,0,0,0,0,0,0,0,0,0,0,0,0,0,0,0,0,0,0,0,0,0,0,0,0,0,0,0,0,0,0,0,0,0,0,0],"id":4,"left_children":[1,3,5,7,9,11,13,15,17,19,21,23,25,27,29,31,33,35,37,39,41,43,45,47,49,51,53,55,57,59,61,63,65,67,69,71,73,75,77,79,81,83,85,87,89,91,93,95,-1,97,99,101,103,105,107,-1,-1,109,111,113,115,117,119,-1,-1,-1,-1,-1,-1,-1,-1,-1,-1,-1,-1,-1,-1,-1,-1,-1,-1,-1,-1,-1,-1,-1,-1,-1,-1,-1,-1,-1,-1,-1,-1,-1,-1,-1,-1,-1,-1,-1,-1,-1,-1,-1,-1,-1,-1,-1,-1,-1,-1,-1,-1,-1,-1,-1,-1,-1,-1],"loss_changes":[3.9795544E1,5.0815525E0,2.6301079E0,2.791174E0,2.98076E0,7.77254E-1,1.563303E0,4.483163E-1,2.6692867E0,1.174509E0,1.2601725E0,1.0306215E0,7.8904796E-1,2.5456107E-1,8.6450005E-1,1.7896408E-1,3.7278092E-1,5.3871346E-1,1.3259182E0,5.7897393E-2,1.16826534E-1,7.9969954E-1,7.5532234E-1,2.8739047E-1,2.451986E-1,1.4222676E-1,3.582166E-1,1.9960843E-2,1.8647215E-1,1.2969208E-1,9.4589615E-1,1.9446613E-2,9.372151E-2,6.745827E-2,2.2720823E-1,8.60364E-3,1.2359238E-1,7.275257E-1,9.073396E-1,2.7519375E-2,3.6315992E-3,6.5294206E-2,6.5363884E-2,5.2089417E-1,3.6614263E-1,1.2897503E-1,1.8018967E-1,2.4561644E-2,0E0,2.6314428E-1,1.4005446E-1,4.4940066E-2,6.646931E-3,3.0658382E-1,1.3090739E-1,0E0,0E0,7.3465824E-2,2.1089518E-3,1.2136638E-1,5.079174E-2,7.733505E-1,1.3651848E-1,0E0,0E0,0E0,0E0,0E0,0E0,0E0,0E0,0E0,0E0,0E0,0E0,0E0,0E0,0E0,0E0,0E0,0E0,0E0,0E0,0E0,0E0,0E0,0E0,0E0,0E0,0E0,0E0,0E0,0E0,0E0,0E0,0E0,0E0,0E0,0E0,0E0,0E0,0E0,0E0,0E0,0E0,0E0,0E0,0E0,0E0,0E0,0E0,0E0,0E0,0E0,0E0,0E0,0E0,0E0,0E0,0E0,0E0],"parents":[2147483647,0,0,1,1,2,2,3,3,4,4,5,5,6,6,7,7,8,8,9,9,10,10,11,11,12,12,13,13,14,14,15,15,16,16,17,17,18,18,19,19,20,20,21,21,22,22,23,23,24,24,25,25,26,26,27,27,28,28,29,29,30,30,31,31,32,32,33,33,34,34,35,35,36,36,37,37,38,38,39,39,40,40,41,41,42,42,43,43,44,44,45,45,46,46,47,47,49,49,50,50,51,51,52,52,53,53,54,54,57,57,58,58,59,59,60,60,61,61,62,62],"right_children":[2,4,6,8,10,12,14,16,18,20,22,24,26,28,30,32,34,36,38,40,42,44,46,48,50,52,54,56,58,60,62,64,66,68,70,72,74,76,78,80,82,84,86,88,90,92,94,96,-1,98,100,102,104,106,108,-1,-1,110,112,114,116,118,120,-1,-1,-1,-1,-1,-1,-1,-1,-1,-1,-1,-1,-1,-1,-1,-1,-1,-1,-1,-1,-1,-1,-1,-1,-1,-1,-1,-1,-1,-1,-1,-1,-1,-1,-1,-1,-1,-1,-1,-1,-1,-1,-1,-1,-1,-1,-1,-1,-1,-1,-1,-1,-1,-1,-1,-1,-1,-1],"split_conditions":[-3.597511E-1,-4.1934067E-1,-2.7649164E-1,-5.8162326E-1,-1.0974718E0,-2.1086779E-1,-1.0660726E0,-7.303102E-1,-8.8943803E-1,-3.896612E-1,3.195211E-1,-1.6994284E0,-8.629874E-1,-2.1328378E-1,-1.9092277E-1,-1.0972699E0,-2.197003E-1,-5.4131187E-2,6.947908E-1,-1.369794E-1,-1.9659828E-1,-4.8481822E-2,1.0556431E0,2.5210547E0,-3.154065E-1,-3.2033017E-1,-4.839298E-1,-1.1291236E0,-2.1963574E-2,-4.7450265E-1,-1.0315513E-1,-4.367417E-1,-2.4510619E-1,1.9872615E0,6.99992E-1,-4.0895343E-1,-2.2800988E-1,-4.4874433E-1,-6.8557835E-1,-1.355259E0,-4.1020045E-1,1.0355693E-2,-3.9985538E-1,-9.236383E-1,-2.7156582E-1,-2.21497E-1,9.876555E-1,-3.4363833E-1,-5.9097866E-3,-3.4929022E-1,-3.514751E-1,-2.8176573E-1,-9.32822E-1,-3.6345175E-1,-2.4510619E-1,-1.9659146E-3,-6.7601907E-3,-2.4231787E-1,-2.6209626E-1,2.4668396E0,2.5555336E0,6.43403E-1,2.4735277E0,3.6136233E-3,-2.9416505E-4,6.76367E-3,1.792134E-4,-5.8177505E-3,1.6661532E-3,2.4463537E-3,-3.1312245E-3,-3.934214E-4,2.6911343E-3,1.4806293E-2,6.0064113E-3,1.0666013E-2,6.890452E-3,9.864948E-3,1.797669E-3,4.3609177E-4,3.3100725E-3,-5.393768E-4,-3.3899124E-3,3.9479504E-3,9.991948E-3,1.3680182E-2,9.683521E-3,5.845957E-3,6.210722E-4,7.301034E-3,1.0973264E-3,-7.2755963E-3,-3.7408601E-3,4.4701723E-3,-6.4234895E-4,5.372331E-3,1.3742181E-2,6.808915E-3,-3.3078492E-3,-7.3342146E-3,-3.9936695E-3,4.1304477E-3,-3.0498805E-3,1.1341389E-2,7.2276215E-3,-1.4906359E-3,4.034095E-3,-3.0456082E-4,-4.1598347E-3,2.8236078E-3,7.891289E-3,-1.858773E-4,-1.4211142E-3,-5.8404203E-3,2.4905808E-3,-7.511665E-3,-3.858364E-3,-4.0189326E-3,1.6888644E-3,-6.571079E-3,-4.323578E-3],"split_indices":[1,1,0,7,3,5,3,4,3,7,3,9,4,5,5,4,5,7,7,2,5,2,4,3,0,1,4,3,0,4,0,2,3,8,10,2,6,1,9,7,1,2,11,10,4,5,3,1,0,7,2,0,3,2,3,0,0,1,2,1,4,2,5,0,0,0,0,0,0,0,0,0,0,0,0,0,0,0,0,0,0,0,0,0,0,0,0,0,0,0,0,0,0,0,0,0,0,0,0,0,0,0,0,0,0,0,0,0,0,0,0,0,0,0,0,0,0,0,0,0,0],"split_type":[0,0,0,0,0,0,0,0,0,0,0,0,0,0,0,0,0,0,0,0,0,0,0,0,0,0,0,0,0,0,0,0,0,0,0,0,0,0,0,0,0,0,0,0,0,0,0,0,0,0,0,0,0,0,0,0,0,0,0,0,0,0,0,0,0,0,0,0,0,0,0,0,0,0,0,0,0,0,0,0,0,0,0,0,0,0,0,0,0,0,0,0,0,0,0,0,0,0,0,0,0,0,0,0,0,0,0,0,0,0,0,0,0,0,0,0,0,0,0,0,0],"sum_hessian":[4.55E3,2.238E3,2.312E3,1.245E3,9.93E2,4.41E2,1.871E3,2.39E2,1.006E3,1.48E2,8.45E2,2.14E2,2.27E2,5.8E1,1.813E3,8.3E1,1.56E2,1.66E2,8.4E2,4.3E1,1.05E2,6.54E2,1.91E2,1.4E1,2E2,3.5E1,1.92E2,1E1,4.8E1,6.85E2,1.128E3,1.8E1,6.5E1,2.6E1,1.3E2,9E0,1.57E2,6.26E2,2.14E2,3.7E1,6E0,2.2E1,8.3E1,5.33E2,1.21E2,1.22E2,6.9E1,1.2E1,2E0,2.6E1,1.74E2,1.1E1,2.4E1,1.01E2,9.1E1,6E0,4E0,3.4E1,1.4E1,1.34E2,5.51E2,5.54E2,5.74E2,3E0,1.5E1,5.9E1,6E0,2.3E1,3E0,1.09E2,2.1E1,3E0,6E0,1.51E2,6E0,1.88E2,4.38E2,4.3E1,1.71E2,1.3E1,2.4E1,2E0,4E0,1E1,1.2E1,5.3E1,3E1,5.2E1,4.81E2,8.8E1,3.3E1,4.1E1,8.1E1,2.9E1,4E1,3E0,9E0,9E0,1.7E1,4.4E1,1.3E2,9E0,2E0,1.3E1,1.1E1,4.3E1,5.8E1,3.7E1,5.4E1,1.3E1,2.1E1,9E0,5E0,1.3E2,4E0,5.38E2,1.3E1,4.87E2,6.7E1,4.86E2,8.8E1],"tree_param":{"num_deleted":"0","num_feature":"12","num_nodes":"121","size_leaf_vector":"1"}},{"base_weights":[1.3397205E-4,1.0851882E-1,-7.2866455E-2,1.4376107E-1,6.0051415E-2,-1.5583107E-2,-1.0355325E-1,2.3831268E-1,1.2025977E-1,3.7112888E-2,1.0623151E-1,1.4035122E-1,-2.7573992E-2,4.3546878E-2,-1.08559296E-1,1.7006619E-2,2.6949176E-1,1.5721008E-1,6.2309384E-2,-2.1711111E-2,5.7903886E-2,9.410307E-2,2.2500646E-1,9.772908E-3,1.8368569E-1,-1.1000808E-1,-1.6065672E-2,1.435814E-1,-3.618958E-4,-1.3748562E-1,-9.202517E-2,-1.1413589E-2,5.3483013E-2,1.6562117E-2,2.5059855E-1,1.6833644E-1,-1.7379433E-2,-5.9254896E-2,8.399656E-2,-5.247527E-2,1.6973924E-2,1.0910995E-1,1.6522937E-2,6.1458305E-2,1.3294336E-1,2.4997768E-1,4.2557283E-3,-3.0440386E-2,3.8130496E-2,2.0362137E-1,1.019263E-1,-1.2593E-1,-5.757826E-2,3.6789797E-2,-5.2261468E-2,2.1189737E-1,6.773889E-2,-4.081464E-2,4.2034402E-2,-1.0643382E-1,-1.4410913E-1,-6.3999556E-2,-1.2019072E-1,2.2443286E-4,-3.0121247E-3,1.455643E-3,4.7472552E-3,1.3883325E-2,1.0260465E-2,2.8457295E-3,9.161654E-3,-2.230197E-3,6.9276835E-3,1.0580708E-3,-6.869608E-3,2.7282657E-3,7.539008E-3,-8.266402E-4,-3.8434118E-3,1.6494431E-3,-1.155835E-3,2.9114538E-3,7.660026E-3,1.729063E-3,-4.739277E-3,6.391228E-3,1.2191618E-3,8.572226E-3,3.9498704E-3,1.31141115E-2,4.8463033E-3,8.018936E-4,-2.4303058E-3,-3.13472E-4,2.7782077E-3,2.029182E-3,1.0556716E-2,1.1507018E-3,6.283663E-3,-1.0461804E-3,-6.482636E-3,1.5160077E-3,-3.7091603E-3,-5.1725004E-3,2.3307477E-3,-3.430573E-3,3.8828477E-3,1.3431172E-2,5.6395917E-3,9.4796467E-4,5.6363316E-3,-3.3966207E-3,2.1410747E-3,4.735309E-3,-2.6808053E-4,-5.62666E-3,2.3909574E-3,-5.203444E-3,-7.3199803E-3,-3.8585325E-3,9.580929E-4,-6.367133E-3,-4.1098283E-3],"categories":[],"categories_nodes":[],"categories_segments":[],"categories_sizes":[],"default_left":[0,0,0,0,0,0,0,0,0,0,0,0,0,0,0,0,0,0,0,0,0,0,0,0,0,0,0,0,0,0,0,0,0,0,0,0,0,0,0,0,0,0,0,0,0,0,0,0,0,0,0,0,0,0,0,0,0,0,0,0,0,0,0,0,0,0,0,0,0,0,0,0,0,0,0,0,0,0,0,0,0,0,0,0,0,0,0,0,0,0,0,0,0,0,0,0,0,0,0,0,0,0,0,0,0,0,0,0,0,0,0,0,0,0,0,0,0,0,0,0,0,0,0],"id":5,"left_children":[1,3,5,7,9,11,13,15,17,19,21,23,25,27,29,31,33,35,37,39,41,43,45,47,49,51,53,55,57,59,61,63,65,-1,67,69,71,73,75,77,79,81,83,85,87,89,-1,91,93,95,97,99,101,103,105,107,109,111,113,115,117,119,121,-1,-1,-1,-1,-1,-1,-1,-1,-1,-1,-1,-1,-1,-1,-1,-1,-1,-1,-1,-1,-1,-1,-1,-1,-1,-1,-1,-1,-1,-1,-1,-1,-1,-1,-1,-1,-1,-1,-1,-1,-1,-1,-1,-1,-1,-1,-1,-1,-1,-1,-1,-1,-1,-1,-1,-1,-1,-1,-1,-1],"loss_changes":[3.6016056E1,3.1206074E0,4.7797165E0,2.3267498E0,8.1489897E-1,1.7801708E0,1.3088741E0,1.4444427E0,1.812439E0,6.3477594E-1,3.4760857E-1,3.829856E-1,8.359152E-1,2.592032E-1,8.0662537E-1,2.860043E-2,1.316576E-1,1.0111055E0,8.8289356E-1,1.6274601E-1,8.0975735E-1,2.8852558E-1,5.906844E-2,2.1687042E-2,6.237197E-2,8.290577E-2,1.4865239E0,7.890886E-2,7.3747575E-2,1.12384796E-1,8.550749E-1,1.2694236E-2,9.361129E-3,0E0,1.2116623E-1,7.995596E-1,1.4202648E-1,3.2336652E-1,5.4801583E-1,6.536165E-2,3.9927572E-2,3.7469482E-1,4.3141726E-1,3.1429204E-1,2.0661652E-1,1.0359287E-2,0E0,7.5340313E-3,8.862942E-3,4.0427208E-2,1.9594878E-2,2.9341817E-2,4.1657053E-2,4.402318E-1,9.8456836E-1,2.0298302E-2,1.9807618E-2,5.280554E-2,5.293285E-2,1.1169672E-1,3.144455E-2,6.039083E-1,1.3735485E-1,0E0,0E0,0E0,0E0,0E0,0E0,0E0,0E0,0E0,0E0,0E0,0E0,0E0,0E0,0E0,0E0,0E0,0E0,0E0,0E0,0E0,0E0,0E0,0E0,0E0,0E0,0E0,0E0,0E0,0E0,0E0,0E0,0E0,0E0,0E0,0E0,0E0,0E0,0E0,0E0,0E0,0E0,0E0,0E0,0E0,0E0,0E0,0E0,0E0,0E0,0E0,0E0,0E0,0E0,0E0,0E0,0E0,0E0,0E0,0E0],"parents":[2147483647,0,0,1,1,2,2,3,3,4,4,5,5,6,6,7,7,8,8,9,9,10,10,11,11,12,12,13,13,14,14,15,15,16,16,17,17,18,18,19,19,20,20,21,21,22,22,23,23,24,24,25,25,26,26,27,27,28,28,29,29,30,30,31,31,32,32,34,34,35,35,36,36,37,37,38,38,39,39,40,40,41,41,42,42,43,43,44,44,45,45,47,47,48,48,49,49,50,50,51,51,52,52,53,53,54,54,55,55,56,56,57,57,58,58,59,59,60,60,61,61,62,62],"right_children":[2,4,6,8,10,12,14,16,18,20,22,24,26,28,30,32,34,36,38,40,42,44,46,48,50,52,54,56,58,60,62,64,66,-1,68,70,72,74,76,78,80,82,84,86,88,90,-1,92,94,96,98,100,102,104,106,108,110,112,114,116,118,120,122,-1,-1,-1,-1,-1,-1,-1,-1,-1,-1,-1,-1,-1,-1,-1,-1,-1,-1,-1,-1,-1,-1,-1,-1,-1,-1,-1,-1,-1,-1,-1,-1,-1,-1,-1,-1,-1,-1,-1,-1,-1,-1,-1,-1,-1,-1,-1,-1,-1,-1,-1,-1,-1,-1,-1,-1,-1,-1,-1,-1],"split_conditions":[-3.9222884E-1,-2.3411384E-1,-2.6347116E-1,-1.0974718E0,-1.9435456E-1,-1.1502157E0,-1.0324374E0,-3.896612E-1,-4.2662507E-1,-3.799357E-1,-1.5324171E-1,-5.283705E-1,-1.1406358E0,-1.1639578E0,-1.9092277E-1,-2.2220322E-1,-3.81705E-1,1.0691177E0,-2.2047201E-1,4.2773232E-1,-4.300354E-1,-1.1151912E-1,-1.5187752E-1,-2.1328378E-1,-3.487823E-1,-2.1123667E-1,-1.9873136E-1,-8.83919E-1,-6.973375E-2,-4.7450265E-1,-8.680715E-2,-4.0233913E-1,-2.5273705E-1,1.6562117E-2,-7.362534E-1,-4.0277225E-1,7.306935E-1,-9.0225315E-1,-1.7545073E-1,-5.86324E-1,-4.1995278E-1,-3.3580545E-1,-2.0332733E-1,-7.092441E-1,2.2697752E-2,1.1620482E0,4.2557283E-3,-3.2429785E-1,-3.7984315E-1,-2.062605E-1,-8.1055E-1,-4.0018305E-1,-1.0660726E0,-2.2209847E-1,1.5494642E0,-1.9250746E-1,-1.1986843E-1,1.5521151E0,-2.2259387E-1,2.4668396E0,-7.421564E-1,6.43403E-1,2.4735277E0,2.2443286E-4,-3.0121247E-3,1.455643E-3,4.7472552E-3,1.3883325E-2,1.0260465E-2,2.8457295E-3,9.161654E-3,-2.230197E-3,6.9276835E-3,1.0580708E-3,-6.869608E-3,2.7282657E-3,7.539008E-3,-8.266402E-4,-3.8434118E-3,1.6494431E-3,-1.155835E-3,2.9114538E-3,7.660026E-3,1.729063E-3,-4.739277E-3,6.391228E-3,1.2191618E-3,8.572226E-3,3.9498704E-3,1.31141115E-2,4.8463033E-3,8.018936E-4,-2.4303058E-3,-3.13472E-4,2.7782077E-3,2.029182E-3,1.0556716E-2,1.1507018E-3,6.283663E-3,-1.0461804E-3,-6.482636E-3,1.5160077E-3,-3.7091603E-3,-5.1725004E-3,2.3307477E-3,-3.430573E-3,3.8828477E-3,1.3431172E-2,5.6395917E-3,9.4796467E-4,5.6363316E-3,-3.3966207E-3,2.1410747E-3,4.735309E-3,-2.6808053E-4,-5.62666E-3,2.3909574E-3,-5.203444E-3,-7.3199803E-3,-3.8585325E-3,9.580929E-4,-6.367133E-3,-4.1098283E-3],"split_indices":[1,8,0,3,5,3,3,7,1,2,2,7,7,3,5,5,6,7,5,9,1,3,6,5,9,5,3,8,7,4,0,1,2,0,8,6,4,4,2,4,1,7,5,4,7,2,0,0,1,5,8,6,3,5,4,1,5,8,0,1,10,2,5,0,0,0,0,0,0,0,0,0,0,0,0,0,0,0,0,0,0,0,0,0,0,0,0,0,0,0,0,0,0,0,0,0,0,0,0,0,0,0,0,0,0,0,0,0,0,0,0,0,0,0,0,0,0,0,0,0,0,0,0],"split_type":[0,0,0,0,0,0,0,0,0,0,0,0,0,0,0,0,0,0,0,0,0,0,0,0,0,0,0,0,0,0,0,0,0,0,0,0,0,0,0,0,0,0,0,0,0,0,0,0,0,0,0,0,0,0,0,0,0,0,0,0,0,0,0,0,0,0,0,0,0,0,0,0,0,0,0,0,0,0,0,0,0,0,0,0,0,0,0,0,0,0,0,0,0,0,0,0,0,0,0,0,0,0,0,0,0,0,0,0,0,0,0,0,0,0,0,0,0,0,0,0,0,0,0],"sum_hessian":[4.55E3,1.831E3,2.719E3,1.059E3,7.72E2,9.49E2,1.77E3,2.09E2,8.5E2,5.17E2,2.55E2,6.7E1,8.82E2,5.8E1,1.712E3,2.6E1,1.83E2,5.18E2,3.32E2,1.35E2,3.82E2,2.33E2,2.2E1,1.7E1,5E1,1.07E2,7.75E2,1.7E1,4.1E1,6.2E2,1.092E3,1.5E1,1.1E1,3.9E1,1.44E2,4.87E2,3.1E1,5E1,2.82E2,7.5E1,6E1,1.7E2,2.12E2,1.28E2,1.05E2,1.8E1,4E0,7E0,1E1,3.9E1,1.1E1,8.1E1,2.6E1,3.15E2,4.6E2,8E0,9E0,2.1E1,2E1,1.12E2,5.08E2,5.49E2,5.43E2,1.2E1,3E0,8E0,3E0,8.7E1,5.7E1,5.8E1,4.29E2,2.7E1,4E0,2.5E1,2.5E1,1.97E2,8.5E1,3.1E1,4.4E1,4.3E1,1.7E1,8E1,9E1,1.83E2,2.9E1,4.5E1,8.3E1,6E1,4.5E1,1.6E1,2E0,2E0,5E0,3E0,7E0,2E0,3.7E1,3E0,8E0,3E0,7.8E1,4E0,2.2E1,2E1,2.95E2,4.09E2,5.1E1,4E0,4E0,5E0,4E0,1.6E1,5E0,9E0,1.1E1,1.08E2,4E0,3E1,4.78E2,4.74E2,7.5E1,4.55E2,8.8E1],"tree_param":{"num_deleted":"0","num_feature":"12","num_nodes":"123","size_leaf_vector":"1"}},{"base_weights":[1.5353071E-4,1.03153475E-1,-6.9220014E-2,1.3663459E-1,5.7108007E-2,-3.3049427E-3,-9.3488894E-2,2.2660716E-1,1.1427164E-1,3.5263784E-2,1.0108536E-1,1.5753315E-1,-1.5563412E-2,4.879157E-2,-9.924734E-2,1.6282778E-2,2.562384E-1,1.598327E-1,7.155086E-2,-1.956759E-2,5.5425074E-2,8.948395E-2,2.1472205E-1,1.8615874E-2,1.8617593E-1,1.8105702E-2,-4.889267E-2,-9.501079E-2,7.901374E-2,-7.263333E-2,-1.1741881E-1,-1.1017136E-2,5.1325765E-2,3.150943E-1,2.3823515E-1,1.4423175E-1,2.5419244E-1,-2.4962204E-2,1.0331257E-1,-4.7895942E-2,1.48207005E-2,1.0444055E-1,1.5903555E-2,2.0208587E-1,7.859315E-2,2.3842406E-1,4.0854993E-3,-8.522689E-3,3.0727196E-3,2.1659248E-1,1.3635541E-1,-9.529867E-2,4.6286624E-2,-6.679883E-2,7.11703E-2,-1.8046107E-3,-6.73441E-3,1.0428543E-1,-1.217756E-2,-7.7478796E-2,5.9922956E-2,-1.3852623E-1,-1.0457088E-1,2.1407472E-4,-2.8991702E-3,1.3909474E-3,4.5692334E-3,1.6054174E-2,6.7100115E-3,1.3197049E-2,9.756287E-3,4.6383757E-3,9.0718E-3,4.130651E-3,1.4447048E-2,-5.5996235E-3,1.0341586E-3,4.034163E-3,9.840607E-3,3.2036204E-4,-3.1122218E-3,1.501251E-3,-1.1384898E-3,2.7364015E-3,7.37345E-3,2.423914E-3,-2.1298656E-3,1.0401675E-3,1.1642658E-2,3.5951526E-3,1.0427496E-2,1.2496976E-2,4.68476E-3,7.751639E-4,-1.0616867E-3,1.1281615E-2,3.754488E-3,1.5881371E-3,8.1064645E-3,4.1878494E-4,-5.273338E-3,4.233373E-3,2.3237488E-4,-5.4830154E-3,-1.5423927E-3,1.2602505E-2,2.618561E-4,1.8274466E-3,6.4463825E-3,-1.7241962E-3,-3.046601E-4,-4.7133444E-3,-2.3783955E-3,4.541784E-3,-3.4281486E-3,-3.5511504E-3,-6.982412E-3,-5.659017E-3,-3.2112696E-3],"categories":[],"categories_nodes":[],"categories_segments":[],"categories_sizes":[],"default_left":[0,0,0,0,0,0,0,0,0,0,0,0,0,0,0,0,0,0,0,0,0,0,0,0,0,0,0,0,0,0,0,0,0,0,0,0,0,0,0,0,0,0,0,0,0,0,0,0,0,0,0,0,0,0,0,0,0,0,0,0,0,0,0,0,0,0,0,0,0,0,0,0,0,0,0,0,0,0,0,0,0,0,0,0,0,0,0,0,0,0,0,0,0,0,0,0,0,0,0,0,0,0,0,0,0,0,0,0,0,0,0,0,0,0,0,0,0,0,0],"id":6,"left_children":[1,3,5,7,9,11,13,15,17,19,21,23,25,27,29,31,33,35,37,39,41,43,45,47,49,51,53,55,57,59,61,63,65,67,69,71,73,75,77,79,81,83,85,87,89,91,-1,93,-1,95,97,99,101,103,105,-1,-1,107,109,111,113,115,117,-1,-1,-1,-1,-1,-1,-1,-1,-1,-1,-1,-1,-1,-1,-1,-1,-1,-1,-1,-1,-1,-1,-1,-1,-1,-1,-1,-1,-1,-1,-1,-1,-1,-1,-1,-1,-1,-1,-1,-1,-1,-1,-1,-1,-1,-1,-1,-1,-1,-1,-1,-1,-1,-1,-1,-1],"loss_changes":[3.252618E1,2.8165054E0,4.350833E0,2.106882E0,7.390187E-1,1.4476557E0,1.6336403E0,1.3045845E0,1.6449528E0,5.7371867E-1,3.1828213E-1,2.0344102E-1,7.662029E-1,3.4649676E-1,9.1566086E-1,2.6395569E-2,1.1989975E-1,5.683718E-1,1.354429E0,1.3709275E-1,7.3252475E-1,2.710775E-1,5.3029418E-2,1.2149515E-2,3.5627246E-2,1.0909965E0,7.421581E-1,2.7867109E-2,1.5106618E-1,5.0434923E-1,2.9303932E-1,1.1744569E-2,8.757662E-3,2.4676323E-4,1.0918045E-1,6.628823E-1,3.1597137E-1,4.392946E-1,6.865761E-1,6.0394824E-2,3.726209E-2,3.534292E-1,4.0415704E-1,1.06707335E-1,1.7193079E-1,8.247614E-3,0E0,2.466958E-3,0E0,1.5036225E-2,4.606974E-2,7.2566986E-2,4.3589997E-1,4.573499E-1,5.353491E-1,0E0,0E0,8.0415845E-2,1.8256812E-3,3.726282E-1,1.1743978E-1,2.234745E-2,2.3900318E-1,0E0,0E0,0E0,0E0,0E0,0E0,0E0,0E0,0E0,0E0,0E0,0E0,0E0,0E0,0E0,0E0,0E0,0E0,0E0,0E0,0E0,0E0,0E0,0E0,0E0,0E0,0E0,0E0,0E0,0E0,0E0,0E0,0E0,0E0,0E0,0E0,0E0,0E0,0E0,0E0,0E0,0E0,0E0,0E0,0E0,0E0,0E0,0E0,0E0,0E0,0E0,0E0,0E0,0E0,0E0,0E0],"parents":[2147483647,0,0,1,1,2,2,3,3,4,4,5,5,6,6,7,7,8,8,9,9,10,10,11,11,12,12,13,13,14,14,15,15,16,16,17,17,18,18,19,19,20,20,21,21,22,22,23,23,24,24,25,25,26,26,27,27,28,28,29,29,30,30,31,31,32,32,33,33,34,34,35,35,36,36,37,37,38,38,39,39,40,40,41,41,42,42,43,43,44,44,45,45,47,47,49,49,50,50,51,51,52,52,53,53,54,54,57,57,58,58,59,59,60,60,61,61,62,62],"right_children":[2,4,6,8,10,12,14,16,18,20,22,24,26,28,30,32,34,36,38,40,42,44,46,48,50,52,54,56,58,60,62,64,66,68,70,72,74,76,78,80,82,84,86,88,90,92,-1,94,-1,96,98,100,102,104,106,-1,-1,108,110,112,114,116,118,-1,-1,-1,-1,-1,-1,-1,-1,-1,-1,-1,-1,-1,-1,-1,-1,-1,-1,-1,-1,-1,-1,-1,-1,-1,-1,-1,-1,-1,-1,-1,-1,-1,-1,-1,-1,-1,-1,-1,-1,-1,-1,-1,-1,-1,-1,-1,-1,-1,-1,-1,-1,-1,-1,-1,-1],"split_conditions":[-3.9222884E-1,-2.3411384E-1,-2.785117E-1,-1.0974718E0,-1.9435456E-1,-1.1502157E0,-1.0524426E0,-3.896612E-1,-4.353518E-1,-3.758104E-1,-1.5324171E-1,-5.4530406E-1,-9.0481386E-2,-2.1328378E-1,-9.6322514E-2,-2.2220322E-1,-3.81705E-1,7.306935E-1,-2.192519E-1,4.2773232E-1,-4.300354E-1,-4.525969E-1,-1.5187752E-1,-3.7984315E-1,-1.257319E0,-1.0688301E0,1.5494642E0,-1.1291236E0,-2.1963574E-2,7.6668507E-1,-1.5344763E-1,-4.0233913E-1,-2.5273705E-1,-2.87224E-1,-7.362534E-1,1.7342174E-1,-9.797146E-1,-2.9055774E-1,-8.400552E-2,-9.32822E-1,-4.1995278E-1,-3.3580545E-1,-2.0752053E-1,-4.3350068E-1,1.14673115E-1,1.1620482E0,4.0854993E-3,-3.2429785E-1,3.0727196E-3,-3.1274822E-1,-6.9368845E-1,-9.0759027E-1,-5.178859E-1,-2.134029E-1,-3.9194894E-1,-1.8046107E-3,-6.73441E-3,-9.2177176E-1,1.7732315E-1,-1.4955719E-1,3.6035115E-1,-1.0222524E0,1.1620482E0,2.1407472E-4,-2.8991702E-3,1.3909474E-3,4.5692334E-3,1.6054174E-2,6.7100115E-3,1.3197049E-2,9.756287E-3,4.6383757E-3,9.0718E-3,4.130651E-3,1.4447048E-2,-5.5996235E-3,1.0341586E-3,4.034163E-3,9.840607E-3,3.2036204E-4,-3.1122218E-3,1.501251E-3,-1.1384898E-3,2.7364015E-3,7.37345E-3,2.423914E-3,-2.1298656E-3,1.0401675E-3,1.1642658E-2,3.5951526E-3,1.0427496E-2,1.2496976E-2,4.68476E-3,7.751639E-4,-1.0616867E-3,1.1281615E-2,3.754488E-3,1.5881371E-3,8.1064645E-3,4.1878494E-4,-5.273338E-3,4.233373E-3,2.3237488E-4,-5.4830154E-3,-1.5423927E-3,1.2602505E-2,2.618561E-4,1.8274466E-3,6.4463825E-3,-1.7241962E-3,-3.046601E-4,-4.7133444E-3,-2.3783955E-3,4.541784E-3,-3.4281486E-3,-3.5511504E-3,-6.982412E-3,-5.659017E-3,-3.2112696E-3],"split_indices":[1,8,0,3,5,3,3,7,1,2,2,7,3,5,1,5,6,4,5,9,1,1,6,1,3,7,4,3,0,2,7,1,2,0,8,11,10,2,2,3,1,7,5,2,5,2,0,0,0,10,8,4,4,5,6,0,0,9,1,5,9,3,2,0,0,0,0,0,0,0,0,0,0,0,0,0,0,0,0,0,0,0,0,0,0,0,0,0,0,0,0,0,0,0,0,0,0,0,0,0,0,0,0,0,0,0,0,0,0,0,0,0,0,0,0,0,0,0,0],"split_type":[0,0,0,0,0,0,0,0,0,0,0,0,0,0,0,0,0,0,0,0,0,0,0,0,0,0,0,0,0,0,0,0,0,0,0,0,0,0,0,0,0,0,0,0,0,0,0,0,0,0,0,0,0,0,0,0,0,0,0,0,0,0,0,0,0,0,0,0,0,0,0,0,0,0,0,0,0,0,0,0,0,0,0,0,0,0,0,0,0,0,0,0,0,0,0,0,0,0,0,0,0,0,0,0,0,0,0,0,0,0,0,0,0,0,0,0,0,0,0],"sum_hessian":[4.55E3,1.831E3,2.719E3,1.059E3,7.72E2,7.32E2,1.987E3,2.09E2,8.5E2,5.17E2,2.55E2,5.1E1,6.81E2,7.7E1,1.91E3,2.6E1,1.83E2,4.1E2,4.4E2,1.39E2,3.78E2,2.33E2,2.2E1,9E0,4.2E1,3.39E2,3.42E2,1.3E1,6.4E1,7.77E2,1.133E3,1.5E1,1.1E1,3.9E1,1.44E2,3.54E2,5.6E1,1.09E2,3.31E2,7.6E1,6.3E1,1.68E2,2.1E2,1.9E1,2.14E2,1.8E1,4E0,6E0,3E0,2.4E1,1.8E1,6.7E1,2.72E2,2.98E2,4.4E1,6E0,7E0,5E1,1.4E1,7.5E2,2.7E1,4.25E2,7.08E2,1.2E1,3E0,8E0,3E0,3.7E1,2E0,8.7E1,5.7E1,1.5E2,2.04E2,1E1,4.6E1,3.7E1,7.2E1,2.68E2,6.3E1,1.6E1,6E1,4.5E1,1.8E1,7.9E1,8.9E1,1.35E2,7.5E1,3E0,1.6E1,2.05E2,9E0,1.6E1,2E0,2E0,4E0,2.2E1,2E0,4E0,1.4E1,6E0,6.1E1,1.41E2,1.31E2,1.35E2,1.63E2,1.1E1,3.3E1,1.4E1,3.6E1,2E0,1.2E1,4.79E2,2.71E2,2.2E1,5E0,8E0,4.17E2,5.82E2,1.26E2],"tree_param":{"num_deleted":"0","num_feature":"12","num_nodes":"119","size_leaf_vector":"1"}},{"base_weights":[1.7921532E-4,8.191414E-2,-7.894084E-2,1.1888696E-1,3.548553E-2,8.6069887E-4,-8.962058E-2,1.6238381E-1,7.901041E-2,1.51096E-1,1.6198106E-2,-4.366478E-2,4.7028895E-2,-7.503444E-3,-9.7129695E-2,1.762972E-1,-2.032529E-2,1.6109314E-2,9.777347E-2,2.7509367E-2,1.9762386E-1,-6.2737265E-3,6.951579E-2,-7.09061E-2,1.2332845E-1,9.332702E-2,-4.4576768E-2,-9.078001E-2,9.168011E-2,-6.71573E-2,-1.0835852E-1,2.3744957E-1,1.5012981E-1,-7.4386634E-3,1.8051332E-2,8.6257264E-2,-6.6001057E-3,1.2604432E-1,7.321033E-2,-4.2237688E-2,4.3584127E-2,1.234217E-1,2.1512172E-1,-7.16836E-2,1.3931655E-2,-7.617639E-2,8.167103E-2,-1.2599346E-1,-4.4167385E-2,-1.662881E-2,2.1801902E-1,2.6292471E-2,1.17304854E-1,7.081137E-2,-6.365527E-2,9.8423865E-3,-1.0154994E-1,1.0966548E-1,3.4334618E-4,-7.5060636E-2,-8.583713E-3,-1.2019121E-1,-8.998786E-2,7.461207E-4,1.2667537E-2,6.63163E-3,1.3750012E-2,-4.0325808E-4,7.063625E-3,6.2875845E-3,3.2355736E-3,-7.821913E-3,1.5415397E-4,-5.2587227E-3,6.738583E-3,6.781999E-3,2.6626568E-3,-4.2119715E-4,-3.0420574E-3,-1.0073202E-3,2.9246316E-3,3.1508617E-3,8.425365E-3,1.1068578E-2,3.729988E-3,-6.877892E-5,-4.408937E-3,5.2288184E-3,8.089428E-5,-1.4277826E-3,-4.72728E-3,5.5105803E-3,1.8995669E-3,-7.1026795E-3,-4.9682395E-3,5.0308476E-3,-3.8792384E-3,2.8012672E-3,-6.072642E-3,1.2557198E-2,4.449156E-3,5.9421337E-3,-8.1508234E-4,2.475013E-4,6.5275594E-3,6.0639763E-3,1.3201889E-4,2.053278E-3,-4.1671614E-3,3.2427346E-3,-1.8820799E-3,-6.9185416E-3,-4.0005534E-3,3.0022543E-3,7.3467153E-3,-6.5218617E-4,1.8535976E-3,-3.2011853E-3,-6.311081E-3,8.382791E-3,-1.7031244E-3,-1.8485468E-3,-6.1646453E-3,-2.824339E-3,-5.520136E-3],"categories":[],"categories_nodes":[],"categories_segments":[],"categories_sizes":[],"default_left":[0,0,0,0,0,0,0,0,0,0,0,0,0,0,0,0,0,0,0,0,0,0,0,0,0,0,0,0,0,0,0,0,0,0,0,0,0,0,0,0,0,0,0,0,0,0,0,0,0,0,0,0,0,0,0,0,0,0,0,0,0,0,0,0,0,0,0,0,0,0,0,0,0,0,0,0,0,0,0,0,0,0,0,0,0,0,0,0,0,0,0,0,0,0,0,0,0,0,0,0,0,0,0,0,0,0,0,0,0,0,0,0,0,0,0,0,0,0,0,0,0,0,0,0,0],"id":7,"left_children":[1,3,5,7,9,11,13,15,17,19,21,23,25,27,29,31,33,35,37,39,41,43,45,47,49,51,53,55,57,59,61,63,65,-1,67,69,71,73,75,77,79,81,83,85,87,89,91,93,95,97,99,101,103,105,107,109,111,113,115,117,119,121,123,-1,-1,-1,-1,-1,-1,-1,-1,-1,-1,-1,-1,-1,-1,-1,-1,-1,-1,-1,-1,-1,-1,-1,-1,-1,-1,-1,-1,-1,-1,-1,-1,-1,-1,-1,-1,-1,-1,-1,-1,-1,-1,-1,-1,-1,-1,-1,-1,-1,-1,-1,-1,-1,-1,-1,-1,-1,-1,-1,-1,-1,-1],"loss_changes":[2.94372E1,3.839242E0,1.9713526E0,2.1483612E0,2.2140017E0,5.653047E-1,1.2571907E0,1.5161352E0,7.679267E-1,8.11095E-1,1.0224546E0,6.4562094E-1,5.767183E-1,1.4289852E0,6.2174416E-1,8.4926033E-1,2.1464974E-1,2.411152E-1,3.393712E-1,4.6687573E-2,1.071825E-1,7.952992E-1,4.5426524E-1,1.7266405E-1,2.686781E-1,1.415767E-1,1.05773464E-1,1.0286695E-1,1.2973773E-1,2.3637438E-1,2.8437805E-1,5.765238E-1,8.1563187E-1,0E0,1.10554956E-1,2.334714E-2,1.6733703E-1,4.8233318E-1,3.304211E-1,4.5198975E-3,3.2532603E-2,4.9295366E-2,5.550146E-2,1.6456193E-1,5.132727E-1,1.4795288E-2,2.8752744E-1,2.5636554E-3,4.0938628E-1,7.534754E-2,2.8944075E-2,1.0048969E-1,9.758079E-2,2.3763027E-2,8.5892096E-2,2.8563265E-2,5.6340575E-2,1.13230646E-1,7.3671937E-3,2.465806E-1,2.8411353E-1,2.0787716E-1,3.603449E-1,0E0,0E0,0E0,0E0,0E0,0E0,0E0,0E0,0E0,0E0,0E0,0E0,0E0,0E0,0E0,0E0,0E0,0E0,0E0,0E0,0E0,0E0,0E0,0E0,0E0,0E0,0E0,0E0,0E0,0E0,0E0,0E0,0E0,0E0,0E0,0E0,0E0,0E0,0E0,0E0,0E0,0E0,0E0,0E0,0E0,0E0,0E0,0E0,0E0,0E0,0E0,0E0,0E0,0E0,0E0,0E0,0E0,0E0,0E0,0E0,0E0,0E0],"parents":[2147483647,0,0,1,1,2,2,3,3,4,4,5,5,6,6,7,7,8,8,9,9,10,10,11,11,12,12,13,13,14,14,15,15,16,16,17,17,18,18,19,19,20,20,21,21,22,22,23,23,24,24,25,25,26,26,27,27,28,28,29,29,30,30,31,31,32,32,34,34,35,35,36,36,37,37,38,38,39,39,40,40,41,41,42,42,43,43,44,44,45,45,46,46,47,47,48,48,49,49,50,50,51,51,52,52,53,53,54,54,55,55,56,56,57,57,58,58,59,59,60,60,61,61,62,62],"right_children":[2,4,6,8,10,12,14,16,18,20,22,24,26,28,30,32,34,36,38,40,42,44,46,48,50,52,54,56,58,60,62,64,66,-1,68,70,72,74,76,78,80,82,84,86,88,90,92,94,96,98,100,102,104,106,108,110,112,114,116,118,120,122,124,-1,-1,-1,-1,-1,-1,-1,-1,-1,-1,-1,-1,-1,-1,-1,-1,-1,-1,-1,-1,-1,-1,-1,-1,-1,-1,-1,-1,-1,-1,-1,-1,-1,-1,-1,-1,-1,-1,-1,-1,-1,-1,-1,-1,-1,-1,-1,-1,-1,-1,-1,-1,-1,-1,-1,-1,-1,-1,-1,-1,-1,-1],"split_conditions":[-3.597511E-1,-4.1934067E-1,-2.8935546E-1,-4.1409302E-1,-1.1066376E0,-2.1055909E-1,-8.365638E-1,1.0158792E0,-9.9407357E-1,-3.896612E-1,-1.9429496E-1,1.0869132E0,-4.839298E-1,-6.973375E-2,-2.0908086E-1,-8.0962366E-1,-2.2062065E-1,-1.0760708E0,-2.1698697E-1,-2.2220322E-1,-1.9659828E-1,-2.1361342E-1,-2.2220322E-1,-2.1964483E-1,1.7520463E0,-3.9330631E-1,-2.028817E-1,-1.1502157E0,-1.0315513E-1,9.1657275E-1,-1.3158818E-1,-1.3284582E-1,1.8537374E0,-7.4386634E-3,7.306935E-1,-9.9498504E-1,-2.2115448E-1,-2.2246099E-1,-4.495707E-1,-4.0233913E-1,-4.1878134E-1,1.0355693E-2,-1.2426398E-1,-3.1747615E-1,-9.142238E-1,-6.20088E-1,-3.0134612E-1,6.2332743E-1,-6.041954E-1,-3.184156E-1,8.334183E-1,-3.6924934E-1,-6.9012517E-1,-3.108106E-1,-7.1661824E-1,-1.9791397E-1,-2.1509455E-1,-2.3767166E-1,-4.2782634E-2,3.434111E-1,-3.35829E-1,-3.686092E-1,5.410303E-2,7.461207E-4,1.2667537E-2,6.63163E-3,1.3750012E-2,-4.0325808E-4,7.063625E-3,6.2875845E-3,3.2355736E-3,-7.821913E-3,1.5415397E-4,-5.2587227E-3,6.738583E-3,6.781999E-3,2.6626568E-3,-4.2119715E-4,-3.0420574E-3,-1.0073202E-3,2.9246316E-3,3.1508617E-3,8.425365E-3,1.1068578E-2,3.729988E-3,-6.877892E-5,-4.408937E-3,5.2288184E-3,8.089428E-5,-1.4277826E-3,-4.72728E-3,5.5105803E-3,1.8995669E-3,-7.1026795E-3,-4.9682395E-3,5.0308476E-3,-3.8792384E-3,2.8012672E-3,-6.072642E-3,1.2557198E-2,4.449156E-3,5.9421337E-3,-8.1508234E-4,2.475013E-4,6.5275594E-3,6.0639763E-3,1.3201889E-4,2.053278E-3,-4.1671614E-3,3.2427346E-3,-1.8820799E-3,-6.9185416E-3,-4.0005534E-3,3.0022543E-3,7.3467153E-3,-6.5218617E-4,1.8535976E-3,-3.2011853E-3,-6.311081E-3,8.382791E-3,-1.7031244E-3,-1.8485468E-3,-6.1646453E-3,-2.824339E-3,-5.520136E-3],"split_indices":[1,1,0,8,3,5,3,7,7,7,2,4,4,7,1,3,5,3,3,5,5,5,5,5,3,2,5,3,0,4,5,7,4,0,4,4,5,5,1,1,2,2,2,0,10,8,4,7,4,1,2,6,8,1,8,4,5,1,5,3,6,6,0,0,0,0,0,0,0,0,0,0,0,0,0,0,0,0,0,0,0,0,0,0,0,0,0,0,0,0,0,0,0,0,0,0,0,0,0,0,0,0,0,0,0,0,0,0,0,0,0,0,0,0,0,0,0,0,0,0,0,0,0,0,0],"split_type":[0,0,0,0,0,0,0,0,0,0,0,0,0,0,0,0,0,0,0,0,0,0,0,0,0,0,0,0,0,0,0,0,0,0,0,0,0,0,0,0,0,0,0,0,0,0,0,0,0,0,0,0,0,0,0,0,0,0,0,0,0,0,0,0,0,0,0,0,0,0,0,0,0,0,0,0,0,0,0,0,0,0,0,0,0,0,0,0,0,0,0,0,0,0,0,0,0,0,0,0,0,0,0,0,0,0,0,0,0,0,0,0,0,0,0,0,0,0,0,0,0,0,0,0,0],"sum_hessian":[4.55E3,2.238E3,2.312E3,1.245E3,9.93E2,2.73E2,2.039E3,5.94E2,6.51E2,1.41E2,8.52E2,1.39E2,1.34E2,1.71E2,1.868E3,5.52E2,4.2E1,1.5E2,5.01E2,3.9E1,1.02E2,6E2,2.52E2,1.2E2,1.9E1,8.9E1,4.5E1,9.3E1,7.8E1,5.11E2,1.357E3,1.63E2,3.89E2,9E0,3.3E1,3.6E1,1.14E2,2.31E2,2.7E2,7E0,3.2E1,2.1E1,8.1E1,1.41E2,4.59E2,1.9E1,2.33E2,3.8E1,8.2E1,8E0,1.1E1,2.4E1,6.5E1,6E0,3.9E1,9E0,8.4E1,6.5E1,1.3E1,4.5E2,6.1E1,8.22E2,5.35E2,1.1E1,1.52E2,3.43E2,4.6E1,2.8E1,5E0,1.1E1,2.5E1,6E0,1.08E2,8E0,2.23E2,6.4E1,2.06E2,3E0,4E0,6E0,2.6E1,1E1,1.1E1,7.7E1,4E0,2.7E1,1.14E2,5.4E1,4.05E2,6E0,1.3E1,1.4E2,9.3E1,2.1E1,1.7E1,1.5E1,6.7E1,5E0,3E0,8E0,3E0,7E0,1.7E1,7E0,5.8E1,3E0,3E0,6E0,3.3E1,4E0,5E0,2.9E1,5.5E1,2.9E1,3.6E1,1E1,3E0,3.72E2,7.8E1,7E0,5.4E1,3E1,7.92E2,2.04E2,3.31E2],"tree_param":{"num_deleted":"0","num_feature":"12","num_nodes":"125","size_leaf_vector":"1"}},{"base_weights":[1.8658188E-4,9.332989E-2,-6.254824E-2,1.7914258E-1,7.838202E-2,-3.0154048E-3,-8.446727E-2,5.1730998E-2,2.3414798E-1,1.2911816E-1,5.444369E-2,1.4317869E-1,-1.4157747E-2,4.4975944E-2,-8.9706466E-2,7.231045E-2,-1.8730859E-3,2.913811E-1,2.1632406E-1,2.1884756E-4,1.4155534E-1,-2.4459964E-2,6.614376E-2,1.7456671E-2,1.6908664E-1,1.708444E-2,-4.5085404E-2,-8.6632244E-2,7.263038E-2,-6.5563954E-2,-1.0619074E-1,7.7193074E-2,-7.6723046E-4,1.8473675E-2,-3.2996156E-3,1.5685577E-2,2.0941246E-1,1.3048139E-1,2.2795607E-1,-1.1780563E-2,4.0089223E-3,1.8765377E-1,1.1576041E-1,-4.100946E-2,7.6363594E-3,8.377254E-2,2.7580664E-2,-8.106804E-3,2.8914295E-3,1.8361466E-1,9.3801335E-2,-8.69222E-2,4.2928275E-2,-6.1568175E-2,6.543537E-2,-1.6314781E-3,-6.1527784E-3,9.561796E-2,-1.0369393E-2,-7.028782E-2,5.0533254E-2,-1.19344026E-1,-8.834369E-2,5.2746746E-4,4.1699125E-3,4.234448E-3,2.8509687E-4,1.1914122E-2,4.6050935E-3,3.2684838E-3,8.025656E-3,1.1773208E-2,6.7565115E-3,2.0640064E-3,-1.3167871E-3,5.47882E-3,1.0338881E-2,6.735239E-3,2.0440144E-3,1.191666E-3,-3.109827E-3,1.1580806E-3,4.9070846E-3,4.3655816E-3,6.9847825E-4,2.715671E-4,-1.3984058E-3,9.944333E-3,4.7057173E-3,5.5544195E-3,1.109888E-3,-2.1117094E-3,-5.4412107E-3,5.238139E-4,4.37117E-3,-1.3035027E-3,-5.0580665E-3,1.1605963E-2,2.3405974E-4,2.909787E-3,6.7646564E-3,-1.8068509E-4,-1.402206E-3,-4.297336E-3,-2.1284386E-3,7.116943E-3,6.206111E-4,-2.3537448E-3,-6.090039E-3,-2.3594077E-3,-5.2537746E-3],"categories":[],"categories_nodes":[],"categories_segments":[],"categories_sizes":[],"default_left":[0,0,0,0,0,0,0,0,0,0,0,0,0,0,0,0,0,0,0,0,0,0,0,0,0,0,0,0,0,0,0,0,0,0,0,0,0,0,0,0,0,0,0,0,0,0,0,0,0,0,0,0,0,0,0,0,0,0,0,0,0,0,0,0,0,0,0,0,0,0,0,0,0,0,0,0,0,0,0,0,0,0,0,0,0,0,0,0,0,0,0,0,0,0,0,0,0,0,0,0,0,0,0,0,0,0,0,0,0,0,0],"id":8,"left_children":[1,3,5,7,9,11,13,15,17,19,21,23,25,27,29,31,33,35,37,39,41,43,45,47,49,51,53,55,57,59,61,63,-1,65,-1,-1,67,69,71,73,-1,75,77,79,-1,81,83,85,-1,87,89,91,93,95,97,-1,-1,99,101,103,105,107,109,-1,-1,-1,-1,-1,-1,-1,-1,-1,-1,-1,-1,-1,-1,-1,-1,-1,-1,-1,-1,-1,-1,-1,-1,-1,-1,-1,-1,-1,-1,-1,-1,-1,-1,-1,-1,-1,-1,-1,-1,-1,-1,-1,-1,-1,-1,-1,-1],"loss_changes":[2.6598831E1,2.3358927E0,3.549079E0,1.8871441E0,1.8900795E0,1.1960436E0,1.3522539E0,9.169623E-2,1.2976933E-1,8.015404E-1,9.829557E-1,1.664226E-1,6.5975106E-1,2.9017714E-1,7.53561E-1,2.6863754E-2,3.2529965E-2,1.1181593E-2,1.180377E-1,4.4120606E-2,5.205097E-1,4.109286E-1,6.27203E-1,1.078927E-2,2.9807925E-2,9.176278E-1,6.28868E-1,2.3522153E-2,1.2500912E-1,4.3022823E-1,2.5566006E-1,2.2691756E-2,0E0,1.5585108E-2,0E0,0E0,1.8694758E-2,2.8615654E-2,5.808735E-2,3.1979453E-2,0E0,2.1923113E-1,4.1296744E-1,1.7595868E-1,0E0,5.50766E-1,2.3617749E-1,2.0341016E-3,0E0,2.9121518E-2,8.674428E-3,6.1959386E-2,3.9328408E-1,4.1760194E-1,4.5461676E-1,0E0,0E0,6.784785E-2,1.6897318E-3,3.210106E-1,1.06724724E-1,1.0967255E-1,3.2901597E-1,0E0,0E0,0E0,0E0,0E0,0E0,0E0,0E0,0E0,0E0,0E0,0E0,0E0,0E0,0E0,0E0,0E0,0E0,0E0,0E0,0E0,0E0,0E0,0E0,0E0,0E0,0E0,0E0,0E0,0E0,0E0,0E0,0E0,0E0,0E0,0E0,0E0,0E0,0E0,0E0,0E0,0E0,0E0,0E0,0E0,0E0,0E0,0E0],"parents":[2147483647,0,0,1,1,2,2,3,3,4,4,5,5,6,6,7,7,8,8,9,9,10,10,11,11,12,12,13,13,14,14,15,15,16,16,17,17,18,18,19,19,20,20,21,21,22,22,23,23,24,24,25,25,26,26,27,27,28,28,29,29,30,30,31,31,33,33,36,36,37,37,38,38,39,39,41,41,42,42,43,43,45,45,46,46,47,47,49,49,50,50,51,51,52,52,53,53,54,54,57,57,58,58,59,59,60,60,61,61,62,62],"right_children":[2,4,6,8,10,12,14,16,18,20,22,24,26,28,30,32,34,36,38,40,42,44,46,48,50,52,54,56,58,60,62,64,-1,66,-1,-1,68,70,72,74,-1,76,78,80,-1,82,84,86,-1,88,90,92,94,96,98,-1,-1,100,102,104,106,108,110,-1,-1,-1,-1,-1,-1,-1,-1,-1,-1,-1,-1,-1,-1,-1,-1,-1,-1,-1,-1,-1,-1,-1,-1,-1,-1,-1,-1,-1,-1,-1,-1,-1,-1,-1,-1,-1,-1,-1,-1,-1,-1,-1,-1,-1,-1,-1,-1],"split_conditions":[-3.9222884E-1,-1.0861119E0,-2.785117E-1,-1.3284582E-1,-4.42425E-1,-1.1502157E0,-1.0524426E0,-3.4777296E-1,-3.81705E-1,-9.9407357E-1,-3.9286873E-1,-5.4530406E-1,-9.0481386E-2,-2.1328378E-1,-9.6322514E-2,-9.379229E-2,-4.0233913E-1,6.820889E-1,-2.0399103E-1,-2.556168E-1,-3.1321034E-1,1.5422234E-1,-4.1020045E-1,-3.7984315E-1,-3.487823E-1,-1.0688301E0,1.5494642E0,-1.1291236E0,-2.1963574E-2,6.43403E-1,-1.2543742E-1,-4.1461223E-1,-7.6723046E-4,-8.066794E-1,-3.2996156E-3,1.5685577E-2,-1.2248602E-1,-6.5514237E-1,-2.0494294E-1,-5.953966E-1,4.0089223E-3,-4.102924E-1,-1.9038099E-1,-4.3463475E-1,7.6363594E-3,-5.933386E-1,-8.365638E-1,-2.94886E-1,2.8914295E-3,-2.8464434E-1,4.7463316E-1,-5.404516E-1,3.016225E-1,4.9408707E-1,-3.9194894E-1,-1.6314781E-3,-6.1527784E-3,-2.3767166E-1,2.1689945E-1,-1.4955719E-1,-1.830387E-1,-3.6924934E-1,5.410303E-2,5.2746746E-4,4.1699125E-3,4.234448E-3,2.8509687E-4,1.1914122E-2,4.6050935E-3,3.2684838E-3,8.025656E-3,1.1773208E-2,6.7565115E-3,2.0640064E-3,-1.3167871E-3,5.47882E-3,1.0338881E-2,6.735239E-3,2.0440144E-3,1.191666E-3,-3.109827E-3,1.1580806E-3,4.9070846E-3,4.3655816E-3,6.9847825E-4,2.715671E-4,-1.3984058E-3,9.944333E-3,4.7057173E-3,5.5544195E-3,1.109888E-3,-2.1117094E-3,-5.4412107E-3,5.238139E-4,4.37117E-3,-1.3035027E-3,-5.0580665E-3,1.1605963E-2,2.3405974E-4,2.909787E-3,6.7646564E-3,-1.8068509E-4,-1.402206E-3,-4.297336E-3,-2.1284386E-3,7.116943E-3,6.206111E-4,-2.3537448E-3,-6.090039E-3,-2.3594077E-3,-5.2537746E-3],"split_indices":[1,3,0,7,1,3,3,11,6,7,6,7,3,5,1,5,1,7,5,2,3,2,1,1,9,7,4,3,0,2,5,2,0,8,0,0,9,8,6,4,0,2,10,1,0,7,3,0,0,10,7,4,9,7,6,0,0,1,9,5,1,6,0,0,0,0,0,0,0,0,0,0,0,0,0,0,0,0,0,0,0,0,0,0,0,0,0,0,0,0,0,0,0,0,0,0,0,0,0,0,0,0,0,0,0,0,0,0,0,0,0],"split_type":[0,0,0,0,0,0,0,0,0,0,0,0,0,0,0,0,0,0,0,0,0,0,0,0,0,0,0,0,0,0,0,0,0,0,0,0,0,0,0,0,0,0,0,0,0,0,0,0,0,0,0,0,0,0,0,0,0,0,0,0,0,0,0,0,0,0,0,0,0,0,0,0,0,0,0,0,0,0,0,0,0,0,0,0,0,0,0,0,0,0,0,0,0,0,0,0,0,0,0,0,0,0,0,0,0,0,0,0,0,0,0],"sum_hessian":[4.55E3,1.831E3,2.719E3,2.7E2,1.561E3,7.32E2,1.987E3,8.2E1,1.88E2,4.99E2,1.062E3,5.1E1,6.81E2,7.7E1,1.91E3,5.9E1,2.3E1,4.1E1,1.47E2,4.4E1,4.55E2,1.37E2,9.25E2,9E0,4.2E1,3.39E2,3.42E2,1.3E1,6.4E1,7.77E2,1.133E3,5.6E1,3E0,1.8E1,5E0,3E1,1.1E1,1.9E1,1.28E2,3.9E1,5E0,1.61E2,2.94E2,1.26E2,1.1E1,6.34E2,2.91E2,6E0,3E0,3.4E1,8E0,6.7E1,2.72E2,2.98E2,4.4E1,6E0,7E0,5E1,1.4E1,7.47E2,3E1,6.49E2,4.84E2,5E0,5.1E1,2E0,1.6E1,8E0,3E0,7E0,1.2E1,1.17E2,1.1E1,8E0,3.1E1,3.3E1,1.28E2,2.34E2,6E1,3.1E1,9.5E1,1.22E2,5.12E2,5.3E1,2.38E2,4E0,2E0,2.8E1,6E0,6E0,2E0,2.3E1,4.4E1,1.58E2,1.14E2,1.58E2,1.4E2,1.1E1,3.3E1,2.7E1,2.3E1,1.1E1,3E0,4.76E2,2.71E2,8E0,2.2E1,2.2E1,6.27E2,1.41E2,3.43E2],"tree_param":{"num_deleted":"0","num_feature":"12","num_nodes":"111","size_leaf_vector":"1"}},{"base_weights":[2.0468606E-4,7.4104406E-2,-7.1330845E-2,1.075796E-1,3.2068E-2,1.4109096E-3,-8.1066094E-2,1.4737655E-1,7.109683E-2,1.1525295E-1,9.77385E-3,-4.0197358E-2,4.4549774E-2,-6.3318564E-3,-8.790035E-2,1.6032837E-1,-2.2617409E-2,1.4387702E-2,8.8013135E-2,1.5116329E-2,1.6309924E-1,-1.0428901E-2,6.0102604E-2,-6.544427E-2,1.1455633E-1,8.759128E-2,-4.063035E-2,-8.331822E-2,8.535232E-2,-6.083474E-2,-9.804004E-2,2.0717643E-1,1.3148326E-1,-7.004067E-3,1.259602E-2,-8.109E-2,2.8745024E-2,-2.5278723E-2,9.3258336E-2,-1.8230475E-2,5.20471E-2,9.248231E-2,1.8801232E-1,-6.505416E-2,7.545898E-3,-8.063016E-2,6.982246E-2,-1.1732802E-1,-4.0276673E-2,1.6231894E-1,-5.8536953E-3,-1.1061381E-2,1.0146775E-1,7.034698E-2,-5.903563E-2,8.049218E-3,-9.3087114E-2,1.0210701E-1,2.6931506E-4,-7.3760815E-2,-2.8545197E-2,-1.0229382E-1,-5.4497596E-2,1.9931942E-3,1.0995374E-2,5.580196E-3,1.2757604E-2,-5.979742E-4,6.459081E-3,-6.92242E-3,-1.0787097E-3,3.9483085E-3,4.5447648E-4,3.7332475E-3,-4.743072E-3,6.115622E-3,3.3786024E-3,3.101964E-4,-4.746897E-3,1.5330648E-3,4.601566E-3,5.871275E-3,-9.4253634E-4,9.792509E-3,2.5711816E-3,-1.5060728E-3,-4.9528764E-3,3.75012E-3,-3.2525076E-4,-1.565202E-3,-5.108141E-3,5.686487E-3,2.4301794E-3,-6.721986E-3,-4.4947746E-3,4.7088633E-3,-3.5660297E-3,3.6825463E-3,1.1647577E-2,3.563905E-3,-1.7328542E-3,8.727026E-3,3.7709516E-3,5.8386154E-3,3.1674543E-4,1.8603879E-3,-3.855705E-3,2.8877396E-3,-1.7356816E-3,-6.375355E-3,-3.6492783E-3,2.810745E-3,6.8278587E-3,-6.044252E-4,1.7092994E-3,-4.6016444E-3,-1.6872745E-3,-1.7853432E-3,9.1709895E-3,3.421587E-4,-5.1820087E-3,-1.134891E-3,-5.1029264E-3],"categories":[],"categories_nodes":[],"categories_segments":[],"categories_sizes":[],"default_left":[0,0,0,0,0,0,0,0,0,0,0,0,0,0,0,0,0,0,0,0,0,0,0,0,0,0,0,0,0,0,0,0,0,0,0,0,0,0,0,0,0,0,0,0,0,0,0,0,0,0,0,0,0,0,0,0,0,0,0,0,0,0,0,0,0,0,0,0,0,0,0,0,0,0,0,0,0,0,0,0,0,0,0,0,0,0,0,0,0,0,0,0,0,0,0,0,0,0,0,0,0,0,0,0,0,0,0,0,0,0,0,0,0,0,0,0,0,0,0,0,0,0,0],"id":9,"left_children":[1,3,5,7,9,11,13,15,17,19,21,23,25,27,29,31,33,35,37,39,41,43,45,47,49,51,53,55,57,59,61,63,65,-1,67,69,71,73,75,77,79,81,83,85,87,89,91,93,95,97,-1,99,101,103,105,107,109,111,113,115,117,119,121,-1,-1,-1,-1,-1,-1,-1,-1,-1,-1,-1,-1,-1,-1,-1,-1,-1,-1,-1,-1,-1,-1,-1,-1,-1,-1,-1,-1,-1,-1,-1,-1,-1,-1,-1,-1,-1,-1,-1,-1,-1,-1,-1,-1,-1,-1,-1,-1,-1,-1,-1,-1,-1,-1,-1,-1,-1,-1,-1,-1],"loss_changes":[2.4063948E1,3.1472178E0,1.6380863E0,1.7985926E0,1.8422838E0,4.936025E-1,1.041379E0,1.3136578E0,6.242027E-1,1.003679E0,7.9879856E-1,5.5448437E-1,4.9850687E-1,1.2211615E0,5.0695896E-1,7.2004986E-1,1.7962568E-1,2.0932236E-1,3.0066562E-1,8.5923955E-2,2.324307E-1,5.513245E-1,3.1340772E-1,1.5327495E-1,2.4026865E-1,1.2432796E-1,9.811113E-2,8.464986E-2,1.12590194E-1,2.115916E-1,2.4595451E-1,4.3641663E-1,8.1968975E-1,0E0,9.888076E-2,6.528771E-2,1.2958226E-1,1.6703293E-1,3.4995556E-1,6.993813E-2,2.5396332E-2,1.1051661E-1,1.012671E-1,1.6212457E-1,4.0141806E-1,1.2733735E-2,1.9105315E-1,6.2217116E-3,3.5315686E-1,8.931136E-2,0E0,2.5784586E-2,1.3720906E-1,2.0062726E-2,7.246658E-2,2.3260398E-2,4.9504876E-2,9.666884E-2,6.281162E-3,2.637688E-1,2.3121665E-1,1.8232346E-1,1.83712E-1,0E0,0E0,0E0,0E0,0E0,0E0,0E0,0E0,0E0,0E0,0E0,0E0,0E0,0E0,0E0,0E0,0E0,0E0,0E0,0E0,0E0,0E0,0E0,0E0,0E0,0E0,0E0,0E0,0E0,0E0,0E0,0E0,0E0,0E0,0E0,0E0,0E0,0E0,0E0,0E0,0E0,0E0,0E0,0E0,0E0,0E0,0E0,0E0,0E0,0E0,0E0,0E0,0E0,0E0,0E0,0E0,0E0,0E0,0E0,0E0],"parents":[2147483647,0,0,1,1,2,2,3,3,4,4,5,5,6,6,7,7,8,8,9,9,10,10,11,11,12,12,13,13,14,14,15,15,16,16,17,17,18,18,19,19,20,20,21,21,22,22,23,23,24,24,25,25,26,26,27,27,28,28,29,29,30,30,31,31,32,32,34,34,35,35,36,36,37,37,38,38,39,39,40,40,41,41,42,42,43,43,44,44,45,45,46,46,47,47,48,48,49,49,51,51,52,52,53,53,54,54,55,55,56,56,57,57,58,58,59,59,60,60,61,61,62,62],"right_children":[2,4,6,8,10,12,14,16,18,20,22,24,26,28,30,32,34,36,38,40,42,44,46,48,50,52,54,56,58,60,62,64,66,-1,68,70,72,74,76,78,80,82,84,86,88,90,92,94,96,98,-1,100,102,104,106,108,110,112,114,116,118,120,122,-1,-1,-1,-1,-1,-1,-1,-1,-1,-1,-1,-1,-1,-1,-1,-1,-1,-1,-1,-1,-1,-1,-1,-1,-1,-1,-1,-1,-1,-1,-1,-1,-1,-1,-1,-1,-1,-1,-1,-1,-1,-1,-1,-1,-1,-1,-1,-1,-1,-1,-1,-1,-1,-1,-1,-1,-1,-1,-1,-1],"split_conditions":[-3.597511E-1,-4.1934067E-1,-2.8935546E-1,-4.1409302E-1,-1.0073113E0,-2.1055909E-1,-8.365638E-1,1.0158792E0,-9.9407357E-1,-3.896612E-1,-1.89889E-1,1.0869132E0,-4.839298E-1,-6.973375E-2,-2.0908086E-1,-6.663206E-1,-2.2062065E-1,-2.197003E-1,-2.2246099E-1,-3.5722634E-1,-1.9588135E-1,-2.1361342E-1,-2.2226761E-1,-2.1964483E-1,2.1476383E0,-6.9012517E-1,-2.028817E-1,-1.1502157E0,-1.0315513E-1,-2.8808227E-1,1.9992616E0,-2.2226761E-1,1.8537374E0,-7.004067E-3,7.306935E-1,1.283829E0,-1.0760708E0,-4.0410984E-1,-2.1698697E-1,-9.8016286E-1,-3.608212E-1,-2.1780224E-1,-3.3145007E-2,3.2840323E-1,-4.2253137E-1,-4.0410984E-1,-4.720372E-1,6.2332743E-1,-6.041954E-1,2.35588E0,-5.8536953E-3,-3.6252064E-1,-5.3622586E-1,-3.108106E-1,-7.1661824E-1,-1.9791397E-1,-2.1509455E-1,-2.3767166E-1,-4.2782634E-2,-1.4955719E-1,1.7520463E0,-4.303255E-1,4.971033E0,1.9931942E-3,1.0995374E-2,5.580196E-3,1.2757604E-2,-5.979742E-4,6.459081E-3,-6.92242E-3,-1.0787097E-3,3.9483085E-3,4.5447648E-4,3.7332475E-3,-4.743072E-3,6.115622E-3,3.3786024E-3,3.101964E-4,-4.746897E-3,1.5330648E-3,4.601566E-3,5.871275E-3,-9.4253634E-4,9.792509E-3,2.5711816E-3,-1.5060728E-3,-4.9528764E-3,3.75012E-3,-3.2525076E-4,-1.565202E-3,-5.108141E-3,5.686487E-3,2.4301794E-3,-6.721986E-3,-4.4947746E-3,4.7088633E-3,-3.5660297E-3,3.6825463E-3,1.1647577E-2,3.563905E-3,-1.7328542E-3,8.727026E-3,3.7709516E-3,5.8386154E-3,3.1674543E-4,1.8603879E-3,-3.855705E-3,2.8877396E-3,-1.7356816E-3,-6.375355E-3,-3.6492783E-3,2.810745E-3,6.8278587E-3,-6.044252E-4,1.7092994E-3,-4.6016444E-3,-1.6872745E-3,-1.7853432E-3,9.1709895E-3,3.421587E-4,-5.1820087E-3,-1.134891E-3,-5.1029264E-3],"split_indices":[1,1,0,8,3,5,3,7,7,7,2,4,4,7,1,3,5,5,5,6,5,5,5,5,4,8,5,3,0,2,2,5,4,0,4,8,3,6,3,4,4,10,2,3,2,6,10,7,4,3,0,6,8,1,8,4,5,1,5,5,3,2,2,0,0,0,0,0,0,0,0,0,0,0,0,0,0,0,0,0,0,0,0,0,0,0,0,0,0,0,0,0,0,0,0,0,0,0,0,0,0,0,0,0,0,0,0,0,0,0,0,0,0,0,0,0,0,0,0,0,0,0,0],"split_type":[0,0,0,0,0,0,0,0,0,0,0,0,0,0,0,0,0,0,0,0,0,0,0,0,0,0,0,0,0,0,0,0,0,0,0,0,0,0,0,0,0,0,0,0,0,0,0,0,0,0,0,0,0,0,0,0,0,0,0,0,0,0,0,0,0,0,0,0,0,0,0,0,0,0,0,0,0,0,0,0,0,0,0,0,0,0,0,0,0,0,0,0,0,0,0,0,0,0,0,0,0,0,0,0,0,0,0,0,0,0,0,0,0,0,0,0,0,0,0,0,0,0,0],"sum_hessian":[4.55E3,2.238E3,2.312E3,1.245E3,9.93E2,2.73E2,2.039E3,5.94E2,6.51E2,2.09E2,7.84E2,1.39E2,1.34E2,1.71E2,1.868E3,5.52E2,4.2E1,1.5E2,5.01E2,6.8E1,1.41E2,5.6E2,2.24E2,1.2E2,1.9E1,8.9E1,4.5E1,9.3E1,7.8E1,5.11E2,1.357E3,2.08E2,3.44E2,9E0,3.3E1,1.9E1,1.31E2,2.2E1,4.79E2,3.6E1,3.2E1,3.8E1,1.03E2,1.38E2,4.22E2,1.4E1,2.1E2,3.8E1,8.2E1,1.6E1,3E0,1.1E1,7.8E1,6E0,3.9E1,9E0,8.4E1,6.5E1,1.3E1,3.64E2,1.47E2,1.235E3,1.22E2,1.5E1,1.93E2,2.98E2,4.6E1,2.8E1,5E0,9E0,1E1,3.6E1,9.5E1,9E0,1.3E1,2.23E2,2.56E2,2.8E1,8E0,2.2E1,1E1,3.1E1,7E0,9.7E1,6E0,6.9E1,6.9E1,7.2E1,3.5E2,5E0,9E0,6.7E1,1.43E2,2.1E1,1.7E1,1.5E1,6.7E1,8E0,8E0,2E0,9E0,1.9E1,5.9E1,3E0,3E0,6E0,3.3E1,4E0,5E0,2.9E1,5.5E1,2.9E1,3.6E1,1E1,3E0,2.49E2,1.15E2,1.43E2,4E0,1.5E1,1.22E3,7.4E1,4.8E1],"tree_param":{"num_deleted":"0","num_feature":"12","num_nodes":"123","size_leaf_vector":"1"}},{"base_weights":[2.0813146E-4,8.448688E-2,-5.655616E-2,3.1591862E-2,1.04924254E-1,-1.1850888E-2,-8.0505036E-2,1.2989742E-2,1.1104434E-1,2.0837007E-1,8.562541E-2,1.1035555E-1,-2.1248607E-2,3.639585E-2,-8.44844E-2,-5.132862E-3,1.7571691E-2,5.6843072E-2,1.5881719E-1,2.6506045E-1,1.9188991E-1,1.1501683E-1,4.010464E-2,7.2505176E-3,1.4458172E-1,-8.805909E-2,-1.1922859E-2,1.15774214E-1,1.5099833E-3,-1.065249E-1,-6.947803E-2,9.548677E-3,1.0675111E-1,6.633547E-2,-1.9077562E-2,9.7891174E-2,1.7922457E-1,1.4202215E-2,1.9076657E-1,1.131554E-1,2.0266102E-1,1.4083005E-1,5.4049827E-2,-6.338647E-2,5.208557E-2,-2.601639E-2,3.0785494E-2,1.6089788E-1,7.814606E-2,1.605465E-2,-9.326903E-2,3.0602807E-2,-4.104691E-2,1.8025778E-1,4.616158E-2,4.098982E-3,-1.1579961E-2,-7.438392E-2,-1.1157717E-1,-4.338328E-2,-9.050797E-2,1.7625829E-3,-7.964633E-4,6.5835775E-3,1.2833207E-3,1.2277693E-3,4.210887E-3,-1.193792E-3,-3.1603352E-4,5.55264E-4,5.51943E-3,5.7057254E-3,9.530655E-3,1.0931071E-2,4.020076E-3,2.0207106E-3,6.6086287E-3,1.0383774E-2,2.6775904E-3,6.510076E-3,1.4990002E-2,7.232316E-3,1.4034689E-3,-5.8224127E-3,-1.0866899E-3,3.020606E-3,-2.0416256E-3,6.3244504E-4,-2.0506484E-3,-2.7092788E-4,2.2519666E-3,1.5905164E-3,8.342742E-3,7.1316323E-4,4.892776E-3,2.1075134E-3,-1.2045528E-3,-5.233192E-3,-2.6765333E-3,-4.515226E-3,1.9538652E-3,-2.7157562E-3,3.2178604E-3,1.1798501E-2,4.4247E-3,9.89981E-5,4.4973604E-3,-4.8646303E-3,-5.77767E-5,5.87766E-4,-4.3927473E-3,-3.7139934E-3,-5.720779E-3,-2.7666783E-3,2.6534824E-3,-3.3178844E-3,-5.162796E-3],"categories":[],"categories_nodes":[],"categories_segments":[],"categories_sizes":[],"default_left":[0,0,0,0,0,0,0,0,0,0,0,0,0,0,0,0,0,0,0,0,0,0,0,0,0,0,0,0,0,0,0,0,0,0,0,0,0,0,0,0,0,0,0,0,0,0,0,0,0,0,0,0,0,0,0,0,0,0,0,0,0,0,0,0,0,0,0,0,0,0,0,0,0,0,0,0,0,0,0,0,0,0,0,0,0,0,0,0,0,0,0,0,0,0,0,0,0,0,0,0,0,0,0,0,0,0,0,0,0,0,0,0,0,0,0,0,0],"id":10,"left_children":[1,3,5,7,9,11,13,15,17,19,21,23,25,27,29,-1,31,33,35,37,39,41,43,45,47,49,51,53,55,57,59,61,63,65,67,69,71,-1,73,75,77,79,81,83,85,87,89,91,93,95,97,99,101,103,105,-1,107,109,111,113,115,-1,-1,-1,-1,-1,-1,-1,-1,-1,-1,-1,-1,-1,-1,-1,-1,-1,-1,-1,-1,-1,-1,-1,-1,-1,-1,-1,-1,-1,-1,-1,-1,-1,-1,-1,-1,-1,-1,-1,-1,-1,-1,-1,-1,-1,-1,-1,-1,-1,-1,-1,-1,-1,-1,-1,-1],"loss_changes":[2.177687E1,1.9771423E0,2.911189E0,7.552856E-1,2.619382E0,1.0933836E0,8.2692814E-1,2.2223751E-1,2.421391E-1,1.425314E-1,1.4871683E0,2.3891634E-1,5.4911005E-1,1.6320698E-1,5.5916977E-1,0E0,2.8589126E-1,3.5136953E-2,4.5865893E-2,7.870674E-3,1.1614895E-1,1.0578213E0,5.476262E-1,1.4893775E-2,4.2709112E-2,6.0079455E-2,9.6234745E-1,7.247871E-2,4.518974E-2,1.0407066E-1,5.569172E-1,2.4220452E-1,6.330246E-2,2.931115E-2,2.1635531E-4,1.5043095E-2,5.684018E-3,0E0,1.9312948E-2,2.5091648E-2,9.5799446E-2,7.635336E-1,4.7374856E-1,9.9136725E-2,3.072996E-1,5.157546E-3,5.920563E-3,2.5451064E-2,1.3713397E-2,7.3012053E-3,4.1036725E-2,3.2731152E-1,6.4821523E-1,2.5129348E-2,1.9167105E-2,0E0,3.2947265E-2,1.1359E-1,5.45969E-2,5.308457E-1,1.670928E-1,0E0,0E0,0E0,0E0,0E0,0E0,0E0,0E0,0E0,0E0,0E0,0E0,0E0,0E0,0E0,0E0,0E0,0E0,0E0,0E0,0E0,0E0,0E0,0E0,0E0,0E0,0E0,0E0,0E0,0E0,0E0,0E0,0E0,0E0,0E0,0E0,0E0,0E0,0E0,0E0,0E0,0E0,0E0,0E0,0E0,0E0,0E0,0E0,0E0,0E0,0E0,0E0,0E0,0E0,0E0,0E0],"parents":[2147483647,0,0,1,1,2,2,3,3,4,4,5,5,6,6,7,7,8,8,9,9,10,10,11,11,12,12,13,13,14,14,16,16,17,17,18,18,19,19,20,20,21,21,22,22,23,23,24,24,25,25,26,26,27,27,28,28,29,29,30,30,31,31,32,32,33,33,34,34,35,35,36,36,38,38,39,39,40,40,41,41,42,42,43,43,44,44,45,45,46,46,47,47,48,48,49,49,50,50,51,51,52,52,53,53,54,54,56,56,57,57,58,58,59,59,60,60],"right_children":[2,4,6,8,10,12,14,16,18,20,22,24,26,28,30,-1,32,34,36,38,40,42,44,46,48,50,52,54,56,58,60,62,64,66,68,70,72,-1,74,76,78,80,82,84,86,88,90,92,94,96,98,100,102,104,106,-1,108,110,112,114,116,-1,-1,-1,-1,-1,-1,-1,-1,-1,-1,-1,-1,-1,-1,-1,-1,-1,-1,-1,-1,-1,-1,-1,-1,-1,-1,-1,-1,-1,-1,-1,-1,-1,-1,-1,-1,-1,-1,-1,-1,-1,-1,-1,-1,-1,-1,-1,-1,-1,-1,-1,-1,-1,-1,-1,-1],"split_conditions":[-3.9222884E-1,-3.043652E-1,-2.6347116E-1,-1.6479811E-1,-1.0414366E0,-1.1502157E0,-1.0324374E0,-2.2246099E-1,-1.0373336E-1,-3.81705E-1,-4.2662507E-1,-5.283705E-1,-1.1406358E0,-1.1639578E0,-1.8539473E-1,-5.132862E-3,2.0238337E-1,-6.9445595E-2,-6.6679484E-1,6.820889E-1,-2.0399103E-1,6.5562284E-1,-3.9194894E-1,-2.1328378E-1,-3.487823E-1,-3.9194894E-1,-1.9873136E-1,-8.83919E-1,-4.272439E-1,-5.2944034E-1,-1.1587841E-1,-4.291864E-1,-2.9510072E-1,-1.1406358E0,1.1489413E-1,-9.4680786E-1,1.4315054E-1,1.4202215E-2,-1.2248602E-1,-2.1183842E-1,-3.941766E-1,1.728006E0,-6.8557835E-1,-4.0895343E-1,1.2041528E0,-3.2429785E-1,-3.7984315E-1,-2.062605E-1,-8.1055E-1,-2.8892294E-1,-2.1123667E-1,-2.2209847E-1,1.5494642E0,-1.9250746E-1,-1.1986843E-1,4.098982E-3,-2.1863465E-1,-3.6924934E-1,-5.953966E-1,8.8895464E-1,-1.4832291E-1,1.7625829E-3,-7.964633E-4,6.5835775E-3,1.2833207E-3,1.2277693E-3,4.210887E-3,-1.193792E-3,-3.1603352E-4,5.55264E-4,5.51943E-3,5.7057254E-3,9.530655E-3,1.0931071E-2,4.020076E-3,2.0207106E-3,6.6086287E-3,1.0383774E-2,2.6775904E-3,6.510076E-3,1.4990002E-2,7.232316E-3,1.4034689E-3,-5.8224127E-3,-1.0866899E-3,3.020606E-3,-2.0416256E-3,6.3244504E-4,-2.0506484E-3,-2.7092788E-4,2.2519666E-3,1.5905164E-3,8.342742E-3,7.1316323E-4,4.892776E-3,2.1075134E-3,-1.2045528E-3,-5.233192E-3,-2.6765333E-3,-4.515226E-3,1.9538652E-3,-2.7157562E-3,3.2178604E-3,1.1798501E-2,4.4247E-3,9.89981E-5,4.4973604E-3,-4.8646303E-3,-5.77767E-5,5.87766E-4,-4.3927473E-3,-3.7139934E-3,-5.720779E-3,-2.7666783E-3,2.6534824E-3,-3.3178844E-3,-5.162796E-3],"split_indices":[1,7,0,5,3,3,3,5,9,6,1,7,7,3,5,0,2,6,7,7,5,7,6,5,9,6,3,8,2,10,0,1,0,7,6,7,11,0,9,5,1,4,9,2,10,0,1,5,8,0,5,5,4,1,5,0,5,6,4,2,3,0,0,0,0,0,0,0,0,0,0,0,0,0,0,0,0,0,0,0,0,0,0,0,0,0,0,0,0,0,0,0,0,0,0,0,0,0,0,0,0,0,0,0,0,0,0,0,0,0,0,0,0,0,0,0,0],"split_type":[0,0,0,0,0,0,0,0,0,0,0,0,0,0,0,0,0,0,0,0,0,0,0,0,0,0,0,0,0,0,0,0,0,0,0,0,0,0,0,0,0,0,0,0,0,0,0,0,0,0,0,0,0,0,0,0,0,0,0,0,0,0,0,0,0,0,0,0,0,0,0,0,0,0,0,0,0,0,0,0,0,0,0,0,0,0,0,0,0,0,0,0,0,0,0,0,0,0,0,0,0,0,0,0,0,0,0,0,0,0,0,0,0,0,0,0,0],"sum_hessian":[4.55E3,1.831E3,2.719E3,5.11E2,1.32E3,9.49E2,1.77E3,4.15E2,9.6E1,2.06E2,1.114E3,6.7E1,8.82E2,5.8E1,1.712E3,1.5E1,4E2,4.6E1,5E1,4.3E1,1.63E2,6.76E2,4.38E2,1.7E1,5E1,1.07E2,7.75E2,1.7E1,4.1E1,6.91E2,1.021E3,3.68E2,3.2E1,4.1E1,5E0,1.4E1,3.6E1,3.2E1,1.1E1,2.1E1,1.42E2,4.74E2,2.02E2,4.5E1,3.93E2,7E0,1E1,3.9E1,1.1E1,5E0,1.02E2,3.15E2,4.6E2,8E0,9E0,5E0,3.6E1,9.6E1,5.95E2,4.57E2,5.64E2,1.83E2,1.85E2,2.4E1,8E0,1.3E1,2.8E1,3E0,2E0,2E0,1.2E1,7E0,2.9E1,8E0,3E0,5E0,1.6E1,1.37E2,5E0,4.46E2,2.8E1,4.4E1,1.58E2,1.9E1,2.6E1,3.61E2,3.2E1,2E0,5E0,3E0,7E0,2E0,3.7E1,3E0,8E0,3E0,2E0,7.8E1,2.4E1,2E1,2.95E2,4.09E2,5.1E1,4E0,4E0,5E0,4E0,3E0,3.3E1,1.3E1,8.3E1,4.4E1,5.51E2,4.07E2,5E1,1.97E2,3.67E2],"tree_param":{"num_deleted":"0","num_feature":"12","num_nodes":"117","size_leaf_vector":"1"}},{"base_weights":[2.2171617E-4,8.03193E-2,-5.3726446E-2,1.0719525E-1,4.336092E-2,-2.3551672E-3,-7.264064E-2,1.1737332E-1,-2.4264602E-2,2.4055868E-2,8.2254104E-2,1.2381224E-1,-1.1971517E-2,3.98416E-2,-7.719374E-2,1.8603118E-1,1.0280591E-1,-5.3916126E-2,1.0188945E-1,-2.1502724E-2,4.0986307E-2,7.168707E-2,1.861859E-1,1.5546748E-2,1.461109E-1,9.144641E-3,-4.9434077E-2,-7.64813E-2,6.428281E-2,-5.2978836E-2,-8.966272E-2,1.7779939E-2,2.0946781E-1,1.2832102E-1,6.2189315E-2,-2.2414524E-2,-6.2843747E-3,7.881202E-3,-7.983103E-3,-4.67794E-2,8.7712305E-3,8.3403155E-2,6.6556744E-3,4.27425E-2,1.0623578E-1,2.0833756E-1,3.23862E-3,-8.42405E-3,2.680448E-3,1.721336E-1,1.0418049E-1,-6.1814293E-2,3.4380347E-2,1.0617134E-1,-6.0720414E-2,-1.4284558E-3,-5.4422147E-3,8.931788E-2,3.4880154E-3,-5.6065567E-2,1.1631907E-1,-1.0242168E-1,-7.195331E-2,-5.352506E-4,2.651619E-3,1.3217548E-2,9.457892E-3,1.5850861E-3,7.072709E-3,-3.5912203E-4,4.0979222E-3,1.3602868E-3,-2.986093E-3,1.3210168E-3,-2.5596663E-3,2.1107649E-4,-3.0112953E-3,9.3302084E-4,-1.4293273E-3,2.1539798E-3,5.915981E-3,-2.9522597E-3,1.7288983E-3,5.028331E-3,5.2840356E-4,6.8857903E-3,2.542542E-3,1.0906565E-2,4.1696955E-3,6.113634E-4,-9.565015E-4,9.023473E-3,2.5423744E-3,1.0016918E-3,6.264201E-3,2.1765463E-3,-4.090583E-3,-5.1354766E-3,2.2616468E-3,1.1013012E-3,6.5183947E-3,-5.022473E-4,-4.384018E-3,2.4939724E-3,7.1368366E-3,1.7207725E-3,-6.112423E-4,-3.5229113E-3,-1.5020086E-3,7.1668364E-3,-6.2564114E-4,-2.3141608E-3,-5.2214614E-3,-1.8934403E-3,-4.5185867E-3],"categories":[],"categories_nodes":[],"categories_segments":[],"categories_sizes":[],"default_left":[0,0,0,0,0,0,0,0,0,0,0,0,0,0,0,0,0,0,0,0,0,0,0,0,0,0,0,0,0,0,0,0,0,0,0,0,0,0,0,0,0,0,0,0,0,0,0,0,0,0,0,0,0,0,0,0,0,0,0,0,0,0,0,0,0,0,0,0,0,0,0,0,0,0,0,0,0,0,0,0,0,0,0,0,0,0,0,0,0,0,0,0,0,0,0,0,0,0,0,0,0,0,0,0,0,0,0,0,0,0,0,0,0,0,0],"id":11,"left_children":[1,3,5,7,9,11,13,15,17,19,21,23,25,27,29,31,33,35,37,39,41,43,45,47,49,51,53,55,57,59,61,63,65,67,69,71,-1,-1,73,75,77,79,81,83,85,87,-1,89,-1,91,93,95,97,99,101,-1,-1,103,105,107,109,111,113,-1,-1,-1,-1,-1,-1,-1,-1,-1,-1,-1,-1,-1,-1,-1,-1,-1,-1,-1,-1,-1,-1,-1,-1,-1,-1,-1,-1,-1,-1,-1,-1,-1,-1,-1,-1,-1,-1,-1,-1,-1,-1,-1,-1,-1,-1,-1,-1,-1,-1,-1,-1],"loss_changes":[1.966972E1,1.8150625E0,2.6427073E0,1.4211359E0,5.784167E-1,8.9080906E-1,1.0212145E0,9.6503925E-1,2.9352432E-1,4.004287E-1,2.6780498E-1,1.23265624E-1,5.399586E-1,2.2667608E-1,5.7224846E-1,6.705699E-1,8.35598E-1,1.3962027E-1,9.311384E-2,1.0830704E-1,5.498874E-1,2.2945857E-1,4.8364222E-2,9.57542E-3,2.8986216E-2,7.846605E-1,4.384758E-1,1.8598557E-2,9.86186E-2,3.47242E-1,2.7733326E-1,2.265932E-2,1.1719751E-1,6.28705E-1,4.339571E-1,8.4928766E-2,0E0,0E0,1.0272026E-2,5.3059608E-2,2.4546906E-2,2.3284733E-1,3.8729057E-1,2.3893629E-1,1.7781007E-1,5.058825E-3,0E0,1.781556E-3,0E0,1.6099155E-2,3.1230107E-2,2.4582347E-1,4.8519883E-1,3.174098E-2,3.1334716E-1,0E0,0E0,8.979115E-2,1.0139895E-2,2.3798561E-1,4.3562397E-2,7.7438354E-2,3.2993007E-1,0E0,0E0,0E0,0E0,0E0,0E0,0E0,0E0,0E0,0E0,0E0,0E0,0E0,0E0,0E0,0E0,0E0,0E0,0E0,0E0,0E0,0E0,0E0,0E0,0E0,0E0,0E0,0E0,0E0,0E0,0E0,0E0,0E0,0E0,0E0,0E0,0E0,0E0,0E0,0E0,0E0,0E0,0E0,0E0,0E0,0E0,0E0,0E0,0E0,0E0,0E0,0E0],"parents":[2147483647,0,0,1,1,2,2,3,3,4,4,5,5,6,6,7,7,8,8,9,9,10,10,11,11,12,12,13,13,14,14,15,15,16,16,17,17,18,18,19,19,20,20,21,21,22,22,23,23,24,24,25,25,26,26,27,27,28,28,29,29,30,30,31,31,32,32,33,33,34,34,35,35,38,38,39,39,40,40,41,41,42,42,43,43,44,44,45,45,47,47,49,49,50,50,51,51,52,52,53,53,54,54,57,57,58,58,59,59,60,60,61,61,62,62],"right_children":[2,4,6,8,10,12,14,16,18,20,22,24,26,28,30,32,34,36,38,40,42,44,46,48,50,52,54,56,58,60,62,64,66,68,70,72,-1,-1,74,76,78,80,82,84,86,88,-1,90,-1,92,94,96,98,100,102,-1,-1,104,106,108,110,112,114,-1,-1,-1,-1,-1,-1,-1,-1,-1,-1,-1,-1,-1,-1,-1,-1,-1,-1,-1,-1,-1,-1,-1,-1,-1,-1,-1,-1,-1,-1,-1,-1,-1,-1,-1,-1,-1,-1,-1,-1,-1,-1,-1,-1,-1,-1,-1,-1,-1,-1,-1,-1],"split_conditions":[-3.9222884E-1,-2.3411384E-1,-2.785117E-1,9.892025E-1,-1.9435456E-1,-1.1502157E0,-1.0524426E0,-1.1748399E0,-3.707676E-1,-3.744133E-1,-1.5324171E-1,-5.4530406E-1,5.094608E-1,-2.1328378E-1,-1.6325548E-1,-1.3284582E-1,-4.2607492E-1,-1.3432659E-3,-3.1321034E-1,4.2773232E-1,-4.300354E-1,-1.1151912E-1,-1.5187752E-1,-3.7984315E-1,-1.257319E0,-8.7963146E-1,-4.2910567E-1,-1.1291236E0,-1.9137354E-1,1.047617E0,-1.2543742E-1,-7.0511657E-1,-7.785515E-1,-4.0277225E-1,-2.1913664E-1,-3.0787063E-1,-6.2843747E-3,7.881202E-3,-2.9510072E-1,-9.32822E-1,3.751095E-1,-3.3580545E-1,-7.7004313E-1,-7.092441E-1,9.088781E-1,1.1620482E0,3.23862E-3,-3.2429785E-1,2.680448E-3,-3.1274822E-1,-6.9368845E-1,-8.558616E-1,-2.2233854E-1,-2.0655149E-1,-2.4510619E-1,-1.4284558E-3,-5.4422147E-3,-2.3767166E-1,-4.9990752E-1,-1.4955719E-1,-1.2153951E-1,-3.6924934E-1,5.410303E-2,-5.352506E-4,2.651619E-3,1.3217548E-2,9.457892E-3,1.5850861E-3,7.072709E-3,-3.5912203E-4,4.0979222E-3,1.3602868E-3,-2.986093E-3,1.3210168E-3,-2.5596663E-3,2.1107649E-4,-3.0112953E-3,9.3302084E-4,-1.4293273E-3,2.1539798E-3,5.915981E-3,-2.9522597E-3,1.7288983E-3,5.028331E-3,5.2840356E-4,6.8857903E-3,2.542542E-3,1.0906565E-2,4.1696955E-3,6.113634E-4,-9.565015E-4,9.023473E-3,2.5423744E-3,1.0016918E-3,6.264201E-3,2.1765463E-3,-4.090583E-3,-5.1354766E-3,2.2616468E-3,1.1013012E-3,6.5183947E-3,-5.022473E-4,-4.384018E-3,2.4939724E-3,7.1368366E-3,1.7207725E-3,-6.112423E-4,-3.5229113E-3,-1.5020086E-3,7.1668364E-3,-6.2564114E-4,-2.3141608E-3,-5.2214614E-3,-1.8934403E-3,-4.5185867E-3],"split_indices":[1,8,0,7,5,3,3,3,2,2,2,7,7,5,1,7,1,3,3,9,1,3,6,1,3,7,2,3,0,2,5,7,9,6,5,0,0,0,0,3,3,7,4,4,9,2,0,0,0,10,8,4,5,5,3,0,0,1,9,5,10,6,0,0,0,0,0,0,0,0,0,0,0,0,0,0,0,0,0,0,0,0,0,0,0,0,0,0,0,0,0,0,0,0,0,0,0,0,0,0,0,0,0,0,0,0,0,0,0,0,0,0,0,0,0],"split_type":[0,0,0,0,0,0,0,0,0,0,0,0,0,0,0,0,0,0,0,0,0,0,0,0,0,0,0,0,0,0,0,0,0,0,0,0,0,0,0,0,0,0,0,0,0,0,0,0,0,0,0,0,0,0,0,0,0,0,0,0,0,0,0,0,0,0,0,0,0,0,0,0,0,0,0,0,0,0,0,0,0,0,0,0,0,0,0,0,0,0,0,0,0,0,0,0,0,0,0,0,0,0,0,0,0,0,0,0,0,0,0,0,0,0,0],"sum_hessian":[4.55E3,1.831E3,2.719E3,1.059E3,7.72E2,7.32E2,1.987E3,9.83E2,7.6E1,5.17E2,2.55E2,5.1E1,6.81E2,7.7E1,1.91E3,1.7E2,8.13E2,6.2E1,1.4E1,1.4E2,3.77E2,2.33E2,2.2E1,9E0,4.2E1,4.36E2,2.45E2,1.3E1,6.4E1,6.51E2,1.259E3,2.1E1,1.49E2,4.98E2,3.15E2,4.4E1,1.8E1,9E0,5E0,7.6E1,6.4E1,1.68E2,2.09E2,1.28E2,1.05E2,1.8E1,4E0,6E0,3E0,2.4E1,1.8E1,1.14E2,3.22E2,1.6E1,2.29E2,6E0,7E0,4.5E1,1.9E1,6.4E2,1.1E1,7.29E2,5.3E2,1.2E1,9E0,3.7E1,1.12E2,6E1,4.38E2,7E1,2.45E2,1.9E1,2.5E1,3E0,2E0,1.6E1,6E1,5.1E1,1.3E1,7.9E1,8.9E1,6.2E1,1.47E2,4.5E1,8.3E1,6.6E1,3.9E1,1.6E1,2E0,2E0,4E0,2.2E1,2E0,4E0,1.4E1,1.8E1,9.6E1,2.3E1,2.99E2,4E0,1.2E1,8E1,1.49E2,2.7E1,1.8E1,6E0,1.3E1,4.11E2,2.29E2,9E0,2E0,2.6E1,7.03E2,1.87E2,3.43E2],"tree_param":{"num_deleted":"0","num_feature":"12","num_nodes":"115","size_leaf_vector":"1"}},{"base_weights":[2.2893782E-4,7.7589676E-2,-5.0231125E-2,2.887317E-2,9.645208E-2,-1.3393027E-3,-6.9025554E-2,4.9230317E-3,8.311781E-2,1.7723656E-1,7.459882E-2,1.1396832E-1,-1.0419313E-2,3.789913E-2,-7.334918E-2,-4.9813725E-3,9.901792E-3,3.841084E-2,1.2849587E-1,1.923114E-1,1.16208024E-1,9.907909E-2,2.349646E-2,1.5002942E-2,1.3259992E-1,1.50066195E-2,-3.6539946E-2,-7.314799E-2,6.1233908E-2,-9.475515E-2,-6.040839E-2,2.7233462E-3,8.851106E-2,-5.4381795E-2,4.6782587E-2,1.4300959E-1,5.9939466E-2,2.1188548E-1,1.6502497E-1,1.494835E-1,5.2046075E-2,1.2282076E-1,4.0708452E-2,-5.8456838E-2,3.3661243E-2,-8.052151E-3,2.579931E-3,1.4902954E-1,6.5282114E-2,-1.727842E-2,7.250756E-2,-5.081749E-2,5.9231106E-2,-2.7344724E-2,-5.2041174E-3,8.506135E-2,3.3690922E-3,-3.6384586E-2,-9.841425E-2,-3.77236E-2,-8.254248E-2,1.9941998E-3,-7.274504E-4,5.332356E-3,-2.3483522E-3,-4.398028E-5,-3.7803375E-3,2.5941345E-3,-9.4078307E-4,6.129429E-3,9.305857E-3,5.525415E-3,9.3910196E-5,1.7232195E-3,1.0725576E-2,5.429031E-3,9.2769135E-3,1.0381899E-2,6.012726E-3,-1.0051546E-3,3.034939E-3,5.621772E-3,1.3161725E-2,6.8021095E-3,7.3351717E-4,-1.1912703E-3,-5.1210755E-3,3.2720508E-3,3.485157E-4,2.2351147E-4,-1.3119368E-3,8.069262E-4,7.808111E-3,-3.2143397E-4,4.096607E-3,-3.7402473E-3,5.3394353E-4,-3.7233133E-3,4.3359576E-3,-4.347242E-3,-1.0311963E-3,1.05468035E-2,2.7628287E-4,-6.010269E-4,-1.5535146E-3,2.373727E-3,6.7987763E-3,1.647025E-3,-5.8286305E-4,-2.6931714E-3,4.164598E-3,-2.7552973E-3,-5.104277E-3,-2.3017235E-3,2.5669697E-3,-3.0787599E-3,-4.6903538E-3],"categories":[],"categories_nodes":[],"categories_segments":[],"categories_sizes":[],"default_left":[0,0,0,0,0,0,0,0,0,0,0,0,0,0,0,0,0,0,0,0,0,0,0,0,0,0,0,0,0,0,0,0,0,0,0,0,0,0,0,0,0,0,0,0,0,0,0,0,0,0,0,0,0,0,0,0,0,0,0,0,0,0,0,0,0,0,0,0,0,0,0,0,0,0,0,0,0,0,0,0,0,0,0,0,0,0,0,0,0,0,0,0,0,0,0,0,0,0,0,0,0,0,0,0,0,0,0,0,0,0,0,0,0,0,0,0,0],"id":12,"left_children":[1,3,5,7,9,11,13,15,17,19,21,23,25,27,29,-1,31,33,35,37,39,41,43,45,47,49,51,53,55,57,59,61,63,65,67,69,71,73,75,77,79,81,83,85,87,89,-1,91,93,95,97,99,101,103,-1,105,107,109,111,113,115,-1,-1,-1,-1,-1,-1,-1,-1,-1,-1,-1,-1,-1,-1,-1,-1,-1,-1,-1,-1,-1,-1,-1,-1,-1,-1,-1,-1,-1,-1,-1,-1,-1,-1,-1,-1,-1,-1,-1,-1,-1,-1,-1,-1,-1,-1,-1,-1,-1,-1,-1,-1,-1,-1,-1,-1],"loss_changes":[1.776931E1,1.6484966E0,2.5314593E0,6.5307164E-1,2.2729769E0,8.031852E-1,9.227619E-1,1.8317263E-1,3.0748665E-1,2.3065186E-1,1.2749429E0,1.0126805E-1,4.7275293E-1,2.0659742E-1,5.241966E-1,0E0,1.8879688E-1,6.391422E-2,6.704867E-2,8.200264E-2,1.1391604E-1,9.5121336E-1,2.7853617E-1,8.852647E-3,4.2253375E-2,6.714205E-1,4.8295876E-1,1.6990416E-2,8.933352E-2,1.4998579E-1,5.969038E-1,1.9827063E-1,7.380594E-2,7.882569E-3,2.5398925E-2,3.176272E-2,4.3833796E-2,5.0380707E-2,9.1008425E-2,3.7923098E-2,1.4330231E-2,6.849413E-1,4.969486E-1,5.3894475E-2,2.5062042E-1,1.7114684E-3,0E0,3.255093E-2,1.36605725E-2,3.7392116E-1,2.7799267E-1,3.319958E-1,3.7361407E-1,2.6157126E-5,0E0,8.157486E-2,9.271005E-3,9.652589E-2,1.0185671E-1,4.4055617E-1,1.3688183E-1,0E0,0E0,0E0,0E0,0E0,0E0,0E0,0E0,0E0,0E0,0E0,0E0,0E0,0E0,0E0,0E0,0E0,0E0,0E0,0E0,0E0,0E0,0E0,0E0,0E0,0E0,0E0,0E0,0E0,0E0,0E0,0E0,0E0,0E0,0E0,0E0,0E0,0E0,0E0,0E0,0E0,0E0,0E0,0E0,0E0,0E0,0E0,0E0,0E0,0E0,0E0,0E0,0E0,0E0,0E0,0E0],"parents":[2147483647,0,0,1,1,2,2,3,3,4,4,5,5,6,6,7,7,8,8,9,9,10,10,11,11,12,12,13,13,14,14,16,16,17,17,18,18,19,19,20,20,21,21,22,22,23,23,24,24,25,25,26,26,27,27,28,28,29,29,30,30,31,31,32,32,33,33,34,34,35,35,36,36,37,37,38,38,39,39,40,40,41,41,42,42,43,43,44,44,45,45,47,47,48,48,49,49,50,50,51,51,52,52,53,53,55,55,56,56,57,57,58,58,59,59,60,60],"right_children":[2,4,6,8,10,12,14,16,18,20,22,24,26,28,30,-1,32,34,36,38,40,42,44,46,48,50,52,54,56,58,60,62,64,66,68,70,72,74,76,78,80,82,84,86,88,90,-1,92,94,96,98,100,102,104,-1,106,108,110,112,114,116,-1,-1,-1,-1,-1,-1,-1,-1,-1,-1,-1,-1,-1,-1,-1,-1,-1,-1,-1,-1,-1,-1,-1,-1,-1,-1,-1,-1,-1,-1,-1,-1,-1,-1,-1,-1,-1,-1,-1,-1,-1,-1,-1,-1,-1,-1,-1,-1,-1,-1,-1,-1,-1,-1,-1,-1],"split_conditions":[-3.941766E-1,-3.043652E-1,-2.785117E-1,-1.951154E-1,-8.6783046E-1,-1.1502157E0,-1.0524426E0,-2.2246099E-1,-1.3750233E-1,-2.4422939E-1,-4.2302456E-1,-5.4530406E-1,-9.0481386E-2,-2.1328378E-1,-1.9092277E-1,-4.9813725E-3,2.0238337E-1,-5.732938E-1,-3.0246532E-1,-4.2459247E-1,-1.0324374E0,6.947908E-1,-3.951805E-1,-3.7984315E-1,-3.487823E-1,3.016225E-1,1.5494642E0,-1.1291236E0,-1.9137354E-1,-3.3453766E-1,-1.1587841E-1,-7.582314E-1,-3.678279E-1,-3.728917E-1,-6.9445595E-2,-6.4913726E-1,-7.4197733E-1,-2.223072E-1,-2.0399103E-1,-7.336088E-1,-8.288043E-1,1.728006E0,-6.8557835E-1,9.207059E-1,-2.0450474E-1,-2.94886E-1,2.579931E-3,-2.062605E-1,-1.0614607E0,-8.00213E-1,-7.7726924E-1,-2.134029E-1,-3.9194894E-1,-1.9807465E-1,-5.2041174E-3,-2.3767166E-1,-4.9990752E-1,3.067272E-1,-7.421564E-1,8.8895464E-1,-1.4832291E-1,1.9941998E-3,-7.274504E-4,5.332356E-3,-2.3483522E-3,-4.398028E-5,-3.7803375E-3,2.5941345E-3,-9.4078307E-4,6.129429E-3,9.305857E-3,5.525415E-3,9.3910196E-5,1.7232195E-3,1.0725576E-2,5.429031E-3,9.2769135E-3,1.0381899E-2,6.012726E-3,-1.0051546E-3,3.034939E-3,5.621772E-3,1.3161725E-2,6.8021095E-3,7.3351717E-4,-1.1912703E-3,-5.1210755E-3,3.2720508E-3,3.485157E-4,2.2351147E-4,-1.3119368E-3,8.069262E-4,7.808111E-3,-3.2143397E-4,4.096607E-3,-3.7402473E-3,5.3394353E-4,-3.7233133E-3,4.3359576E-3,-4.347242E-3,-1.0311963E-3,1.05468035E-2,2.7628287E-4,-6.010269E-4,-1.5535146E-3,2.373727E-3,6.7987763E-3,1.647025E-3,-5.8286305E-4,-2.6931714E-3,4.164598E-3,-2.7552973E-3,-5.104277E-3,-2.3017235E-3,2.5669697E-3,-3.0787599E-3,-4.6903538E-3],"split_indices":[1,7,0,5,3,3,3,5,9,6,1,7,3,5,5,0,2,8,0,1,3,7,6,1,9,9,4,3,0,1,0,10,6,9,6,4,4,5,5,8,10,4,9,7,5,0,0,5,4,7,8,5,6,1,0,1,9,2,10,2,3,0,0,0,0,0,0,0,0,0,0,0,0,0,0,0,0,0,0,0,0,0,0,0,0,0,0,0,0,0,0,0,0,0,0,0,0,0,0,0,0,0,0,0,0,0,0,0,0,0,0,0,0,0,0,0,0],"split_type":[0,0,0,0,0,0,0,0,0,0,0,0,0,0,0,0,0,0,0,0,0,0,0,0,0,0,0,0,0,0,0,0,0,0,0,0,0,0,0,0,0,0,0,0,0,0,0,0,0,0,0,0,0,0,0,0,0,0,0,0,0,0,0,0,0,0,0,0,0,0,0,0,0,0,0,0,0,0,0,0,0,0,0,0,0,0,0,0,0,0,0,0,0,0,0,0,0,0,0,0,0,0,0,0,0,0,0,0,0,0,0,0,0,0,0,0,0],"sum_hessian":[4.55E3,1.796E3,2.754E3,5.02E2,1.294E3,7.65E2,1.989E3,3.49E2,1.53E2,2.74E2,1.02E3,5.5E1,7.1E2,7.7E1,1.912E3,1.5E1,3.34E2,7.8E1,7.5E1,2.18E2,5.6E1,6.89E2,3.31E2,9E0,4.6E1,3.6E2,3.5E2,1.3E1,6.4E1,7.18E2,1.194E3,3.07E2,2.7E1,6E0,7.2E1,6.1E1,1.4E1,1.23E2,9.5E1,3.6E1,2E1,4.89E2,2E2,3.6E1,2.95E2,6E0,3E0,3.6E1,1E1,2.31E2,1.29E2,3.05E2,4.5E1,6E0,7E0,4.5E1,1.9E1,4.3E1,6.75E2,5.91E2,6.03E2,9.7E1,2.1E2,2.4E1,3E0,2E0,4E0,6.7E1,5E0,4.4E1,1.7E1,7E0,7E0,2E0,1.21E2,2.7E1,6.8E1,1E1,2.6E1,2E0,1.8E1,4.57E2,3.2E1,4.2E1,1.58E2,2.1E1,1.5E1,1.34E2,1.61E2,4E0,2E0,2E0,3.4E1,2E0,8E0,7.5E1,1.56E2,1.1E1,1.18E2,1.38E2,1.67E2,1.1E1,3.4E1,2E0,4E0,2.7E1,1.8E1,6E0,1.3E1,3.8E1,5E0,5.4E1,6.21E2,5.41E2,5E1,2.13E2,3.9E2],"tree_param":{"num_deleted":"0","num_feature":"12","num_nodes":"117","size_leaf_vector":"1"}},{"base_weights":[2.3794209E-4,6.063002E-2,-5.8222108E-2,8.6161725E-2,2.2900233E-2,4.0794658E-3,-6.645779E-2,3.3598647E-2,1.0620539E-1,1.0865304E-1,7.3297764E-3,-3.9678097E-2,3.515195E-2,-3.300228E-3,-7.226207E-2,8.104897E-3,8.535557E-2,1.8366548E-1,8.798931E-2,2.0966688E-2,1.4264105E-1,-1.1035003E-2,5.1617533E-2,-6.523944E-2,1.1936501E-1,7.9760976E-2,-3.0586649E-2,-7.154291E-2,7.692618E-2,-5.064347E-2,-8.039145E-2,-4.6834634E-3,1.3653248E-2,4.2199764E-2,1.2255067E-1,1.9096181E-1,5.22172E-2,1.2724844E-1,5.9619542E-2,3.2207005E-2,-2.4048134E-3,1.6731237E-1,1.0876916E-1,-5.511339E-2,5.774117E-3,-7.103955E-2,6.00926E-2,-1.0128226E-1,-4.0724285E-2,-3.4228694E-3,1.0762351E-2,2.1858212E-2,9.9025875E-2,-4.576414E-2,8.32735E-2,4.930523E-3,-7.969811E-2,9.160037E-2,1.2049526E-3,-6.220381E-2,-2.1907039E-2,-8.960689E-2,-6.609164E-2,2.3928071E-4,4.2716726E-3,2.467167E-3,1.4881336E-4,6.4679026E-3,-6.800713E-4,9.677561E-3,1.6585743E-3,9.3234604E-4,3.8542305E-3,9.326715E-3,5.5072024E-3,2.1440403E-3,7.90671E-3,9.0009486E-4,4.3227873E-3,2.119373E-3,8.93644E-3,7.238378E-4,6.00969E-3,4.5772936E-4,-3.59662E-3,4.962103E-3,-2.0955126E-4,-4.4411892E-4,-4.6417336E-3,4.4263215E-3,9.2743355E-4,-5.9156804E-3,-3.7419691E-3,4.08E-3,-3.341057E-3,2.2815308E-3,-5.0194445E-3,5.4938123E-3,-9.2376303E-4,7.1714893E-3,3.5091478E-3,2.0582944E-3,-2.9251443E-3,5.473835E-3,1.5546456E-4,2.266908E-3,-1.4782131E-3,-1.2994538E-3,-4.408549E-3,3.1243145E-4,5.236844E-3,-5.29528E-4,1.6670687E-3,-3.9037236E-3,-1.2520406E-3,-1.419224E-3,8.516007E-3,-1.0987155E-3,-4.6068896E-3,-2.057919E-3,-4.0644053E-3],"categories":[],"categories_nodes":[],"categories_segments":[],"categories_sizes":[],"default_left":[0,0,0,0,0,0,0,0,0,0,0,0,0,0,0,0,0,0,0,0,0,0,0,0,0,0,0,0,0,0,0,0,0,0,0,0,0,0,0,0,0,0,0,0,0,0,0,0,0,0,0,0,0,0,0,0,0,0,0,0,0,0,0,0,0,0,0,0,0,0,0,0,0,0,0,0,0,0,0,0,0,0,0,0,0,0,0,0,0,0,0,0,0,0,0,0,0,0,0,0,0,0,0,0,0,0,0,0,0,0,0,0,0,0,0,0,0,0,0,0,0],"id":13,"left_children":[1,3,5,7,9,11,13,15,17,19,21,23,25,27,29,31,33,35,37,39,41,43,45,47,49,51,53,55,57,59,61,-1,63,65,67,69,71,73,75,77,-1,79,81,83,85,87,89,91,93,95,-1,97,99,101,103,105,107,109,111,113,115,117,119,-1,-1,-1,-1,-1,-1,-1,-1,-1,-1,-1,-1,-1,-1,-1,-1,-1,-1,-1,-1,-1,-1,-1,-1,-1,-1,-1,-1,-1,-1,-1,-1,-1,-1,-1,-1,-1,-1,-1,-1,-1,-1,-1,-1,-1,-1,-1,-1,-1,-1,-1,-1,-1,-1,-1,-1,-1,-1],"loss_changes":[1.6070944E1,2.1548681E0,1.1870613E0,1.4029303E0,1.2075691E0,3.698616E-1,7.486944E-1,4.875151E-1,1.3468838E0,4.1126883E-1,6.2439746E-1,4.6717247E-1,4.6871263E-1,9.526553E-1,3.2474804E-1,1.4188391E-1,1.9066083E-1,1.6554213E-1,8.6561155E-1,3.260062E-2,6.536794E-2,4.0263715E-1,2.3816246E-1,8.2467705E-2,1.8910713E-1,1.0380715E-1,1.16138205E-1,5.9016615E-2,8.8781446E-2,1.693896E-1,1.7303371E-1,0E0,1.504465E-1,1.610452E-2,6.200403E-2,6.42643E-2,7.7454727E-3,3.1206226E-1,7.468171E-1,2.5414947E-2,0E0,7.2291136E-2,4.673654E-2,1.6279703E-1,3.6739594E-1,1.9496262E-2,2.476024E-1,8.709401E-3,1.9698936E-1,4.2632975E-2,0E0,9.078181E-2,8.08661E-2,6.663634E-2,1.6464073E-2,1.5278916E-2,3.638941E-2,7.446748E-2,5.660022E-3,2.1391225E-1,1.9036031E-1,1.3884926E-1,1.9974327E-1,0E0,0E0,0E0,0E0,0E0,0E0,0E0,0E0,0E0,0E0,0E0,0E0,0E0,0E0,0E0,0E0,0E0,0E0,0E0,0E0,0E0,0E0,0E0,0E0,0E0,0E0,0E0,0E0,0E0,0E0,0E0,0E0,0E0,0E0,0E0,0E0,0E0,0E0,0E0,0E0,0E0,0E0,0E0,0E0,0E0,0E0,0E0,0E0,0E0,0E0,0E0,0E0,0E0,0E0,0E0,0E0,0E0,0E0],"parents":[2147483647,0,0,1,1,2,2,3,3,4,4,5,5,6,6,7,7,8,8,9,9,10,10,11,11,12,12,13,13,14,14,15,15,16,16,17,17,18,18,19,19,20,20,21,21,22,22,23,23,24,24,25,25,26,26,27,27,28,28,29,29,30,30,32,32,33,33,34,34,35,35,36,36,37,37,38,38,39,39,41,41,42,42,43,43,44,44,45,45,46,46,47,47,48,48,49,49,51,51,52,52,53,53,54,54,55,55,56,56,57,57,58,58,59,59,60,60,61,61,62,62],"right_children":[2,4,6,8,10,12,14,16,18,20,22,24,26,28,30,32,34,36,38,40,42,44,46,48,50,52,54,56,58,60,62,-1,64,66,68,70,72,74,76,78,-1,80,82,84,86,88,90,92,94,96,-1,98,100,102,104,106,108,110,112,114,116,118,120,-1,-1,-1,-1,-1,-1,-1,-1,-1,-1,-1,-1,-1,-1,-1,-1,-1,-1,-1,-1,-1,-1,-1,-1,-1,-1,-1,-1,-1,-1,-1,-1,-1,-1,-1,-1,-1,-1,-1,-1,-1,-1,-1,-1,-1,-1,-1,-1,-1,-1,-1,-1,-1,-1,-1,-1,-1,-1],"split_conditions":[-3.597511E-1,-4.154676E-1,-2.8971475E-1,-3.043652E-1,-1.0974718E0,-2.1392027E-1,-8.365638E-1,-1.9740868E-1,-8.5253066E-1,-3.896612E-1,-1.9429496E-1,6.230428E-1,-4.839298E-1,-6.973375E-2,-2.0908086E-1,-2.2246099E-1,-1.0373336E-1,-2.2800988E-1,3.7983978E-1,-1.369794E-1,-3.9985538E-1,-2.1183842E-1,-2.2220322E-1,-2.1964483E-1,1.7520463E0,-3.9330631E-1,4.2125057E-2,-1.1502157E0,-1.0315513E-1,-2.8808227E-1,-1.3158818E-1,-4.6834634E-3,1.1152901E-1,1.3558055E0,7.992171E-1,-7.8605495E-2,-1.8283328E-1,-4.5078462E-1,1.2007624E0,2.11361E-1,-2.4048134E-3,-2.062605E-1,-9.982648E-1,-3.1747615E-1,-9.3349695E-1,-6.20088E-1,-3.0134612E-1,6.2332743E-1,-6.041954E-1,-3.184156E-1,1.0762351E-2,-3.6924934E-1,-7.877E-1,-7.1661824E-1,-2.1207815E-1,-1.9791397E-1,-1.5885509E0,-9.0225315E-1,-4.2782634E-2,-1.478772E-1,1.7520463E0,-3.686092E-1,5.410303E-2,2.3928071E-4,4.2716726E-3,2.467167E-3,1.4881336E-4,6.4679026E-3,-6.800713E-4,9.677561E-3,1.6585743E-3,9.3234604E-4,3.8542305E-3,9.326715E-3,5.5072024E-3,2.1440403E-3,7.90671E-3,9.0009486E-4,4.3227873E-3,2.119373E-3,8.93644E-3,7.238378E-4,6.00969E-3,4.5772936E-4,-3.59662E-3,4.962103E-3,-2.0955126E-4,-4.4411892E-4,-4.6417336E-3,4.4263215E-3,9.2743355E-4,-5.9156804E-3,-3.7419691E-3,4.08E-3,-3.341057E-3,2.2815308E-3,-5.0194445E-3,5.4938123E-3,-9.2376303E-4,7.1714893E-3,3.5091478E-3,2.0582944E-3,-2.9251443E-3,5.473835E-3,1.5546456E-4,2.266908E-3,-1.4782131E-3,-1.2994538E-3,-4.408549E-3,3.1243145E-4,5.236844E-3,-5.29528E-4,1.6670687E-3,-3.9037236E-3,-1.2520406E-3,-1.419224E-3,8.516007E-3,-1.0987155E-3,-4.6068896E-3,-2.057919E-3,-4.0644053E-3],"split_indices":[1,1,0,7,3,5,3,5,3,7,2,4,4,7,1,5,9,6,7,2,11,5,5,5,3,2,2,3,0,2,5,0,2,4,9,8,2,1,4,11,0,5,10,0,10,8,4,7,4,1,0,6,4,8,5,4,9,4,5,5,3,6,0,0,0,0,0,0,0,0,0,0,0,0,0,0,0,0,0,0,0,0,0,0,0,0,0,0,0,0,0,0,0,0,0,0,0,0,0,0,0,0,0,0,0,0,0,0,0,0,0,0,0,0,0,0,0,0,0,0,0],"split_type":[0,0,0,0,0,0,0,0,0,0,0,0,0,0,0,0,0,0,0,0,0,0,0,0,0,0,0,0,0,0,0,0,0,0,0,0,0,0,0,0,0,0,0,0,0,0,0,0,0,0,0,0,0,0,0,0,0,0,0,0,0,0,0,0,0,0,0,0,0,0,0,0,0,0,0,0,0,0,0,0,0,0,0,0,0,0,0,0,0,0,0,0,0,0,0,0,0,0,0,0,0,0,0,0,0,0,0,0,0,0,0,0,0,0,0,0,0,0,0,0,0],"sum_hessian":[4.55E3,2.238E3,2.312E3,1.334E3,9.04E2,2.7E2,2.042E3,3.69E2,9.65E2,1.38E2,7.66E2,1.12E2,1.58E2,1.72E2,1.87E3,2.48E2,1.21E2,1.82E2,7.83E2,3.9E1,9.9E1,5.42E2,2.24E2,9.7E1,1.5E1,9.4E1,6.4E1,9.3E1,7.9E1,5.13E2,1.357E3,1.2E1,2.36E2,5.7E1,6.4E1,1.72E2,1E1,3.27E2,4.56E2,3.4E1,5E0,5.5E1,4.4E1,1.49E2,3.93E2,1.4E1,2.1E2,3.8E1,5.9E1,7E0,8E0,2.4E1,7E1,5.7E1,7E0,9E0,8.4E1,6.6E1,1.3E1,3.65E2,1.48E2,8.22E2,5.35E2,2.11E2,2.5E1,4.8E1,9E0,6.1E1,3E0,1.69E2,3E0,5E0,5E0,7.1E1,2.56E2,3.91E2,6.5E1,2.8E1,6E0,5E0,5E1,5E0,3.9E1,3.1E1,1.18E2,3.7E1,3.56E2,4E0,1E1,1.24E2,8.6E1,2.1E1,1.7E1,1E1,4.9E1,5E0,2E0,7E0,1.7E1,2.6E1,4.4E1,7E0,5E1,5E0,2E0,4E0,5E0,1.2E1,7.2E1,9E0,5.7E1,1E1,3E0,2.55E2,1.1E2,1.44E2,4E0,3E1,7.92E2,2.04E2,3.31E2],"tree_param":{"num_deleted":"0","num_feature":"12","num_nodes":"121","size_leaf_vector":"1"}},{"base_weights":[2.4422305E-4,7.017158E-2,-4.5367286E-2,9.1089495E-2,3.276041E-2,-1.2224516E-3,-6.2336918E-2,1.5615007E-1,7.66729E-2,1.3612859E-2,6.756791E-2,2.5955854E-2,-3.3430293E-2,3.5078913E-2,-6.6276334E-2,1.5777186E-2,1.778982E-1,8.6170934E-2,-3.6286063E-2,4.5381878E-2,-8.347284E-3,4.5944158E-2,1.12240046E-1,-5.070975E-2,4.8186846E-2,-4.6602216E-2,5.4918375E-2,-6.757037E-2,5.6648314E-2,-8.589254E-2,-5.4418318E-2,-1.1578252E-2,4.59136E-2,2.2174878E-1,1.629455E-1,1.08172655E-1,4.91706E-2,-5.409316E-2,9.8331094E-2,-2.0495487E-2,7.200882E-2,1.0838893E-2,-6.36769E-2,3.8390055E-2,1.1439337E-1,1.8318473E-1,8.7867334E-2,-6.437803E-2,8.5532665E-2,7.1289286E-2,5.781656E-3,-2.7225416E-2,-9.58542E-2,9.73001E-3,5.4583712E-3,-2.4599621E-2,-4.836174E-3,7.674228E-2,-8.272794E-5,-3.2414038E-2,-8.924633E-2,-3.3621762E-2,-7.47116E-2,2.5668798E-5,-2.399074E-3,8.231899E-4,4.1218023E-3,1.16089005E-2,5.9369477E-3,1.20543325E-2,7.4221618E-3,1.374276E-3,5.950959E-3,-7.571117E-4,3.369445E-3,-1.3416372E-3,-5.772524E-3,5.996194E-3,7.5854413E-4,1.74059E-4,-3.833656E-3,5.5425437E-3,1.8120961E-3,2.844998E-3,-2.0289777E-3,-2.805904E-3,-7.082367E-3,3.4246405E-3,6.758534E-4,7.616295E-3,3.108083E-3,1.5976448E-3,1.0565045E-2,1.9790605E-3,7.876295E-3,1.4297215E-3,-3.4630992E-3,1.4968396E-3,4.857026E-3,4.125913E-3,-2.122559E-4,5.8047404E-3,-2.9150114E-4,-3.3660003E-3,6.9228344E-4,-5.1134336E-3,-1.026479E-3,-5.8860458E-3,2.9719463E-3,-4.6700588E-4,-1.4417699E-3,2.154555E-3,5.8978065E-3,2.529195E-3,-4.788775E-4,-2.4425674E-3,3.9915405E-3,-3.3434741E-3,-4.7915396E-3,-3.2295354E-4,-2.9239007E-3,-4.0288386E-3,