{"learner":{"attributes":{"scikit_learn":"{\"_estimator_type\": \"regressor\"}"},"feature_names":[],"feature_types":[],"gradient_booster":{"model":{"gbtree_model_param":{"num_parallel_tree":"1","num_trees":"200"},"iteration_indptr":[0,1,2,3,4,5,6,7,8,9,10,11,12,13,14,15,16,17,18,19,20,21,22,23,24,25,26,27,28,29,30,31,32,33,34,35,36,37,38,39,40,41,42,43,44,45,46,47,48,49,50,51,52,53,54,55,56,57,58,59,60,61,62,63,64,65,66,67,68,69,70,71,72,73,74,75,76,77,78,79,80,81,82,83,84,85,86,87,88,89,90,91,92,93,94,95,96,97,98,99,100,101,102,103,104,105,106,107,108,109,110,111,112,113,114,115,116,117,118,119,120,121,122,123,124,125,126,127,128,129,130,131,132,133,134,135,136,137,138,139,140,141,142,143,144,145,146,147,148,149,150,151,152,153,154,155,156,157,158,159,160,161,162,163,164,165,166,167,168,169,170,171,172,173,174,175,176,177,178,179,180,181,182,183,184,185,186,187,188,189,190,191,192,193,194,195,196,197,198,199,200],"tree_info":[0,0,0,0,0,0,0,0,0,0,0,0,0,0,0,0,0,0,0,0,0,0,0,0,0,0,0,0,0,0,0,0,0,0,0,0,0,0,0,0,0,0,0,0,0,0,0,0,0,0,0,0,0,0,0,0,0,0,0,0,0,0,0,0,0,0,0,0,0,0,0,0,0,0,0,0,0,0,0,0,0,0,0,0,0,0,0,0,0,0,0,0,0,0,0,0,0,0,0,0,0,0,0,0,0,0,0,0,0,0,0,0,0,0,0,0,0,0,0,0,0,0,0,0,0,0,0,0,0,0,0,0,0,0,0,0,0,0,0,0,0,0,0,0,0,0,0,0,0,0,0,0,0,0,0,0,0,0,0,0,0,0,0,0,0,0,0,0,0,0,0,0,0,0,0,0,0,0,0,0,0,0,0,0,0,0,0,0,0,0,0,0,0,0,0,0,0,0,0,0],"trees":[{"base_weights":[-6.9266988E-9,1.4167558E-1,-9.3863964E-2,2.6915228E-1,1.2131583E-1,-2.0992957E-2,-1.3460334E-1,7.5897545E-2,3.4133694E-1,1.6742767E-1,6.881927E-2,1.7260411E-1,-3.4888834E-2,4.809506E-2,-1.3965595E-1,1.0599785E-1,2.5148993E-2,3.6936733E-1,2.8563088E-1,1.8838795E-2,1.8721388E-1,9.243952E-2,1.211832E-2,1.1815447E-2,2.1566616E-1,9.517369E-3,-7.012015E-2,1.0381387E-2,2.0361159E-2,-1.0334399E-1,-1.5895782E-1,9.3888E-3,9.02961E-2,5.661458E-2,-8.112951E-3,3.7213844E-1,7.000985E-3,7.0107426E-3,2.9286775E-1,3.4500655E-2,-9.758473E-2,2.1176797E-1,1.0436196E-1,4.0805142E-2,1.2640065E-1,-8.2441784E-2,3.3953607E-2,-3.376452E-3,4.680699E-2,2.5661224E-1,1.0749921E-1,-1.2684782E-1,4.808136E-2,-8.754385E-2,7.049962E-2,-2.1146398E-2,7.1720116E-2,-1.3318995E-1,-6.7302525E-2,-1.8550408E-1,-1.4468372E-1,4.741319E-3,2.9169992E-4,3.648625E-4,4.160115E-3,3.53635E-4,-3.307562E-3,1.8747771E-2,7.099288E-3,1.48507E-2,5.685119E-3,1.2981517E-3,5.3278604E-3,-5.577575E-3,-9.2503027E-4,9.947941E-3,1.8761719E-2,3.9338404E-3,1.0849646E-2,2.4747796E-4,1.0549083E-2,8.779274E-3,3.8362003E-3,-2.1398375E-5,-6.745676E-3,7.4207583E-3,3.346088E-4,-3.190225E-4,3.377492E-3,1.3755067E-2,5.761752E-3,2.2143016E-3,7.0499266E-3,-3.1985454E-3,-7.638983E-3,4.212086E-3,-3.4824313E-4,-6.203493E-3,-2.7508324E-3,-2.49089E-3,1.2526308E-2,-3.8888447E-3,6.014953E-4,2.615119E-4,6.551899E-3,-5.2754856E-3,-7.46528E-3,4.0068813E-3,-4.1275034E-3,-5.110518E-3,-9.316445E-3,-3.699926E-3,-7.6278276E-3],"categories":[],"categories_nodes":[],"categories_segments":[],"categories_sizes":[],"default_left":[0,0,0,0,0,0,0,0,0,0,0,0,0,0,0,0,0,0,0,0,0,0,0,0,0,0,0,0,0,0,0,0,0,0,0,0,0,0,0,0,0,0,0,0,0,0,0,0,0,0,0,0,0,0,0,0,0,0,0,0,0,0,0,0,0,0,0,0,0,0,0,0,0,0,0,0,0,0,0,0,0,0,0,0,0,0,0,0,0,0,0,0,0,0,0,0,0,0,0,0,0,0,0,0,0,0,0,0,0,0,0,0,0],"id":0,"left_children":[1,3,5,7,9,11,13,15,17,19,21,23,25,27,29,31,33,35,37,39,41,43,45,47,49,51,53,-1,55,57,59,-1,61,63,65,67,-1,-1,69,71,73,75,77,79,81,83,85,-1,87,89,91,93,95,97,99,101,103,105,107,109,111,-1,-1,-1,-1,-1,-1,-1,-1,-1,-1,-1,-1,-1,-1,-1,-1,-1,-1,-1,-1,-1,-1,-1,-1,-1,-1,-1,-1,-1,-1,-1,-1,-1,-1,-1,-1,-1,-1,-1,-1,-1,-1,-1,-1,-1,-1,-1,-1,-1,-1,-1,-1],"loss_changes":[6.0533554E1,4.6753883E0,8.125526E0,3.447651E0,3.779314E0,2.6504893E0,1.6276894E0,1.0273501E-1,1.7712212E-1,2.4455032E0,9.819186E-1,4.5442843E-1,1.4368683E0,2.0814669E-1,1.1813889E0,3.825918E-2,2.871769E-2,2.2253036E-2,2.7338982E-2,1.8388419E-1,1.4731503E0,9.0318775E-1,4.5084938E-1,4.4806626E-2,2.0272303E-1,2.1464248E0,1.2606316E0,0E0,9.105159E-2,6.3214827E-1,3.9528084E-1,0E0,1.3986975E-2,1.775014E-2,1.2806756E-2,2.1320343E-2,0E0,0E0,1.1543274E-2,5.1370315E-2,1.1190824E-2,1.1104736E0,4.7472835E-1,1.2620239E0,7.488494E-1,1.7638189E-1,5.51315E-1,0E0,1.2566848E-2,6.501436E-2,2.7637303E-2,1.3697255E-1,6.3356304E-1,5.3494287E-1,1.2471195E0,4.6026617E-2,7.425136E-2,1.2922478E-1,6.1809826E-1,7.4748993E-3,3.9439487E-1,0E0,0E0,0E0,0E0,0E0,0E0,0E0,0E0,0E0,0E0,0E0,0E0,0E0,0E0,0E0,0E0,0E0,0E0,0E0,0E0,0E0,0E0,0E0,0E0,0E0,0E0,0E0,0E0,0E0,0E0,0E0,0E0,0E0,0E0,0E0,0E0,0E0,0E0,0E0,0E0,0E0,0E0,0E0,0E0,0E0,0E0,0E0,0E0,0E0,0E0,0E0,0E0],"parents":[2147483647,0,0,1,1,2,2,3,3,4,4,5,5,6,6,7,7,8,8,9,9,10,10,11,11,12,12,13,13,14,14,15,15,16,16,17,17,18,18,19,19,20,20,21,21,22,22,23,23,24,24,25,25,26,26,28,28,29,29,30,30,32,32,33,33,34,34,35,35,38,38,39,39,40,40,41,41,42,42,43,43,44,44,45,45,46,46,48,48,49,49,50,50,51,51,52,52,53,53,54,54,55,55,56,56,57,57,58,58,59,59,60,60],"right_children":[2,4,6,8,10,12,14,16,18,20,22,24,26,28,30,32,34,36,38,40,42,44,46,48,50,52,54,-1,56,58,60,-1,62,64,66,68,-1,-1,70,72,74,76,78,80,82,84,86,-1,88,90,92,94,96,98,100,102,104,106,108,110,112,-1,-1,-1,-1,-1,-1,-1,-1,-1,-1,-1,-1,-1,-1,-1,-1,-1,-1,-1,-1,-1,-1,-1,-1,-1,-1,-1,-1,-1,-1,-1,-1,-1,-1,-1,-1,-1,-1,-1,-1,-1,-1,-1,-1,-1,-1,-1,-1,-1,-1,-1,-1],"split_conditions":[-3.9725673E-1,-1.1196095E0,-2.678779E-1,-2.2827502E-1,-4.3463486E-1,-1.1746275E0,-1.0862437E0,-7.237744E-1,-4.2065418E-1,-9.789541E-1,4.139189E-2,-5.2394485E-1,-2.0439196E-1,-1.1186548E0,-9.784439E-2,5.111294E-2,-7.133042E-1,-2.102696E-1,-1.0828654E0,8.569151E-1,6.699214E-1,-1.1935474E-1,-3.9549178E-1,-3.591257E-1,-3.3663464E-1,-1.0735981E0,1.5219281E0,1.0381387E-2,-4.2223415E-1,-2.0329215E-1,-2.0302063E-1,9.3888E-3,-4.050834E-1,-4.248077E-1,-4.050834E-1,-2.8795022E-1,7.000985E-3,7.0107426E-3,-3.9803502E-1,2.0942435E0,-3.9605802E-1,1.7070125E0,1.1677458E0,-2.7091986E-1,-3.2024398E-1,-4.0304437E-1,-6.502008E-1,-3.376452E-3,-3.851736E-1,6.183862E-1,-9.564197E-1,-5.467319E-1,-2.941735E-1,-5.32075E-3,1.9265453E0,1.5008098E-1,-2.6083264E-1,-2.7032685E-1,-6.93023E-1,-1.0239162E0,-6.173062E-1,4.741319E-3,2.9169992E-4,3.648625E-4,4.160115E-3,3.53635E-4,-3.307562E-3,1.8747771E-2,7.099288E-3,1.48507E-2,5.685119E-3,1.2981517E-3,5.3278604E-3,-5.577575E-3,-9.2503027E-4,9.947941E-3,1.8761719E-2,3.9338404E-3,1.0849646E-2,2.4747796E-4,1.0549083E-2,8.779274E-3,3.8362003E-3,-2.1398375E-5,-6.745676E-3,7.4207583E-3,3.346088E-4,-3.190225E-4,3.377492E-3,1.3755067E-2,5.761752E-3,2.2143016E-3,7.0499266E-3,-3.1985454E-3,-7.638983E-3,4.212086E-3,-3.4824313E-4,-6.203493E-3,-2.7508324E-3,-2.49089E-3,1.2526308E-2,-3.8888447E-3,6.014953E-4,2.615119E-4,6.551899E-3,-5.2754856E-3,-7.46528E-3,4.0068813E-3,-4.1275034E-3,-5.110518E-3,-9.316445E-3,-3.699926E-3,-7.6278276E-3],"split_indices":[0,1,5,8,0,1,1,9,0,8,1,8,1,4,0,7,4,2,4,4,8,8,2,4,9,8,6,0,4,2,8,0,0,0,0,5,0,0,0,3,2,6,6,2,2,2,3,0,0,8,4,6,5,3,1,8,8,0,1,1,1,0,0,0,0,0,0,0,0,0,0,0,0,0,0,0,0,0,0,0,0,0,0,0,0,0,0,0,0,0,0,0,0,0,0,0,0,0,0,0,0,0,0,0,0,0,0,0,0,0,0,0,0],"split_type":[0,0,0,0,0,0,0,0,0,0,0,0,0,0,0,0,0,0,0,0,0,0,0,0,0,0,0,0,0,0,0,0,0,0,0,0,0,0,0,0,0,0,0,0,0,0,0,0,0,0,0,0,0,0,0,0,0,0,0,0,0,0,0,0,0,0,0,0,0,0,0,0,0,0,0,0,0,0,0,0,0,0,0,0,0,0,0,0,0,0,0,0,0,0,0,0,0,0,0,0,0,0,0,0,0,0,0,0,0,0,0,0,0],"sum_hessian":[4.55E3,1.813E3,2.737E3,2.48E2,1.565E3,9.82E2,1.755E3,6.8E1,1.8E2,8.32E2,7.33E2,6.5E1,9.17E2,4.7E1,1.708E3,4.2E1,2.6E1,1.16E2,6.4E1,9.8E1,7.34E2,5.17E2,2.16E2,1.4E1,5.1E1,4.06E2,5.11E2,6E0,4.1E1,5.95E2,1.113E3,5E0,3.7E1,1.3E1,1.3E1,1.14E2,2E0,4E0,6E1,8.7E1,1.1E1,5.65E2,1.69E2,2.06E2,3.11E2,4E1,1.76E2,4E0,1E1,3.6E1,1.5E1,8.9E1,3.17E2,4.55E2,5.6E1,2.3E1,1.8E1,3.24E2,2.71E2,3.85E2,7.28E2,3.5E1,2E0,5E0,8E0,1.1E1,2E0,1.12E2,2E0,5.8E1,2E0,7.9E1,8E0,9E0,2E0,5.26E2,3.9E1,1.39E2,3E1,1.71E2,3.5E1,1.55E2,1.56E2,1.6E1,2.4E1,3.3E1,1.43E2,3E0,7E0,3.1E1,5E0,6E0,9E0,2.7E1,6.2E1,1.91E2,1.26E2,2.13E2,2.42E2,3.4E1,2.2E1,8E0,1.5E1,9E0,9E0,1.22E2,2.02E2,2.5E1,2.46E2,5E0,3.8E2,7.4E1,6.54E2],"tree_param":{"num_deleted":"0","num_feature":"10","num_nodes":"113","size_leaf_vector":"1"}},{"base_weights":[3.125275E-5,1.346714E-1,-8.917155E-2,2.5600144E-1,1.1529347E-1,-1.992035E-2,-1.2788725E-1,7.233444E-2,3.2460377E-1,1.5910864E-1,6.541155E-2,1.6440517E-1,-3.315081E-2,4.5980044E-2,-1.3269575E-1,1.01033345E-1,2.394973E-2,3.5117972E-1,2.7177313E-1,1.7898109E-2,1.7791237E-1,8.681291E-2,8.617788E-3,1.1203473E-2,2.0543632E-1,9.024367E-3,-6.6612035E-2,9.93647E-3,1.9427054E-2,-9.819838E-2,-1.5103304E-1,8.9976E-3,8.591373E-2,5.410706E-2,-7.918297E-3,3.5375628E-1,6.767619E-3,6.730313E-3,2.78561E-1,3.285092E-2,-9.324737E-2,2.012303E-1,9.923082E-2,4.1740384E-2,1.16450414E-1,5.6515116E-2,-3.195557E-2,-3.2413937E-3,4.474468E-2,2.443091E-1,1.02703266E-1,-1.00392066E-1,5.2985527E-2,-8.023218E-2,9.6111454E-2,-2.4102349E-2,6.410419E-2,-1.2656966E-1,-6.393784E-2,-1.7626625E-1,-1.3746507E-1,4.510838E-3,2.8197642E-4,1.4374481E-3,5.5157538E-3,3.3742675E-4,-3.1973098E-3,1.82092E-2,1.2997958E-2,1.5596079E-2,1.1684553E-2,1.2575133E-3,5.3356853E-3,-5.3265835E-3,-8.9419587E-4,9.451488E-3,1.7847085E-2,3.7385528E-3,1.0324664E-2,4.675784E-4,1.0036281E-2,8.781324E-3,4.012383E-3,-2.1292221E-4,6.8573277E-3,1.2874466E-3,-3.4687058E-3,-3.070593E-4,3.2297266E-3,2.3544377E-3,1.2711673E-2,2.119403E-3,6.7326794E-3,4.6541635E-4,-6.5918663E-3,4.1506765E-3,1.7718015E-4,-2.2705717E-3,-5.3235083E-3,-6.5686307E-3,1.189284E-2,-3.8738437E-3,2.9854433E-4,4.0111217E-6,6.115025E-3,-4.212766E-3,-6.831138E-3,3.6760774E-3,-3.9382474E-3,-4.89758E-3,-8.851846E-3,-3.5173965E-3,-7.247019E-3],"categories":[],"categories_nodes":[],"categories_segments":[],"categories_sizes":[],"default_left":[0,0,0,0,0,0,0,0,0,0,0,0,0,0,0,0,0,0,0,0,0,0,0,0,0,0,0,0,0,0,0,0,0,0,0,0,0,0,0,0,0,0,0,0,0,0,0,0,0,0,0,0,0,0,0,0,0,0,0,0,0,0,0,0,0,0,0,0,0,0,0,0,0,0,0,0,0,0,0,0,0,0,0,0,0,0,0,0,0,0,0,0,0,0,0,0,0,0,0,0,0,0,0,0,0,0,0,0,0,0,0,0,0],"id":1,"left_children":[1,3,5,7,9,11,13,15,17,19,21,23,25,27,29,31,33,35,37,39,41,43,45,47,49,51,53,-1,55,57,59,-1,61,63,65,67,-1,-1,69,71,73,75,77,79,81,83,85,-1,87,89,91,93,95,97,99,101,103,105,107,109,111,-1,-1,-1,-1,-1,-1,-1,-1,-1,-1,-1,-1,-1,-1,-1,-1,-1,-1,-1,-1,-1,-1,-1,-1,-1,-1,-1,-1,-1,-1,-1,-1,-1,-1,-1,-1,-1,-1,-1,-1,-1,-1,-1,-1,-1,-1,-1,-1,-1,-1,-1,-1],"loss_changes":[5.467079E1,4.235424E0,7.3383255E0,3.1139145E0,3.412218E0,2.4027038E0,1.4741955E0,9.339288E-2,1.586895E-1,2.2086658E0,8.9140224E-1,4.1257715E-1,1.2961129E0,1.9082496E-1,1.0662613E0,3.584805E-2,2.637691E-2,1.717949E-2,2.3023605E-2,1.6759507E-1,1.3285294E0,7.071409E-1,3.943638E-1,4.1153453E-2,1.8257165E-1,1.9630193E0,1.1424658E0,0E0,8.3225355E-2,5.712285E-1,3.5716248E-1,0E0,1.261729E-2,1.6783152E-2,1.1936069E-2,1.7807007E-2,0E0,0E0,1.8416882E-2,4.7369808E-2,1.0108605E-2,1.0077934E0,4.3057477E-1,1.0949332E0,6.735964E-1,4.5630807E-1,2.3930034E-1,0E0,1.150753E-2,6.044817E-2,2.5125727E-2,4.0482533E-1,4.3173665E-1,4.2731023E-1,1.3210402E0,3.5775784E-2,7.823532E-2,1.2674046E-1,5.6016064E-1,5.955696E-3,3.555584E-1,0E0,0E0,0E0,0E0,0E0,0E0,0E0,0E0,0E0,0E0,0E0,0E0,0E0,0E0,0E0,0E0,0E0,0E0,0E0,0E0,0E0,0E0,0E0,0E0,0E0,0E0,0E0,0E0,0E0,0E0,0E0,0E0,0E0,0E0,0E0,0E0,0E0,0E0,0E0,0E0,0E0,0E0,0E0,0E0,0E0,0E0,0E0,0E0,0E0,0E0,0E0,0E0],"parents":[2147483647,0,0,1,1,2,2,3,3,4,4,5,5,6,6,7,7,8,8,9,9,10,10,11,11,12,12,13,13,14,14,15,15,16,16,17,17,18,18,19,19,20,20,21,21,22,22,23,23,24,24,25,25,26,26,28,28,29,29,30,30,32,32,33,33,34,34,35,35,38,38,39,39,40,40,41,41,42,42,43,43,44,44,45,45,46,46,48,48,49,49,50,50,51,51,52,52,53,53,54,54,55,55,56,56,57,57,58,58,59,59,60,60],"right_children":[2,4,6,8,10,12,14,16,18,20,22,24,26,28,30,32,34,36,38,40,42,44,46,48,50,52,54,-1,56,58,60,-1,62,64,66,68,-1,-1,70,72,74,76,78,80,82,84,86,-1,88,90,92,94,96,98,100,102,104,106,108,110,112,-1,-1,-1,-1,-1,-1,-1,-1,-1,-1,-1,-1,-1,-1,-1,-1,-1,-1,-1,-1,-1,-1,-1,-1,-1,-1,-1,-1,-1,-1,-1,-1,-1,-1,-1,-1,-1,-1,-1,-1,-1,-1,-1,-1,-1,-1,-1,-1,-1,-1,-1,-1],"split_conditions":[-3.9725673E-1,-1.1196095E0,-2.678779E-1,-2.2827502E-1,-4.3463486E-1,-1.1746275E0,-1.0862437E0,-7.237744E-1,-4.2065418E-1,-9.789541E-1,8.871659E-2,-5.2394485E-1,-2.0439196E-1,-1.1186548E0,-9.784439E-2,5.111294E-2,-7.133042E-1,-2.102696E-1,-1.0828654E0,8.569151E-1,6.699214E-1,-1.1935474E-1,-1.2391117E-1,-3.591257E-1,-3.3663464E-1,-7.455741E-1,1.9265453E0,9.93647E-3,-4.628172E-1,-2.0329215E-1,-2.0302063E-1,8.9976E-3,-4.050834E-1,-3.8761964E-1,-4.050834E-1,8.267463E-1,6.767619E-3,6.730313E-3,-7.0562047E-1,2.1934414E0,-3.9605802E-1,1.7070125E0,1.1677458E0,-2.7091986E-1,4.0986598E-1,-3.517697E-1,3.1417078E-1,-3.2413937E-3,-3.851736E-1,-3.6934552E-1,-9.564197E-1,7.575296E-2,-2.941735E-1,-5.088745E-1,9.8298836E-1,1.5008098E-1,-2.6083264E-1,-6.6578466E-1,-6.729611E-1,-1.0239162E0,-6.173062E-1,4.510838E-3,2.8197642E-4,1.4374481E-3,5.5157538E-3,3.3742675E-4,-3.1973098E-3,1.82092E-2,1.2997958E-2,1.5596079E-2,1.1684553E-2,1.2575133E-3,5.3356853E-3,-5.3265835E-3,-8.9419587E-4,9.451488E-3,1.7847085E-2,3.7385528E-3,1.0324664E-2,4.675784E-4,1.0036281E-2,8.781324E-3,4.012383E-3,-2.1292221E-4,6.8573277E-3,1.2874466E-3,-3.4687058E-3,-3.070593E-4,3.2297266E-3,2.3544377E-3,1.2711673E-2,2.119403E-3,6.7326794E-3,4.6541635E-4,-6.5918663E-3,4.1506765E-3,1.7718015E-4,-2.2705717E-3,-5.3235083E-3,-6.5686307E-3,1.189284E-2,-3.8738437E-3,2.9854433E-4,4.0111217E-6,6.115025E-3,-4.212766E-3,-6.831138E-3,3.6760774E-3,-3.9382474E-3,-4.89758E-3,-8.851846E-3,-3.5173965E-3,-7.247019E-3],"split_indices":[0,1,5,8,0,1,1,9,0,8,1,8,1,4,0,7,4,2,4,4,8,8,9,4,9,8,1,0,4,2,8,0,0,2,0,8,0,0,3,3,2,6,6,2,8,2,1,0,0,2,4,3,5,6,6,8,8,6,1,1,1,0,0,0,0,0,0,0,0,0,0,0,0,0,0,0,0,0,0,0,0,0,0,0,0,0,0,0,0,0,0,0,0,0,0,0,0,0,0,0,0,0,0,0,0,0,0,0,0,0,0,0,0],"split_type":[0,0,0,0,0,0,0,0,0,0,0,0,0,0,0,0,0,0,0,0,0,0,0,0,0,0,0,0,0,0,0,0,0,0,0,0,0,0,0,0,0,0,0,0,0,0,0,0,0,0,0,0,0,0,0,0,0,0,0,0,0,0,0,0,0,0,0,0,0,0,0,0,0,0,0,0,0,0,0,0,0,0,0,0,0,0,0,0,0,0,0,0,0,0,0,0,0,0,0,0,0,0,0,0,0,0,0,0,0,0,0,0,0],"sum_hessian":[4.55E3,1.813E3,2.737E3,2.48E2,1.565E3,9.82E2,1.755E3,6.8E1,1.8E2,8.32E2,7.33E2,6.5E1,9.17E2,4.7E1,1.708E3,4.2E1,2.6E1,1.16E2,6.4E1,9.8E1,7.34E2,5.32E2,2.01E2,1.4E1,5.1E1,4.06E2,5.11E2,6E0,4.1E1,5.95E2,1.113E3,5E0,3.7E1,1.3E1,1.3E1,1.14E2,2E0,4E0,6E1,8.7E1,1.1E1,5.65E2,1.69E2,2.12E2,3.2E2,9.2E1,1.09E2,4E0,1E1,3.6E1,1.5E1,1.16E2,2.9E2,4.72E2,3.9E1,2.1E1,2E1,3.24E2,2.71E2,3.85E2,7.28E2,3.5E1,2E0,1E1,3E0,1.1E1,2E0,1E2,1.4E1,3.1E1,2.9E1,8E1,7E0,9E0,2E0,5.26E2,3.9E1,1.39E2,3E1,1.77E2,3.5E1,1.2E2,2E2,5.3E1,3.9E1,4.3E1,6.6E1,3E0,7E0,2E0,3.4E1,6E0,9E0,2.6E1,9E1,1.8E2,1.1E2,2.04E2,2.68E2,1.5E1,2.4E1,7E0,1.4E1,1E1,1E1,6.4E1,2.6E2,2.6E1,2.45E2,5E0,3.8E2,7.4E1,6.54E2],"tree_param":{"num_deleted":"0","num_feature":"10","num_nodes":"113","size_leaf_vector":"1"}},{"base_weights":[6.3870386E-5,1.280257E-1,-8.471437E-2,1.6778392E-1,7.438702E-2,-4.2089396E-3,-1.1480585E-1,2.7727678E-1,1.4141548E-1,9.7339675E-2,2.8371738E-2,4.721216E-2,-5.520745E-2,4.3344866E-2,-1.21270135E-1,2.6616948E-2,3.0951586E-1,1.8511114E-1,7.584143E-2,2.6152773E-2,1.2456106E-1,6.958782E-3,1.3004759E-1,-1.0316362E-1,7.9983294E-2,-7.4017E-2,8.43741E-2,-2.9887723E-2,9.126358E-2,-8.555518E-2,-1.4182255E-1,5.0134175E-2,-1.1320587E-2,3.357704E-1,2.587077E-1,1.9706187E-1,-1.0279121E-2,9.432499E-2,-6.828447E-2,9.688241E-2,4.2522284E-3,2.486824E-1,1.1337442E-1,5.885054E-2,-9.122663E-3,1.5836693E-1,-2.0725228E-2,2.5449267E-2,-1.139461E-1,1.9196722E-1,5.9432413E-2,-4.0793996E-2,-1.101359E-1,2.766079E-1,-2.096307E-2,-7.543312E-3,-7.216999E-3,1.3878173E-1,1.14315795E-2,-1.5566492E-1,-7.923659E-2,-1.646536E-1,-1.2844379E-1,1.3637485E-3,5.3089126E-3,4.5148804E-4,-3.0907327E-3,1.7166723E-2,1.1138546E-2,6.4611E-3,1.3254009E-2,3.7104932E-3,1.06985625E-2,-7.5694905E-3,5.5034366E-4,3.5149108E-3,8.273399E-3,-4.318815E-4,-8.157178E-3,8.622699E-3,3.895307E-3,-3.0555574E-3,1.5751045E-3,4.2602564E-3,1.38984835E-2,7.953481E-3,4.061762E-3,4.88539E-4,6.1551235E-3,-4.0892437E-3,1.6112592E-4,6.8862125E-4,8.992893E-3,2.7531935E-3,-5.5140145E-3,3.9956286E-3,-2.7825779E-3,-1.9157882E-3,-6.3033025E-3,1.186228E-2,3.977849E-3,4.7053113E-3,1.0615927E-3,-5.471097E-3,-4.9147557E-4,-6.7192013E-3,-2.212851E-3,5.312369E-3,1.538745E-2,4.342687E-3,-4.397729E-3,-2.4037198E-3,3.0148325E-3,2.611677E-3,8.669324E-3,4.3734056E-3,-1.3295385E-4,-6.0583684E-3,-8.621138E-3,-8.2542375E-4,-4.3599657E-3,-6.2413323E-3,-8.366714E-3,-4.560996E-3,-7.2163083E-3],"categories":[],"categories_nodes":[],"categories_segments":[],"categories_sizes":[],"default_left":[0,0,0,0,0,0,0,0,0,0,0,0,0,0,0,0,0,0,0,0,0,0,0,0,0,0,0,0,0,0,0,0,0,0,0,0,0,0,0,0,0,0,0,0,0,0,0,0,0,0,0,0,0,0,0,0,0,0,0,0,0,0,0,0,0,0,0,0,0,0,0,0,0,0,0,0,0,0,0,0,0,0,0,0,0,0,0,0,0,0,0,0,0,0,0,0,0,0,0,0,0,0,0,0,0,0,0,0,0,0,0,0,0,0,0,0,0,0,0,0,0,0,0,0,0],"id":2,"left_children":[1,3,5,7,9,11,13,15,17,19,21,23,25,27,29,31,33,35,37,39,41,43,45,47,49,51,53,55,57,59,61,63,65,67,69,71,73,75,77,79,81,83,85,87,89,91,93,95,97,99,101,103,105,107,109,-1,111,113,115,117,119,121,123,-1,-1,-1,-1,-1,-1,-1,-1,-1,-1,-1,-1,-1,-1,-1,-1,-1,-1,-1,-1,-1,-1,-1,-1,-1,-1,-1,-1,-1,-1,-1,-1,-1,-1,-1,-1,-1,-1,-1,-1,-1,-1,-1,-1,-1,-1,-1,-1,-1,-1,-1,-1,-1,-1,-1,-1,-1,-1,-1,-1,-1,-1],"loss_changes":[4.938181E1,3.8560162E0,6.6323986E0,2.9663143E0,8.1471634E-1,1.9589164E0,2.0427608E0,1.6160526E0,2.3956795E0,9.966502E-1,5.629848E-1,1.8414614E0,9.907949E-1,2.799554E-1,1.3935337E0,2.1980003E-2,1.5057564E-1,1.178894E0,9.068594E-1,2.2264655E-1,4.8971605E-1,1.7995322E-1,1.9542259E-1,9.5813215E-2,6.9280934E-1,3.9269984E-1,9.1701996E-1,8.667666E-2,1.805E-1,2.9864788E-1,3.496666E-1,1.632084E-2,1.083389E-2,2.0955086E-2,1.938057E-2,9.7086143E-1,9.177675E-2,5.0116897E-1,2.1925455E-1,3.5323024E-2,1.9963199E-1,1.1994958E-1,4.9227858E-1,1.5962408E-1,1.4827321E-1,1.15606725E-1,6.037084E-2,3.094937E-2,5.200112E-2,2.2034383E-1,3.4238726E-1,3.6867943E-1,2.4644816E-1,5.2185774E-2,2.2432348E-1,0E0,8.013482E-2,8.0792785E-2,2.0589273E-2,1.2059808E-2,3.2122898E-1,2.6621819E-2,4.4206238E-1,0E0,0E0,0E0,0E0,0E0,0E0,0E0,0E0,0E0,0E0,0E0,0E0,0E0,0E0,0E0,0E0,0E0,0E0,0E0,0E0,0E0,0E0,0E0,0E0,0E0,0E0,0E0,0E0,0E0,0E0,0E0,0E0,0E0,0E0,0E0,0E0,0E0,0E0,0E0,0E0,0E0,0E0,0E0,0E0,0E0,0E0,0E0,0E0,0E0,0E0,0E0,0E0,0E0,0E0,0E0,0E0,0E0,0E0,0E0,0E0,0E0,0E0],"parents":[2147483647,0,0,1,1,2,2,3,3,4,4,5,5,6,6,7,7,8,8,9,9,10,10,11,11,12,12,13,13,14,14,15,15,16,16,17,17,18,18,19,19,20,20,21,21,22,22,23,23,24,24,25,25,26,26,27,27,28,28,29,29,30,30,31,31,32,32,33,33,34,34,35,35,36,36,37,37,38,38,39,39,40,40,41,41,42,42,43,43,44,44,45,45,46,46,47,47,48,48,49,49,50,50,51,51,52,52,53,53,54,54,56,56,57,57,58,58,59,59,60,60,61,61,62,62],"right_children":[2,4,6,8,10,12,14,16,18,20,22,24,26,28,30,32,34,36,38,40,42,44,46,48,50,52,54,56,58,60,62,64,66,68,70,72,74,76,78,80,82,84,86,88,90,92,94,96,98,100,102,104,106,108,110,-1,112,114,116,118,120,122,124,-1,-1,-1,-1,-1,-1,-1,-1,-1,-1,-1,-1,-1,-1,-1,-1,-1,-1,-1,-1,-1,-1,-1,-1,-1,-1,-1,-1,-1,-1,-1,-1,-1,-1,-1,-1,-1,-1,-1,-1,-1,-1,-1,-1,-1,-1,-1,-1,-1,-1,-1,-1,-1,-1,-1,-1,-1,-1,-1,-1,-1,-1],"split_conditions":[-3.9725673E-1,-2.3475946E-1,-2.8300124E-1,-1.1196095E0,-4.2601913E-1,-2.0439196E-1,-1.0719099E0,-2.2827502E-1,-4.3266857E-1,-1.1429783E0,-2.5769678E-1,-1.0735981E0,1.5219281E0,-1.4610906E-1,-1.430283E-1,-7.133042E-1,-4.2065418E-1,1.0604717E0,9.574583E-1,-1.0987548E0,-4.581992E-1,-4.2065418E-1,6.8564445E-1,-9.106566E-1,-1.1746275E0,4.8796415E-1,-5.6117195E-1,-3.8076457E-1,-2.1547665E-1,-3.6664233E-1,-1.6865507E-1,-3.8761964E-1,-4.0696558E-1,-2.9787576E-1,-1.0828654E0,-4.0407392E-1,-3.9509416E-1,5.9234643E-1,6.2411446E-2,5.111294E-2,-3.9509416E-1,1.7495272E-1,-2.288941E-1,-1.1935474E-1,-6.137715E-1,-1.128319E0,-1.2715368E-1,-3.0673164E-1,-3.8385645E-1,-3.3663464E-1,-5.2429014E-1,-2.6794657E-1,9.404936E-1,-3.6585146E-1,2.1169689E0,-7.543312E-3,4.857141E-1,-9.0424865E-1,-1.3076025E0,1.0480622E-1,-3.6443773E-1,-4.2666852E-1,-2.3869888E-1,1.3637485E-3,5.3089126E-3,4.5148804E-4,-3.0907327E-3,1.7166723E-2,1.1138546E-2,6.4611E-3,1.3254009E-2,3.7104932E-3,1.06985625E-2,-7.5694905E-3,5.5034366E-4,3.5149108E-3,8.273399E-3,-4.318815E-4,-8.157178E-3,8.622699E-3,3.895307E-3,-3.0555574E-3,1.5751045E-3,4.2602564E-3,1.38984835E-2,7.953481E-3,4.061762E-3,4.88539E-4,6.1551235E-3,-4.0892437E-3,1.6112592E-4,6.8862125E-4,8.992893E-3,2.7531935E-3,-5.5140145E-3,3.9956286E-3,-2.7825779E-3,-1.9157882E-3,-6.3033025E-3,1.186228E-2,3.977849E-3,4.7053113E-3,1.0615927E-3,-5.471097E-3,-4.9147557E-4,-6.7192013E-3,-2.212851E-3,5.312369E-3,1.538745E-2,4.342687E-3,-4.397729E-3,-2.4037198E-3,3.0148325E-3,2.611677E-3,8.669324E-3,4.3734056E-3,-1.3295385E-4,-6.0583684E-3,-8.621138E-3,-8.2542375E-4,-4.3599657E-3,-6.2413323E-3,-8.366714E-3,-4.560996E-3,-7.2163083E-3],"split_indices":[0,3,5,1,0,1,1,8,0,8,2,8,6,8,0,4,0,8,8,1,0,0,9,6,1,8,3,2,5,2,8,2,0,4,4,2,2,9,1,7,2,1,1,8,4,1,1,5,0,9,6,9,9,0,6,0,3,6,1,1,0,6,1,0,0,0,0,0,0,0,0,0,0,0,0,0,0,0,0,0,0,0,0,0,0,0,0,0,0,0,0,0,0,0,0,0,0,0,0,0,0,0,0,0,0,0,0,0,0,0,0,0,0,0,0,0,0,0,0,0,0,0,0,0,0],"split_type":[0,0,0,0,0,0,0,0,0,0,0,0,0,0,0,0,0,0,0,0,0,0,0,0,0,0,0,0,0,0,0,0,0,0,0,0,0,0,0,0,0,0,0,0,0,0,0,0,0,0,0,0,0,0,0,0,0,0,0,0,0,0,0,0,0,0,0,0,0,0,0,0,0,0,0,0,0,0,0,0,0,0,0,0,0,0,0,0,0,0,0,0,0,0,0,0,0,0,0,0,0,0,0,0,0,0,0,0,0,0,0,0,0,0,0,0,0,0,0,0,0,0,0,0,0],"sum_hessian":[4.55E3,1.813E3,2.737E3,1.04E3,7.73E2,7.45E2,1.992E3,2E2,8.4E2,5.15E2,2.58E2,3.71E2,3.74E2,7.8E1,1.914E3,2.3E1,1.77E2,5.03E2,3.37E2,1.43E2,3.72E2,2.14E2,4.4E1,6.6E1,3.05E2,3.3E2,4.4E1,3.1E1,4.7E1,7.01E2,1.213E3,1.4E1,9E0,1.13E2,6.4E1,4.74E2,2.9E1,2.99E2,3.8E1,3.3E1,1.1E2,2.9E1,3.43E2,5E1,1.64E2,3.7E1,7E0,5E0,6.1E1,4.6E1,2.59E2,1.73E2,1.57E2,1.5E1,2.9E1,4E0,2.7E1,2.9E1,1.8E1,5.6E1,6.45E2,4.44E2,7.69E2,1.1E1,3E0,7E0,2E0,1.04E2,9E0,4E0,6E1,5.8E1,4.16E2,3E0,2.6E1,2.25E2,7.4E1,2.4E1,1.4E1,5E0,2.8E1,3.2E1,7.8E1,5E0,2.4E1,1.4E2,2.03E2,2.9E1,2.1E1,2.3E1,1.41E2,5E0,3.2E1,4E0,3E0,3E0,2E0,9E0,5.2E1,3.2E1,1.4E1,1.35E2,1.24E2,5.3E1,1.2E2,1.14E2,4.3E1,3E0,1.2E1,1.1E1,1.8E1,1.7E1,1E1,9E0,2E1,2E0,1.6E1,2.1E1,3.5E1,7.3E1,5.72E2,3.1E1,4.13E2,2.32E2,5.37E2],"tree_param":{"num_deleted":"0","num_feature":"10","num_nodes":"125","size_leaf_vector":"1"}},{"base_weights":[8.181013E-5,1.2168697E-1,-8.048497E-2,1.6497849E-1,7.68533E-2,-1.783749E-2,-1.1550888E-1,1.8104194E-1,-1.6215164E-2,3.099177E-2,9.764218E-2,1.489842E-1,-2.9811777E-2,4.199689E-2,-1.1986509E-1,2.796829E-1,1.5906624E-1,-8.302699E-3,2.6509417E-2,1.3121648E-2,1.14968844E-1,1.3166614E-1,5.2035946E-2,8.08034E-3,1.8676445E-1,8.266305E-3,-6.002265E-2,9.200449E-3,1.7328281E-2,-8.873142E-2,-1.3641429E-1,2.7421417E-2,3.0489326E-1,1.9946973E-1,9.84701E-2,1.5573835E-1,6.506183E-4,5.1922113E-2,-1.9932093E-2,4.937289E-2,1.3979657E-1,1.4687765E-1,6.2475815E-2,8.32735E-2,3.1774559E-3,-3.143221E-3,3.959338E-2,2.2164066E-1,9.444045E-2,-9.149318E-2,4.8347384E-2,-7.532664E-2,6.346225E-2,-1.9320708E-2,6.270973E-2,-1.15507565E-1,-5.641166E-2,-1.5923162E-1,-1.2414556E-1,-1.3729464E-4,2.7080525E-3,1.5671866E-2,8.84886E-3,3.9150375E-3,1.0828224E-2,-1.4143375E-3,5.338553E-3,9.068667E-3,3.597126E-3,2.2753037E-3,-1.4878162E-3,3.2034647E-3,-4.3733004E-3,-8.0193365E-3,-5.786403E-4,3.9863717E-3,-1.3640842E-3,4.3286285E-3,7.5005344E-3,1.0752083E-2,6.5259906E-3,-2.2780583E-3,3.815015E-3,1.2399658E-3,6.130354E-3,-2.1068165E-3,2.3788156E-3,-2.2370294E-4,2.8338965E-3,1.1913472E-2,4.8006885E-3,6.46386E-3,2.1722028E-3,4.0127267E-4,-6.0007637E-3,3.7932394E-3,1.5205529E-4,-5.47503E-3,-2.2460532E-3,-2.0159613E-3,1.0931568E-2,-3.4392874E-3,4.855462E-4,2.2226691E-4,5.7351566E-3,-3.7760958E-3,-6.251156E-3,5.3350953E-3,-3.3852167E-3,-4.3449006E-3,-7.9976395E-3,-3.106592E-3,-6.5528415E-3],"categories":[],"categories_nodes":[],"categories_segments":[],"categories_sizes":[],"default_left":[0,0,0,0,0,0,0,0,0,0,0,0,0,0,0,0,0,0,0,0,0,0,0,0,0,0,0,0,0,0,0,0,0,0,0,0,0,0,0,0,0,0,0,0,0,0,0,0,0,0,0,0,0,0,0,0,0,0,0,0,0,0,0,0,0,0,0,0,0,0,0,0,0,0,0,0,0,0,0,0,0,0,0,0,0,0,0,0,0,0,0,0,0,0,0,0,0,0,0,0,0,0,0,0,0,0,0,0,0,0,0,0,0],"id":3,"left_children":[1,3,5,7,9,11,13,15,17,19,21,23,25,27,29,31,33,-1,35,37,39,41,43,45,47,49,51,-1,53,55,57,59,61,63,65,67,69,71,73,75,77,79,81,83,85,-1,87,89,91,93,95,97,99,101,103,105,107,109,111,-1,-1,-1,-1,-1,-1,-1,-1,-1,-1,-1,-1,-1,-1,-1,-1,-1,-1,-1,-1,-1,-1,-1,-1,-1,-1,-1,-1,-1,-1,-1,-1,-1,-1,-1,-1,-1,-1,-1,-1,-1,-1,-1,-1,-1,-1,-1,-1,-1,-1,-1,-1,-1,-1],"loss_changes":[4.459747E1,3.5081463E0,6.0055485E0,2.6865025E0,8.483691E-1,1.9680532E0,1.2098751E0,1.7915573E0,4.9093884E-1,4.18682E-1,9.458952E-1,3.498342E-1,1.0565377E0,1.6496702E-1,8.684368E-1,9.646578E-1,1.6819248E0,0E0,2.0040098E-1,2.9857504E-1,7.289916E-2,3.602476E-1,4.0265745E-1,3.6024287E-2,1.4650357E-1,1.6317999E0,9.723635E-1,0E0,7.106532E-2,5.092616E-1,2.9208565E-1,1.2248662E-2,9.644508E-2,8.4472656E-1,2.9763746E-1,8.432612E-3,7.091388E-2,1.8677339E-1,1.4608058E-1,3.707732E-2,6.040454E-3,2.919426E-1,1.0055745E-1,3.6725926E-1,2.1124022E-1,0E0,8.535175E-3,5.4416776E-2,2.2808447E-2,3.330652E-1,3.6256212E-1,4.689014E-1,9.2672473E-1,3.5133194E-2,5.704803E-2,1.1421585E-1,5.0824505E-1,6.2360764E-3,3.0430126E-1,0E0,0E0,0E0,0E0,0E0,0E0,0E0,0E0,0E0,0E0,0E0,0E0,0E0,0E0,0E0,0E0,0E0,0E0,0E0,0E0,0E0,0E0,0E0,0E0,0E0,0E0,0E0,0E0,0E0,0E0,0E0,0E0,0E0,0E0,0E0,0E0,0E0,0E0,0E0,0E0,0E0,0E0,0E0,0E0,0E0,0E0,0E0,0E0,0E0,0E0,0E0,0E0,0E0,0E0],"parents":[2147483647,0,0,1,1,2,2,3,3,4,4,5,5,6,6,7,7,8,8,9,9,10,10,11,11,12,12,13,13,14,14,15,15,16,16,18,18,19,19,20,20,21,21,22,22,23,23,24,24,25,25,26,26,28,28,29,29,30,30,31,31,32,32,33,33,34,34,35,35,36,36,37,37,38,38,39,39,40,40,41,41,42,42,43,43,44,44,46,46,47,47,48,48,49,49,50,50,51,51,52,52,53,53,54,54,55,55,56,56,57,57,58,58],"right_children":[2,4,6,8,10,12,14,16,18,20,22,24,26,28,30,32,34,-1,36,38,40,42,44,46,48,50,52,-1,54,56,58,60,62,64,66,68,70,72,74,76,78,80,82,84,86,-1,88,90,92,94,96,98,100,102,104,106,108,110,112,-1,-1,-1,-1,-1,-1,-1,-1,-1,-1,-1,-1,-1,-1,-1,-1,-1,-1,-1,-1,-1,-1,-1,-1,-1,-1,-1,-1,-1,-1,-1,-1,-1,-1,-1,-1,-1,-1,-1,-1,-1,-1,-1,-1,-1,-1,-1,-1,-1,-1,-1,-1,-1,-1],"split_conditions":[-3.9725673E-1,-3.800215E-1,-2.678779E-1,9.7063845E-1,-5.721019E-1,-1.1746275E0,-1.0862437E0,-1.2077988E0,-3.9354467E-1,-3.2409036E-1,-4.2855275E-1,-5.2394485E-1,-2.0439196E-1,-1.1186548E0,-9.784439E-2,-2.2827502E-1,-4.3266857E-1,-8.302699E-3,-5.248731E-1,-4.4187343E-1,-1.2207023E0,1.0528752E0,-5.0903782E-2,-3.591257E-1,-3.3663464E-1,-7.455741E-1,1.5219281E0,9.200449E-3,-4.2223415E-1,-2.0329215E-1,-2.0302063E-1,-6.9094616E-1,-2.0329215E-1,-4.0407392E-1,-4.0304437E-1,-3.4302396E-1,-2.405665E-1,8.041922E-1,-3.5823867E0,-2.520274E-1,-1.0194253E0,-4.5541584E-1,-3.4305227E-1,-1.4610906E-1,2.3083478E-1,-3.143221E-3,-3.851736E-1,6.183862E-1,-1.2384728E0,7.575296E-2,5.089289E-1,-5.32075E-3,1.9265453E0,1.5008098E-1,-2.6083264E-1,-6.6578466E-1,-8.504414E-1,-1.0239162E0,-6.173062E-1,-1.3729464E-4,2.7080525E-3,1.5671866E-2,8.84886E-3,3.9150375E-3,1.0828224E-2,-1.4143375E-3,5.338553E-3,9.068667E-3,3.597126E-3,2.2753037E-3,-1.4878162E-3,3.2034647E-3,-4.3733004E-3,-8.0193365E-3,-5.786403E-4,3.9863717E-3,-1.3640842E-3,4.3286285E-3,7.5005344E-3,1.0752083E-2,6.5259906E-3,-2.2780583E-3,3.815015E-3,1.2399658E-3,6.130354E-3,-2.1068165E-3,2.3788156E-3,-2.2370294E-4,2.8338965E-3,1.1913472E-2,4.8006885E-3,6.46386E-3,2.1722028E-3,4.0127267E-4,-6.0007637E-3,3.7932394E-3,1.5205529E-4,-5.47503E-3,-2.2460532E-3,-2.0159613E-3,1.0931568E-2,-3.4392874E-3,4.855462E-4,2.2226691E-4,5.7351566E-3,-3.7760958E-3,-6.251156E-3,5.3350953E-3,-3.3852167E-3,-4.3449006E-3,-7.9976395E-3,-3.106592E-3,-6.5528415E-3],"split_indices":[0,3,5,8,8,1,1,1,2,2,0,8,1,4,0,8,0,0,9,0,8,9,1,4,9,8,6,0,4,2,8,8,2,2,2,1,6,4,8,2,6,0,8,8,3,0,0,8,1,3,8,3,1,8,8,6,1,1,1,0,0,0,0,0,0,0,0,0,0,0,0,0,0,0,0,0,0,0,0,0,0,0,0,0,0,0,0,0,0,0,0,0,0,0,0,0,0,0,0,0,0,0,0,0,0,0,0,0,0,0,0,0,0],"split_type":[0,0,0,0,0,0,0,0,0,0,0,0,0,0,0,0,0,0,0,0,0,0,0,0,0,0,0,0,0,0,0,0,0,0,0,0,0,0,0,0,0,0,0,0,0,0,0,0,0,0,0,0,0,0,0,0,0,0,0,0,0,0,0,0,0,0,0,0,0,0,0,0,0,0,0,0,0,0,0,0,0,0,0,0,0,0,0,0,0,0,0,0,0,0,0,0,0,0,0,0,0,0,0,0,0,0,0,0,0,0,0,0,0],"sum_hessian":[4.55E3,1.813E3,2.737E3,9.21E2,8.92E2,9.82E2,1.755E3,8.46E2,7.5E1,2.79E2,6.13E2,6.5E1,9.17E2,4.7E1,1.708E3,1.52E2,6.94E2,1.6E1,5.9E1,2.31E2,4.8E1,3.5E2,2.63E2,1.4E1,5.1E1,4.06E2,5.11E2,6E0,4.1E1,5.95E2,1.113E3,1.4E1,1.38E2,4.15E2,2.79E2,9E0,5E1,1.06E2,1.25E2,1.4E1,3.4E1,2.86E2,6.4E1,1.6E2,1.03E2,4E0,1E1,3.6E1,1.5E1,1.16E2,2.9E2,4.55E2,5.6E1,2.3E1,1.8E1,3.24E2,2.71E2,3.85E2,7.28E2,7E0,7E0,1.28E2,1E1,5.2E1,3.63E2,1.7E1,2.62E2,6E0,3E0,2E1,3E1,9.8E1,8E0,6E0,1.19E2,1E1,4E0,7E0,2.7E1,5.3E1,2.33E2,7E0,5.7E1,6.5E1,9.5E1,5.1E1,5.2E1,3E0,7E0,3.1E1,5E0,8E0,7E0,2.6E1,9E1,1.8E2,1.1E2,2.13E2,2.42E2,3.4E1,2.2E1,8E0,1.5E1,9E0,9E0,6.4E1,2.6E2,1.7E1,2.54E2,5E0,3.8E2,7.4E1,6.54E2],"tree_param":{"num_deleted":"0","num_feature":"10","num_nodes":"113","size_leaf_vector":"1"}},{"base_weights":[9.71724E-5,9.571469E-2,-9.246129E-2,1.3574772E-1,3.848911E-2,-2.3934199E-2,-1.0927573E-1,6.0081277E-2,1.641488E-1,1.7480576E-1,1.4710368E-2,4.417976E-2,-4.670146E-2,-1.2443364E-3,-1.15814894E-1,3.144753E-2,1.3348056E-1,3.0474404E-1,1.4324178E-1,3.6712464E-2,2.1827082E-1,4.1325107E-2,-3.2834344E-2,1.4489037E-1,-4.734914E-2,-1.3262818E-2,-9.227104E-2,-8.738883E-2,7.87692E-2,-8.855302E-2,-1.2839164E-1,-2.7546879E-2,4.3536473E-2,1.528114E-1,3.5854407E-2,3.0717885E-1,5.2479054E-3,1.7335545E-1,7.208236E-2,8.927568E-2,1.1091308E-2,7.841639E-2,2.2910851E-1,-8.223601E-2,5.1269546E-2,-5.080515E-2,5.4022264E-2,-7.1044224E-3,1.6417931E-1,2.1753453E-2,-8.688787E-2,-1.0105931E-1,1.6877344E-2,-1.0554633E-1,9.750013E-2,-4.2389702E-2,-1.12012886E-1,1.0372648E-1,-1.1760753E-2,-1.10158995E-1,-6.686226E-2,-1.499991E-1,-1.1633004E-1,-7.1599334E-3,7.0408004E-4,1.4435969E-3,5.1102624E-3,4.1882573E-3,9.115947E-3,3.647855E-3,-3.7602007E-3,1.5689932E-2,1.0115984E-2,8.064837E-3,1.5570383E-2,2.4955026E-3,9.538026E-3,1.0933507E-3,5.091286E-3,-2.8057029E-3,1.5865151E-3,5.8857813E-3,1.1716945E-3,1.208031E-2,8.07647E-3,1.8328981E-4,-4.922858E-3,1.6659178E-3,4.9864887E-3,-2.2308878E-4,-4.1110287E-3,-1.8763252E-3,4.585698E-3,-6.0864384E-3,9.208407E-3,4.1147666E-3,-8.010953E-4,-5.4585654E-3,-2.3980027E-5,-5.817189E-3,1.6482376E-3,3.783878E-3,-9.6714863E-4,-5.613044E-3,8.3838655E-5,-9.766177E-4,6.45999E-3,-4.3748436E-3,1.8104081E-3,-6.062427E-3,1.037994E-3,1.8798042E-3,6.3675246E-3,-1.6176787E-3,-2.537685E-4,-4.3388642E-3,-6.4547444E-3,4.9580466E-3,-3.5741248E-3,-5.4321024E-3,-7.6376717E-3,-4.1294405E-3,-6.5381275E-3],"categories":[],"categories_nodes":[],"categories_segments":[],"categories_sizes":[],"default_left":[0,0,0,0,0,0,0,0,0,0,0,0,0,0,0,0,0,0,0,0,0,0,0,0,0,0,0,0,0,0,0,0,0,0,0,0,0,0,0,0,0,0,0,0,0,0,0,0,0,0,0,0,0,0,0,0,0,0,0,0,0,0,0,0,0,0,0,0,0,0,0,0,0,0,0,0,0,0,0,0,0,0,0,0,0,0,0,0,0,0,0,0,0,0,0,0,0,0,0,0,0,0,0,0,0,0,0,0,0,0,0,0,0,0,0,0,0,0,0,0,0,0,0],"id":4,"left_children":[1,3,5,7,9,11,13,15,17,19,21,23,25,27,29,31,33,35,37,39,41,43,45,47,49,51,53,55,57,59,61,63,65,67,69,71,-1,73,75,77,79,81,83,85,87,89,91,-1,93,95,97,99,101,103,105,107,109,111,113,115,117,119,121,-1,-1,-1,-1,-1,-1,-1,-1,-1,-1,-1,-1,-1,-1,-1,-1,-1,-1,-1,-1,-1,-1,-1,-1,-1,-1,-1,-1,-1,-1,-1,-1,-1,-1,-1,-1,-1,-1,-1,-1,-1,-1,-1,-1,-1,-1,-1,-1,-1,-1,-1,-1,-1,-1,-1,-1,-1,-1,-1,-1],"loss_changes":[4.028616E1,5.1241283E0,2.662527E0,2.8203812E0,2.9892764E0,7.107644E-1,1.3117065E0,7.5451505E-1,2.7693806E0,8.1429243E-1,9.972189E-1,1.0669225E0,5.214344E-1,7.4440515E-1,5.8898926E-1,1.873393E-1,1.8512762E-1,2.7592659E-2,1.7768021E0,4.4798642E-2,1.3966751E-1,6.24733E-1,4.4447455E-1,3.2778156E-1,1.6855606E-1,5.282995E-1,3.7558484E-1,5.287096E-2,1.2774524E-1,2.5320435E-1,2.942524E-1,2.186648E-1,1.8374512E-1,1.5586841E-1,7.965687E-2,2.0503044E-2,0E0,9.253025E-1,6.483215E-1,7.0791766E-3,3.506974E-2,1.6688392E-2,4.2053223E-2,5.331108E-2,4.0379906E-1,3.4176886E-1,1.7252249E-1,0E0,3.195969E-1,5.391933E-2,7.5041115E-2,1.0830796E-1,3.1879842E-1,9.810197E-2,3.962248E-2,7.407464E-2,4.2983145E-2,6.395182E-2,1.6255153E-3,1.1144018E-1,2.2186673E-1,3.181553E-2,3.6514187E-1,0E0,0E0,0E0,0E0,0E0,0E0,0E0,0E0,0E0,0E0,0E0,0E0,0E0,0E0,0E0,0E0,0E0,0E0,0E0,0E0,0E0,0E0,0E0,0E0,0E0,0E0,0E0,0E0,0E0,0E0,0E0,0E0,0E0,0E0,0E0,0E0,0E0,0E0,0E0,0E0,0E0,0E0,0E0,0E0,0E0,0E0,0E0,0E0,0E0,0E0,0E0,0E0,0E0,0E0,0E0,0E0,0E0,0E0,0E0,0E0],"parents":[2147483647,0,0,1,1,2,2,3,3,4,4,5,5,6,6,7,7,8,8,9,9,10,10,11,11,12,12,13,13,14,14,15,15,16,16,17,17,18,18,19,19,20,20,21,21,22,22,23,23,24,24,25,25,26,26,27,27,28,28,29,29,30,30,31,31,32,32,33,33,34,34,35,35,37,37,38,38,39,39,40,40,41,41,42,42,43,43,44,44,45,45,46,46,48,48,49,49,50,50,51,51,52,52,53,53,54,54,55,55,56,56,57,57,58,58,59,59,60,60,61,61,62,62],"right_children":[2,4,6,8,10,12,14,16,18,20,22,24,26,28,30,32,34,36,38,40,42,44,46,48,50,52,54,56,58,60,62,64,66,68,70,72,-1,74,76,78,80,82,84,86,88,90,92,-1,94,96,98,100,102,104,106,108,110,112,114,116,118,120,122,-1,-1,-1,-1,-1,-1,-1,-1,-1,-1,-1,-1,-1,-1,-1,-1,-1,-1,-1,-1,-1,-1,-1,-1,-1,-1,-1,-1,-1,-1,-1,-1,-1,-1,-1,-1,-1,-1,-1,-1,-1,-1,-1,-1,-1,-1,-1,-1,-1,-1,-1,-1,-1,-1,-1,-1,-1,-1,-1,-1],"split_conditions":[-3.6443773E-1,-4.2065418E-1,-2.80212E-1,-3.0054992E-1,-1.1196095E0,-5.237801E-1,-9.4658333E-1,-3.380622E-1,-1.0719099E0,-2.2827502E-1,3.599405E-2,4.9369404E-1,-2.7418765E-1,-1.4610906E-1,-1.430283E-1,-3.989192E-1,-2.945959E-1,-2.8513312E-1,6.5146536E-1,-4.0836883E-1,-1.0828654E0,-1.3821945E0,1.7070125E0,-2.4956007E-1,-3.3818617E-1,-4.0205437E-1,1.8205975E0,-1.0862437E0,-3.3666007E-2,-2.3104216E-1,-1.8055347E-1,-3.3005161E0,6.429345E-1,-1.2391117E-1,-9.636085E-1,-2.9787576E-1,5.2479054E-3,1.7070125E0,1.1677458E0,-1.5289078E0,-5.7455254E-1,-3.9803502E-1,-2.7832535E-1,-3.9549178E-1,6.429345E-1,3.1417078E-1,-5.1092464E-1,-7.1044224E-3,-4.0759572E-1,-3.0263653E-1,-3.0989355E-1,-1.6758467E-1,-6.9933824E-2,-1.3129672E-1,-3.8185093E-1,-1.7361863E-1,-1.6865507E-1,-7.6046467E-1,1.8735689E-1,-4.8138297E-1,-6.93023E-1,-4.2666852E-1,-2.3869888E-1,-7.1599334E-3,7.0408004E-4,1.4435969E-3,5.1102624E-3,4.1882573E-3,9.115947E-3,3.647855E-3,-3.7602007E-3,1.5689932E-2,1.0115984E-2,8.064837E-3,1.5570383E-2,2.4955026E-3,9.538026E-3,1.0933507E-3,5.091286E-3,-2.8057029E-3,1.5865151E-3,5.8857813E-3,1.1716945E-3,1.208031E-2,8.07647E-3,1.8328981E-4,-4.922858E-3,1.6659178E-3,4.9864887E-3,-2.2308878E-4,-4.1110287E-3,-1.8763252E-3,4.585698E-3,-6.0864384E-3,9.208407E-3,4.1147666E-3,-8.010953E-4,-5.4585654E-3,-2.3980027E-5,-5.817189E-3,1.6482376E-3,3.783878E-3,-9.6714863E-4,-5.613044E-3,8.3838655E-5,-9.766177E-4,6.45999E-3,-4.3748436E-3,1.8104081E-3,-6.062427E-3,1.037994E-3,1.8798042E-3,6.3675246E-3,-1.6176787E-3,-2.537685E-4,-4.3388642E-3,-6.4547444E-3,4.9580466E-3,-3.5741248E-3,-5.4321024E-3,-7.6376717E-3,-4.1294405E-3,-6.5381275E-3],"split_indices":[0,0,5,8,1,3,1,2,1,8,1,8,6,8,0,2,5,5,8,0,4,8,6,8,0,9,1,1,5,2,8,8,9,9,9,4,0,6,6,9,3,0,4,2,9,1,8,0,2,9,4,2,1,2,2,0,8,6,2,6,1,6,1,0,0,0,0,0,0,0,0,0,0,0,0,0,0,0,0,0,0,0,0,0,0,0,0,0,0,0,0,0,0,0,0,0,0,0,0,0,0,0,0,0,0,0,0,0,0,0,0,0,0,0,0,0,0,0,0,0,0,0,0],"split_type":[0,0,0,0,0,0,0,0,0,0,0,0,0,0,0,0,0,0,0,0,0,0,0,0,0,0,0,0,0,0,0,0,0,0,0,0,0,0,0,0,0,0,0,0,0,0,0,0,0,0,0,0,0,0,0,0,0,0,0,0,0,0,0,0,0,0,0,0,0,0,0,0,0,0,0,0,0,0,0,0,0,0,0,0,0,0,0,0,0,0,0,0,0,0,0,0,0,0,0,0,0,0,0,0,0,0,0,0,0,0,0,0,0,0,0,0,0,0,0,0,0,0,0],"sum_hessian":[4.55E3,2.238E3,2.312E3,1.316E3,9.22E2,4.56E2,1.856E3,3.6E2,9.56E2,1.36E2,7.86E2,1.14E2,3.42E2,1.06E2,1.75E3,2.6E2,1E2,1.22E2,8.34E2,3.3E1,1.03E2,5.04E2,2.82E2,5.4E1,6E1,1.98E2,1.44E2,5.1E1,5.5E1,5.55E2,1.195E3,4.4E1,2.16E2,8.3E1,1.7E1,1.2E2,2E0,5.85E2,2.49E2,1E1,2.3E1,8E0,9.5E1,3.7E1,4.67E2,2.34E2,4.8E1,3E0,5.1E1,2.2E1,3.8E1,5E1,1.48E2,1.35E2,9E0,1.9E1,3.2E1,4.3E1,1.2E1,2.76E2,2.79E2,4.24E2,7.71E2,1.1E1,3.3E1,1.74E2,4.2E1,2.6E1,5.7E1,1.3E1,4E0,1.11E2,9E0,5.4E2,4.5E1,2.11E2,3.8E1,2E0,8E0,5E0,1.8E1,4E0,4E0,7.8E1,1.7E1,6E0,3.1E1,3.42E2,1.25E2,9.5E1,1.39E2,1.4E1,3.4E1,3E0,4.8E1,8E0,1.4E1,3E1,8E0,4.5E1,5E0,5.6E1,9.2E1,1.27E2,8E0,2E0,7E0,1.2E1,7E0,3E1,2E0,1.2E1,3.1E1,2E0,1E1,1.26E2,1.5E2,7E0,2.72E2,2.9E1,3.95E2,2.33E2,5.38E2],"tree_param":{"num_deleted":"0","num_feature":"10","num_nodes":"123","size_leaf_vector":"1"}},{"base_weights":[1.07818654E-4,1.1004719E-1,-7.273007E-2,1.4975047E-1,6.893132E-2,-3.2606781E-3,-9.869667E-2,1.6464296E-1,-1.8192776E-2,2.7647046E-2,8.764576E-2,4.1273E-2,-4.7429394E-2,3.792E-2,-1.04281016E-1,2.532844E-1,1.448922E-1,-7.912832E-3,2.1795202E-2,1.1305215E-2,1.0445639E-1,1.185451E-1,4.6231695E-2,-8.9004725E-2,6.966299E-2,-6.40108E-2,7.5590044E-2,-2.5431763E-2,7.93645E-2,-7.377511E-2,-1.2183526E-1,2.4682498E-2,2.7613148E-1,1.7595568E-1,7.922201E-2,1.400186E-1,-1.8132122E-3,4.4403635E-2,-2.3344059E-2,4.4729527E-2,1.2706915E-1,1.5639795E-1,9.238486E-2,2.5289796E-2,1.1701265E-1,2.551446E-2,-9.865167E-2,1.6552643E-1,5.206589E-2,-9.900542E-2,-3.5515066E-2,2.497945E-1,-1.9838663E-2,-6.8723047E-3,-4.520928E-3,1.2145582E-1,8.727451E-3,-1.3920927E-1,-6.788731E-2,-1.415843E-1,-1.1026363E-1,-1.9071634E-4,2.5047006E-3,1.6880255E-2,1.2690425E-2,7.945339E-3,1.5513727E-2,4.738502E-3,5.6050386E-4,8.227295E-3,3.104558E-3,5.4282006E-3,-6.7584455E-4,2.9893657E-3,-2.5707672E-3,-5.7873596E-4,-5.3292005E-3,3.622975E-3,-1.2611155E-3,3.928595E-3,6.819366E-3,6.142531E-3,9.41075E-3,1.05632255E-2,3.5308257E-3,2.2223177E-3,-1.3881737E-3,7.6873596E-3,1.7928111E-3,2.0782284E-3,-2.1952514E-4,4.2094645E-4,-5.2119317E-3,1.0254858E-2,3.3717868E-3,4.19351E-3,8.52314E-4,-6.700059E-3,-2.9582467E-3,1.013392E-3,-3.978998E-3,5.0532874E-3,1.3817111E-2,-4.5003137E-3,3.339095E-3,3.4203087E-3,-1.8556038E-3,3.8462894E-3,9.09202E-3,3.708693E-3,-1.667647E-4,-5.460564E-3,-7.683723E-3,-6.9082645E-4,-3.7375898E-3,-5.363511E-3,-7.194731E-3,-2.3252575E-3,-5.8742827E-3],"categories":[],"categories_nodes":[],"categories_segments":[],"categories_sizes":[],"default_left":[0,0,0,0,0,0,0,0,0,0,0,0,0,0,0,0,0,0,0,0,0,0,0,0,0,0,0,0,0,0,0,0,0,0,0,0,0,0,0,0,0,0,0,0,0,0,0,0,0,0,0,0,0,0,0,0,0,0,0,0,0,0,0,0,0,0,0,0,0,0,0,0,0,0,0,0,0,0,0,0,0,0,0,0,0,0,0,0,0,0,0,0,0,0,0,0,0,0,0,0,0,0,0,0,0,0,0,0,0,0,0,0,0,0,0,0,0,0,0],"id":5,"left_children":[1,3,5,7,9,11,13,15,17,19,21,23,25,27,29,31,33,-1,35,37,39,41,43,45,47,49,51,53,55,57,59,61,63,65,67,69,71,73,75,77,79,81,83,85,87,89,91,93,95,97,99,101,103,-1,105,107,109,111,113,115,117,-1,-1,-1,-1,-1,-1,-1,-1,-1,-1,-1,-1,-1,-1,-1,-1,-1,-1,-1,-1,-1,-1,-1,-1,-1,-1,-1,-1,-1,-1,-1,-1,-1,-1,-1,-1,-1,-1,-1,-1,-1,-1,-1,-1,-1,-1,-1,-1,-1,-1,-1,-1,-1,-1,-1,-1,-1,-1],"loss_changes":[3.645128E1,2.9509163E0,4.938711E0,2.3090038E0,6.875191E-1,1.4693363E0,1.5244427E0,1.4461746E0,4.2911544E-1,3.5027653E-1,7.802353E-1,1.3820729E0,7.6977676E-1,2.094394E-1,1.01651E0,7.9228497E-1,1.4038229E0,0E0,1.6771789E-1,2.6710254E-1,6.049514E-2,3.331256E-1,3.883648E-1,7.6536E-2,5.075785E-1,3.265561E-1,7.530403E-1,7.433263E-2,1.416539E-1,2.610042E-1,2.6182365E-1,1.1053286E-2,1.0505962E-1,1.0292788E0,2.3686445E-1,8.896664E-3,6.735024E-2,1.7848577E-1,1.1044976E-1,3.0924033E-2,5.1004887E-3,1.2844491E-1,5.285219E-1,2.0957915E-1,1.7336178E-1,3.062356E-3,3.7965953E-2,1.6860068E-1,2.8815156E-1,1.9842064E-1,4.538973E-1,3.5245836E-2,1.8834953E-1,0E0,6.908847E-2,6.66796E-2,1.5247195E-2,7.950783E-3,2.3874187E-1,1.9841194E-2,3.490944E-1,0E0,0E0,0E0,0E0,0E0,0E0,0E0,0E0,0E0,0E0,0E0,0E0,0E0,0E0,0E0,0E0,0E0,0E0,0E0,0E0,0E0,0E0,0E0,0E0,0E0,0E0,0E0,0E0,0E0,0E0,0E0,0E0,0E0,0E0,0E0,0E0,0E0,0E0,0E0,0E0,0E0,0E0,0E0,0E0,0E0,0E0,0E0,0E0,0E0,0E0,0E0,0E0,0E0,0E0,0E0,0E0,0E0,0E0],"parents":[2147483647,0,0,1,1,2,2,3,3,4,4,5,5,6,6,7,7,8,8,9,9,10,10,11,11,12,12,13,13,14,14,15,15,16,16,18,18,19,19,20,20,21,21,22,22,23,23,24,24,25,25,26,26,27,27,28,28,29,29,30,30,31,31,32,32,33,33,34,34,35,35,36,36,37,37,38,38,39,39,40,40,41,41,42,42,43,43,44,44,45,45,46,46,47,47,48,48,49,49,50,50,51,51,52,52,54,54,55,55,56,56,57,57,58,58,59,59,60,60],"right_children":[2,4,6,8,10,12,14,16,18,20,22,24,26,28,30,32,34,-1,36,38,40,42,44,46,48,50,52,54,56,58,60,62,64,66,68,70,72,74,76,78,80,82,84,86,88,90,92,94,96,98,100,102,104,-1,106,108,110,112,114,116,118,-1,-1,-1,-1,-1,-1,-1,-1,-1,-1,-1,-1,-1,-1,-1,-1,-1,-1,-1,-1,-1,-1,-1,-1,-1,-1,-1,-1,-1,-1,-1,-1,-1,-1,-1,-1,-1,-1,-1,-1,-1,-1,-1,-1,-1,-1,-1,-1,-1,-1,-1,-1,-1,-1,-1,-1,-1,-1],"split_conditions":[-3.9725673E-1,-3.800215E-1,-2.8300124E-1,9.7063845E-1,-5.721019E-1,-2.0439196E-1,-1.0719099E0,-1.2077988E0,-3.9354467E-1,-3.2409036E-1,-4.2855275E-1,-1.0735981E0,1.5219281E0,-1.4610906E-1,-1.430283E-1,-2.2827502E-1,-4.2524233E-1,-7.912832E-3,-5.248731E-1,-4.3830293E-1,-1.2207023E0,-2.288941E-1,-2.5769678E-1,-3.9354467E-1,-1.1746275E0,-5.32075E-3,-5.6117195E-1,-3.8076457E-1,-2.1547665E-1,-3.6664233E-1,-1.6865507E-1,-6.9094616E-1,-7.7389336E-1,1.753804E0,-2.1360402E-1,-3.4302396E-1,-9.7641927E-1,6.757831E-1,1.2696174E0,-2.520274E-1,-1.0194253E0,-9.116857E-2,-4.581992E-1,2.3654994E-1,6.8564445E-1,6.5872383E-1,-3.089043E-1,-3.3663464E-1,-5.2429014E-1,-3.624622E-1,-5.088745E-1,-3.6585146E-1,-3.5705703E-1,-6.8723047E-3,-3.511598E-1,-2.4418496E-1,-1.3076025E0,1.0480622E-1,-3.6443773E-1,-4.2666852E-1,-6.173062E-1,-1.9071634E-4,2.5047006E-3,1.6880255E-2,1.2690425E-2,7.945339E-3,1.5513727E-2,4.738502E-3,5.6050386E-4,8.227295E-3,3.104558E-3,5.4282006E-3,-6.7584455E-4,2.9893657E-3,-2.5707672E-3,-5.7873596E-4,-5.3292005E-3,3.622975E-3,-1.2611155E-3,3.928595E-3,6.819366E-3,6.142531E-3,9.41075E-3,1.05632255E-2,3.5308257E-3,2.2223177E-3,-1.3881737E-3,7.6873596E-3,1.7928111E-3,2.0782284E-3,-2.1952514E-4,4.2094645E-4,-5.2119317E-3,1.0254858E-2,3.3717868E-3,4.19351E-3,8.52314E-4,-6.700059E-3,-2.9582467E-3,1.013392E-3,-3.978998E-3,5.0532874E-3,1.3817111E-2,-4.5003137E-3,3.339095E-3,3.4203087E-3,-1.8556038E-3,3.8462894E-3,9.09202E-3,3.708693E-3,-1.667647E-4,-5.460564E-3,-7.683723E-3,-6.9082645E-4,-3.7375898E-3,-5.363511E-3,-7.194731E-3,-2.3252575E-3,-5.8742827E-3],"split_indices":[0,3,5,8,8,1,1,1,2,2,0,8,6,8,0,8,0,0,9,0,8,1,2,2,1,3,3,2,5,2,8,8,9,6,2,1,4,4,6,2,6,8,0,1,9,4,3,9,6,2,6,0,8,0,0,0,1,1,0,6,1,0,0,0,0,0,0,0,0,0,0,0,0,0,0,0,0,0,0,0,0,0,0,0,0,0,0,0,0,0,0,0,0,0,0,0,0,0,0,0,0,0,0,0,0,0,0,0,0,0,0,0,0,0,0,0,0,0,0],"split_type":[0,0,0,0,0,0,0,0,0,0,0,0,0,0,0,0,0,0,0,0,0,0,0,0,0,0,0,0,0,0,0,0,0,0,0,0,0,0,0,0,0,0,0,0,0,0,0,0,0,0,0,0,0,0,0,0,0,0,0,0,0,0,0,0,0,0,0,0,0,0,0,0,0,0,0,0,0,0,0,0,0,0,0,0,0,0,0,0,0,0,0,0,0,0,0,0,0,0,0,0,0,0,0,0,0,0,0,0,0,0,0,0,0,0,0,0,0,0,0],"sum_hessian":[4.55E3,1.813E3,2.737E3,9.21E2,8.92E2,7.45E2,1.992E3,8.46E2,7.5E1,2.79E2,6.13E2,3.71E2,3.74E2,7.8E1,1.914E3,1.52E2,6.94E2,1.6E1,5.9E1,2.31E2,4.8E1,3.5E2,2.63E2,6.6E1,3.05E2,3.3E2,4.4E1,3.1E1,4.7E1,7.01E2,1.213E3,1.4E1,1.38E2,4.7E2,2.24E2,9E0,5E1,1.18E2,1.13E2,1.4E1,3.4E1,1.41E2,2.09E2,2.04E2,5.9E1,5E0,6.1E1,4.6E1,2.59E2,1.47E2,1.83E2,1.5E1,2.9E1,4E0,2.7E1,2.9E1,1.8E1,5.6E1,6.45E2,4.44E2,7.69E2,7E0,7E0,3.3E1,1.05E2,4.19E2,5.1E1,1.82E2,4.2E1,6E0,3E0,4E0,4.6E1,1.02E2,1.6E1,1E2,1.3E1,1E1,4E0,7E0,2.7E1,7.1E1,7E1,3.1E1,1.78E2,1.5E2,5.4E1,4E1,1.9E1,3E0,2E0,3E0,5.8E1,3.2E1,1.4E1,1.35E2,1.24E2,7.7E1,7E1,8.1E1,1.02E2,3E0,1.2E1,1.6E1,1.3E1,8E0,1.9E1,1.8E1,1.1E1,2E0,1.6E1,2.1E1,3.5E1,7.3E1,5.72E2,3.1E1,4.13E2,7.9E1,6.9E2],"tree_param":{"num_deleted":"0","num_feature":"10","num_nodes":"119","size_leaf_vector":"1"}},{"base_weights":[1.2661045E-4,1.04609005E-1,-6.909588E-2,2.0116556E-1,8.9189336E-2,-3.06973E-3,-9.3775466E-2,5.7217915E-2,2.549292E-1,1.3539352E-1,5.7779882E-2,3.9251663E-2,-4.5044366E-2,3.616542E-2,-9.9086985E-2,8.195044E-2,1.0410647E-2,3.1750318E-1,2.3829643E-1,1.7763305E-2,1.5045878E-1,-2.4490194E-2,6.879226E-2,-8.459825E-2,6.6240855E-2,-6.08484E-2,7.220408E-2,-2.4326041E-2,7.5739615E-2,-7.0111394E-2,-1.157606E-1,7.945235E-3,6.835854E-2,4.157553E-2,-1.7045727E-2,1.6405864E-2,7.6607275E-3,2.6260856E-1,1.9866706E-1,3.0731358E-2,-4.572177E-3,1.6595149E-1,5.9236288E-2,-3.2329362E-2,1.3424813E-2,9.523673E-2,3.8243283E-2,2.4548516E-2,-9.379636E-2,1.5754004E-1,4.9482E-2,-2.8420292E-2,-8.924577E-2,2.3848417E-1,-1.8885437E-2,-6.597412E-3,-4.239004E-3,1.15814306E-1,8.477489E-3,-1.3247941E-1,-6.44998E-2,-1.3453332E-1,-1.047611E-1,2.2339718E-3,4.1141487E-3,-1.5468524E-5,3.5768754E-3,-2.1186609E-4,-3.129872E-3,1.3534029E-2,3.7238577E-3,1.0401751E-2,2.700631E-3,1.050532E-3,4.4980696E-3,1.0024755E-2,6.607023E-3,6.139764E-3,5.1664765E-4,9.123455E-4,-4.405982E-3,2.713683E-3,6.21766E-3,1.1189632E-3,3.8777832E-3,2.0002944E-3,-2.122077E-4,4.051611E-4,-4.955752E-3,-1.4821334E-3,8.782088E-3,3.9853756E-3,8.100392E-4,-4.646922E-3,9.9699326E-5,-5.6854403E-3,-1.266237E-3,4.8637893E-3,1.3179399E-2,-4.519203E-3,2.9319397E-3,3.2682947E-3,-1.7674629E-3,2.0573137E-3,7.2927773E-3,3.5850692E-3,-1.5891723E-4,-5.1999465E-3,-7.310208E-3,-2.8610567E-3,-5.800804E-3,-5.103716E-3,-6.835863E-3,-3.6509277E-3,-5.915681E-3],"categories":[],"categories_nodes":[],"categories_segments":[],"categories_sizes":[],"default_left":[0,0,0,0,0,0,0,0,0,0,0,0,0,0,0,0,0,0,0,0,0,0,0,0,0,0,0,0,0,0,0,0,0,0,0,0,0,0,0,0,0,0,0,0,0,0,0,0,0,0,0,0,0,0,0,0,0,0,0,0,0,0,0,0,0,0,0,0,0,0,0,0,0,0,0,0,0,0,0,0,0,0,0,0,0,0,0,0,0,0,0,0,0,0,0,0,0,0,0,0,0,0,0,0,0,0,0,0,0,0,0,0,0,0,0],"id":6,"left_children":[1,3,5,7,9,11,13,15,17,19,21,23,25,27,29,31,33,35,37,39,41,43,45,47,49,51,53,55,57,59,61,-1,63,65,67,-1,-1,69,71,73,-1,75,77,79,-1,81,83,85,87,89,91,93,95,97,99,-1,101,103,105,107,109,111,113,-1,-1,-1,-1,-1,-1,-1,-1,-1,-1,-1,-1,-1,-1,-1,-1,-1,-1,-1,-1,-1,-1,-1,-1,-1,-1,-1,-1,-1,-1,-1,-1,-1,-1,-1,-1,-1,-1,-1,-1,-1,-1,-1,-1,-1,-1,-1,-1,-1,-1,-1,-1],"loss_changes":[3.2922478E1,2.682867E0,4.461278E0,1.9124632E0,2.2648315E0,1.3269811E0,1.379118E0,7.902551E-2,1.1272144E-1,1.1190863E0,8.4787846E-1,1.2490544E0,6.9926804E-1,1.9096062E-1,9.170761E-1,3.62055E-2,2.2100551E-2,1.07598305E-2,8.9458466E-2,1.0619279E-1,7.83021E-1,2.6362172E-1,6.620276E-1,6.956679E-2,4.6040583E-1,3.0227256E-1,6.860907E-1,6.8618625E-2,1.2840259E-1,2.3714352E-1,2.3658562E-1,0E0,9.51238E-3,1.5081586E-2,7.902982E-3,0E0,0E0,1.1347675E-1,7.0070505E-2,3.610991E-2,0E0,5.329571E-1,2.567157E-1,3.091693E-1,0E0,5.1923156E-1,2.3774678E-1,2.8401453E-3,3.440535E-2,1.6445792E-1,2.602536E-1,3.0629987E-1,2.7233207E-1,3.1077147E-2,1.715863E-1,0E0,6.294257E-2,6.12922E-2,1.4229511E-2,7.075429E-3,2.3559213E-1,1.7590523E-2,3.2260895E-1,0E0,0E0,0E0,0E0,0E0,0E0,0E0,0E0,0E0,0E0,0E0,0E0,0E0,0E0,0E0,0E0,0E0,0E0,0E0,0E0,0E0,0E0,0E0,0E0,0E0,0E0,0E0,0E0,0E0,0E0,0E0,0E0,0E0,0E0,0E0,0E0,0E0,0E0,0E0,0E0,0E0,0E0,0E0,0E0,0E0,0E0,0E0,0E0,0E0,0E0,0E0,0E0],"parents":[2147483647,0,0,1,1,2,2,3,3,4,4,5,5,6,6,7,7,8,8,9,9,10,10,11,11,12,12,13,13,14,14,15,15,16,16,17,17,18,18,19,19,20,20,21,21,22,22,23,23,24,24,25,25,26,26,27,27,28,28,29,29,30,30,32,32,33,33,34,34,37,37,38,38,39,39,41,41,42,42,43,43,45,45,46,46,47,47,48,48,49,49,50,50,51,51,52,52,53,53,54,54,56,56,57,57,58,58,59,59,60,60,61,61,62,62],"right_children":[2,4,6,8,10,12,14,16,18,20,22,24,26,28,30,32,34,36,38,40,42,44,46,48,50,52,54,56,58,60,62,-1,64,66,68,-1,-1,70,72,74,-1,76,78,80,-1,82,84,86,88,90,92,94,96,98,100,-1,102,104,106,108,110,112,114,-1,-1,-1,-1,-1,-1,-1,-1,-1,-1,-1,-1,-1,-1,-1,-1,-1,-1,-1,-1,-1,-1,-1,-1,-1,-1,-1,-1,-1,-1,-1,-1,-1,-1,-1,-1,-1,-1,-1,-1,-1,-1,-1,-1,-1,-1,-1,-1,-1,-1,-1,-1],"split_conditions":[-3.9725673E-1,-1.1196095E0,-2.8300124E-1,-2.2827502E-1,-4.42464E-1,-2.0439196E-1,-1.0719099E0,-4.5669994E-1,-3.8524735E-1,-9.789541E-1,-3.9354467E-1,-1.0735981E0,1.5219281E0,-1.4610906E-1,-1.430283E-1,5.111294E-2,-7.402434E-1,-1.128319E0,-7.4257976E-1,8.041922E-1,7.6992685E-1,1.8808873E0,-4.2065418E-1,-3.9354467E-1,-1.1746275E0,3.807149E-1,-5.6117195E-1,-3.8076457E-1,-2.1547665E-1,-3.6664233E-1,-1.6865507E-1,7.945235E-3,1.4947323E0,-4.248077E-1,-4.050834E-1,1.6405864E-2,7.6607275E-3,8.267463E-1,-1.9700766E-1,2.0942435E0,-4.572177E-3,-4.8261988E-1,-5.0952184E-1,-5.862654E-1,1.3424813E-2,-7.651484E-2,-2.5769678E-1,6.5872383E-1,-3.089043E-1,-6.9094616E-1,-5.2429014E-1,-2.6794657E-1,9.404936E-1,-3.6585146E-1,-1.0580347E-1,-6.597412E-3,-3.511598E-1,-9.0424865E-1,-1.3076025E0,1.0480622E-1,1.7477989E0,-4.2666852E-1,-2.3869888E-1,2.2339718E-3,4.1141487E-3,-1.5468524E-5,3.5768754E-3,-2.1186609E-4,-3.129872E-3,1.3534029E-2,3.7238577E-3,1.0401751E-2,2.700631E-3,1.050532E-3,4.4980696E-3,1.0024755E-2,6.607023E-3,6.139764E-3,5.1664765E-4,9.123455E-4,-4.405982E-3,2.713683E-3,6.21766E-3,1.1189632E-3,3.8777832E-3,2.0002944E-3,-2.122077E-4,4.051611E-4,-4.955752E-3,-1.4821334E-3,8.782088E-3,3.9853756E-3,8.100392E-4,-4.646922E-3,9.9699326E-5,-5.6854403E-3,-1.266237E-3,4.8637893E-3,1.3179399E-2,-4.519203E-3,2.9319397E-3,3.2682947E-3,-1.7674629E-3,2.0573137E-3,7.2927773E-3,3.5850692E-3,-1.5891723E-4,-5.1999465E-3,-7.310208E-3,-2.8610567E-3,-5.800804E-3,-5.103716E-3,-6.835863E-3,-3.6509277E-3,-5.915681E-3],"split_indices":[0,1,5,8,0,1,1,9,2,8,2,8,6,8,0,7,4,1,3,4,8,4,0,2,1,8,3,2,5,2,8,0,3,0,0,0,0,8,2,3,0,3,9,6,0,8,2,4,3,8,6,9,9,0,3,0,0,6,1,1,9,6,1,0,0,0,0,0,0,0,0,0,0,0,0,0,0,0,0,0,0,0,0,0,0,0,0,0,0,0,0,0,0,0,0,0,0,0,0,0,0,0,0,0,0,0,0,0,0,0,0,0,0,0,0],"split_type":[0,0,0,0,0,0,0,0,0,0,0,0,0,0,0,0,0,0,0,0,0,0,0,0,0,0,0,0,0,0,0,0,0,0,0,0,0,0,0,0,0,0,0,0,0,0,0,0,0,0,0,0,0,0,0,0,0,0,0,0,0,0,0,0,0,0,0,0,0,0,0,0,0,0,0,0,0,0,0,0,0,0,0,0,0,0,0,0,0,0,0,0,0,0,0,0,0,0,0,0,0,0,0,0,0,0,0,0,0,0,0,0,0,0,0],"sum_hessian":[4.55E3,1.813E3,2.737E3,2.48E2,1.565E3,7.45E2,1.992E3,6.8E1,1.8E2,6.32E2,9.33E2,3.71E2,3.74E2,7.8E1,1.914E3,4.4E1,2.4E1,3.4E1,1.46E2,7.2E1,5.6E2,1.1E2,8.23E2,6.6E1,3.05E2,3.3E2,4.4E1,3.1E1,4.7E1,7.01E2,1.213E3,5E0,3.9E1,1.1E1,1.3E1,3.1E1,3E0,8.7E1,5.9E1,6.5E1,7E0,4.78E2,8.2E1,1.08E2,2E0,4.4E2,3.83E2,5E0,6.1E1,4.6E1,2.59E2,1.55E2,1.75E2,1.5E1,2.9E1,4E0,2.7E1,2.9E1,1.8E1,5.6E1,6.45E2,4.44E2,7.69E2,1.6E1,2.3E1,5E0,6E0,1.1E1,2E0,8.3E1,4E0,5.5E1,4E0,5.7E1,8E0,2.34E2,2.44E2,3.5E1,4.7E1,5.7E1,5.1E1,1.84E2,2.56E2,2.74E2,1.09E2,3E0,2E0,3E0,5.8E1,4E0,4.2E1,1.35E2,1.24E2,4.9E1,1.06E2,1.26E2,4.9E1,3E0,1.2E1,1.5E1,1.4E1,8E0,1.9E1,9E0,2E1,2E0,1.6E1,2.1E1,3.5E1,5.67E2,7.8E1,3.1E1,4.13E2,2.32E2,5.37E2],"tree_param":{"num_deleted":"0","num_feature":"10","num_nodes":"115","size_leaf_vector":"1"}},{"base_weights":[1.4145255E-4,8.236384E-2,-7.945044E-2,1.16835155E-1,3.3088543E-2,1.4551434E-3,-9.0188384E-2,5.1417243E-2,1.4139006E-1,1.5045282E-1,1.2615868E-2,2.1633828E-2,-8.433225E-2,-2.295452E-3,-9.616316E-2,2.5926076E-2,1.19562656E-1,2.4389665E-1,1.187787E-1,3.0996224E-2,1.8805927E-1,3.6503993E-2,-2.7565597E-2,7.217308E-2,-5.4134205E-2,-9.191201E-2,5.299887E-3,-8.7806754E-2,6.899585E-2,-7.278412E-2,-1.09514944E-1,-2.8868329E-2,3.7016176E-2,1.3816279E-1,2.92197E-2,2.6468217E-1,1.8788633E-1,1.4672506E-1,5.4971673E-2,7.8753434E-2,7.815992E-3,6.280076E-2,1.9784331E-1,1.790725E-2,9.245102E-2,-4.3420304E-2,5.067378E-2,-6.751362E-3,7.964462E-2,-7.339894E-4,-7.165765E-2,-4.501216E-2,-5.0790445E-3,7.855237E-4,-3.4386638E-4,-2.0719973E-2,-1.02444194E-1,9.8911166E-2,-2.624516E-2,-7.7956244E-2,-2.7434334E-2,-1.2781094E-1,-9.903687E-2,-6.5649077E-3,4.066221E-4,1.2059374E-3,4.402887E-3,3.9552916E-3,8.3935065E-3,3.1874643E-3,-3.665354E-3,1.6371919E-2,1.2465875E-2,1.0653048E-2,3.2940868E-3,6.729311E-3,1.37871625E-2,1.6641523E-3,8.322711E-3,9.817675E-4,4.485454E-3,-2.780071E-3,1.3715588E-3,5.419852E-3,1.0968221E-3,1.0351663E-2,6.16217E-3,-2.1721039E-3,1.7165684E-3,6.2941485E-3,5.6710513E-4,-1.9785804E-4,-3.64947E-3,4.169177E-4,5.688E-3,6.6149356E-3,2.3925721E-3,-3.4328017E-3,1.6636454E-3,-4.622448E-3,-4.9615203E-4,1.2384087E-3,-3.2776636E-3,1.3522081E-3,-1.982313E-3,-6.046245E-3,-1.3804305E-3,4.5983153E-4,5.932168E-3,-2.56872E-4,-3.3802178E-3,-3.0239613E-3,-4.6334486E-3,-6.119572E-3,-2.4102186E-4,-4.6191197E-3,-6.5184752E-3,-3.4335055E-3,-5.5998317E-3],"categories":[],"categories_nodes":[],"categories_segments":[],"categories_sizes":[],"default_left":[0,0,0,0,0,0,0,0,0,0,0,0,0,0,0,0,0,0,0,0,0,0,0,0,0,0,0,0,0,0,0,0,0,0,0,0,0,0,0,0,0,0,0,0,0,0,0,0,0,0,0,0,0,0,0,0,0,0,0,0,0,0,0,0,0,0,0,0,0,0,0,0,0,0,0,0,0,0,0,0,0,0,0,0,0,0,0,0,0,0,0,0,0,0,0,0,0,0,0,0,0,0,0,0,0,0,0,0,0,0,0,0,0,0,0,0,0,0,0],"id":7,"left_children":[1,3,5,7,9,11,13,15,17,19,21,23,25,27,29,31,33,35,37,39,41,43,45,47,49,51,53,55,57,59,61,63,65,67,69,71,73,75,77,79,81,83,85,87,89,91,93,-1,95,97,99,101,-1,-1,-1,103,105,107,109,111,113,115,117,-1,-1,-1,-1,-1,-1,-1,-1,-1,-1,-1,-1,-1,-1,-1,-1,-1,-1,-1,-1,-1,-1,-1,-1,-1,-1,-1,-1,-1,-1,-1,-1,-1,-1,-1,-1,-1,-1,-1,-1,-1,-1,-1,-1,-1,-1,-1,-1,-1,-1,-1,-1,-1,-1,-1,-1],"loss_changes":[2.9789358E1,3.799265E0,2.0095692E0,2.1082668E0,2.2158499E0,4.7267732E-1,1.0721207E0,6.2399554E-1,2.1891785E0,6.0962105E-1,7.5641596E-1,8.5017353E-1,3.5815388E-2,8.0466205E-1,5.8886147E-1,1.614949E-1,1.606412E-1,1.505127E-1,1.3935089E0,3.7023254E-2,1.15031004E-1,5.123181E-1,3.668962E-1,2.1665215E-1,8.322966E-2,1.7194182E-2,7.4190577E-4,5.6796104E-2,2.0773575E-1,1.6158032E-1,2.2026539E-1,1.7161697E-1,1.4270326E-1,1.2882888E-1,6.839701E-2,3.6964417E-2,1.39534E-1,8.17996E-1,5.7717454E-1,5.36298E-3,3.137987E-2,1.4391508E-2,4.0299177E-2,3.7632176E-1,3.3210266E-1,2.8559902E-1,1.3259056E-1,0E0,2.096206E-1,5.5410206E-2,8.508003E-2,1.5957285E-2,0E0,0E0,0E0,1.1920171E-2,6.4429104E-2,9.627348E-2,1.5366656E-2,1.5536189E-1,1.5616658E-1,2.7749062E-2,2.9809427E-1,0E0,0E0,0E0,0E0,0E0,0E0,0E0,0E0,0E0,0E0,0E0,0E0,0E0,0E0,0E0,0E0,0E0,0E0,0E0,0E0,0E0,0E0,0E0,0E0,0E0,0E0,0E0,0E0,0E0,0E0,0E0,0E0,0E0,0E0,0E0,0E0,0E0,0E0,0E0,0E0,0E0,0E0,0E0,0E0,0E0,0E0,0E0,0E0,0E0,0E0,0E0,0E0,0E0,0E0,0E0,0E0],"parents":[2147483647,0,0,1,1,2,2,3,3,4,4,5,5,6,6,7,7,8,8,9,9,10,10,11,11,12,12,13,13,14,14,15,15,16,16,17,17,18,18,19,19,20,20,21,21,22,22,23,23,24,24,25,25,26,26,27,27,28,28,29,29,30,30,31,31,32,32,33,33,34,34,35,35,36,36,37,37,38,38,39,39,40,40,41,41,42,42,43,43,44,44,45,45,46,46,48,48,49,49,50,50,51,51,55,55,56,56,57,57,58,58,59,59,60,60,61,61,62,62],"right_children":[2,4,6,8,10,12,14,16,18,20,22,24,26,28,30,32,34,36,38,40,42,44,46,48,50,52,54,56,58,60,62,64,66,68,70,72,74,76,78,80,82,84,86,88,90,92,94,-1,96,98,100,102,-1,-1,-1,104,106,108,110,112,114,116,118,-1,-1,-1,-1,-1,-1,-1,-1,-1,-1,-1,-1,-1,-1,-1,-1,-1,-1,-1,-1,-1,-1,-1,-1,-1,-1,-1,-1,-1,-1,-1,-1,-1,-1,-1,-1,-1,-1,-1,-1,-1,-1,-1,-1,-1,-1,-1,-1,-1,-1,-1,-1,-1,-1,-1,-1],"split_conditions":[-3.6443773E-1,-4.2065418E-1,-2.9498217E-1,-3.0054992E-1,-1.1196095E0,1.6160862E0,-9.4658333E-1,-3.370087E-1,-8.952991E-1,-2.2827502E-1,1.1160081E-2,5.012308E-1,-2.2892335E-1,-2.6083264E-1,-1.430283E-1,-3.989192E-1,-2.945959E-1,-1.0719099E0,6.5146536E-1,-4.0836883E-1,-1.0828654E0,6.429345E-1,1.7070125E0,-9.858785E-1,-2.288941E-1,1.810187E0,9.175264E-1,-1.1568433E0,-3.3666007E-2,1.7316766E-1,-1.6865507E-1,-3.3005161E0,6.429345E-1,-6.673133E-2,-9.636085E-1,-1.0824391E0,-3.538766E-1,1.7070125E0,1.1677458E0,-1.5289078E0,-5.7455254E-1,-3.2619113E-1,-2.8833452E-1,-5.990101E-1,1.0516052E-1,3.1417078E-1,-1.426937E0,-6.751362E-3,-4.3812785E-1,-5.7995105E-1,9.404936E-1,-3.7257257E-1,-5.0790445E-3,7.855237E-4,-3.4386638E-4,-3.511598E-1,4.488956E-1,-9.0424865E-1,3.2588816E-1,-2.8119245E-1,-5.248731E-1,-4.2666852E-1,-2.3869888E-1,-6.5649077E-3,4.066221E-4,1.2059374E-3,4.402887E-3,3.9552916E-3,8.3935065E-3,3.1874643E-3,-3.665354E-3,1.6371919E-2,1.2465875E-2,1.0653048E-2,3.2940868E-3,6.729311E-3,1.37871625E-2,1.6641523E-3,8.322711E-3,9.817675E-4,4.485454E-3,-2.780071E-3,1.3715588E-3,5.419852E-3,1.0968221E-3,1.0351663E-2,6.16217E-3,-2.1721039E-3,1.7165684E-3,6.2941485E-3,5.6710513E-4,-1.9785804E-4,-3.64947E-3,4.169177E-4,5.688E-3,6.6149356E-3,2.3925721E-3,-3.4328017E-3,1.6636454E-3,-4.622448E-3,-4.9615203E-4,1.2384087E-3,-3.2776636E-3,1.3522081E-3,-1.982313E-3,-6.046245E-3,-1.3804305E-3,4.5983153E-4,5.932168E-3,-2.56872E-4,-3.3802178E-3,-3.0239613E-3,-4.6334486E-3,-6.119572E-3,-2.4102186E-4,-4.6191197E-3,-6.5184752E-3,-3.4335055E-3,-5.5998317E-3],"split_indices":[0,0,5,8,1,3,1,2,1,8,1,8,2,8,0,2,5,1,8,0,4,9,6,4,1,3,6,1,5,2,8,8,9,9,9,6,2,6,6,9,3,9,5,8,4,1,9,0,3,4,9,2,0,0,0,0,6,6,9,0,9,6,1,0,0,0,0,0,0,0,0,0,0,0,0,0,0,0,0,0,0,0,0,0,0,0,0,0,0,0,0,0,0,0,0,0,0,0,0,0,0,0,0,0,0,0,0,0,0,0,0,0,0,0,0,0,0,0,0],"split_type":[0,0,0,0,0,0,0,0,0,0,0,0,0,0,0,0,0,0,0,0,0,0,0,0,0,0,0,0,0,0,0,0,0,0,0,0,0,0,0,0,0,0,0,0,0,0,0,0,0,0,0,0,0,0,0,0,0,0,0,0,0,0,0,0,0,0,0,0,0,0,0,0,0,0,0,0,0,0,0,0,0,0,0,0,0,0,0,0,0,0,0,0,0,0,0,0,0,0,0,0,0,0,0,0,0,0,0,0,0,0,0,0,0,0,0,0,0,0,0],"sum_hessian":[4.55E3,2.238E3,2.312E3,1.316E3,9.22E2,2.71E2,2.041E3,3.6E2,9.56E2,1.36E2,7.86E2,2.2E2,5.1E1,1.3E2,1.911E3,2.63E2,9.7E1,1.71E2,7.85E2,3.3E1,1.03E2,4.93E2,2.93E2,1.32E2,8.8E1,4.7E1,4E0,5.9E1,7.1E1,6.97E2,1.214E3,4.4E1,2.19E2,8E1,1.7E1,1.22E2,4.9E1,5.45E2,2.4E2,1E1,2.3E1,8E0,9.5E1,3.71E2,1.22E2,2.44E2,4.9E1,4E0,1.28E2,2.2E1,6.6E1,9E0,3.8E1,2E0,2E0,1.1E1,4.8E1,5.4E1,1.7E1,6.25E2,7.2E1,4.38E2,7.76E2,1.1E1,3.3E1,1.76E2,4.3E1,2.8E1,5.2E1,1.3E1,4E0,2E1,1.02E2,4E1,9E0,5E2,4.5E1,2.02E2,3.8E1,2E0,8E0,5E0,1.8E1,3E0,5E0,8.3E1,1.2E1,7.8E1,2.93E2,8.6E1,3.6E1,1.05E2,1.39E2,3E1,1.9E1,4.7E1,8.1E1,7E0,1.5E1,4.9E1,1.7E1,2E0,7E0,3E0,8E0,3.8E1,1E1,1E1,4.4E1,1.2E1,5E0,2.88E2,3.37E2,1.3E1,5.9E1,3.2E1,4.06E2,2.34E2,5.42E2],"tree_param":{"num_deleted":"0","num_feature":"10","num_nodes":"119","size_leaf_vector":"1"}},{"base_weights":[1.4966514E-4,9.461706E-2,-6.2437627E-2,1.2948684E-1,5.850893E-2,-2.743344E-3,-8.475047E-2,1.4281183E-1,-2.072046E-2,7.7789366E-2,2.721855E-2,3.569819E-2,-4.087003E-2,3.3270504E-2,-8.957496E-2,2.1845943E-1,1.25953E-1,-7.3176674E-3,1.5220867E-2,2.7700216E-2,1.00966826E-1,9.390275E-3,1.01630874E-1,-4.989047E-2,6.865552E-2,-5.5583768E-2,6.82659E-2,-2.1407612E-2,6.902944E-2,-6.3514166E-2,-1.0457093E-1,2.1181272E-2,2.3817678E-1,1.5790941E-1,7.802509E-2,1.1966254E-1,-5.5563417E-3,4.133899E-2,-5.633156E-2,1.87771E-1,9.153432E-2,-1.9407226E-2,4.3063987E-2,1.3144207E-1,2.6493015E-2,-6.765357E-2,1.0643875E-1,9.940212E-2,1.3111014E-2,-8.77799E-2,-2.9384792E-2,2.2482254E-1,-1.7506504E-2,-6.130407E-3,-2.5715318E-3,1.0584704E-1,7.263278E-3,-8.165581E-2,-4.6444025E-2,-1.2155451E-1,-9.4619945E-2,-2.0611985E-4,2.1918642E-3,1.4798378E-2,1.0869659E-2,2.3618361E-3,8.679501E-3,8.121799E-4,4.635758E-3,7.1502845E-3,2.4448202E-3,4.9186754E-3,-8.2472444E-4,-4.4415426E-3,2.4593768E-3,-9.017723E-4,-3.5111264E-3,1.1787583E-2,4.237371E-3,6.6193524E-3,2.9464308E-3,3.921089E-3,-1.5027246E-3,6.46128E-3,-2.6035364E-4,2.8176238E-3,8.605721E-3,3.503078E-3,-4.3421923E-3,3.6250005E-4,-3.8328485E-3,6.15143E-3,2.3324687E-3,-5.7236245E-3,5.322441E-3,4.9911467E-3,9.983683E-5,-5.961092E-3,-2.6000855E-3,1.0438872E-3,-3.455717E-3,4.5663486E-3,1.2430203E-2,-4.1265036E-3,3.1350576E-3,-1.8560317E-3,2.7098567E-3,3.2600348E-3,8.0691585E-3,3.2678277E-3,-1.707864E-4,-1.5163593E-3,-4.5319973E-3,9.4247656E-4,-3.2599445E-3,-2.4695776E-3,-6.1131143E-3,-1.8723609E-3,-5.055107E-3],"categories":[],"categories_nodes":[],"categories_segments":[],"categories_sizes":[],"default_left":[0,0,0,0,0,0,0,0,0,0,0,0,0,0,0,0,0,0,0,0,0,0,0,0,0,0,0,0,0,0,0,0,0,0,0,0,0,0,0,0,0,0,0,0,0,0,0,0,0,0,0,0,0,0,0,0,0,0,0,0,0,0,0,0,0,0,0,0,0,0,0,0,0,0,0,0,0,0,0,0,0,0,0,0,0,0,0,0,0,0,0,0,0,0,0,0,0,0,0,0,0,0,0,0,0,0,0,0,0,0,0,0,0,0,0,0,0,0,0],"id":8,"left_children":[1,3,5,7,9,11,13,15,17,19,21,23,25,27,29,31,33,-1,35,37,39,41,43,45,47,49,51,53,55,57,59,61,63,65,67,69,71,73,75,77,79,81,83,85,87,89,91,93,95,97,99,101,103,-1,105,107,109,111,113,115,117,-1,-1,-1,-1,-1,-1,-1,-1,-1,-1,-1,-1,-1,-1,-1,-1,-1,-1,-1,-1,-1,-1,-1,-1,-1,-1,-1,-1,-1,-1,-1,-1,-1,-1,-1,-1,-1,-1,-1,-1,-1,-1,-1,-1,-1,-1,-1,-1,-1,-1,-1,-1,-1,-1,-1,-1,-1,-1],"loss_changes":[2.6913507E1,2.2764015E0,3.6466446E0,1.8483524E0,5.366225E-1,1.0948325E0,1.1377773E0,1.0526886E0,3.45399E-1,6.3804173E-1,4.527577E-1,1.0527531E0,6.059684E-1,1.5594105E-1,7.417536E-1,5.9009504E-1,1.052144E0,0E0,1.3086528E-1,2.0404068E-1,2.914927E-1,2.694478E-1,1.4435434E-1,2.9599756E-1,4.5809627E-1,2.7662098E-1,6.082066E-1,6.0683783E-2,1.083871E-1,2.1360302E-1,1.9366932E-1,8.779919E-3,1.0261202E-1,7.137327E-1,2.5261474E-1,9.526566E-3,5.9599407E-2,1.5965909E-1,1.2032755E-2,1.5797365E-1,4.4775343E-1,1.5859863E-1,5.330392E-1,1.3384229E-1,1.0484287E-1,6.3948154E-2,5.1716566E-3,2.7291548E-1,9.328349E-2,1.6029072E-1,3.6887395E-1,2.8091311E-2,1.6163638E-1,0E0,5.6928407E-2,5.719793E-2,1.201043E-2,1.5357876E-1,4.469732E-1,1.6689777E-2,2.815795E-1,0E0,0E0,0E0,0E0,0E0,0E0,0E0,0E0,0E0,0E0,0E0,0E0,0E0,0E0,0E0,0E0,0E0,0E0,0E0,0E0,0E0,0E0,0E0,0E0,0E0,0E0,0E0,0E0,0E0,0E0,0E0,0E0,0E0,0E0,0E0,0E0,0E0,0E0,0E0,0E0,0E0,0E0,0E0,0E0,0E0,0E0,0E0,0E0,0E0,0E0,0E0,0E0,0E0,0E0,0E0,0E0,0E0,0E0],"parents":[2147483647,0,0,1,1,2,2,3,3,4,4,5,5,6,6,7,7,8,8,9,9,10,10,11,11,12,12,13,13,14,14,15,15,16,16,18,18,19,19,20,20,21,21,22,22,23,23,24,24,25,25,26,26,27,27,28,28,29,29,30,30,31,31,32,32,33,33,34,34,35,35,36,36,37,37,38,38,39,39,40,40,41,41,42,42,43,43,44,44,45,45,46,46,47,47,48,48,49,49,50,50,51,51,52,52,54,54,55,55,56,56,57,57,58,58,59,59,60,60],"right_children":[2,4,6,8,10,12,14,16,18,20,22,24,26,28,30,32,34,-1,36,38,40,42,44,46,48,50,52,54,56,58,60,62,64,66,68,70,72,74,76,78,80,82,84,86,88,90,92,94,96,98,100,102,104,-1,106,108,110,112,114,116,118,-1,-1,-1,-1,-1,-1,-1,-1,-1,-1,-1,-1,-1,-1,-1,-1,-1,-1,-1,-1,-1,-1,-1,-1,-1,-1,-1,-1,-1,-1,-1,-1,-1,-1,-1,-1,-1,-1,-1,-1,-1,-1,-1,-1,-1,-1,-1,-1,-1,-1,-1,-1,-1,-1,-1,-1,-1,-1],"split_conditions":[-3.9725673E-1,-3.800215E-1,-2.8300124E-1,9.7063845E-1,-4.2855275E-1,-2.0439196E-1,-1.0719099E0,-1.2077988E0,-3.9354467E-1,-7.574925E-1,-2.5769678E-1,-6.5663123E-1,1.5219281E0,-1.4610906E-1,-1.430283E-1,-2.2827502E-1,-4.3266857E-1,-7.3176674E-3,-5.248731E-1,6.757831E-1,-4.581992E-1,-6.540519E-2,6.8564445E-1,5.709818E-1,5.089289E-1,-5.32075E-3,-5.6117195E-1,-3.8076457E-1,-2.1547665E-1,-2.4565704E-1,-1.6865507E-1,-6.9094616E-1,-7.7389336E-1,-4.0407392E-1,-3.7319714E-1,-3.4302396E-1,-9.7641927E-1,-3.9729578E0,-6.4856243E-1,3.1059152E-1,-2.288941E-1,-1.0522009E0,-1.4499052E-1,-9.669208E-1,-1.2715368E-1,-9.180444E-1,-3.4258524E-1,-8.324685E-1,-9.39376E-1,-3.624622E-1,-5.088745E-1,-3.6585146E-1,-3.5705703E-1,-6.130407E-3,4.857141E-1,-2.4418496E-1,-1.3076025E0,-3.6443773E-1,-3.8468295E-1,-1.3625236E-1,-6.173062E-1,-2.0611985E-4,2.1918642E-3,1.4798378E-2,1.0869659E-2,2.3618361E-3,8.679501E-3,8.121799E-4,4.635758E-3,7.1502845E-3,2.4448202E-3,4.9186754E-3,-8.2472444E-4,-4.4415426E-3,2.4593768E-3,-9.017723E-4,-3.5111264E-3,1.1787583E-2,4.237371E-3,6.6193524E-3,2.9464308E-3,3.921089E-3,-1.5027246E-3,6.46128E-3,-2.6035364E-4,2.8176238E-3,8.605721E-3,3.503078E-3,-4.3421923E-3,3.6250005E-4,-3.8328485E-3,6.15143E-3,2.3324687E-3,-5.7236245E-3,5.322441E-3,4.9911467E-3,9.983683E-5,-5.961092E-3,-2.6000855E-3,1.0438872E-3,-3.455717E-3,4.5663486E-3,1.2430203E-2,-4.1265036E-3,3.1350576E-3,-1.8560317E-3,2.7098567E-3,3.2600348E-3,8.0691585E-3,3.2678277E-3,-1.707864E-4,-1.5163593E-3,-4.5319973E-3,9.4247656E-4,-3.2599445E-3,-2.4695776E-3,-6.1131143E-3,-1.8723609E-3,-5.055107E-3],"split_indices":[0,3,5,8,0,1,1,1,2,8,2,8,6,8,0,8,0,0,9,4,0,8,9,9,8,3,3,2,5,2,8,8,9,2,2,1,4,8,6,8,1,1,1,1,1,6,4,3,6,2,6,0,8,0,3,0,1,0,1,0,1,0,0,0,0,0,0,0,0,0,0,0,0,0,0,0,0,0,0,0,0,0,0,0,0,0,0,0,0,0,0,0,0,0,0,0,0,0,0,0,0,0,0,0,0,0,0,0,0,0,0,0,0,0,0,0,0,0,0],"split_type":[0,0,0,0,0,0,0,0,0,0,0,0,0,0,0,0,0,0,0,0,0,0,0,0,0,0,0,0,0,0,0,0,0,0,0,0,0,0,0,0,0,0,0,0,0,0,0,0,0,0,0,0,0,0,0,0,0,0,0,0,0,0,0,0,0,0,0,0,0,0,0,0,0,0,0,0,0,0,0,0,0,0,0,0,0,0,0,0,0,0,0,0,0,0,0,0,0,0,0,0,0,0,0,0,0,0,0,0,0,0,0,0,0,0,0,0,0,0,0],"sum_hessian":[4.55E3,1.813E3,2.737E3,9.21E2,8.92E2,7.45E2,1.992E3,8.46E2,7.5E1,5.51E2,3.41E2,3.71E2,3.74E2,7.8E1,1.914E3,1.52E2,6.94E2,1.6E1,5.9E1,1.75E2,3.76E2,2.76E2,6.5E1,1.03E2,2.68E2,3.3E2,4.4E1,3.1E1,4.7E1,7.01E2,1.213E3,1.4E1,1.38E2,4.15E2,2.79E2,9E0,5E1,1.51E2,2.4E1,3.5E1,3.41E2,1.49E2,1.27E2,4.6E1,1.9E1,9.3E1,1E1,1.72E2,9.6E1,1.47E2,1.83E2,1.5E1,2.9E1,4E0,2.7E1,2.9E1,1.8E1,3.38E2,3.63E2,4.44E2,7.69E2,7E0,7E0,3.3E1,1.05E2,5.2E1,3.63E2,5.4E1,2.25E2,6E0,3E0,4E0,4.6E1,8E0,1.43E2,7E0,1.7E1,2.3E1,1.2E1,1.5E2,1.91E2,1.4E1,1.35E2,4.5E1,8.2E1,1.7E1,2.9E1,1.4E1,5E0,1E1,8.3E1,7E0,3E0,5E0,1.67E2,1E1,8.6E1,7.7E1,7E1,8.1E1,1.02E2,3E0,1.2E1,1.6E1,1.3E1,1.7E1,1E1,1.8E1,1.1E1,2E0,1.6E1,5.1E1,2.87E2,8.1E1,2.82E2,5E0,4.39E2,7.9E1,6.9E2],"tree_param":{"num_deleted":"0","num_feature":"10","num_nodes":"119","size_leaf_vector":"1"}},{"base_weights":[1.6172009E-4,7.447832E-2,-7.177733E-2,1.0580138E-1,2.9703729E-2,1.6916073E-3,-8.152845E-2,1.4428677E-1,7.072736E-2,1.3685851E-1,1.1012611E-2,2.037194E-2,-7.773234E-2,-1.8943262E-3,-8.6941905E-2,1.5707707E-1,-1.6893039E-2,3.0435564E-2,9.089469E-2,2.7866837E-2,1.7117445E-1,3.2478582E-2,-2.509352E-2,6.6556886E-2,-4.8874907E-2,-8.467378E-2,4.4519543E-3,-8.058495E-2,6.370751E-2,-6.5958105E-2,-9.892525E-2,3.9247673E-2,1.688303E-1,-7.203451E-3,2.1372603E-2,4.332658E-2,-4.590996E-2,1.2046087E-1,6.422766E-2,7.213325E-2,6.4169443E-3,5.5376712E-2,1.8024743E-1,1.4840119E-2,8.556013E-2,-3.9643034E-2,4.6700977E-2,-6.2641464E-3,7.347659E-2,-1.0823708E-3,-6.455182E-2,-4.0604405E-2,-4.690125E-3,8.808154E-4,-5.098192E-4,-1.8466631E-2,-9.415301E-2,9.118671E-2,-2.3796031E-2,-5.114605E-2,-8.096537E-2,-8.509702E-2,-1.1180021E-1,5.369594E-3,2.5178448E-4,1.0565127E-2,7.1865246E-3,3.300917E-4,4.8293974E-3,3.561255E-3,1.738874E-4,2.4838666E-3,-2.6718292E-3,4.1752527E-3,7.401231E-3,8.303915E-3,2.3755657E-3,8.3673E-4,4.1292333E-3,-2.695233E-3,1.256407E-3,5.042767E-3,7.9140876E-4,8.0201365E-3,1.1028219E-2,5.4422813E-3,2.2220777E-4,5.8206245E-3,5.351479E-4,-9.994071E-4,-4.6882234E-3,-9.320071E-4,4.201893E-3,6.653377E-3,2.493643E-3,-3.3175559E-3,1.5809825E-3,-4.3920833E-3,-8.0890785E-4,1.1623324E-3,-2.9736501E-3,7.194616E-4,-2.1995355E-3,-5.5762134E-3,-1.2002325E-3,3.3630038E-4,5.490314E-3,-2.3065267E-4,-3.0696574E-3,-5.0105667E-3,-1.8110573E-3,-2.2962915E-3,-4.9488726E-3,-3.0812148E-3,-5.023086E-3,-4.029698E-3,-5.8719823E-3],"categories":[],"categories_nodes":[],"categories_segments":[],"categories_sizes":[],"default_left":[0,0,0,0,0,0,0,0,0,0,0,0,0,0,0,0,0,0,0,0,0,0,0,0,0,0,0,0,0,0,0,0,0,0,0,0,0,0,0,0,0,0,0,0,0,0,0,0,0,0,0,0,0,0,0,0,0,0,0,0,0,0,0,0,0,0,0,0,0,0,0,0,0,0,0,0,0,0,0,0,0,0,0,0,0,0,0,0,0,0,0,0,0,0,0,0,0,0,0,0,0,0,0,0,0,0,0,0,0,0,0,0,0,0,0,0,0],"id":9,"left_children":[1,3,5,7,9,11,13,15,17,19,21,23,25,27,29,31,33,35,37,39,41,43,45,47,49,51,53,55,57,59,61,63,65,-1,67,69,71,73,75,77,79,81,83,85,87,89,91,-1,93,95,97,99,-1,-1,-1,101,103,105,107,109,111,113,115,-1,-1,-1,-1,-1,-1,-1,-1,-1,-1,-1,-1,-1,-1,-1,-1,-1,-1,-1,-1,-1,-1,-1,-1,-1,-1,-1,-1,-1,-1,-1,-1,-1,-1,-1,-1,-1,-1,-1,-1,-1,-1,-1,-1,-1,-1,-1,-1,-1,-1,-1,-1,-1,-1],"loss_changes":[2.43362E1,3.137004E0,1.6571798E0,1.7675285E0,1.8471165E0,4.051406E-1,8.801346E-1,1.2952375E0,5.587249E-1,5.076306E-1,6.1078185E-1,7.1004665E-1,3.0041814E-2,6.813885E-1,4.7425938E-1,7.9798794E-1,2.3180325E-1,2.3031688E-1,3.549466E-1,3.1820457E-2,9.928441E-2,4.6125108E-1,3.0895644E-1,1.8575954E-1,6.661245E-2,1.550144E-2,1.1438021E-3,4.8830837E-2,1.7529586E-1,1.5101647E-1,2.0680141E-1,1.2535203E-1,5.325012E-1,0E0,4.0468916E-2,2.2098526E-1,2.7115874E-2,2.0868397E-1,4.0753675E-1,4.986912E-3,2.8443066E-2,1.4591165E-2,4.142809E-2,3.6306357E-1,2.8282505E-1,2.587448E-1,1.2354817E-1,0E0,1.7481095E-1,5.118965E-2,7.406208E-2,1.3430346E-2,0E0,0E0,0E0,1.06963795E-2,5.7032555E-2,8.5755706E-2,1.2698834E-2,2.5560254E-1,2.131958E-1,2.0659304E-1,1.0070181E-1,0E0,0E0,0E0,0E0,0E0,0E0,0E0,0E0,0E0,0E0,0E0,0E0,0E0,0E0,0E0,0E0,0E0,0E0,0E0,0E0,0E0,0E0,0E0,0E0,0E0,0E0,0E0,0E0,0E0,0E0,0E0,0E0,0E0,0E0,0E0,0E0,0E0,0E0,0E0,0E0,0E0,0E0,0E0,0E0,0E0,0E0,0E0,0E0,0E0,0E0,0E0,0E0,0E0,0E0],"parents":[2147483647,0,0,1,1,2,2,3,3,4,4,5,5,6,6,7,7,8,8,9,9,10,10,11,11,12,12,13,13,14,14,15,15,16,16,17,17,18,18,19,19,20,20,21,21,22,22,23,23,24,24,25,25,26,26,27,27,28,28,29,29,30,30,31,31,32,32,34,34,35,35,36,36,37,37,38,38,39,39,40,40,41,41,42,42,43,43,44,44,45,45,46,46,48,48,49,49,50,50,51,51,55,55,56,56,57,57,58,58,59,59,60,60,61,61,62,62],"right_children":[2,4,6,8,10,12,14,16,18,20,22,24,26,28,30,32,34,36,38,40,42,44,46,48,50,52,54,56,58,60,62,64,66,-1,68,70,72,74,76,78,80,82,84,86,88,90,92,-1,94,96,98,100,-1,-1,-1,102,104,106,108,110,112,114,116,-1,-1,-1,-1,-1,-1,-1,-1,-1,-1,-1,-1,-1,-1,-1,-1,-1,-1,-1,-1,-1,-1,-1,-1,-1,-1,-1,-1,-1,-1,-1,-1,-1,-1,-1,-1,-1,-1,-1,-1,-1,-1,-1,-1,-1,-1,-1,-1,-1,-1,-1,-1,-1,-1],"split_conditions":[-3.6443773E-1,-4.2065418E-1,-2.9498217E-1,-4.1401222E-1,-1.1196095E0,1.6160862E0,-9.4658333E-1,9.959001E-1,-5.883906E-1,-2.2827502E-1,1.1160081E-2,5.012308E-1,-2.2892335E-1,-2.6083264E-1,-1.430283E-1,-4.0481293E-1,-3.9354467E-1,6.757831E-1,-1.5943223E-1,-4.0836883E-1,-1.0828654E0,6.429345E-1,1.7070125E0,-9.858785E-1,-2.288941E-1,1.810187E0,9.175264E-1,-1.1568433E0,-3.3666007E-2,4.031587E-1,-4.2871806E-1,3.3110744E-1,-7.542596E-1,-7.203451E-3,7.1429247E-1,1.3055407E-1,7.588166E-1,-7.651484E-2,-4.581992E-1,-1.5289078E0,-5.7455254E-1,-3.2619113E-1,-7.0258135E-1,-9.170422E-1,1.0516052E-1,7.8521943E-1,-4.5961267E-1,-6.2641464E-3,-5.564124E-1,-5.7995105E-1,-3.070292E-1,-3.7257257E-1,-4.690125E-3,8.808154E-4,-5.098192E-4,-2.1188866E-1,4.488956E-1,-9.0424865E-1,3.2588816E-1,-1.1429783E0,9.377266E-2,1.0677609E-1,-5.501516E-1,5.369594E-3,2.5178448E-4,1.0565127E-2,7.1865246E-3,3.300917E-4,4.8293974E-3,3.561255E-3,1.738874E-4,2.4838666E-3,-2.6718292E-3,4.1752527E-3,7.401231E-3,8.303915E-3,2.3755657E-3,8.3673E-4,4.1292333E-3,-2.695233E-3,1.256407E-3,5.042767E-3,7.9140876E-4,8.0201365E-3,1.1028219E-2,5.4422813E-3,2.2220777E-4,5.8206245E-3,5.351479E-4,-9.994071E-4,-4.6882234E-3,-9.320071E-4,4.201893E-3,6.653377E-3,2.493643E-3,-3.3175559E-3,1.5809825E-3,-4.3920833E-3,-8.0890785E-4,1.1623324E-3,-2.9736501E-3,7.194616E-4,-2.1995355E-3,-5.5762134E-3,-1.2002325E-3,3.3630038E-4,5.490314E-3,-2.3065267E-4,-3.0696574E-3,-5.0105667E-3,-1.8110573E-3,-2.2962915E-3,-4.9488726E-3,-3.0812148E-3,-5.023086E-3,-4.029698E-3,-5.8719823E-3],"split_indices":[0,0,5,3,1,3,1,8,8,8,1,8,2,8,0,2,2,4,1,0,4,9,6,4,1,3,6,1,5,8,3,8,1,0,6,6,3,8,0,9,3,9,6,4,4,8,8,0,3,4,0,2,0,0,0,0,6,6,9,8,9,5,1,0,0,0,0,0,0,0,0,0,0,0,0,0,0,0,0,0,0,0,0,0,0,0,0,0,0,0,0,0,0,0,0,0,0,0,0,0,0,0,0,0,0,0,0,0,0,0,0,0,0,0,0,0,0],"split_type":[0,0,0,0,0,0,0,0,0,0,0,0,0,0,0,0,0,0,0,0,0,0,0,0,0,0,0,0,0,0,0,0,0,0,0,0,0,0,0,0,0,0,0,0,0,0,0,0,0,0,0,0,0,0,0,0,0,0,0,0,0,0,0,0,0,0,0,0,0,0,0,0,0,0,0,0,0,0,0,0,0,0,0,0,0,0,0,0,0,0,0,0,0,0,0,0,0,0,0,0,0,0,0,0,0,0,0,0,0,0,0,0,0,0,0,0,0],"sum_hessian":[4.55E3,2.238E3,2.312E3,1.316E3,9.22E2,2.71E2,2.041E3,6.26E2,6.9E2,1.36E2,7.86E2,2.2E2,5.1E1,1.3E2,1.911E3,5.8E2,4.6E1,2.31E2,4.59E2,3.3E1,1.03E2,4.93E2,2.93E2,1.32E2,8.8E1,4.7E1,4E0,5.9E1,7.1E1,6.97E2,1.214E3,5.3E1,5.27E2,1E1,3.6E1,1.98E2,3.3E1,2.16E2,2.43E2,1E1,2.3E1,8E0,9.5E1,3.71E2,1.22E2,2.44E2,4.9E1,4E0,1.28E2,2.2E1,6.6E1,9E0,3.8E1,2E0,2E0,1.1E1,4.8E1,5.4E1,1.7E1,3.53E2,3.44E2,5.89E2,6.25E2,1.7E1,3.6E1,1.93E2,3.34E2,3.1E1,5E0,1.16E2,8.2E1,2E0,3.1E1,9.4E1,1.22E2,3.3E1,2.1E2,2E0,8E0,5E0,1.8E1,3E0,5E0,6.7E1,2.8E1,3.6E1,3.35E2,8.6E1,3.6E1,1.8E2,6.4E1,1.8E1,3.1E1,3.5E1,9.3E1,7E0,1.5E1,4.4E1,2.2E1,2E0,7E0,5E0,6E0,3.8E1,1E1,1E1,4.4E1,1.2E1,5E0,8.1E1,2.72E2,1.18E2,2.26E2,2.35E2,3.54E2,9.8E1,5.27E2],"tree_param":{"num_deleted":"0","num_feature":"10","num_nodes":"117","size_leaf_vector":"1"}},{"base_weights":[1.61798E-4,8.5581124E-2,-5.6430902E-2,3.3326045E-2,1.05659924E-1,-2.458027E-3,-7.660518E-2,1.3151277E-2,1.0481891E-1,2.0831129E-1,8.7520614E-2,3.259135E-2,-3.7220456E-2,3.0423898E-2,-8.098047E-2,4.3734465E-2,-4.9566748E-3,1.2831892E-1,3.917989E-3,2.3093532E-1,1.6789147E-1,1.3759021E-1,6.0503174E-2,-4.573121E-2,6.275103E-2,-5.0835446E-2,6.375247E-2,-1.89183E-2,6.2684864E-2,-5.755808E-2,-9.445786E-2,-1.1188362E-2,6.437093E-2,-2.8153617E-2,6.397642E-2,7.301811E-2,1.6383395E-1,5.8615368E-2,-8.1602156E-2,1.4648329E-2,2.1604608E-1,1.4973368E-1,1.1750768E-2,1.620368E-1,8.123508E-2,5.2611273E-2,2.1030316E-1,-6.2147845E-2,9.871376E-2,9.089746E-2,1.1904815E-2,-8.1143506E-2,-2.6180942E-2,2.1134037E-1,-1.7086154E-2,-5.7201264E-3,-1.1918917E-3,9.6390046E-2,6.166956E-3,-1.1525728E-1,-5.2377872E-2,-1.1031825E-1,-8.5169114E-2,2.4217926E-3,-1.7332552E-3,4.324234E-3,1.179803E-3,2.684738E-3,-1.8327152E-3,4.312212E-3,-2.4565011E-3,4.2828745E-3,-1.2502703E-3,6.869639E-3,1.147832E-2,3.5867163E-3,-6.69946E-4,-1.4907833E-3,-5.1263063E-3,1.3062725E-2,9.694423E-3,8.377655E-3,1.4079941E-3,8.463421E-3,-3.3645572E-3,4.7502606E-3,-7.1042957E-4,4.0876055E-3,4.3991717E-5,1.3521425E-2,5.4049543E-3,3.55096E-4,-3.5238208E-3,5.7108267E-3,2.1514895E-3,-5.6817345E-3,4.8830565E-3,1.5340265E-3,-1.6589474E-3,-5.50312E-3,-2.4115297E-3,1.0193675E-3,-3.1500272E-3,4.287286E-3,1.1686397E-2,3.521487E-3,-3.573004E-3,-1.674577E-3,2.5885215E-3,2.9059409E-3,7.4476833E-3,2.9758902E-3,-1.8053307E-4,-4.521584E-3,-6.3613444E-3,-2.293193E-3,-4.9274894E-3,-5.051724E-3,-5.86101E-3,-3.4011526E-3,-5.210305E-3],"categories":[],"categories_nodes":[],"categories_segments":[],"categories_sizes":[],"default_left":[0,0,0,0,0,0,0,0,0,0,0,0,0,0,0,0,0,0,0,0,0,0,0,0,0,0,0,0,0,0,0,0,0,0,0,0,0,0,0,0,0,0,0,0,0,0,0,0,0,0,0,0,0,0,0,0,0,0,0,0,0,0,0,0,0,0,0,0,0,0,0,0,0,0,0,0,0,0,0,0,0,0,0,0,0,0,0,0,0,0,0,0,0,0,0,0,0,0,0,0,0,0,0,0,0,0,0,0,0,0,0,0,0,0,0,0,0,0,0,0,0],"id":10,"left_children":[1,3,5,7,9,11,13,15,17,19,21,23,25,27,29,31,33,35,37,39,41,43,45,47,49,51,53,55,57,59,61,63,65,67,69,71,73,75,77,-1,79,81,-1,83,85,87,89,91,93,95,97,99,101,103,105,-1,107,109,111,113,115,117,119,-1,-1,-1,-1,-1,-1,-1,-1,-1,-1,-1,-1,-1,-1,-1,-1,-1,-1,-1,-1,-1,-1,-1,-1,-1,-1,-1,-1,-1,-1,-1,-1,-1,-1,-1,-1,-1,-1,-1,-1,-1,-1,-1,-1,-1,-1,-1,-1,-1,-1,-1,-1,-1,-1,-1,-1,-1,-1],"loss_changes":[2.2004866E1,1.8997622E0,2.981121E0,7.2700936E-1,2.4210215E0,9.101406E-1,9.357538E-1,2.1896735E-1,2.6269734E-1,1.4046192E-1,1.4999952E0,8.8160205E-1,5.1877034E-1,1.2694024E-1,5.990763E-1,1.673319E-1,3.999614E-1,1.6479814E-1,1.0769314E-1,5.0308228E-2,5.5002928E-2,5.2413654E-1,8.4721756E-1,2.5275004E-1,3.8389444E-1,2.4520874E-1,5.404972E-1,5.40266E-2,9.084298E-2,2.0378637E-1,1.6945457E-1,5.9070107E-2,9.4439596E-2,1.320767E-1,1.6291109E-1,4.798329E-2,6.2313437E-2,1.4187701E-2,6.6953227E-3,0E0,5.2521706E-2,1.274308E-1,0E0,4.6081972E-1,1.590625E-1,1.0416088E0,1.9198883E-1,5.4715157E-2,4.5811012E-3,2.5042355E-1,8.312649E-2,1.3555878E-1,3.1677556E-1,2.4946868E-2,1.4779037E-1,0E0,4.9632475E-2,5.16932E-2,1.0126137E-2,5.432427E-3,1.8977404E-1,1.6670227E-2,2.4424696E-1,0E0,0E0,0E0,0E0,0E0,0E0,0E0,0E0,0E0,0E0,0E0,0E0,0E0,0E0,0E0,0E0,0E0,0E0,0E0,0E0,0E0,0E0,0E0,0E0,0E0,0E0,0E0,0E0,0E0,0E0,0E0,0E0,0E0,0E0,0E0,0E0,0E0,0E0,0E0,0E0,0E0,0E0,0E0,0E0,0E0,0E0,0E0,0E0,0E0,0E0,0E0,0E0,0E0,0E0,0E0,0E0,0E0,0E0],"parents":[2147483647,0,0,1,1,2,2,3,3,4,4,5,5,6,6,7,7,8,8,9,9,10,10,11,11,12,12,13,13,14,14,15,15,16,16,17,17,18,18,19,19,20,20,21,21,22,22,23,23,24,24,25,25,26,26,27,27,28,28,29,29,30,30,31,31,32,32,33,33,34,34,35,35,36,36,37,37,38,38,40,40,41,41,43,43,44,44,45,45,46,46,47,47,48,48,49,49,50,50,51,51,52,52,53,53,54,54,56,56,57,57,58,58,59,59,60,60,61,61,62,62],"right_children":[2,4,6,8,10,12,14,16,18,20,22,24,26,28,30,32,34,36,38,40,42,44,46,48,50,52,54,56,58,60,62,64,66,68,70,72,74,76,78,-1,80,82,-1,84,86,88,90,92,94,96,98,100,102,104,106,-1,108,110,112,114,116,118,120,-1,-1,-1,-1,-1,-1,-1,-1,-1,-1,-1,-1,-1,-1,-1,-1,-1,-1,-1,-1,-1,-1,-1,-1,-1,-1,-1,-1,-1,-1,-1,-1,-1,-1,-1,-1,-1,-1,-1,-1,-1,-1,-1,-1,-1,-1,-1,-1,-1,-1,-1,-1,-1,-1,-1,-1,-1,-1],"split_conditions":[-3.9725673E-1,-3.0054992E-1,-2.8300124E-1,-3.2310438E-1,-1.0719099E0,-2.0439196E-1,-1.0719099E0,-4.3963447E-1,-2.9283032E-1,-4.2065418E-1,-4.4746625E-1,-6.5663123E-1,1.5219281E0,-1.4610906E-1,-1.430283E-1,-3.9438963E-1,6.429345E-1,-4.4018004E-2,-8.024462E-1,-1.0824391E0,-6.6137445E-1,5.8115226E-1,2.293896E0,5.709818E-1,5.089289E-1,-5.32075E-3,-5.6117195E-1,-3.8076457E-1,-2.1547665E-1,-3.6664233E-1,-1.6865507E-1,-1.0363702E0,8.0616975E-1,-1.149708E0,-3.5960725E-1,-5.5831756E-2,-3.702324E-1,-2.520274E-1,-2.857694E-1,1.4648329E-2,-7.7389336E-1,-7.702747E-1,1.1750768E-2,3.3110616E0,1.1433276E0,-6.9933824E-2,-4.2524233E-1,-9.180444E-1,-3.4258524E-1,-8.324685E-1,-3.5822338E-1,-3.624622E-1,-5.088745E-1,-3.6585146E-1,2.1169689E0,-5.7201264E-3,4.857141E-1,-2.4418496E-1,-1.3076025E0,1.0480622E-1,1.7477989E0,3.677055E-1,1.0480622E-1,2.4217926E-3,-1.7332552E-3,4.324234E-3,1.179803E-3,2.684738E-3,-1.8327152E-3,4.312212E-3,-2.4565011E-3,4.2828745E-3,-1.2502703E-3,6.869639E-3,1.147832E-2,3.5867163E-3,-6.69946E-4,-1.4907833E-3,-5.1263063E-3,1.3062725E-2,9.694423E-3,8.377655E-3,1.4079941E-3,8.463421E-3,-3.3645572E-3,4.7502606E-3,-7.1042957E-4,4.0876055E-3,4.3991717E-5,1.3521425E-2,5.4049543E-3,3.55096E-4,-3.5238208E-3,5.7108267E-3,2.1514895E-3,-5.6817345E-3,4.8830565E-3,1.5340265E-3,-1.6589474E-3,-5.50312E-3,-2.4115297E-3,1.0193675E-3,-3.1500272E-3,4.287286E-3,1.1686397E-2,3.521487E-3,-3.573004E-3,-1.674577E-3,2.5885215E-3,2.9059409E-3,7.4476833E-3,2.9758902E-3,-1.8053307E-4,-4.521584E-3,-6.3613444E-3,-2.293193E-3,-4.9274894E-3,-5.051724E-3,-5.86101E-3,-3.4011526E-3,-5.210305E-3],"split_indices":[0,8,5,2,1,1,1,0,5,0,0,8,6,8,0,2,9,9,9,6,6,8,6,9,8,3,3,2,5,2,8,1,6,6,2,2,6,2,1,0,9,6,0,1,9,1,0,6,4,3,0,2,6,0,6,0,3,0,1,1,9,0,1,0,0,0,0,0,0,0,0,0,0,0,0,0,0,0,0,0,0,0,0,0,0,0,0,0,0,0,0,0,0,0,0,0,0,0,0,0,0,0,0,0,0,0,0,0,0,0,0,0,0,0,0,0,0,0,0,0,0],"split_type":[0,0,0,0,0,0,0,0,0,0,0,0,0,0,0,0,0,0,0,0,0,0,0,0,0,0,0,0,0,0,0,0,0,0,0,0,0,0,0,0,0,0,0,0,0,0,0,0,0,0,0,0,0,0,0,0,0,0,0,0,0,0,0,0,0,0,0,0,0,0,0,0,0,0,0,0,0,0,0,0,0,0,0,0,0,0,0,0,0,0,0,0,0,0,0,0,0,0,0,0,0,0,0,0,0,0,0,0,0,0,0,0,0,0,0,0,0,0,0,0,0],"sum_hessian":[4.55E3,1.813E3,2.737E3,5.04E2,1.309E3,7.45E2,1.992E3,3.94E2,1.1E2,1.95E2,1.114E3,3.71E2,3.74E2,7.8E1,1.914E3,1.46E2,2.48E2,8.9E1,2.1E1,1.22E2,7.3E1,3.89E2,7.25E2,1.03E2,2.68E2,3.3E2,4.4E1,3.1E1,4.7E1,7.01E2,1.213E3,4E1,1.06E2,1.86E2,6.2E1,3.6E1,5.3E1,1.3E1,8E0,2E1,1.02E2,6E1,1.3E1,2.7E2,1.19E2,6.9E2,3.5E1,9.3E1,1E1,1.72E2,9.6E1,1.47E2,1.83E2,1.5E1,2.9E1,4E0,2.7E1,2.9E1,1.8E1,5.6E1,6.45E2,4.44E2,7.69E2,1.1E1,2.9E1,6.8E1,3.8E1,1.7E1,1.69E2,5.2E1,1E1,3.2E1,4E0,4E1,1.3E1,1.1E1,2E0,3E0,5E0,3E1,7.2E1,5.2E1,8E0,2.62E2,8E0,1.04E2,1.5E1,4.41E2,2.49E2,2.1E1,1.4E1,1E1,8.3E1,7E0,3E0,5E0,1.67E2,6.8E1,2.8E1,7.7E1,7E1,8.1E1,1.02E2,3E0,1.2E1,1.1E1,1.8E1,1.7E1,1E1,1.8E1,1.1E1,2E0,1.6E1,2.1E1,3.5E1,5.67E2,7.8E1,1.96E2,2.48E2,4.07E2,3.62E2],"tree_param":{"num_deleted":"0","num_feature":"10","num_nodes":"121","size_leaf_vector":"1"}},{"base_weights":[1.7526154E-4,6.739336E-2,-6.4892404E-2,9.586822E-2,2.669045E-2,1.9525293E-3,-7.376455E-2,4.135264E-2,1.1633245E-1,1.2502004E-1,9.53944E-3,1.9267494E-2,-7.167362E-2,-1.3962841E-3,-7.8684255E-2,1.9008672E-2,1.0112259E-1,2.0281592E-1,9.7259305E-2,2.6022557E-2,1.561825E-1,2.3601478E-2,-3.6024462E-2,6.129266E-2,-4.3750647E-2,-7.803028E-2,3.6851019E-3,-7.43478E-2,5.941604E-2,-6.691509E-2,-9.651368E-2,5.980806E-3,1.3743173E-2,1.1724307E-1,2.2962503E-2,2.075968E-1,6.046721E-2,1.250446E-1,4.797691E-2,6.727242E-2,6.032097E-3,4.847882E-2,1.6465281E-1,-6.771157E-2,2.9701114E-2,-7.108447E-2,2.8798034E-2,-8.9468606E-2,6.9119714E-2,-2.9746925E-2,-9.377769E-2,-3.6604658E-2,-4.332573E-3,9.626855E-4,-6.5559376E-4,-1.6533919E-2,-8.6989E-2,8.486357E-2,-2.1641212E-2,-7.732547E-2,-3.7649017E-2,-3.497615E-2,-1.007173E-1,-4.4778925E-3,1.1275616E-3,5.1397155E-3,1.1811939E-2,2.690934E-3,-3.4013644E-3,1.1116377E-2,8.337597E-3,4.694101E-3,5.9678E-4,5.7219923E-3,1.1923362E-2,1.4332449E-3,7.384613E-3,1.2099972E-3,4.0199803E-3,-2.5289396E-3,1.1795871E-3,4.5395023E-3,6.095767E-4,8.784096E-3,5.3549963E-3,5.235701E-4,-4.1349055E-3,3.6193586E-3,1.0568575E-3,-1.5426081E-3,-4.528569E-3,-8.2617375E-4,4.025025E-3,-6.4997934E-3,3.9498435E-4,6.506737E-3,2.315757E-3,-4.054913E-3,-4.0094933E-4,-1.9716925E-3,-4.8925723E-3,1.0896086E-3,-2.6963942E-3,7.0361694E-4,-2.0202934E-3,-5.167139E-3,-1.0549667E-3,2.3773416E-4,5.127995E-3,-2.0592868E-4,-2.800003E-3,-2.6025628E-3,-4.491322E-3,-1.1047237E-3,-4.055999E-3,-3.188363E-3,1.5095206E-3,-3.980842E-3,-5.3460356E-3],"categories":[],"categories_nodes":[],"categories_segments":[],"categories_sizes":[],"default_left":[0,0,0,0,0,0,0,0,0,0,0,0,0,0,0,0,0,0,0,0,0,0,0,0,0,0,0,0,0,0,0,0,0,0,0,0,0,0,0,0,0,0,0,0,0,0,0,0,0,0,0,0,0,0,0,0,0,0,0,0,0,0,0,0,0,0,0,0,0,0,0,0,0,0,0,0,0,0,0,0,0,0,0,0,0,0,0,0,0,0,0,0,0,0,0,0,0,0,0,0,0,0,0,0,0,0,0,0,0,0,0,0,0,0,0,0,0,0,0],"id":11,"left_children":[1,3,5,7,9,11,13,15,17,19,21,23,25,27,29,31,33,35,37,39,41,43,45,47,49,51,53,55,57,59,61,-1,63,65,67,69,71,73,75,77,79,81,83,85,87,89,91,93,95,97,99,101,-1,-1,-1,103,105,107,109,111,113,115,117,-1,-1,-1,-1,-1,-1,-1,-1,-1,-1,-1,-1,-1,-1,-1,-1,-1,-1,-1,-1,-1,-1,-1,-1,-1,-1,-1,-1,-1,-1,-1,-1,-1,-1,-1,-1,-1,-1,-1,-1,-1,-1,-1,-1,-1,-1,-1,-1,-1,-1,-1,-1,-1,-1,-1,-1],"loss_changes":[1.9909195E1,2.5924644E0,1.3718872E0,1.4644594E0,1.5554024E0,3.4813586E-1,7.2690487E-1,4.8019248E-1,1.5588579E0,4.1858125E-1,5.050979E-1,5.879665E-1,2.5197089E-2,5.8557945E-1,3.9475155E-1,1.3820967E-1,1.2078571E-1,1.045022E-1,1.0702915E0,2.763073E-2,8.6895466E-2,3.3731085E-1,4.2476505E-1,1.6312632E-1,5.956067E-2,1.39707625E-2,1.55998E-3,4.2411953E-2,1.5035146E-1,3.4898376E-1,1.9255686E-1,0E0,2.3130971E-1,1.14982605E-1,5.419788E-2,6.280422E-2,1.0231184E-2,5.765257E-1,5.445921E-1,4.2739585E-3,2.505085E-2,1.2711365E-2,4.2120934E-2,4.5390263E-2,2.0501238E-1,9.20701E-2,1.5598357E-1,2.864942E-2,1.7068326E-1,7.856853E-2,3.476292E-4,1.1291423E-2,0E0,0E0,0E0,9.336176E-3,5.0619274E-2,7.7482134E-2,1.0606397E-2,2.6419973E-1,2.0443985E-1,9.573604E-2,8.429146E-2,0E0,0E0,0E0,0E0,0E0,0E0,0E0,0E0,0E0,0E0,0E0,0E0,0E0,0E0,0E0,0E0,0E0,0E0,0E0,0E0,0E0,0E0,0E0,0E0,0E0,0E0,0E0,0E0,0E0,0E0,0E0,0E0,0E0,0E0,0E0,0E0,0E0,0E0,0E0,0E0,0E0,0E0,0E0,0E0,0E0,0E0,0E0,0E0,0E0,0E0,0E0,0E0,0E0,0E0,0E0,0E0],"parents":[2147483647,0,0,1,1,2,2,3,3,4,4,5,5,6,6,7,7,8,8,9,9,10,10,11,11,12,12,13,13,14,14,15,15,16,16,17,17,18,18,19,19,20,20,21,21,22,22,23,23,24,24,25,25,26,26,27,27,28,28,29,29,30,30,32,32,33,33,34,34,35,35,36,36,37,37,38,38,39,39,40,40,41,41,42,42,43,43,44,44,45,45,46,46,47,47,48,48,49,49,50,50,51,51,55,55,56,56,57,57,58,58,59,59,60,60,61,61,62,62],"right_children":[2,4,6,8,10,12,14,16,18,20,22,24,26,28,30,32,34,36,38,40,42,44,46,48,50,52,54,56,58,60,62,-1,64,66,68,70,72,74,76,78,80,82,84,86,88,90,92,94,96,98,100,102,-1,-1,-1,104,106,108,110,112,114,116,118,-1,-1,-1,-1,-1,-1,-1,-1,-1,-1,-1,-1,-1,-1,-1,-1,-1,-1,-1,-1,-1,-1,-1,-1,-1,-1,-1,-1,-1,-1,-1,-1,-1,-1,-1,-1,-1,-1,-1,-1,-1,-1,-1,-1,-1,-1,-1,-1,-1,-1,-1,-1,-1,-1,-1,-1],"split_conditions":[-3.6443773E-1,-4.2065418E-1,-2.9498217E-1,-3.0054992E-1,-1.1196095E0,1.6160862E0,-9.4658333E-1,-3.370087E-1,-8.952991E-1,-2.2827502E-1,3.1417078E-1,5.012308E-1,-2.2892335E-1,-2.6083264E-1,-7.413133E-2,5.111294E-2,-2.945959E-1,-2.2633791E-1,5.8115226E-1,-4.0836883E-1,-1.0828654E0,-1.3821945E0,1.0225122E0,-9.564197E-1,1.0275767E0,1.810187E0,9.175264E-1,-1.1568433E0,-3.3666007E-2,-5.5831756E-2,-8.1779236E-1,5.980806E-3,-3.3005161E0,7.2573775E-1,-9.636085E-1,-1.0987548E0,-1.1196095E0,1.7070125E0,1.1677458E0,-1.3094923E0,-5.7455254E-1,-3.2619113E-1,-2.7832535E-1,-3.9549178E-1,-8.504414E-1,1.8046734E-1,-1.4703633E0,-3.4514514E-1,-5.564124E-1,-8.158635E-1,8.199529E-1,-3.7257257E-1,-4.332573E-3,9.626855E-4,-6.5559376E-4,-2.1188866E-1,4.488956E-1,-9.0424865E-1,3.2588816E-1,-2.7032685E-1,3.126023E-2,1.942343E0,3.3220792E-1,-4.4778925E-3,1.1275616E-3,5.1397155E-3,1.1811939E-2,2.690934E-3,-3.4013644E-3,1.1116377E-2,8.337597E-3,4.694101E-3,5.9678E-4,5.7219923E-3,1.1923362E-2,1.4332449E-3,7.384613E-3,1.2099972E-3,4.0199803E-3,-2.5289396E-3,1.1795871E-3,4.5395023E-3,6.095767E-4,8.784096E-3,5.3549963E-3,5.235701E-4,-4.1349055E-3,3.6193586E-3,1.0568575E-3,-1.5426081E-3,-4.528569E-3,-8.2617375E-4,4.025025E-3,-6.4997934E-3,3.9498435E-4,6.506737E-3,2.315757E-3,-4.054913E-3,-4.0094933E-4,-1.9716925E-3,-4.8925723E-3,1.0896086E-3,-2.6963942E-3,7.0361694E-4,-2.0202934E-3,-5.167139E-3,-1.0549667E-3,2.3773416E-4,5.127995E-3,-2.0592868E-4,-2.800003E-3,-2.6025628E-3,-4.491322E-3,-1.1047237E-3,-4.055999E-3,-3.188363E-3,1.5095206E-3,-3.980842E-3,-5.3460356E-3],"split_indices":[0,0,5,8,1,3,1,2,1,8,1,8,2,8,5,7,5,2,8,0,4,8,6,4,4,3,6,1,5,2,4,0,8,4,9,1,1,6,6,8,3,9,4,2,1,8,9,0,3,6,8,2,0,0,0,0,6,6,9,0,3,6,0,0,0,0,0,0,0,0,0,0,0,0,0,0,0,0,0,0,0,0,0,0,0,0,0,0,0,0,0,0,0,0,0,0,0,0,0,0,0,0,0,0,0,0,0,0,0,0,0,0,0,0,0,0,0,0,0],"split_type":[0,0,0,0,0,0,0,0,0,0,0,0,0,0,0,0,0,0,0,0,0,0,0,0,0,0,0,0,0,0,0,0,0,0,0,0,0,0,0,0,0,0,0,0,0,0,0,0,0,0,0,0,0,0,0,0,0,0,0,0,0,0,0,0,0,0,0,0,0,0,0,0,0,0,0,0,0,0,0,0,0,0,0,0,0,0,0,0,0,0,0,0,0,0,0,0,0,0,0,0,0,0,0,0,0,0,0,0,0,0,0,0,0,0,0,0,0,0,0],"sum_hessian":[4.55E3,2.238E3,2.312E3,1.316E3,9.22E2,2.71E2,2.041E3,3.6E2,9.56E2,1.36E2,7.86E2,2.2E2,5.1E1,1.3E2,1.911E3,2.63E2,9.7E1,1.71E2,7.85E2,3.3E1,1.03E2,6.01E2,1.85E2,1.32E2,8.8E1,4.7E1,4E0,5.9E1,7.1E1,1.154E3,7.57E2,1.2E1,2.51E2,8E1,1.7E1,1.65E2,6E0,5.01E2,2.84E2,1E1,2.3E1,8E0,9.5E1,3.7E1,5.64E2,1.2E2,6.5E1,6E0,1.26E2,7E1,1.8E1,9E0,3.8E1,2E0,2E0,1.1E1,4.8E1,5.4E1,1.7E1,8.5E2,3.04E2,4.9E1,7.08E2,1.9E1,2.32E2,7.3E1,7E0,1.3E1,4E0,1.18E2,4.7E1,3E0,3E0,4.6E2,4.1E1,2.39E2,4.5E1,3E0,7E0,5E0,1.8E1,3E0,5E0,7.8E1,1.7E1,6E0,3.1E1,9.3E1,4.71E2,4E1,8E1,3.5E1,3E1,4E0,2E0,3.3E1,9.3E1,2E1,5E1,2E0,1.6E1,2E0,7E0,5E0,6E0,3.8E1,1E1,1E1,4.4E1,1.2E1,5E0,2.83E2,5.67E2,2.25E2,7.9E1,3.4E1,1.5E1,1.64E2,5.44E2],"tree_param":{"num_deleted":"0","num_feature":"10","num_nodes":"119","size_leaf_vector":"1"}},{"base_weights":[1.7721488E-4,7.741647E-2,-5.0995972E-2,1.07745044E-1,4.8662756E-2,-2.147962E-3,-6.925469E-2,1.2017873E-1,-2.3804286E-2,6.50034E-2,2.1874314E-2,2.8524183E-2,-3.564933E-2,2.7782835E-2,-7.322164E-2,1.4241514E-1,7.880613E-2,-6.643016E-3,6.9786115E-3,1.6197493E-2,8.112261E-2,6.276439E-3,8.761422E-2,-6.444286E-2,4.8357107E-2,-4.9316216E-2,6.0203653E-2,-2.0424733E-2,5.465022E-2,-5.2055243E-2,-8.540087E-2,3.3864725E-2,1.5381822E-1,1.461357E-1,5.0276328E-2,6.308438E-2,-2.4054024E-2,5.704769E-3,6.5067415E-3,1.1101297E-1,5.7048686E-2,-2.2465661E-2,3.901723E-2,1.14357956E-1,1.7711375E-2,-2.531528E-2,-8.345632E-2,7.7011466E-2,1.2402336E-2,-2.2343252E-2,-7.962348E-2,1.9883591E-1,-1.5740337E-2,-4.9172536E-2,3.1087356E-2,8.9068316E-2,1.2401658E-3,-1.0087807E-1,-4.657396E-2,-7.316033E-2,-9.6819304E-2,5.2925753E-3,4.6495752E-5,7.138697E-3,1.232356E-2,9.170576E-4,8.57163E-3,3.2941785E-3,-6.118459E-4,3.768534E-3,-1.9926208E-3,4.2068935E-3,-2.0956974E-3,-4.265193E-3,1.1278394E-3,4.2957156E-3,7.127934E-3,7.297306E-3,2.0944297E-3,-2.16851E-3,1.6252919E-3,5.4766885E-3,-3.2407427E-4,2.3763727E-3,7.754985E-3,2.8368684E-3,-4.140275E-3,-1.9745538E-3,1.8225483E-3,2.3957156E-4,-4.486229E-3,-1.4072771E-3,4.63479E-3,-3.6211049E-3,1.7679919E-3,-3.8179744E-3,1.3727394E-4,-4.8528654E-3,-1.9617477E-3,4.0126764E-3,1.1001386E-2,-3.7687253E-3,2.889845E-3,3.498881E-3,-3.3653267E-3,2.4843325E-3,-1.7536486E-3,2.576985E-3,6.853321E-3,1.8331644E-3,-6.060507E-4,-3.3949947E-3,-5.7785823E-3,8.6763036E-4,-2.545765E-3,-3.985544E-3,-1.4569939E-3,-3.4673393E-3,-5.105364E-3],"categories":[],"categories_nodes":[],"categories_segments":[],"categories_sizes":[],"default_left":[0,0,0,0,0,0,0,0,0,0,0,0,0,0,0,0,0,0,0,0,0,0,0,0,0,0,0,0,0,0,0,0,0,0,0,0,0,0,0,0,0,0,0,0,0,0,0,0,0,0,0,0,0,0,0,0,0,0,0,0,0,0,0,0,0,0,0,0,0,0,0,0,0,0,0,0,0,0,0,0,0,0,0,0,0,0,0,0,0,0,0,0,0,0,0,0,0,0,0,0,0,0,0,0,0,0,0,0,0,0,0,0,0,0,0,0,0,0,0],"id":12,"left_children":[1,3,5,7,9,11,13,15,17,19,21,23,25,27,29,31,33,-1,35,37,39,41,43,45,47,49,51,53,55,57,59,61,63,65,67,69,71,-1,73,75,77,79,81,83,85,87,89,91,93,95,97,99,101,103,105,107,109,111,113,115,117,-1,-1,-1,-1,-1,-1,-1,-1,-1,-1,-1,-1,-1,-1,-1,-1,-1,-1,-1,-1,-1,-1,-1,-1,-1,-1,-1,-1,-1,-1,-1,-1,-1,-1,-1,-1,-1,-1,-1,-1,-1,-1,-1,-1,-1,-1,-1,-1,-1,-1,-1,-1,-1,-1,-1,-1,-1,-1],"loss_changes":[1.7992134E1,1.5766716E0,2.4418788E0,1.4454985E0,4.0699005E-1,7.6757574E-1,7.692251E-1,7.3027897E-1,2.5942084E-1,4.5419264E-1,3.6346817E-1,7.2220147E-1,4.706432E-1,1.03437915E-1,4.8922443E-1,6.421652E-1,5.381886E-1,0E0,1.0772513E-1,1.3681969E-1,3.066833E-1,2.7189583E-1,1.2509811E-1,4.9219877E-2,3.3078885E-1,2.540912E-1,4.7690263E-1,4.4473566E-2,9.364143E-2,1.831652E-1,1.625948E-1,1.2081598E-1,4.4882298E-1,2.6841128E-1,1.9691384E-1,3.0827373E-2,8.0818504E-2,0E0,1.9790824E-1,1.4056063E-1,3.2137597E-1,1.7837948E-1,4.3384555E-1,1.2604523E-1,8.3153576E-2,2.2453547E-2,2.5875181E-2,2.9783702E-1,2.8298023E-1,2.2652784E-1,9.969854E-2,2.254963E-2,1.3591638E-1,4.5762647E-2,1.5278547E-2,4.8776016E-2,1.03835855E-2,2.6072443E-2,1.7655814E-1,1.6780853E-1,8.371544E-2,0E0,0E0,0E0,0E0,0E0,0E0,0E0,0E0,0E0,0E0,0E0,0E0,0E0,0E0,0E0,0E0,0E0,0E0,0E0,0E0,0E0,0E0,0E0,0E0,0E0,0E0,0E0,0E0,0E0,0E0,0E0,0E0,0E0,0E0,0E0,0E0,0E0,0E0,0E0,0E0,0E0,0E0,0E0,0E0,0E0,0E0,0E0,0E0,0E0,0E0,0E0,0E0,0E0,0E0,0E0,0E0,0E0,0E0],"parents":[2147483647,0,0,1,1,2,2,3,3,4,4,5,5,6,6,7,7,8,8,9,9,10,10,11,11,12,12,13,13,14,14,15,15,16,16,18,18,19,19,20,20,21,21,22,22,23,23,24,24,25,25,26,26,27,27,28,28,29,29,30,30,31,31,32,32,33,33,34,34,35,35,36,36,38,38,39,39,40,40,41,41,42,42,43,43,44,44,45,45,46,46,47,47,48,48,49,49,50,50,51,51,52,52,53,53,54,54,55,55,56,56,57,57,58,58,59,59,60,60],"right_children":[2,4,6,8,10,12,14,16,18,20,22,24,26,28,30,32,34,-1,36,38,40,42,44,46,48,50,52,54,56,58,60,62,64,66,68,70,72,-1,74,76,78,80,82,84,86,88,90,92,94,96,98,100,102,104,106,108,110,112,114,116,118,-1,-1,-1,-1,-1,-1,-1,-1,-1,-1,-1,-1,-1,-1,-1,-1,-1,-1,-1,-1,-1,-1,-1,-1,-1,-1,-1,-1,-1,-1,-1,-1,-1,-1,-1,-1,-1,-1,-1,-1,-1,-1,-1,-1,-1,-1,-1,-1,-1,-1,-1,-1,-1,-1,-1,-1,-1,-1],"split_conditions":[-3.9725673E-1,-4.1401222E-1,-2.8300124E-1,9.574583E-1,-4.2855275E-1,-1.0479508E-1,-1.0719099E0,-4.2524233E-1,-3.9354467E-1,-9.789541E-1,-2.5769678E-1,-1.0735981E0,1.5219281E0,-2.6083264E-1,-1.430283E-1,-4.0481293E-1,-1.1196095E0,-6.643016E-3,-3.5960725E-1,5.111294E-2,-2.288941E-1,-6.540519E-2,6.8564445E-1,-5.467319E-1,-5.2429014E-1,4.8796415E-1,-5.6117195E-1,1.6160862E0,-2.1547665E-1,-3.5855705E-1,-4.3204525E-1,3.3110744E-1,1.753804E0,-2.2827502E-1,-2.1360402E-1,1.6953668E-1,-9.7641927E-1,5.704769E-3,-3.3005161E0,-9.116857E-2,-4.581992E-1,6.429345E-1,-1.4499052E-1,-9.669208E-1,-1.2715368E-1,-8.504414E-1,-3.851736E-1,-3.812541E-1,-4.1472724E-1,-2.6794657E-1,8.91328E-1,-3.6585146E-1,-3.5705703E-1,-3.6585146E-1,1.6953668E-1,-2.4418496E-1,-1.640588E-1,-6.004287E-1,-8.614356E-1,2.0895588E0,-5.5704534E-1,5.2925753E-3,4.6495752E-5,7.138697E-3,1.232356E-2,9.170576E-4,8.57163E-3,3.2941785E-3,-6.118459E-4,3.768534E-3,-1.9926208E-3,4.2068935E-3,-2.0956974E-3,-4.265193E-3,1.1278394E-3,4.2957156E-3,7.127934E-3,7.297306E-3,2.0944297E-3,-2.16851E-3,1.6252919E-3,5.4766885E-3,-3.2407427E-4,2.3763727E-3,7.754985E-3,2.8368684E-3,-4.140275E-3,-1.9745538E-3,1.8225483E-3,2.3957156E-4,-4.486229E-3,-1.4072771E-3,4.63479E-3,-3.6211049E-3,1.7679919E-3,-3.8179744E-3,1.3727394E-4,-4.8528654E-3,-1.9617477E-3,4.0126764E-3,1.1001386E-2,-3.7687253E-3,2.889845E-3,3.498881E-3,-3.3653267E-3,2.4843325E-3,-1.7536486E-3,2.576985E-3,6.853321E-3,1.8331644E-3,-6.060507E-4,-3.3949947E-3,-5.7785823E-3,8.6763036E-4,-2.545765E-3,-3.985544E-3,-1.4569939E-3,-3.4673393E-3,-5.105364E-3],"split_indices":[0,3,5,8,0,1,1,0,2,8,2,8,6,8,0,2,1,0,2,7,1,8,9,6,6,8,3,3,5,2,3,8,6,8,2,4,4,0,8,8,0,9,1,1,1,1,0,2,4,9,9,0,8,0,4,0,2,6,1,6,1,0,0,0,0,0,0,0,0,0,0,0,0,0,0,0,0,0,0,0,0,0,0,0,0,0,0,0,0,0,0,0,0,0,0,0,0,0,0,0,0,0,0,0,0,0,0,0,0,0,0,0,0,0,0,0,0,0,0],"split_type":[0,0,0,0,0,0,0,0,0,0,0,0,0,0,0,0,0,0,0,0,0,0,0,0,0,0,0,0,0,0,0,0,0,0,0,0,0,0,0,0,0,0,0,0,0,0,0,0,0,0,0,0,0,0,0,0,0,0,0,0,0,0,0,0,0,0,0,0,0,0,0,0,0,0,0,0,0,0,0,0,0,0,0,0,0,0,0,0,0,0,0,0,0,0,0,0,0,0,0,0,0,0,0,0,0,0,0,0,0,0,0,0,0,0,0,0,0,0,0],"sum_hessian":[4.55E3,1.813E3,2.737E3,8.81E2,9.32E2,7.45E2,1.992E3,8.05E2,7.6E1,5.78E2,3.54E2,3.89E2,3.56E2,7.8E1,1.914E3,5.22E2,2.83E2,1.6E1,6E1,1.44E2,4.34E2,2.87E2,6.7E1,6.8E1,3.21E2,3.12E2,4.4E1,2.8E1,5E1,7.01E2,1.213E3,5E1,4.72E2,8.3E1,2E2,2.1E1,3.9E1,1.2E1,1.32E2,1.92E2,2.42E2,1.53E2,1.34E2,4.8E1,1.9E1,2.3E1,4.5E1,1.78E2,1.43E2,1.66E2,1.46E2,1.5E1,2.9E1,1.8E1,1E1,3E1,2E1,6.9E1,6.32E2,5.89E2,6.24E2,1.5E1,3.5E1,4.24E2,4.8E1,1.4E1,6.9E1,1.6E2,4E1,1.9E1,2E0,5E0,3.4E1,1.9E1,1.13E2,1.09E2,8.3E1,3.4E1,2.08E2,1.11E2,4.2E1,5.2E1,8.2E1,1.9E1,2.9E1,1.4E1,5E0,1.9E1,4E0,3E0,4.2E1,2.3E1,1.55E2,3E1,1.13E2,5.2E1,1.14E2,1.01E2,4.5E1,3E0,1.2E1,1.6E1,1.3E1,2E0,1.6E1,8E0,2E0,1.8E1,1.2E1,5E0,1.5E1,2.3E1,4.6E1,4E1,5.92E2,5.12E2,7.7E1,1.03E2,5.21E2],"tree_param":{"num_deleted":"0","num_feature":"10","num_nodes":"119","size_leaf_vector":"1"}},{"base_weights":[1.8116467E-4,6.0967233E-2,-5.8660246E-2,9.701362E-2,3.466418E-2,2.2990091E-3,-6.675146E-2,1.2069025E-1,5.002538E-2,1.2151963E-1,1.9725425E-2,1.860353E-2,-6.386746E-2,-1.4735564E-3,-7.118904E-2,1.7599623E-1,9.550467E-2,7.528097E-2,1.5673915E-2,1.9952651E-2,1.5667446E-1,3.312026E-2,-3.038915E-2,5.7984214E-2,-3.9570328E-2,-6.919164E-2,2.1478683E-3,-6.883008E-2,5.467735E-2,-6.037129E-2,-8.757863E-2,1.8043162E-1,6.2091476E-3,7.991023E-2,1.9697133E-1,3.0290643E-2,1.0100564E-1,-4.227938E-2,2.8469974E-2,5.9905797E-3,5.9230044E-2,1.2888478E-1,2.0951158E-1,-4.4746503E-2,3.922427E-2,-6.270986E-2,3.2612097E-2,-8.449105E-2,6.5498956E-2,-2.6761228E-2,-8.5353255E-2,-3.2778803E-2,-3.9310725E-3,8.716628E-4,-6.926738E-4,-1.3897517E-2,-8.087826E-2,7.7989064E-2,-1.959052E-2,-7.0284806E-2,-3.2513015E-2,-2.991209E-2,-9.152186E-2,2.1519077E-3,9.311722E-3,2.6100043E-3,-2.859091E-3,5.9258486E-3,2.7080288E-3,1.3192947E-2,3.4871062E-3,3.1454437E-3,-4.1853852E-4,7.302094E-3,3.410612E-3,1.4918646E-3,-3.3311725E-3,3.3503934E-4,3.0366485E-3,1.6884288E-3,-5.810138E-4,3.2303128E-3,9.886955E-4,7.1143718E-3,6.801016E-4,1.0764119E-2,2.6556174E-3,-6.3676685E-3,-1.2599395E-3,1.3045745E-3,3.286775E-3,-1.7057369E-3,-4.2928723E-3,-7.0207566E-4,4.649825E-3,-6.1352965E-3,3.6820472E-4,-6.4259954E-3,3.5661676E-3,-3.7637134E-3,-3.1302703E-4,-1.7442073E-3,-4.46194E-3,6.8945944E-4,-2.49168E-3,7.095659E-4,-1.7994151E-3,-4.8182155E-3,-9.3103014E-4,1.3466437E-4,4.73308E-3,-1.6845271E-4,-2.573597E-3,-2.361037E-3,-4.084655E-3,2.2366622E-3,-2.0241397E-3,-5.1734806E-3,-3.2560158E-4,-3.5682314E-3,-4.872829E-3],"categories":[],"categories_nodes":[],"categories_segments":[],"categories_sizes":[],"default_left":[0,0,0,0,0,0,0,0,0,0,0,0,0,0,0,0,0,0,0,0,0,0,0,0,0,0,0,0,0,0,0,0,0,0,0,0,0,0,0,0,0,0,0,0,0,0,0,0,0,0,0,0,0,0,0,0,0,0,0,0,0,0,0,0,0,0,0,0,0,0,0,0,0,0,0,0,0,0,0,0,0,0,0,0,0,0,0,0,0,0,0,0,0,0,0,0,0,0,0,0,0,0,0,0,0,0,0,0,0,0,0,0,0,0,0,0,0,0,0,0,0],"id":13,"left_children":[1,3,5,7,9,11,13,15,17,19,21,23,25,27,29,31,33,35,37,39,41,43,45,47,49,51,53,55,57,59,61,63,65,67,69,71,73,75,77,79,81,83,85,87,89,91,93,95,97,99,101,103,-1,-1,-1,105,107,109,111,113,115,117,119,-1,-1,-1,-1,-1,-1,-1,-1,-1,-1,-1,-1,-1,-1,-1,-1,-1,-1,-1,-1,-1,-1,-1,-1,-1,-1,-1,-1,-1,-1,-1,-1,-1,-1,-1,-1,-1,-1,-1,-1,-1,-1,-1,-1,-1,-1,-1,-1,-1,-1,-1,-1,-1,-1,-1,-1,-1,-1],"loss_changes":[1.6281311E1,2.119501E0,1.1410041E0,1.0441837E0,1.679179E0,2.9462516E-1,5.914135E-1,8.5654736E-1,2.7470636E-1,6.75282E-1,7.441096E-1,5.0400734E-1,1.9128412E-2,4.9922243E-1,3.3370686E-1,1.4572859E-1,6.6940284E-1,2.0873761E-1,1.02057725E-1,2.706487E-2,1.8003106E-1,4.1716707E-1,4.7852647E-1,1.4579117E-1,4.9908817E-2,1.4591172E-2,1.464445E-3,3.858623E-2,1.2618224E-1,3.166952E-1,1.6962624E-1,1.43466E-1,2.0477353E-2,3.6836052E-1,4.6667147E-1,8.6279154E-2,1.613574E-1,4.587819E-2,7.8255005E-2,1.8981783E-2,1.4800988E-3,1.4484859E-1,3.0985594E-2,1.00136474E-1,2.8064752E-1,9.9666774E-2,2.2667783E-1,2.5475249E-2,1.5042186E-1,7.014185E-2,6.1286986E-4,1.02176545E-2,0E0,0E0,0E0,7.956774E-3,4.5447767E-2,6.8790495E-2,9.135528E-3,2.2005892E-1,1.8957976E-1,8.5388705E-2,7.786083E-2,0E0,0E0,0E0,0E0,0E0,0E0,0E0,0E0,0E0,0E0,0E0,0E0,0E0,0E0,0E0,0E0,0E0,0E0,0E0,0E0,0E0,0E0,0E0,0E0,0E0,0E0,0E0,0E0,0E0,0E0,0E0,0E0,0E0,0E0,0E0,0E0,0E0,0E0,0E0,0E0,0E0,0E0,0E0,0E0,0E0,0E0,0E0,0E0,0E0,0E0,0E0,0E0,0E0,0E0,0E0,0E0,0E0,0E0],"parents":[2147483647,0,0,1,1,2,2,3,3,4,4,5,5,6,6,7,7,8,8,9,9,10,10,11,11,12,12,13,13,14,14,15,15,16,16,17,17,18,18,19,19,20,20,21,21,22,22,23,23,24,24,25,25,26,26,27,27,28,28,29,29,30,30,31,31,32,32,33,33,34,34,35,35,36,36,37,37,38,38,39,39,40,40,41,41,42,42,43,43,44,44,45,45,46,46,47,47,48,48,49,49,50,50,51,51,55,55,56,56,57,57,58,58,59,59,60,60,61,61,62,62],"right_children":[2,4,6,8,10,12,14,16,18,20,22,24,26,28,30,32,34,36,38,40,42,44,46,48,50,52,54,56,58,60,62,64,66,68,70,72,74,76,78,80,82,84,86,88,90,92,94,96,98,100,102,104,-1,-1,-1,106,108,110,112,114,116,118,120,-1,-1,-1,-1,-1,-1,-1,-1,-1,-1,-1,-1,-1,-1,-1,-1,-1,-1,-1,-1,-1,-1,-1,-1,-1,-1,-1,-1,-1,-1,-1,-1,-1,-1,-1,-1,-1,-1,-1,-1,-1,-1,-1,-1,-1,-1,-1,-1,-1,-1,-1,-1,-1,-1,-1,-1,-1,-1],"split_conditions":[-3.6443773E-1,-4.3463486E-1,-2.9498217E-1,-5.32075E-3,-1.1196095E0,1.5686442E0,-9.4658333E-1,-6.088601E-1,-3.0122766E-1,-2.2827502E-1,3.1417078E-1,5.012308E-1,-2.2892335E-1,-2.6083264E-1,-7.413133E-2,1.1596755E0,1.753804E0,-4.146054E-1,-3.9605802E-1,1.3757124E0,-6.6578466E-1,-1.3821945E0,1.0225122E0,-9.564197E-1,1.0275767E0,1.810187E0,9.175264E-1,-1.1568433E0,-3.3666007E-2,-5.5831756E-2,-8.1779236E-1,-4.146054E-1,-6.729611E-1,3.3110744E-1,7.6992685E-1,-4.3895182E-1,-2.5510544E-1,1.3055407E-1,1.1916745E0,-7.0559967E-1,-4.050834E-1,-7.702747E-1,1.7316766E-1,-3.0865524E0,6.2512755E-1,-5.814137E-1,-1.426937E0,-3.4514514E-1,-4.0759572E-1,-8.158635E-1,8.199529E-1,-3.7257257E-1,-3.9310725E-3,8.716628E-4,-6.926738E-4,-2.1188866E-1,4.488956E-1,-9.0424865E-1,3.2588816E-1,-2.7032685E-1,-7.4183536E-1,2.8891274E-1,3.3220792E-1,2.1519077E-3,9.311722E-3,2.6100043E-3,-2.859091E-3,5.9258486E-3,2.7080288E-3,1.3192947E-2,3.4871062E-3,3.1454437E-3,-4.1853852E-4,7.302094E-3,3.410612E-3,1.4918646E-3,-3.3311725E-3,3.3503934E-4,3.0366485E-3,1.6884288E-3,-5.810138E-4,3.2303128E-3,9.886955E-4,7.1143718E-3,6.801016E-4,1.0764119E-2,2.6556174E-3,-6.3676685E-3,-1.2599395E-3,1.3045745E-3,3.286775E-3,-1.7057369E-3,-4.2928723E-3,-7.0207566E-4,4.649825E-3,-6.1352965E-3,3.6820472E-4,-6.4259954E-3,3.5661676E-3,-3.7637134E-3,-3.1302703E-4,-1.7442073E-3,-4.46194E-3,6.8945944E-4,-2.49168E-3,7.095659E-4,-1.7994151E-3,-4.8182155E-3,-9.3103014E-4,1.3466437E-4,4.73308E-3,-1.6845271E-4,-2.573597E-3,-2.361037E-3,-4.084655E-3,2.2366622E-3,-2.0241397E-3,-5.1734806E-3,-3.2560158E-4,-3.5682314E-3,-4.872829E-3],"split_indices":[0,0,5,3,1,3,1,1,6,8,1,8,2,8,5,8,6,8,2,3,6,8,6,4,4,3,6,1,5,2,4,8,1,8,8,1,4,6,6,4,0,6,2,8,9,6,9,0,2,6,8,2,0,0,0,0,6,6,9,0,1,8,0,0,0,0,0,0,0,0,0,0,0,0,0,0,0,0,0,0,0,0,0,0,0,0,0,0,0,0,0,0,0,0,0,0,0,0,0,0,0,0,0,0,0,0,0,0,0,0,0,0,0,0,0,0,0,0,0,0,0],"split_type":[0,0,0,0,0,0,0,0,0,0,0,0,0,0,0,0,0,0,0,0,0,0,0,0,0,0,0,0,0,0,0,0,0,0,0,0,0,0,0,0,0,0,0,0,0,0,0,0,0,0,0,0,0,0,0,0,0,0,0,0,0,0,0,0,0,0,0,0,0,0,0,0,0,0,0,0,0,0,0,0,0,0,0,0,0,0,0,0,0,0,0,0,0,0,0,0,0,0,0,0,0,0,0,0,0,0,0,0,0,0,0,0,0,0,0,0,0,0,0,0,0],"sum_hessian":[4.55E3,2.238E3,2.312E3,9.43E2,1.295E3,2.71E2,2.041E3,6.26E2,3.17E2,1.89E2,1.106E3,2.18E2,5.3E1,1.3E2,1.911E3,1.94E2,4.32E2,1.82E2,1.35E2,4.9E1,1.4E2,8.73E2,2.33E2,1.3E2,8.8E1,4.9E1,4E0,5.9E1,7.1E1,1.154E3,7.57E2,1.89E2,5E0,3.76E2,5.6E1,6.7E1,1.15E2,2.4E1,1.11E2,3.7E1,1.2E1,9.4E1,4.6E1,6.3E1,8.1E2,1.54E2,7.9E1,6E0,1.24E2,7E1,1.8E1,1.1E1,3.8E1,2E0,2E0,1.1E1,4.8E1,5.4E1,1.7E1,8.5E2,3.04E2,4.9E1,7.08E2,8E0,1.81E2,3E0,2E0,1.49E2,2.27E2,3.6E1,2E1,3.6E1,3.1E1,4.7E1,6.8E1,6E0,1.8E1,6.7E1,4.4E1,1.4E1,2.3E1,1E1,2E0,8.4E1,1E1,4.4E1,2E0,1.1E1,5.2E1,5.43E2,2.67E2,7E1,8.4E1,4.5E1,3.4E1,4E0,2E0,3E0,1.21E2,2E1,5E1,2E0,1.6E1,3E0,8E0,5E0,6E0,3.8E1,1E1,1E1,4.4E1,1.2E1,5E0,2.83E2,5.67E2,2.8E1,2.76E2,1.1E1,3.8E1,1.64E2,5.44E2],"tree_param":{"num_deleted":"0","num_feature":"10","num_nodes":"121","size_leaf_vector":"1"}},{"base_weights":[1.7729391E-4,7.011779E-2,-4.6160262E-2,2.8435368E-2,8.780966E-2,-8.369104E-3,-6.543685E-2,1.0915164E-2,8.866136E-2,1.57743E-1,6.820195E-2,9.657702E-2,-1.5622159E-2,2.4094531E-2,-6.8356775E-2,2.984998E-2,-1.9541427E-2,1.0040368E-1,-9.1217205E-2,1.6879593E-1,8.568027E-2,9.625286E-2,2.902274E-2,4.6161255E-3,1.1947107E-1,7.7743093E-3,-3.4767646E-2,1.2588464E-1,9.928661E-3,-5.0793145E-2,-7.8633055E-2,-2.9153438E-2,4.1029405E-2,-3.766628E-2,3.4867678E-2,5.5249695E-2,1.3811192E-1,-5.2701496E-3,-1.6219954E-3,1.8999007E-1,1.3825886E-1,8.219764E-3,5.6585927E-2,8.604292E-2,2.2837764E-1,1.8279593E-2,1.6220257E-1,-2.8720708E-3,2.8977528E-2,1.4607581E-1,4.442556E-2,-4.6125773E-2,3.7028E-2,-4.586695E-2,5.6829914E-2,8.588174E-3,3.65902E-3,-4.5264647E-3,1.7926686E-2,-6.9171116E-2,-2.7389063E-2,-4.1377135E-2,-8.177327E-2,1.341269E-3,-3.612764E-3,9.629677E-4,3.2906055E-3,2.9880998E-3,-2.542461E-3,3.0491895E-3,-3.2382791E-3,3.2350875E-3,-1.5575197E-3,2.8565447E-3,8.027058E-3,1.2456153E-2,8.9567285E-3,7.908522E-3,4.259936E-3,3.6151593E-3,-1.8230499E-3,2.2481116E-3,5.795966E-3,1.3710502E-2,-1.6704843E-3,3.6914E-3,2.1219664E-4,1.0129765E-2,2.8559163E-3,2.5237576E-4,1.9256087E-3,7.672579E-3,2.5275424E-3,1.0435745E-4,3.0576102E-3,1.9424852E-3,-3.3572742E-3,3.308636E-3,-1.1747941E-4,-3.937445E-3,-1.2796225E-3,-9.339518E-4,8.4592495E-3,1.3852654E-3,-1.7825958E-3,-2.4465546E-3,-4.1250954E-3,1.3460219E-3,-2.3492745E-3,-5.375223E-3,-9.523059E-4,-3.5330362E-3,-4.53598E-3],"categories":[],"categories_nodes":[],"categories_segments":[],"categories_sizes":[],"default_left":[0,0,0,0,0,0,0,0,0,0,0,0,0,0,0,0,0,0,0,0,0,0,0,0,0,0,0,0,0,0,0,0,0,0,0,0,0,0,0,0,0,0,0,0,0,0,0,0,0,0,0,0,0,0,0,0,0,0,0,0,0,0,0,0,0,0,0,0,0,0,0,0,0,0,0,0,0,0,0,0,0,0,0,0,0,0,0,0,0,0,0,0,0,0,0,0,0,0,0,0,0,0,0,0,0,0,0,0,0,0,0,0,0],"id":14,"left_children":[1,3,5,7,9,11,13,15,17,19,21,23,25,27,29,31,33,35,37,39,41,43,45,47,49,51,53,55,57,59,61,63,65,67,69,71,73,-1,-1,75,77,-1,79,81,83,85,87,-1,89,91,93,95,97,99,101,-1,-1,-1,103,105,107,109,111,-1,-1,-1,-1,-1,-1,-1,-1,-1,-1,-1,-1,-1,-1,-1,-1,-1,-1,-1,