{"learner":{"attributes":{"scikit_learn":"{\"_estimator_type\": \"regressor\"}"},"feature_names":[],"feature_types":[],"gradient_booster":{"model":{"gbtree_model_param":{"num_parallel_tree":"1","num_trees":"200"},"iteration_indptr":[0,1,2,3,4,5,6,7,8,9,10,11,12,13,14,15,16,17,18,19,20,21,22,23,24,25,26,27,28,29,30,31,32,33,34,35,36,37,38,39,40,41,42,43,44,45,46,47,48,49,50,51,52,53,54,55,56,57,58,59,60,61,62,63,64,65,66,67,68,69,70,71,72,73,74,75,76,77,78,79,80,81,82,83,84,85,86,87,88,89,90,91,92,93,94,95,96,97,98,99,100,101,102,103,104,105,106,107,108,109,110,111,112,113,114,115,116,117,118,119,120,121,122,123,124,125,126,127,128,129,130,131,132,133,134,135,136,137,138,139,140,141,142,143,144,145,146,147,148,149,150,151,152,153,154,155,156,157,158,159,160,161,162,163,164,165,166,167,168,169,170,171,172,173,174,175,176,177,178,179,180,181,182,183,184,185,186,187,188,189,190,191,192,193,194,195,196,197,198,199,200],"tree_info":[0,0,0,0,0,0,0,0,0,0,0,0,0,0,0,0,0,0,0,0,0,0,0,0,0,0,0,0,0,0,0,0,0,0,0,0,0,0,0,0,0,0,0,0,0,0,0,0,0,0,0,0,0,0,0,0,0,0,0,0,0,0,0,0,0,0,0,0,0,0,0,0,0,0,0,0,0,0,0,0,0,0,0,0,0,0,0,0,0,0,0,0,0,0,0,0,0,0,0,0,0,0,0,0,0,0,0,0,0,0,0,0,0,0,0,0,0,0,0,0,0,0,0,0,0,0,0,0,0,0,0,0,0,0,0,0,0,0,0,0,0,0,0,0,0,0,0,0,0,0,0,0,0,0,0,0,0,0,0,0,0,0,0,0,0,0,0,0,0,0,0,0,0,0,0,0,0,0,0,0,0,0,0,0,0,0,0,0,0,0,0,0,0,0,0,0,0,0,0,0],"trees":[{"base_weights":[3.1304668E-9,1.4853568E-1,-9.840633E-2,2.970992E-1,1.18276656E-1,-3.3742476E-2,-1.467491E-1,8.31436E-2,3.386524E-1,1.5843558E-1,5.6203697E-2,-4.12126E-3,-8.274347E-2,-8.803329E-2,-1.591959E-1,2.3902226E-2,1.24605216E-1,3.9750376E-1,2.8993466E-1,1.7702913E-1,8.269992E-2,8.4223434E-2,4.97486E-3,-1.1778206E-1,9.192071E-3,-9.49312E-2,-7.8015686E-3,-4.6979245E-2,-1.3519606E-1,-1.420386E-1,-1.72675E-1,1.292864E-2,4.0118225E-2,1.4639486E-1,2.5915876E-3,7.6302276E-3,4.0315518E-1,3.2992032E-1,2.3116197E-1,1.670931E-2,1.8875818E-1,1.4224853E-1,2.6236609E-2,-7.985435E-3,1.0052169E-1,6.57322E-2,-2.0665554E-2,4.2817905E-3,-1.3100716E-1,6.7684114E-2,-1.7517518E-2,-6.966954E-2,-1.2475276E-1,4.9179286E-2,-8.201493E-2,-1.0171088E-1,-1.9983092E-2,4.2863335E-2,-1.4660561E-1,-1.5202233E-1,-9.263239E-2,-7.366689E-2,-1.7528336E-1,3.2690013E-4,1.1562093E-3,2.240152E-3,8.687926E-4,4.3556904E-3,9.179809E-3,2.0364627E-2,9.946607E-3,1.6769003E-2,7.2535123E-3,2.22722E-3,1.1851572E-2,-3.0480009E-3,1.8098038E-3,1.7399695E-2,8.907316E-3,8.136111E-3,3.2360107E-3,3.0355237E-3,-3.2009917E-5,-1.0507776E-3,4.218308E-3,9.402028E-3,4.134681E-3,-1.7680237E-3,4.35425E-3,-3.2952167E-3,2.5996866E-4,9.93817E-4,-6.7940275E-3,7.2239204E-3,2.1679148E-3,2.565666E-3,-2.394667E-3,-3.605291E-3,3.2344663E-3,-8.331381E-3,-4.7114044E-3,-1.9315068E-3,4.3688067E-3,-5.424282E-3,-4.4475668E-4,-6.0448013E-3,-3.4042415E-3,2.6949847E-3,-2.5055774E-3,-4.6296007E-4,3.7994348E-3,-7.4727363E-3,3.840213E-4,-5.789022E-3,-8.036655E-3,-5.249591E-3,4.5230938E-4,-6.3960934E-3,1.8808093E-3,-9.221077E-3,-7.9462975E-3],"categories":[],"categories_nodes":[],"categories_segments":[],"categories_sizes":[],"default_left":[0,0,0,0,0,0,0,0,0,0,0,0,0,0,0,0,0,0,0,0,0,0,0,0,0,0,0,0,0,0,0,0,0,0,0,0,0,0,0,0,0,0,0,0,0,0,0,0,0,0,0,0,0,0,0,0,0,0,0,0,0,0,0,0,0,0,0,0,0,0,0,0,0,0,0,0,0,0,0,0,0,0,0,0,0,0,0,0,0,0,0,0,0,0,0,0,0,0,0,0,0,0,0,0,0,0,0,0,0,0,0,0,0,0,0,0,0,0,0,0,0],"id":0,"left_children":[1,3,5,7,9,11,13,15,17,19,21,23,25,27,29,31,33,35,37,39,41,43,45,47,49,51,53,55,57,59,61,63,65,67,-1,-1,69,71,73,75,77,79,81,83,85,87,89,-1,91,93,95,97,99,101,103,105,107,109,111,113,115,117,119,-1,-1,-1,-1,-1,-1,-1,-1,-1,-1,-1,-1,-1,-1,-1,-1,-1,-1,-1,-1,-1,-1,-1,-1,-1,-1,-1,-1,-1,-1,-1,-1,-1,-1,-1,-1,-1,-1,-1,-1,-1,-1,-1,-1,-1,-1,-1,-1,-1,-1,-1,-1,-1,-1,-1,-1,-1,-1],"loss_changes":[6.235549E1,7.6070175E0,8.016439E0,2.523428E0,3.515892E0,1.5948235E0,1.0588322E0,1.149213E-1,5.728569E-1,1.1935921E0,7.991092E-1,1.0391406E0,3.7739515E-1,4.951303E-1,2.5530434E-1,3.218227E-3,3.6811948E-2,8.518219E-2,2.4099445E-1,1.2905579E0,5.71223E-1,5.4182625E-1,3.0981138E-1,2.0491493E-1,9.619992E-1,2.5949836E-1,2.5352913E-1,2.0482358E-1,2.500732E-1,2.5129128E-1,1.6089058E-1,7.609986E-4,7.385947E-5,3.031823E-2,0E0,0E0,6.006241E-3,3.006649E-2,5.297184E-2,7.485567E-2,1.0211582E0,1.21213794E-1,8.250159E-2,6.795734E-2,4.6189976E-1,1.3043746E-1,1.6415635E-1,0E0,5.270207E-2,3.5427588E-1,8.868632E-1,6.8494916E-2,1.9136977E-1,1.1741281E-1,4.935886E-2,2.144441E-2,2.141685E-1,1.4516219E-2,5.082035E-2,1.22190475E-1,1.1782181E-1,1.1952748E-1,6.8595886E-2,0E0,0E0,0E0,0E0,0E0,0E0,0E0,0E0,0E0,0E0,0E0,0E0,0E0,0E0,0E0,0E0,0E0,0E0,0E0,0E0,0E0,0E0,0E0,0E0,0E0,0E0,0E0,0E0,0E0,0E0,0E0,0E0,0E0,0E0,0E0,0E0,0E0,0E0,0E0,0E0,0E0,0E0,0E0,0E0,0E0,0E0,0E0,0E0,0E0,0E0,0E0,0E0,0E0,0E0,0E0,0E0,0E0,0E0],"parents":[2147483647,0,0,1,1,2,2,3,3,4,4,5,5,6,6,7,7,8,8,9,9,10,10,11,11,12,12,13,13,14,14,15,15,16,16,17,17,18,18,19,19,20,20,21,21,22,22,23,23,24,24,25,25,26,26,27,27,28,28,29,29,30,30,31,31,32,32,33,33,36,36,37,37,38,38,39,39,40,40,41,41,42,42,43,43,44,44,45,45,46,46,48,48,49,49,50,50,51,51,52,52,53,53,54,54,55,55,56,56,57,57,58,58,59,59,60,60,61,61,62,62],"right_children":[2,4,6,8,10,12,14,16,18,20,22,24,26,28,30,32,34,36,38,40,42,44,46,48,50,52,54,56,58,60,62,64,66,68,-1,-1,70,72,74,76,78,80,82,84,86,88,90,-1,92,94,96,98,100,102,104,106,108,110,112,114,116,118,120,-1,-1,-1,-1,-1,-1,-1,-1,-1,-1,-1,-1,-1,-1,-1,-1,-1,-1,-1,-1,-1,-1,-1,-1,-1,-1,-1,-1,-1,-1,-1,-1,-1,-1,-1,-1,-1,-1,-1,-1,-1,-1,-1,-1,-1,-1,-1,-1,-1,-1,-1,-1,-1,-1,-1,-1,-1,-1],"split_conditions":[-4.254025E-1,-1.1096957E0,-2.5347638E-1,-1.7262693E-1,-4.6284673E-1,6.965367E-1,-3.8794637E-1,-3.505143E-1,-4.4321144E-1,7.450341E-1,-2.7427974E-1,-1.5958437E0,-1.6146222E-1,-7.313423E-2,2.6327974E-1,-3.5135955E-1,1.7218644E-2,-1.0431845E0,-8.4133816E-1,-1.3892281E0,-3.181295E-1,-1.0348788E0,-3.2407853E-1,-1.5533617E0,-4.3211553E-1,2.9191688E-1,5.018106E-1,-9.676146E-2,-1.0259418E0,9.0287215E-1,-4.4072708E-1,-5.6728196E-1,-5.358971E-1,-1.049987E0,2.5915876E-3,7.6302276E-3,-2.0793426E-1,-1.22518465E-1,-9.1954374E-1,-5.5978054E-1,-8.6727816E-1,2.9817793E-1,-2.634729E-1,-3.7870973E-1,-8.1544644E-1,-4.9529332E-1,-4.1529444E-1,4.2817905E-3,-1.0009671E0,-3.9318612E-1,-9.59234E-1,5.469728E-1,-4.4401586E-2,-1.4272971E-1,7.9760474E-1,-1.20013826E-1,-8.511976E-1,5.8366694E-2,-3.9577308E-1,-1.3660645E-1,3.3792615E0,-6.3710016E-1,4.6421182E-1,3.2690013E-4,1.1562093E-3,2.240152E-3,8.687926E-4,4.3556904E-3,9.179809E-3,2.0364627E-2,9.946607E-3,1.6769003E-2,7.2535123E-3,2.22722E-3,1.1851572E-2,-3.0480009E-3,1.8098038E-3,1.7399695E-2,8.907316E-3,8.136111E-3,3.2360107E-3,3.0355237E-3,-3.2009917E-5,-1.0507776E-3,4.218308E-3,9.402028E-3,4.134681E-3,-1.7680237E-3,4.35425E-3,-3.2952167E-3,2.5996866E-4,9.93817E-4,-6.7940275E-3,7.2239204E-3,2.1679148E-3,2.565666E-3,-2.394667E-3,-3.605291E-3,3.2344663E-3,-8.331381E-3,-4.7114044E-3,-1.9315068E-3,4.3688067E-3,-5.424282E-3,-4.4475668E-4,-6.0448013E-3,-3.4042415E-3,2.6949847E-3,-2.5055774E-3,-4.6296007E-4,3.7994348E-3,-7.4727363E-3,3.840213E-4,-5.789022E-3,-8.036655E-3,-5.249591E-3,4.5230938E-4,-6.3960934E-3,1.8808093E-3,-9.221077E-3,-7.9462975E-3],"split_indices":[5,1,5,8,5,10,1,7,0,8,7,8,0,5,0,7,3,3,9,8,7,8,9,9,6,8,8,8,1,1,6,6,3,6,0,0,9,7,3,3,10,10,7,2,1,3,4,0,1,2,9,1,4,3,1,2,1,0,1,1,1,6,8,0,0,0,0,0,0,0,0,0,0,0,0,0,0,0,0,0,0,0,0,0,0,0,0,0,0,0,0,0,0,0,0,0,0,0,0,0,0,0,0,0,0,0,0,0,0,0,0,0,0,0,0,0,0,0,0,0,0],"split_type":[0,0,0,0,0,0,0,0,0,0,0,0,0,0,0,0,0,0,0,0,0,0,0,0,0,0,0,0,0,0,0,0,0,0,0,0,0,0,0,0,0,0,0,0,0,0,0,0,0,0,0,0,0,0,0,0,0,0,0,0,0,0,0,0,0,0,0,0,0,0,0,0,0,0,0,0,0,0,0,0,0,0,0,0,0,0,0,0,0,0,0,0,0,0,0,0,0,0,0,0,0,0,0,0,0,0,0,0,0,0,0,0,0,0,0,0,0,0,0,0,0],"sum_hessian":[4.264E3,1.699E3,2.565E3,2.86E2,1.413E3,1.098E3,1.467E3,4.7E1,2.39E2,8.57E2,5.56E2,6.85E2,4.13E2,2.58E2,1.209E3,2E1,2.7E1,1.05E2,1.34E2,6.87E2,1.7E2,3.59E2,1.97E2,7.1E1,6.14E2,3.55E2,5.8E1,1.39E2,1.19E2,5.37E2,6.72E2,1.3E1,7E0,2E1,7E0,3E0,1.02E2,7.7E1,5.7E1,4.7E1,6.4E2,8.2E1,8.8E1,5.4E1,3.05E2,5.8E1,1.39E2,4E0,6.7E1,1.92E2,4.22E2,1.94E2,1.61E2,3.3E1,2.5E1,4.5E1,9.4E1,7E0,1.12E2,4.45E2,9.2E1,1.8E1,6.54E2,9E0,4E0,5E0,2E0,9E0,1.1E1,9.9E1,3E0,7.4E1,3E0,2E0,5.5E1,9E0,3.8E1,3.8E1,6.02E2,6.4E1,1.8E1,3.8E1,5E1,4.8E1,6E0,5E1,2.55E2,1E1,4.8E1,5E1,8.9E1,2E0,6.5E1,4.5E1,1.47E2,1.29E2,2.93E2,1.91E2,3E0,6.6E1,9.5E1,1E1,2.3E1,1.8E1,7E0,2.7E1,1.8E1,2.7E1,6.7E1,3E0,4E0,1.1E2,2E0,8.9E1,3.56E2,8.2E1,1E1,1.2E1,6E0,4.13E2,2.41E2],"tree_param":{"num_deleted":"0","num_feature":"11","num_nodes":"121","size_leaf_vector":"1"}},{"base_weights":[2.1185655E-5,1.4119858E-1,-9.3510225E-2,2.825814E-1,1.12402216E-1,-3.2063365E-2,-1.3944796E-1,7.941807E-2,3.2203665E-1,1.5055977E-1,5.3422697E-2,6.8284892E-3,-6.624668E-2,-8.368186E-2,-1.5126942E-1,2.2925783E-2,1.18950926E-1,3.7798655E-1,2.7572015E-1,1.6821411E-1,7.864899E-2,8.0058664E-2,4.723849E-3,-1.0973401E-1,2.1574771E-2,-4.3862954E-2,-9.916218E-2,-4.4696424E-2,-1.2846753E-1,-1.3497129E-1,-1.6407347E-1,1.2388142E-2,3.850093E-2,1.3971967E-1,2.4782054E-3,7.344094E-3,3.832917E-1,3.137323E-1,2.198466E-1,1.1734695E-1,2.0262632E-1,1.3527311E-1,2.4958521E-2,2.740954E-2,1.0659898E-1,6.248942E-2,-1.9653955E-2,3.8097613E-3,-1.2126098E-1,1.08114146E-1,8.25699E-3,1.6607095E-2,-6.3624434E-2,-2.8000016E-2,-1.2166634E-1,-9.683075E-2,-1.8981947E-2,4.1137226E-2,-1.3933806E-1,-1.444522E-1,-8.8052355E-2,-7.022119E-2,-1.665454E-1,1.7214472E-4,9.333358E-4,2.1468124E-3,8.398327E-4,4.1596848E-3,8.759067E-3,1.9356579E-2,9.57361E-3,1.8555274E-2,1.4149626E-2,2.1529794E-3,1.1269576E-2,3.4140018E-3,8.754024E-3,1.1148005E-2,5.0483793E-3,7.735564E-3,3.082726E-3,2.8876388E-3,-3.044091E-5,-1.0819993E-3,2.7190654E-3,9.708612E-3,4.4010286E-3,-1.6876592E-3,4.1409805E-3,-3.1336867E-3,2.471148E-4,6.1870663E-4,-6.326865E-3,2.485294E-4,8.744187E-3,7.4678694E-4,-7.115206E-3,-4.522612E-3,3.0617544E-3,5.5485815E-3,-3.4405885E-3,-3.6619909E-3,4.766598E-3,-1.4477754E-3,-6.498472E-3,-5.7533556E-3,-3.242988E-3,8.4713177E-4,-3.7877036E-3,-4.4559894E-4,3.6474576E-3,-7.1024657E-3,3.7122073E-4,-6.2331553E-3,-8.0017075E-3,-4.9902736E-3,4.3174982E-4,-6.100889E-3,1.8002031E-3,-8.761137E-3,-7.5506247E-3],"categories":[],"categories_nodes":[],"categories_segments":[],"categories_sizes":[],"default_left":[0,0,0,0,0,0,0,0,0,0,0,0,0,0,0,0,0,0,0,0,0,0,0,0,0,0,0,0,0,0,0,0,0,0,0,0,0,0,0,0,0,0,0,0,0,0,0,0,0,0,0,0,0,0,0,0,0,0,0,0,0,0,0,0,0,0,0,0,0,0,0,0,0,0,0,0,0,0,0,0,0,0,0,0,0,0,0,0,0,0,0,0,0,0,0,0,0,0,0,0,0,0,0,0,0,0,0,0,0,0,0,0,0,0,0,0,0,0,0,0,0],"id":1,"left_children":[1,3,5,7,9,11,13,15,17,19,21,23,25,27,29,31,33,35,37,39,41,43,45,47,49,51,53,55,57,59,61,63,65,67,-1,-1,69,71,73,75,77,79,81,83,85,87,89,-1,91,93,95,97,99,101,103,105,107,109,111,113,115,117,119,-1,-1,-1,-1,-1,-1,-1,-1,-1,-1,-1,-1,-1,-1,-1,-1,-1,-1,-1,-1,-1,-1,-1,-1,-1,-1,-1,-1,-1,-1,-1,-1,-1,-1,-1,-1,-1,-1,-1,-1,-1,-1,-1,-1,-1,-1,-1,-1,-1,-1,-1,-1,-1,-1,-1,-1,-1,-1],"loss_changes":[5.6330482E1,6.889469E0,7.238653E0,2.2749767E0,3.1741867E0,1.4615208E0,9.55101E-1,1.04471415E-1,5.1771736E-1,1.0760307E0,7.2212946E-1,8.875822E-1,4.2666197E-1,4.4646895E-1,2.3035812E-1,2.9696757E-3,3.3425063E-2,7.366276E-2,2.1775055E-1,1.1805344E0,5.164939E-1,5.001147E-1,2.8005135E-1,1.3354504E-1,5.269579E-1,4.1929883E-1,3.7453437E-1,1.858469E-1,2.2697532E-1,2.266016E-1,1.444397E-1,7.2202017E-4,4.8937276E-5,2.7520657E-2,0E0,0E0,1.7404556E-3,3.254366E-2,4.7150135E-2,7.812309E-1,8.229332E-1,1.0923517E-1,7.465826E-2,1.62577E-1,3.7175512E-1,1.18236616E-1,1.484473E-1,0E0,4.0346324E-2,4.1922867E-1,4.023382E-1,4.2121124E-1,2.4673772E-1,3.3059388E-1,1.3402843E-1,1.935637E-2,1.9503738E-1,1.338741E-2,4.60186E-2,1.17575645E-1,1.0654491E-1,1.0893313E-1,6.182289E-2,0E0,0E0,0E0,0E0,0E0,0E0,0E0,0E0,0E0,0E0,0E0,0E0,0E0,0E0,0E0,0E0,0E0,0E0,0E0,0E0,0E0,0E0,0E0,0E0,0E0,0E0,0E0,0E0,0E0,0E0,0E0,0E0,0E0,0E0,0E0,0E0,0E0,0E0,0E0,0E0,0E0,0E0,0E0,0E0,0E0,0E0,0E0,0E0,0E0,0E0,0E0,0E0,0E0,0E0,0E0,0E0,0E0,0E0],"parents":[2147483647,0,0,1,1,2,2,3,3,4,4,5,5,6,6,7,7,8,8,9,9,10,10,11,11,12,12,13,13,14,14,15,15,16,16,17,17,18,18,19,19,20,20,21,21,22,22,23,23,24,24,25,25,26,26,27,27,28,28,29,29,30,30,31,31,32,32,33,33,36,36,37,37,38,38,39,39,40,40,41,41,42,42,43,43,44,44,45,45,46,46,48,48,49,49,50,50,51,51,52,52,53,53,54,54,55,55,56,56,57,57,58,58,59,59,60,60,61,61,62,62],"right_children":[2,4,6,8,10,12,14,16,18,20,22,24,26,28,30,32,34,36,38,40,42,44,46,48,50,52,54,56,58,60,62,64,66,68,-1,-1,70,72,74,76,78,80,82,84,86,88,90,-1,92,94,96,98,100,102,104,106,108,110,112,114,116,118,120,-1,-1,-1,-1,-1,-1,-1,-1,-1,-1,-1,-1,-1,-1,-1,-1,-1,-1,-1,-1,-1,-1,-1,-1,-1,-1,-1,-1,-1,-1,-1,-1,-1,-1,-1,-1,-1,-1,-1,-1,-1,-1,-1,-1,-1,-1,-1,-1,-1,-1,-1,-1,-1,-1,-1,-1,-1,-1],"split_conditions":[-4.254025E-1,-1.1096957E0,-2.5347638E-1,-1.7262693E-1,-4.6284673E-1,2.449879E-1,-3.8794637E-1,-3.505143E-1,-4.4321144E-1,7.450341E-1,-2.7427974E-1,-1.6360013E0,5.018106E-1,-7.313423E-2,2.6327974E-1,-3.5135955E-1,1.7218644E-2,-1.0431845E0,-8.4133816E-1,-2.967541E-1,-3.181295E-1,-3.2399398E-1,-3.2407853E-1,-4.3022603E-1,-1.0900109E0,-3.1725824E-1,-3.695579E-1,-9.676146E-2,-1.0259418E0,9.0287215E-1,-4.4072708E-1,-4.3916205E-1,-5.358971E-1,-1.049987E0,2.4782054E-3,7.344094E-3,-2.0793426E-1,-1.3179742E0,-9.1954374E-1,-3.6546758E-1,-3.2506964E-1,2.9817793E-1,-2.634729E-1,-4.38401E-1,-8.1544644E-1,-4.9529332E-1,-4.1529444E-1,3.8097613E-3,-5.312915E-1,-6.756561E-2,5.7362306E-1,-1.1418295E0,-4.160833E-1,2.5417852E-1,-4.6300754E-1,-1.20013826E-1,8.642978E-2,5.8366694E-2,-3.9577308E-1,6.250841E-1,3.3792615E0,-6.3710016E-1,4.6421182E-1,1.7214472E-4,9.333358E-4,2.1468124E-3,8.398327E-4,4.1596848E-3,8.759067E-3,1.9356579E-2,9.57361E-3,1.8555274E-2,1.4149626E-2,2.1529794E-3,1.1269576E-2,3.4140018E-3,8.754024E-3,1.1148005E-2,5.0483793E-3,7.735564E-3,3.082726E-3,2.8876388E-3,-3.044091E-5,-1.0819993E-3,2.7190654E-3,9.708612E-3,4.4010286E-3,-1.6876592E-3,4.1409805E-3,-3.1336867E-3,2.471148E-4,6.1870663E-4,-6.326865E-3,2.485294E-4,8.744187E-3,7.4678694E-4,-7.115206E-3,-4.522612E-3,3.0617544E-3,5.5485815E-3,-3.4405885E-3,-3.6619909E-3,4.766598E-3,-1.4477754E-3,-6.498472E-3,-5.7533556E-3,-3.242988E-3,8.4713177E-4,-3.7877036E-3,-4.4559894E-4,3.6474576E-3,-7.1024657E-3,3.7122073E-4,-6.2331553E-3,-8.0017075E-3,-4.9902736E-3,4.3174982E-4,-6.100889E-3,1.8002031E-3,-8.761137E-3,-7.5506247E-3],"split_indices":[5,1,5,8,5,9,1,7,0,8,7,8,8,5,0,7,3,3,9,8,7,8,9,0,1,7,5,8,1,1,6,5,3,6,0,0,9,9,3,2,2,10,7,2,1,3,4,0,3,8,7,8,2,3,2,2,3,0,1,9,1,6,8,0,0,0,0,0,0,0,0,0,0,0,0,0,0,0,0,0,0,0,0,0,0,0,0,0,0,0,0,0,0,0,0,0,0,0,0,0,0,0,0,0,0,0,0,0,0,0,0,0,0,0,0,0,0,0,0,0,0],"split_type":[0,0,0,0,0,0,0,0,0,0,0,0,0,0,0,0,0,0,0,0,0,0,0,0,0,0,0,0,0,0,0,0,0,0,0,0,0,0,0,0,0,0,0,0,0,0,0,0,0,0,0,0,0,0,0,0,0,0,0,0,0,0,0,0,0,0,0,0,0,0,0,0,0,0,0,0,0,0,0,0,0,0,0,0,0,0,0,0,0,0,0,0,0,0,0,0,0,0,0,0,0,0,0,0,0,0,0,0,0,0,0,0,0,0,0,0,0,0,0,0,0],"sum_hessian":[4.264E3,1.699E3,2.565E3,2.86E2,1.413E3,1.098E3,1.467E3,4.7E1,2.39E2,8.57E2,5.56E2,5.14E2,5.84E2,2.58E2,1.209E3,2E1,2.7E1,1.05E2,1.34E2,6.87E2,1.7E2,3.59E2,1.97E2,5.7E1,4.57E2,3.49E2,2.35E2,1.39E2,1.19E2,5.37E2,6.72E2,1.3E1,7E0,2E1,7E0,3E0,1.02E2,7.7E1,5.7E1,2.79E2,4.08E2,8.2E1,8.8E1,1.21E2,2.38E2,5.8E1,1.39E2,3E0,5.4E1,6E1,3.97E2,8.6E1,2.63E2,5.7E1,1.78E2,4.5E1,9.4E1,7E0,1.12E2,4.45E2,9.2E1,1.8E1,6.54E2,6E0,7E0,5E0,2E0,9E0,1.1E1,9.9E1,3E0,2.3E1,5.4E1,2E0,5.5E1,1.52E2,1.27E2,3.39E2,6.9E1,6.4E1,1.8E1,3.8E1,5E1,4.3E1,7.8E1,4E1,1.98E2,1E1,4.8E1,5E1,8.9E1,2E0,5.2E1,2.4E1,3.6E1,3.81E2,1.6E1,2.5E1,6.1E1,7E0,2.56E2,4.2E1,1.5E1,1.5E1,1.63E2,2.7E1,1.8E1,5.8E1,3.6E1,3E0,4E0,1.1E2,2E0,2E2,2.45E2,8.2E1,1E1,1.2E1,6E0,4.13E2,2.41E2],"tree_param":{"num_deleted":"0","num_feature":"11","num_nodes":"121","size_leaf_vector":"1"}},{"base_weights":[4.3316835E-5,1.3423233E-1,-8.8858224E-2,2.6880735E-1,1.0682266E-1,-3.0465173E-2,-1.3251293E-1,7.5853184E-2,3.0627817E-1,1.4308079E-1,5.0779056E-2,-3.471826E-3,-7.511969E-2,-7.9557486E-2,-1.4373851E-1,2.197436E-2,1.1355326E-1,2.1124912E-2,2.8504524E-1,1.5984464E-1,7.479651E-2,6.793662E-2,-1.7998205E-2,-1.069509E-1,8.648443E-3,-8.6295076E-2,-6.415337E-3,-3.7963286E-2,-1.1748132E-1,-1.2825765E-1,-1.5590042E-1,1.1847702E-2,3.6949217E-2,1.3334887E-1,2.3697836E-3,3.0030406E-1,1.8155862E-1,1.1837663E-2,1.7067847E-1,1.333105E-1,2.769382E-2,-6.724973E-3,8.0691814E-2,6.113729E-3,-2.9964138E-2,4.0206686E-3,-1.1915488E-1,6.295971E-2,-1.6152322E-2,-6.32598E-2,-1.1349002E-1,4.4455774E-2,-7.269236E-2,2.7331797E-2,-5.9787538E-2,2.1797266E-2,-1.2760279E-1,-1.3726151E-1,-8.369875E-2,-6.6936485E-2,-1.5824303E-1,2.9302537E-4,1.0726275E-3,2.057362E-3,8.1183837E-4,3.9724982E-3,8.35761E-3,1.6566686E-2,1.2500979E-2,4.239286E-3,1.1043358E-2,-3.6166047E-3,1.3986153E-3,1.6034877E-2,8.034634E-3,7.57314E-3,2.4696805E-3,2.921885E-3,-2.8948603E-5,-4.6792473E-3,6.1742816E-4,7.864914E-3,3.1922448E-3,-2.9796974E-3,8.509054E-4,1.0026414E-3,-6.1838566E-3,3.5757197E-3,-5.9940997E-3,2.37786E-3,-2.213413E-3,-1.7945536E-3,-3.7578915E-3,-7.642527E-3,-4.241874E-3,-1.8351013E-3,3.9900388E-3,-4.8726243E-3,-2.4002498E-4,2.8589156E-3,-4.371561E-3,-2.3993608E-3,-6.189514E-3,3.5015591E-3,-1.1015269E-3,-6.692084E-3,-3.153848E-3,-5.5362033E-3,-7.3914207E-3,-4.7437656E-3,4.12125E-4,-5.819309E-3,1.7230513E-3,-8.3959475E-3,-7.2781392E-3],"categories":[],"categories_nodes":[],"categories_segments":[],"categories_sizes":[],"default_left":[0,0,0,0,0,0,0,0,0,0,0,0,0,0,0,0,0,0,0,0,0,0,0,0,0,0,0,0,0,0,0,0,0,0,0,0,0,0,0,0,0,0,0,0,0,0,0,0,0,0,0,0,0,0,0,0,0,0,0,0,0,0,0,0,0,0,0,0,0,0,0,0,0,0,0,0,0,0,0,0,0,0,0,0,0,0,0,0,0,0,0,0,0,0,0,0,0,0,0,0,0,0,0,0,0,0,0,0,0,0,0,0,0,0,0],"id":2,"left_children":[1,3,5,7,9,11,13,15,17,19,21,23,25,27,29,31,33,-1,35,37,39,41,43,45,47,49,51,53,55,57,59,61,63,65,-1,67,69,71,73,75,77,79,81,-1,83,-1,85,87,89,91,93,95,97,99,101,103,105,107,109,111,113,-1,-1,-1,-1,-1,-1,-1,-1,-1,-1,-1,-1,-1,-1,-1,-1,-1,-1,-1,-1,-1,-1,-1,-1,-1,-1,-1,-1,-1,-1,-1,-1,-1,-1,-1,-1,-1,-1,-1,-1,-1,-1,-1,-1,-1,-1,-1,-1,-1,-1,-1,-1,-1,-1],"loss_changes":[5.0891716E1,6.2420025E0,6.537035E0,2.0518208E0,2.8660336E0,1.3244462E0,8.612251E-1,9.500408E-2,4.718151E-1,9.702034E-1,6.585109E-1,8.613022E-1,3.1731462E-1,4.0408957E-1,2.0781898E-1,2.746787E-3,3.0349463E-2,0E0,2.707672E-1,1.1011734E0,4.6761256E-1,4.2527866E-1,1.9165525E-1,1.7421609E-1,8.293979E-1,2.1583438E-1,2.0215516E-1,1.7976111E-1,1.9309127E-1,2.043581E-1,1.2966537E-1,6.7936233E-4,2.75122E-5,2.4980962E-2,0E0,1.9489479E-1,9.158957E-2,6.7209646E-2,9.087219E-1,1.0828829E-1,8.347849E-2,1.104996E-1,4.8166943E-1,0E0,1.4578998E-1,0E0,4.5288205E-2,3.1045455E-1,7.5980526E-1,6.080103E-2,1.6973281E-1,1.0045864E-1,4.3238476E-2,1.14608E-1,6.505343E-2,2.268269E-2,4.2281628E-2,1.08698845E-1,9.634763E-2,9.927825E-2,5.5921555E-2,0E0,0E0,0E0,0E0,0E0,0E0,0E0,0E0,0E0,0E0,0E0,0E0,0E0,0E0,0E0,0E0,0E0,0E0,0E0,0E0,0E0,0E0,0E0,0E0,0E0,0E0,0E0,0E0,0E0,0E0,0E0,0E0,0E0,0E0,0E0,0E0,0E0,0E0,0E0,0E0,0E0,0E0,0E0,0E0,0E0,0E0,0E0,0E0,0E0,0E0,0E0,0E0,0E0,0E0],"parents":[2147483647,0,0,1,1,2,2,3,3,4,4,5,5,6,6,7,7,8,8,9,9,10,10,11,11,12,12,13,13,14,14,15,15,16,16,18,18,19,19,20,20,21,21,22,22,23,23,24,24,25,25,26,26,27,27,28,28,29,29,30,30,31,31,32,32,33,33,35,35,36,36,37,37,38,38,39,39,40,40,41,41,42,42,44,44,46,46,47,47,48,48,49,49,50,50,51,51,52,52,53,53,54,54,55,55,56,56,57,57,58,58,59,59,60,60],"right_children":[2,4,6,8,10,12,14,16,18,20,22,24,26,28,30,32,34,-1,36,38,40,42,44,46,48,50,52,54,56,58,60,62,64,66,-1,68,70,72,74,76,78,80,82,-1,84,-1,86,88,90,92,94,96,98,100,102,104,106,108,110,112,114,-1,-1,-1,-1,-1,-1,-1,-1,-1,-1,-1,-1,-1,-1,-1,-1,-1,-1,-1,-1,-1,-1,-1,-1,-1,-1,-1,-1,-1,-1,-1,-1,-1,-1,-1,-1,-1,-1,-1,-1,-1,-1,-1,-1,-1,-1,-1,-1,-1,-1,-1,-1,-1,-1],"split_conditions":[-4.254025E-1,-1.1096957E0,-2.5347638E-1,-1.7262693E-1,-4.6284673E-1,6.965367E-1,-3.8794637E-1,-3.505143E-1,-4.4275352E-1,7.450341E-1,-2.3498239E-1,-1.5958437E0,-1.6146222E-1,-9.874599E-2,2.6327974E-1,-3.5135955E-1,1.7218644E-2,2.1124912E-2,-4.4842726E-1,-1.3892281E0,-3.234988E-1,-1.1418295E0,-1.0697865E0,-1.5533617E0,-4.3211553E-1,2.9191688E-1,5.018106E-1,-8.511976E-1,-1.0259418E0,9.0287215E-1,-4.4072708E-1,-5.6728196E-1,-5.358971E-1,-1.049987E0,2.3697836E-3,-6.6965E-1,-4.083079E-1,-5.9228355E-1,-8.6727816E-1,5.325864E-1,-2.634729E-1,-7.7057236E-1,-8.1544644E-1,6.113729E-3,1.0872843E-1,4.0206686E-3,-1.0009671E0,6.248514E-1,-9.59234E-1,-4.0263778E-1,-4.4401586E-2,-1.4272971E-1,1.8930496E-1,1.4764811E-2,-4.5781654E-1,-1.1341061E-1,-4.4646975E-1,-7.942029E-2,3.3792615E0,-6.3710016E-1,2.4433675E-1,2.9302537E-4,1.0726275E-3,2.057362E-3,8.1183837E-4,3.9724982E-3,8.35761E-3,1.6566686E-2,1.2500979E-2,4.239286E-3,1.1043358E-2,-3.6166047E-3,1.3986153E-3,1.6034877E-2,8.034634E-3,7.57314E-3,2.4696805E-3,2.921885E-3,-2.8948603E-5,-4.6792473E-3,6.1742816E-4,7.864914E-3,3.1922448E-3,-2.9796974E-3,8.509054E-4,1.0026414E-3,-6.1838566E-3,3.5757197E-3,-5.9940997E-3,2.37786E-3,-2.213413E-3,-1.7945536E-3,-3.7578915E-3,-7.642527E-3,-4.241874E-3,-1.8351013E-3,3.9900388E-3,-4.8726243E-3,-2.4002498E-4,2.8589156E-3,-4.371561E-3,-2.3993608E-3,-6.189514E-3,3.5015591E-3,-1.1015269E-3,-6.692084E-3,-3.153848E-3,-5.5362033E-3,-7.3914207E-3,-4.7437656E-3,4.12125E-4,-5.819309E-3,1.7230513E-3,-8.3959475E-3,-7.2781392E-3],"split_indices":[5,1,5,8,5,10,1,7,2,8,2,8,0,5,0,7,3,0,5,8,7,8,9,9,6,8,8,1,1,1,6,6,3,6,0,3,0,3,10,9,7,3,1,0,4,0,1,0,9,5,4,3,6,10,1,6,1,1,1,6,8,0,0,0,0,0,0,0,0,0,0,0,0,0,0,0,0,0,0,0,0,0,0,0,0,0,0,0,0,0,0,0,0,0,0,0,0,0,0,0,0,0,0,0,0,0,0,0,0,0,0,0,0,0,0],"split_type":[0,0,0,0,0,0,0,0,0,0,0,0,0,0,0,0,0,0,0,0,0,0,0,0,0,0,0,0,0,0,0,0,0,0,0,0,0,0,0,0,0,0,0,0,0,0,0,0,0,0,0,0,0,0,0,0,0,0,0,0,0,0,0,0,0,0,0,0,0,0,0,0,0,0,0,0,0,0,0,0,0,0,0,0,0,0,0,0,0,0,0,0,0,0,0,0,0,0,0,0,0,0,0,0,0,0,0,0,0,0,0,0,0,0,0],"sum_hessian":[4.264E3,1.699E3,2.565E3,2.86E2,1.413E3,1.098E3,1.467E3,4.7E1,2.39E2,8.57E2,5.56E2,6.85E2,4.13E2,2.58E2,1.209E3,2E1,2.7E1,3.4E1,2.05E2,6.87E2,1.7E2,4.45E2,1.11E2,7.1E1,6.14E2,3.55E2,5.8E1,1.24E2,1.34E2,5.37E2,6.72E2,1.3E1,7E0,2E1,7E0,1.77E2,2.8E1,4.7E1,6.4E2,7.5E1,9.5E1,6.5E1,3.8E2,8E0,1.03E2,4E0,6.7E1,1.92E2,4.22E2,1.94E2,1.61E2,3.3E1,2.5E1,3.1E1,9.3E1,9E0,1.25E2,4.45E2,9.2E1,1.8E1,6.54E2,9E0,4E0,5E0,2E0,9E0,1.1E1,1.06E2,7.1E1,9E0,1.9E1,7E0,4E1,3.8E1,6.02E2,6.1E1,1.4E1,4.5E1,5E1,1.1E1,5.4E1,6.7E1,3.13E2,6.3E1,4E1,2E0,6.5E1,1.84E2,8E0,1.29E2,2.93E2,6E1,1.34E2,6.6E1,9.5E1,1E1,2.3E1,1.8E1,7E0,2.5E1,6E0,8E1,1.3E1,4E0,5E0,1.13E2,1.2E1,1.3E2,3.15E2,8.2E1,1E1,1.2E1,6E0,3.64E2,2.9E2],"tree_param":{"num_deleted":"0","num_feature":"11","num_nodes":"115","size_leaf_vector":"1"}},{"base_weights":[5.3296426E-5,1.2759729E-1,-8.4445864E-2,2.556611E-1,1.015139E-1,-2.8963575E-2,-1.2592447E-1,7.2455004E-2,2.9123706E-1,1.3596728E-1,4.8259817E-2,6.455389E-3,-6.009486E-2,-7.564737E-2,-1.3658218E-1,2.10773E-2,1.084006E-1,3.4247166E-1,2.488511E-1,1.5188417E-1,7.113234E-2,7.280301E-2,3.3920845E-3,-9.897843E-2,1.9793175E-2,-4.3428868E-2,-9.826603E-2,-1.1215236E-1,-3.6224224E-2,-1.2187685E-1,-1.4813477E-1,1.13528585E-2,3.5460405E-2,1.2726857E-1,2.266106E-3,6.4474395E-3,3.4743884E-1,2.8411615E-1,1.9713514E-1,1.05610214E-1,1.8454273E-1,1.22411005E-1,2.2511423E-2,8.911229E-3,9.221605E-2,5.712125E-2,-1.9275151E-2,3.5538455E-3,-1.0954648E-1,6.762959E-2,-1.047622E-3,5.0183367E-3,-5.6918927E-2,-2.3878776E-3,-1.1401975E-1,-8.382971E-2,-1.3840921E-1,3.216418E-2,-6.184781E-2,-1.3042742E-1,-7.9560384E-2,-6.380525E-2,-1.503548E-1,2.7983898E-4,1.0297223E-3,1.9716388E-3,7.847768E-4,3.7937358E-3,7.974553E-3,2.0000508E-2,1.6123937E-2,1.6885782E-2,1.2778078E-2,1.9399038E-3,1.010486E-2,2.8159607E-3,7.6746494E-3,1.020592E-2,4.3555293E-3,6.9496296E-3,2.4929706E-3,-1.5489166E-3,1.825426E-3,1.1848436E-2,2.8041157E-5,6.2032384E-3,3.25148E-3,-1.5363678E-3,3.7838314E-3,-2.9883955E-3,1.942457E-4,6.341363E-4,-5.71991E-3,-5.273199E-4,8.244461E-3,-8.109021E-4,4.483394E-3,-5.945592E-3,2.5942775E-3,-3.1077384E-3,4.7905496E-3,-4.1876542E-3,4.975881E-3,-7.3661143E-4,-6.239156E-3,-4.679808E-3,2.799677E-3,-5.051361E-3,-7.2704046E-3,6.320571E-3,2.0438363E-4,1.3844714E-3,-4.2765667E-3,-5.6028496E-3,-7.2453604E-3,-4.509435E-3,3.9339202E-4,-5.550726E-3,1.6492064E-3,-7.91197E-3,-6.81225E-3],"categories":[],"categories_nodes":[],"categories_segments":[],"categories_sizes":[],"default_left":[0,0,0,0,0,0,0,0,0,0,0,0,0,0,0,0,0,0,0,0,0,0,0,0,0,0,0,0,0,0,0,0,0,0,0,0,0,0,0,0,0,0,0,0,0,0,0,0,0,0,0,0,0,0,0,0,0,0,0,0,0,0,0,0,0,0,0,0,0,0,0,0,0,0,0,0,0,0,0,0,0,0,0,0,0,0,0,0,0,0,0,0,0,0,0,0,0,0,0,0,0,0,0,0,0,0,0,0,0,0,0,0,0,0,0,0,0,0,0,0,0],"id":3,"left_children":[1,3,5,7,9,11,13,15,17,19,21,23,25,27,29,31,33,35,37,39,41,43,45,47,49,51,53,55,57,59,61,63,65,67,-1,-1,69,71,73,75,77,79,81,83,85,87,89,-1,91,93,95,97,99,101,103,105,107,109,111,113,115,117,119,-1,-1,-1,-1,-1,-1,-1,-1,-1,-1,-1,-1,-1,-1,-1,-1,-1,-1,-1,-1,-1,-1,-1,-1,-1,-1,-1,-1,-1,-1,-1,-1,-1,-1,-1,-1,-1,-1,-1,-1,-1,-1,-1,-1,-1,-1,-1,-1,-1,-1,-1,-1,-1,-1,-1,-1,-1,-1],"loss_changes":[4.5976215E1,5.652622E0,5.90156E0,1.8494873E0,2.587823E0,1.2121868E0,7.7627945E-1,8.6361706E-2,4.359684E-1,8.746252E-1,6.131201E-1,7.2617966E-1,3.678863E-1,3.686751E-1,1.8750763E-1,2.5346447E-3,2.7556479E-2,6.7622185E-2,1.9019985E-1,1.0202446E0,4.2358428E-1,4.4569826E-1,2.4224359E-1,1.1202115E-1,4.566735E-1,2.6758993E-1,2.6707518E-1,8.80481E-2,2.2278614E-1,1.8428802E-1,1.1640167E-1,6.294716E-4,9.187497E-6,2.2675455E-2,0E0,0E0,6.1597824E-3,3.307295E-2,3.7728548E-2,6.6873E-1,7.489538E-1,9.292054E-2,6.7765385E-2,1.6173877E-1,2.3090792E-1,9.849912E-2,1.3152629E-1,0E0,3.4067154E-2,1.0586073E0,4.418358E-1,5.289134E-1,2.6184928E-1,2.239155E-1,1.6059911E-1,9.6734434E-2,3.100872E-3,9.209794E-2,1.9745955E-1,1.0239792E-1,8.712655E-2,9.047946E-2,5.1309586E-2,0E0,0E0,0E0,0E0,0E0,0E0,0E0,0E0,0E0,0E0,0E0,0E0,0E0,0E0,0E0,0E0,0E0,0E0,0E0,0E0,0E0,0E0,0E0,0E0,0E0,0E0,0E0,0E0,0E0,0E0,0E0,0E0,0E0,0E0,0E0,0E0,0E0,0E0,0E0,0E0,0E0,0E0,0E0,0E0,0E0,0E0,0E0,0E0,0E0,0E0,0E0,0E0,0E0,0E0,0E0,0E0,0E0,0E0],"parents":[2147483647,0,0,1,1,2,2,3,3,4,4,5,5,6,6,7,7,8,8,9,9,10,10,11,11,12,12,13,13,14,14,15,15,16,16,17,17,18,18,19,19,20,20,21,21,22,22,23,23,24,24,25,25,26,26,27,27,28,28,29,29,30,30,31,31,32,32,33,33,36,36,37,37,38,38,39,39,40,40,41,41,42,42,43,43,44,44,45,45,46,46,48,48,49,49,50,50,51,51,52,52,53,53,54,54,55,55,56,56,57,57,58,58,59,59,60,60,61,61,62,62],"right_children":[2,4,6,8,10,12,14,16,18,20,22,24,26,28,30,32,34,36,38,40,42,44,46,48,50,52,54,56,58,60,62,64,66,68,-1,-1,70,72,74,76,78,80,82,84,86,88,90,-1,92,94,96,98,100,102,104,106,108,110,112,114,116,118,120,-1,-1,-1,-1,-1,-1,-1,-1,-1,-1,-1,-1,-1,-1,-1,-1,-1,-1,-1,-1,-1,-1,-1,-1,-1,-1,-1,-1,-1,-1,-1,-1,-1,-1,-1,-1,-1,-1,-1,-1,-1,-1,-1,-1,-1,-1,-1,-1,-1,-1,-1,-1,-1,-1,-1,-1,-1,-1],"split_conditions":[-4.254025E-1,-1.1096957E0,-2.5347638E-1,-1.7262693E-1,-4.6284673E-1,2.449879E-1,-3.8794637E-1,-3.505143E-1,-4.4321144E-1,7.450341E-1,-2.7427974E-1,-1.6360013E0,7.326014E-1,-9.676146E-2,2.6327974E-1,-3.5135955E-1,1.7218644E-2,-1.0431845E0,-8.4133816E-1,-2.6626852E-1,-3.181295E-1,-4.4026637E-1,-3.2407853E-1,-4.3022603E-1,-9.0683025E-1,-3.924462E-1,-3.8062018E-1,2.1226712E-1,-8.6547446E-1,9.0287215E-1,-4.4072708E-1,-5.6728196E-1,-5.358971E-1,-1.049987E0,2.266106E-3,6.4474395E-3,-4.4026637E-1,-1.3179742E0,-9.1954374E-1,-2.9845443E-1,-3.2506964E-1,1.0964502E0,-6.055469E-1,-1.5267372E0,-3.213519E-1,-4.9529332E-1,-4.1529444E-1,3.5538455E-3,-5.312915E-1,-4.2402964E-2,2.2594476E0,-5.01783E-1,7.507231E-1,2.5417852E-1,-4.638942E-1,6.009449E-1,-1.5885957E0,-6.622249E-1,-3.9567134E-1,6.250841E-1,3.3792615E0,-6.3710016E-1,4.6421182E-1,2.7983898E-4,1.0297223E-3,1.9716388E-3,7.847768E-4,3.7937358E-3,7.974553E-3,2.0000508E-2,1.6123937E-2,1.6885782E-2,1.2778078E-2,1.9399038E-3,1.010486E-2,2.8159607E-3,7.6746494E-3,1.020592E-2,4.3555293E-3,6.9496296E-3,2.4929706E-3,-1.5489166E-3,1.825426E-3,1.1848436E-2,2.8041157E-5,6.2032384E-3,3.25148E-3,-1.5363678E-3,3.7838314E-3,-2.9883955E-3,1.942457E-4,6.341363E-4,-5.71991E-3,-5.273199E-4,8.244461E-3,-8.109021E-4,4.483394E-3,-5.945592E-3,2.5942775E-3,-3.1077384E-3,4.7905496E-3,-4.1876542E-3,4.975881E-3,-7.3661143E-4,-6.239156E-3,-4.679808E-3,2.799677E-3,-5.051361E-3,-7.2704046E-3,6.320571E-3,2.0438363E-4,1.3844714E-3,-4.2765667E-3,-5.6028496E-3,-7.2453604E-3,-4.509435E-3,3.9339202E-4,-5.550726E-3,1.6492064E-3,-7.91197E-3,-6.81225E-3],"split_indices":[5,1,5,8,5,9,1,7,0,8,7,8,8,8,0,7,3,3,9,8,7,2,9,0,1,2,5,6,1,1,6,6,3,6,0,0,2,9,3,7,2,4,4,6,7,3,4,0,3,8,6,3,1,3,2,0,9,4,6,9,1,6,8,0,0,0,0,0,0,0,0,0,0,0,0,0,0,0,0,0,0,0,0,0,0,0,0,0,0,0,0,0,0,0,0,0,0,0,0,0,0,0,0,0,0,0,0,0,0,0,0,0,0,0,0,0,0,0,0,0,0],"split_type":[0,0,0,0,0,0,0,0,0,0,0,0,0,0,0,0,0,0,0,0,0,0,0,0,0,0,0,0,0,0,0,0,0,0,0,0,0,0,0,0,0,0,0,0,0,0,0,0,0,0,0,0,0,0,0,0,0,0,0,0,0,0,0,0,0,0,0,0,0,0,0,0,0,0,0,0,0,0,0,0,0,0,0,0,0,0,0,0,0,0,0,0,0,0,0,0,0,0,0,0,0,0,0,0,0,0,0,0,0,0,0,0,0,0,0,0,0,0,0,0,0],"sum_hessian":[4.264E3,1.699E3,2.565E3,2.86E2,1.413E3,1.098E3,1.467E3,4.7E1,2.39E2,8.57E2,5.56E2,5.14E2,5.84E2,2.58E2,1.209E3,2E1,2.7E1,1.05E2,1.34E2,6.87E2,1.7E2,3.59E2,1.97E2,5.7E1,4.57E2,4.08E2,1.76E2,1.33E2,1.25E2,5.37E2,6.72E2,1.3E1,7E0,2E1,7E0,3E0,1.02E2,7.7E1,5.7E1,2.86E2,4.01E2,8.2E1,8.8E1,8.4E1,2.75E2,5.8E1,1.39E2,3E0,5.4E1,1.38E2,3.19E2,8.9E1,3.19E2,2.5E1,1.51E2,6.6E1,6.7E1,3.4E1,9.1E1,4.45E2,9.2E1,1.8E1,6.54E2,9E0,4E0,5E0,2E0,9E0,1.1E1,2.8E1,7.4E1,2.3E1,5.4E1,2E0,5.5E1,1.42E2,1.44E2,3.33E2,6.8E1,6.6E1,1.6E1,1.8E1,7E1,2E0,8.2E1,1.25E2,1.5E2,1E1,4.8E1,5E1,8.9E1,2E0,5.2E1,7.7E1,6.1E1,2.74E2,4.5E1,2.4E1,6.5E1,3.09E2,1E1,1.4E1,1.1E1,1.5E1,1.36E2,6.2E1,4E0,1.3E1,5.4E1,7E0,2.7E1,1.9E1,7.2E1,2E2,2.45E2,8.2E1,1E1,1.2E1,6E0,4.13E2,2.41E2],"tree_param":{"num_deleted":"0","num_feature":"11","num_nodes":"121","size_leaf_vector":"1"}},{"base_weights":[7.730906E-5,1.0354821E-1,-9.4037704E-2,2.2925492E-1,7.833089E-2,-4.7458794E-2,-1.216985E-1,7.831837E-2,2.668393E-1,1.2771988E-1,2.7249062E-2,-2.1527873E-2,-8.104539E-2,-5.5502267E-3,-1.25993E-1,1.5475774E-2,1.13672666E-1,2.9122704E-1,1.680073E-1,1.4306372E-1,6.675452E-2,5.405222E-2,-3.7000615E-3,3.383606E-2,-4.569468E-2,-5.478997E-2,-1.0363496E-1,-6.2816754E-2,4.76799E-2,-1.0295032E-1,-1.3510337E-1,3.2516494E-2,6.0956487E-3,1.3402222E-1,6.53954E-2,1.9029679E-2,2.7123934E-1,1.56173175E-2,1.3744357E-1,9.808512E-2,1.7321247E-1,1.2515765E-1,2.372916E-2,8.767098E-3,9.0354525E-2,6.5565E-2,-2.2764208E-2,-5.362894E-3,5.107379E-2,1.3893216E-2,-6.364951E-2,-6.2605776E-2,9.19823E-2,-1.3724784E-2,-1.1275233E-1,-8.7580375E-2,2.68769E-3,-1.8715769E-3,7.255962E-2,-7.192935E-2,-1.2666874E-1,-1.4405107E-1,-1.1449357E-1,6.4816326E-4,1.812562E-3,-7.45848E-4,5.646317E-4,3.196364E-3,7.444116E-3,4.845787E-3,2.2561466E-3,1.5026363E-2,1.1261259E-2,3.616465E-3,9.2704585E-3,2.2089628E-3,7.060148E-3,1.5262795E-2,7.98431E-3,7.676448E-3,4.4578686E-3,4.4282707E-3,4.3906635E-4,-2.9963097E-3,1.5130317E-3,8.742082E-3,3.379735E-3,-6.7638286E-4,4.3670344E-3,-2.2738082E-3,1.4724126E-4,3.3189286E-3,-5.956961E-3,-4.7958973E-3,2.5759798E-3,-5.19199E-3,-2.0410751E-3,-1.6399077E-4,-3.4318566E-3,1.00092E-3,6.2313923E-3,-2.9606558E-3,1.2370325E-3,-7.3096314E-3,-4.934953E-3,-2.531157E-3,-6.158551E-3,-2.3411718E-4,3.12383E-4,6.244885E-3,2.1411036E-3,-3.8841558E-3,3.6574341E-3,-6.56682E-3,-2.7371931E-3,-6.26059E-3,-7.486352E-3,9.7288995E-4,-6.084382E-3],"categories":[],"categories_nodes":[],"categories_segments":[],"categories_sizes":[],"default_left":[0,0,0,0,0,0,0,0,0,0,0,0,0,0,0,0,0,0,0,0,0,0,0,0,0,0,0,0,0,0,0,0,0,0,0,0,0,0,0,0,0,0,0,0,0,0,0,0,0,0,0,0,0,0,0,0,0,0,0,0,0,0,0,0,0,0,0,0,0,0,0,0,0,0,0,0,0,0,0,0,0,0,0,0,0,0,0,0,0,0,0,0,0,0,0,0,0,0,0,0,0,0,0,0,0,0,0,0,0,0,0,0,0,0,0,0,0,0,0],"id":4,"left_children":[1,3,5,7,9,11,13,15,17,19,21,23,25,27,29,31,33,35,37,39,41,43,45,47,49,51,53,55,57,59,61,63,65,67,69,-1,71,-1,73,75,77,79,81,83,85,87,89,-1,91,93,95,97,99,101,103,105,-1,107,109,111,113,115,117,-1,-1,-1,-1,-1,-1,-1,-1,-1,-1,-1,-1,-1,-1,-1,-1,-1,-1,-1,-1,-1,-1,-1,-1,-1,-1,-1,-1,-1,-1,-1,-1,-1,-1,-1,-1,-1,-1,-1,-1,-1,-1,-1,-1,-1,-1,-1,-1,-1,-1,-1,-1,-1,-1,-1,-1],"loss_changes":[4.154301E1,6.4234524E0,2.87253E0,1.9022007E0,4.270277E0,7.24612E-1,6.981182E-1,1.5154201E-1,6.042576E-1,7.95866E-1,6.920314E-1,6.3306767E-1,2.0961666E-1,1.5845862E-1,2.697029E-1,3.9577372E-3,3.4462035E-2,2.8259468E-1,2.0411623E-1,9.146166E-1,4.3677282E-1,7.340555E-1,5.1383847E-1,3.557061E-1,3.5287845E-1,2.00773E-1,1.574831E-1,7.68755E-2,3.3422112E-2,2.7563095E-1,1.6146088E-1,1.8730294E-4,2.134092E-3,2.17309E-2,5.2118003E-3,0E0,1.7489338E-1,0E0,1.3650519E-1,6.399183E-1,6.835356E-1,6.1893582E-2,9.8076746E-2,2.9710576E-1,4.650638E-1,1.458545E-1,1.7822419E-1,0E0,3.4396276E-1,3.2308996E-1,2.2787952E-1,5.7741106E-2,1.8648863E-2,3.470981E-2,6.828141E-2,2.1386683E-2,0E0,2.5746645E-4,2.2666939E-2,1.4758909E-1,6.599736E-2,5.2788734E-2,2.8857374E-1,0E0,0E0,0E0,0E0,0E0,0E0,0E0,0E0,0E0,0E0,0E0,0E0,0E0,0E0,0E0,0E0,0E0,0E0,0E0,0E0,0E0,0E0,0E0,0E0,0E0,0E0,0E0,0E0,0E0,0E0,0E0,0E0,0E0,0E0,0E0,0E0,0E0,0E0,0E0,0E0,0E0,0E0,0E0,0E0,0E0,0E0,0E0,0E0,0E0,0E0,0E0,0E0,0E0,0E0,0E0,0E0],"parents":[2147483647,0,0,1,1,2,2,3,3,4,4,5,5,6,6,7,7,8,8,9,9,10,10,11,11,12,12,13,13,14,14,15,15,16,16,17,17,18,18,19,19,20,20,21,21,22,22,23,23,24,24,25,25,26,26,27,27,28,28,29,29,30,30,31,31,32,32,33,33,34,34,36,36,38,38,39,39,40,40,41,41,42,42,43,43,44,44,45,45,46,46,48,48,49,49,50,50,51,51,52,52,53,53,54,54,55,55,57,57,58,58,59,59,60,60,61,61,62,62],"right_children":[2,4,6,8,10,12,14,16,18,20,22,24,26,28,30,32,34,36,38,40,42,44,46,48,50,52,54,56,58,60,62,64,66,68,70,-1,72,-1,74,76,78,80,82,84,86,88,90,-1,92,94,96,98,100,102,104,106,-1,108,110,112,114,116,118,-1,-1,-1,-1,-1,-1,-1,-1,-1,-1,-1,-1,-1,-1,-1,-1,-1,-1,-1,-1,-1,-1,-1,-1,-1,-1,-1,-1,-1,-1,-1,-1,-1,-1,-1,-1,-1,-1,-1,-1,-1,-1,-1,-1,-1,-1,-1,-1,-1,-1,-1,-1,-1,-1,-1,-1],"split_conditions":[-3.9480102E-1,-1.0900109E0,-2.3847105E-1,-6.756561E-2,-4.622625E-1,6.13564E-1,-9.0683025E-1,-3.505143E-1,-4.4842726E-1,7.450341E-1,-2.9100174E-1,-3.6511654E-1,4.4599837E-1,2.3175366E-2,-2.6303034E-2,-1.2071499E0,-4.5553923E-1,-4.4275352E-1,-3.3750358E-1,-2.967541E-1,-4.132772E-1,-6.1878874E-3,-3.7843192E-1,-1.2509685E0,-1.2915533E0,5.230797E-1,-4.638942E-1,4.501222E-1,-8.3982897E-1,2.0241067E-1,6.3178855E-1,-4.3740615E-1,-4.638942E-1,-4.7011074E-1,-2.767482E-1,1.9029679E-2,-6.6965E-1,1.56173175E-2,-3.5639513E-1,-3.1553844E-1,-6.6519487E-1,4.630224E-1,-3.1725824E-1,-1.6360013E0,-5.5629945E-1,-4.9529332E-1,-8.947882E-2,-5.362894E-3,4.969018E-1,-3.4377098E-1,-4.591548E-1,-3.35063E-1,-3.2429928E-1,3.0196506E-1,-2.0515496E-1,1.0364008E-1,2.68769E-3,3.2325733E-2,-7.7057236E-1,3.584349E0,9.0287215E-1,-1.5117832E-1,-9.946695E-1,6.4816326E-4,1.812562E-3,-7.45848E-4,5.646317E-4,3.196364E-3,7.444116E-3,4.845787E-3,2.2561466E-3,1.5026363E-2,1.1261259E-2,3.616465E-3,9.2704585E-3,2.2089628E-3,7.060148E-3,1.5262795E-2,7.98431E-3,7.676448E-3,4.4578686E-3,4.4282707E-3,4.3906635E-4,-2.9963097E-3,1.5130317E-3,8.742082E-3,3.379735E-3,-6.7638286E-4,4.3670344E-3,-2.2738082E-3,1.4724126E-4,3.3189286E-3,-5.956961E-3,-4.7958973E-3,2.5759798E-3,-5.19199E-3,-2.0410751E-3,-1.6399077E-4,-3.4318566E-3,1.00092E-3,6.2313923E-3,-2.9606558E-3,1.2370325E-3,-7.3096314E-3,-4.934953E-3,-2.531157E-3,-6.158551E-3,-2.3411718E-4,3.12383E-4,6.244885E-3,2.1411036E-3,-3.8841558E-3,3.6574341E-3,-6.56682E-3,-2.7371931E-3,-6.26059E-3,-7.486352E-3,9.7288995E-4,-6.084382E-3],"split_indices":[5,1,5,8,5,9,1,7,5,8,7,6,8,8,5,6,6,2,7,8,2,8,10,8,10,1,2,4,3,9,8,0,2,0,4,0,3,0,2,7,10,1,7,8,1,3,4,0,0,7,8,7,7,1,4,5,0,0,3,1,1,1,4,0,0,0,0,0,0,0,0,0,0,0,0,0,0,0,0,0,0,0,0,0,0,0,0,0,0,0,0,0,0,0,0,0,0,0,0,0,0,0,0,0,0,0,0,0,0,0,0,0,0,0,0,0,0,0,0],"split_type":[0,0,0,0,0,0,0,0,0,0,0,0,0,0,0,0,0,0,0,0,0,0,0,0,0,0,0,0,0,0,0,0,0,0,0,0,0,0,0,0,0,0,0,0,0,0,0,0,0,0,0,0,0,0,0,0,0,0,0,0,0,0,0,0,0,0,0,0,0,0,0,0,0,0,0,0,0,0,0,0,0,0,0,0,0,0,0,0,0,0,0,0,0,0,0,0,0,0,0,0,0,0,0,0,0,0,0,0,0,0,0,0,0,0,0,0,0,0,0],"sum_hessian":[4.264E3,2.031E3,2.233E3,3.38E2,1.693E3,8.33E2,1.4E3,6.8E1,2.7E2,8.6E2,8.33E2,4.71E2,3.62E2,5E1,1.35E3,2.5E1,4.3E1,2.15E2,5.5E1,6.86E2,1.74E2,4.46E2,3.87E2,1.43E2,3.28E2,1.69E2,1.93E2,2.4E1,2.6E1,3.86E2,9.64E2,8E0,1.7E1,2.9E1,1.4E1,3.6E1,1.79E2,8E0,4.7E1,2.77E2,4.09E2,7.3E1,1.01E2,1.99E2,2.47E2,8.3E1,3.04E2,1.5E1,1.28E2,7.6E1,2.52E2,1.61E2,8E0,1.8E1,1.75E2,2E1,4E0,9E0,1.7E1,1.69E2,2.17E2,6.68E2,2.96E2,2E0,6E0,3E0,1.4E1,6E0,2.3E1,4E0,1E1,1.06E2,7.3E1,2.1E1,2.6E1,1.24E2,1.53E2,3.6E1,3.73E2,3.9E1,3.4E1,1.8E1,8.3E1,4.7E1,1.52E2,5.1E1,1.96E2,1.8E1,6.5E1,1.61E2,1.43E2,1.18E2,1E1,1.9E1,5.7E1,9E1,1.62E2,1.5E1,1.46E2,3E0,5E0,8E0,1E1,4.9E1,1.26E2,1.1E1,9E0,7E0,2E0,5E0,1.2E1,1.63E2,6E0,2.03E2,1.4E1,1.6E2,5.08E2,1.5E1,2.81E2],"tree_param":{"num_deleted":"0","num_feature":"11","num_nodes":"119","size_leaf_vector":"1"}},{"base_weights":[9.732523E-5,1.1546027E-1,-7.633179E-2,2.3132074E-1,9.186238E-2,-2.6319709E-2,-1.13720715E-1,6.5996274E-2,2.634218E-1,1.22813344E-1,4.4020746E-2,-2.7308378E-3,-6.534301E-2,-6.803237E-2,-1.234063E-1,1.9377204E-2,9.860357E-2,3.104137E-1,2.2457318E-1,1.3801481E-1,6.7149945E-2,5.9387375E-2,-1.7564394E-2,-9.296432E-2,7.837523E-3,-7.5362295E-2,-3.7801347E-3,-3.5038322E-2,-1.0595849E-1,3.32377E-3,-1.2409121E-1,1.044209E-2,3.25915E-2,1.15713276E-1,2.0682577E-3,5.6421724E-3,3.150726E-1,2.5532037E-1,1.7372425E-1,3.8441836E-3,1.4808217E-1,1.1457577E-1,2.1494733E-2,-8.196937E-3,7.093902E-2,5.9205787E-3,-2.7757186E-2,3.6651578E-3,-1.0382275E-1,5.598818E-2,-1.4150456E-2,-5.56422E-2,-9.863426E-2,4.073484E-2,-6.1846633E-2,-8.058601E-2,-1.2614832E-2,3.5642065E-2,-1.1504562E-1,-6.6858105E-2,-1.2620084E-1,1.2478084E-4,8.0449966E-4,1.813964E-3,7.1760564E-4,3.4154654E-3,7.2786906E-3,1.5921399E-2,7.6209824E-3,1.5351172E-2,1.1498056E-2,9.845701E-3,5.583461E-3,-3.3012347E-3,1.0830356E-3,1.451341E-2,6.9585266E-3,6.065006E-3,-1.2671484E-3,-1.4582856E-3,1.7605094E-3,-4.3507717E-3,4.5744306E-4,6.984164E-3,2.7912904E-3,-2.771323E-3,7.5332006E-4,-2.9976843E-3,-5.920827E-3,6.154411E-3,1.7377234E-3,2.0970674E-3,-1.9452412E-3,-2.8882877E-3,3.0099456E-3,-6.725666E-3,-3.628311E-3,-2.191005E-3,3.4218566E-3,-4.187197E-3,-1.0548565E-4,-3.4161173E-3,-6.5149055E-3,4.884322E-3,-1.3370352E-3,-2.7481953E-4,3.0712208E-3,-5.9986115E-3,-1.7693691E-3,-6.2490566E-5,-6.7695896E-3,-5.652857E-3,-6.8390802E-3],"categories":[],"categories_nodes":[],"categories_segments":[],"categories_sizes":[],"default_left":[0,0,0,0,0,0,0,0,0,0,0,0,0,0,0,0,0,0,0,0,0,0,0,0,0,0,0,0,0,0,0,0,0,0,0,0,0,0,0,0,0,0,0,0,0,0,0,0,0,0,0,0,0,0,0,0,0,0,0,0,0,0,0,0,0,0,0,0,0,0,0,0,0,0,0,0,0,0,0,0,0,0,0,0,0,0,0,0,0,0,0,0,0,0,0,0,0,0,0,0,0,0,0,0,0,0,0,0,0,0,0,0,0],"id":5,"left_children":[1,3,5,7,9,11,13,15,17,19,21,23,25,27,29,31,33,35,37,39,41,43,45,47,49,51,53,55,57,-1,59,61,63,65,-1,-1,67,69,71,73,75,77,79,81,83,-1,85,-1,87,89,91,93,95,97,99,101,103,105,107,109,111,-1,-1,-1,-1,-1,-1,-1,-1,-1,-1,-1,-1,-1,-1,-1,-1,-1,-1,-1,-1,-1,-1,-1,-1,-1,-1,-1,-1,-1,-1,-1,-1,-1,-1,-1,-1,-1,-1,-1,-1,-1,-1,-1,-1,-1,-1,-1,-1,-1,-1,-1,-1],"loss_changes":[3.761369E1,4.6266556E0,4.795165E0,1.5057497E0,2.0883675E0,1.0114683E0,6.41222E-1,7.105519E-2,3.6842728E-1,7.1674156E-1,5.281633E-1,6.54912E-1,2.55077E-1,3.2038355E-1,1.6561127E-1,2.1391734E-3,2.2634804E-2,6.2015533E-2,1.6671276E-1,9.0848255E-1,4.002713E-1,3.48778E-1,1.5851596E-1,1.3759959E-1,6.5191466E-1,1.5788913E-1,1.550242E-1,1.4197075E-1,1.5850961E-1,0E0,1.3717842E-1,5.8817805E-4,1.7417595E-5,1.978162E-2,0E0,0E0,7.678032E-3,3.691101E-2,5.5719018E-2,6.1181538E-2,7.528143E-1,8.869243E-2,6.773071E-2,9.1029294E-2,3.8804078E-1,0E0,1.2524933E-1,0E0,3.6435246E-2,2.7070528E-1,5.8897454E-1,5.144638E-2,1.4175689E-1,8.263935E-2,3.3833355E-2,1.9141763E-2,1.5063184E-1,8.82278E-3,4.0100813E-2,2.0216781E-1,1.4613342E-1,0E0,0E0,0E0,0E0,0E0,0E0,0E0,0E0,0E0,0E0,0E0,0E0,0E0,0E0,0E0,0E0,0E0,0E0,0E0,0E0,0E0,0E0,0E0,0E0,0E0,0E0,0E0,0E0,0E0,0E0,0E0,0E0,0E0,0E0,0E0,0E0,0E0,0E0,0E0,0E0,0E0,0E0,0E0,0E0,0E0,0E0,0E0,0E0,0E0,0E0,0E0,0E0],"parents":[2147483647,0,0,1,1,2,2,3,3,4,4,5,5,6,6,7,7,8,8,9,9,10,10,11,11,12,12,13,13,14,14,15,15,16,16,17,17,18,18,19,19,20,20,21,21,22,22,23,23,24,24,25,25,26,26,27,27,28,28,30,30,31,31,32,32,33,33,36,36,37,37,38,38,39,39,40,40,41,41,42,42,43,43,44,44,46,46,48,48,49,49,50,50,51,51,52,52,53,53,54,54,55,55,56,56,57,57,58,58,59,59,60,60],"right_children":[2,4,6,8,10,12,14,16,18,20,22,24,26,28,30,32,34,36,38,40,42,44,46,48,50,52,54,56,58,-1,60,62,64,66,-1,-1,68,70,72,74,76,78,80,82,84,-1,86,-1,88,90,92,94,96,98,100,102,104,106,108,110,112,-1,-1,-1,-1,-1,-1,-1,-1,-1,-1,-1,-1,-1,-1,-1,-1,-1,-1,-1,-1,-1,-1,-1,-1,-1,-1,-1,-1,-1,-1,-1,-1,-1,-1,-1,-1,-1,-1,-1,-1,-1,-1,-1,-1,-1,-1,-1,-1,-1,-1,-1,-1],"split_conditions":[-4.254025E-1,-1.1096957E0,-2.5347638E-1,-1.7262693E-1,-4.6284673E-1,6.965367E-1,-3.8794637E-1,-3.505143E-1,-4.4321144E-1,7.254421E-1,-2.3498239E-1,-1.5958437E0,-1.6146222E-1,-7.313423E-2,-4.6575955E-1,-3.5135955E-1,1.7218644E-2,-1.0431845E0,-8.2321584E-1,-1.3892281E0,-3.181295E-1,-1.1418295E0,-1.3699157E0,-1.5533617E0,-4.3211553E-1,2.9191688E-1,5.018106E-1,-9.676146E-2,-1.0259418E0,3.32377E-3,-1.0573136E0,-4.3916205E-1,-5.358971E-1,-1.049987E0,2.0682577E-3,5.6421724E-3,-2.0793426E-1,-1.3179742E0,-2.4815178E-1,-5.5978054E-1,-8.6727816E-1,1.1477222E0,-6.055469E-1,-7.7057236E-1,-8.1544644E-1,5.9205787E-3,1.0872843E-1,3.6651578E-3,-3.962114E-1,-3.9318612E-1,-9.59234E-1,5.469728E-1,-4.4401586E-2,-1.5262353E-1,1.8930496E-1,2.1226712E-1,-1.8311189E-1,5.8366694E-2,-4.2519212E-1,-5.312915E-1,2.6327974E-1,1.2478084E-4,8.0449966E-4,1.813964E-3,7.1760564E-4,3.4154654E-3,7.2786906E-3,1.5921399E-2,7.6209824E-3,1.5351172E-2,1.1498056E-2,9.845701E-3,5.583461E-3,-3.3012347E-3,1.0830356E-3,1.451341E-2,6.9585266E-3,6.065006E-3,-1.2671484E-3,-1.4582856E-3,1.7605094E-3,-4.3507717E-3,4.5744306E-4,6.984164E-3,2.7912904E-3,-2.771323E-3,7.5332006E-4,-2.9976843E-3,-5.920827E-3,6.154411E-3,1.7377234E-3,2.0970674E-3,-1.9452412E-3,-2.8882877E-3,3.0099456E-3,-6.725666E-3,-3.628311E-3,-2.191005E-3,3.4218566E-3,-4.187197E-3,-1.0548565E-4,-3.4161173E-3,-6.5149055E-3,4.884322E-3,-1.3370352E-3,-2.7481953E-4,3.0712208E-3,-5.9986115E-3,-1.7693691E-3,-6.2490566E-5,-6.7695896E-3,-5.652857E-3,-6.8390802E-3],"split_indices":[5,1,5,8,5,10,1,7,0,8,2,8,0,5,2,7,3,3,9,8,7,8,9,9,6,8,8,8,1,0,4,5,3,6,0,0,9,9,2,3,10,10,4,3,1,0,4,0,5,2,9,1,4,3,6,6,2,0,1,3,0,0,0,0,0,0,0,0,0,0,0,0,0,0,0,0,0,0,0,0,0,0,0,0,0,0,0,0,0,0,0,0,0,0,0,0,0,0,0,0,0,0,0,0,0,0,0,0,0,0,0,0,0],"split_type":[0,0,0,0,0,0,0,0,0,0,0,0,0,0,0,0,0,0,0,0,0,0,0,0,0,0,0,0,0,0,0,0,0,0,0,0,0,0,0,0,0,0,0,0,0,0,0,0,0,0,0,0,0,0,0,0,0,0,0,0,0,0,0,0,0,0,0,0,0,0,0,0,0,0,0,0,0,0,0,0,0,0,0,0,0,0,0,0,0,0,0,0,0,0,0,0,0,0,0,0,0,0,0,0,0,0,0,0,0,0,0,0,0],"sum_hessian":[4.264E3,1.699E3,2.565E3,2.86E2,1.413E3,1.098E3,1.467E3,4.7E1,2.39E2,8.57E2,5.56E2,6.85E2,4.13E2,2.58E2,1.209E3,2E1,2.7E1,1.05E2,1.34E2,6.72E2,1.85E2,4.45E2,1.11E2,7.1E1,6.14E2,3.55E2,5.8E1,1.39E2,1.19E2,4E0,1.205E3,1.3E1,7E0,2E1,7E0,3E0,1.02E2,8.1E1,5.3E1,4.7E1,6.25E2,9E1,9.5E1,6.5E1,3.8E2,7E0,1.04E2,4E0,6.7E1,1.92E2,4.22E2,1.94E2,1.61E2,3.3E1,2.5E1,4.5E1,9.4E1,7E0,1.12E2,4.4E1,1.161E3,6E0,7E0,5E0,2E0,9E0,1.1E1,9.9E1,3E0,2.3E1,5.8E1,3.7E1,1.6E1,9E0,3.8E1,3.5E1,5.9E2,8.6E1,4E0,2E1,7.5E1,1.1E1,5.4E1,6.7E1,3.13E2,6.3E1,4.1E1,1.8E1,4.9E1,4.5E1,1.47E2,1.29E2,2.93E2,1.91E2,3E0,6.6E1,9.5E1,8E0,2.5E1,1.8E1,7E0,3.8E1,7E0,1E1,8.4E1,3E0,4E0,1.05E2,7E0,2.3E1,2.1E1,5.23E2,6.38E2],"tree_param":{"num_deleted":"0","num_feature":"11","num_nodes":"113","size_leaf_vector":"1"}},{"base_weights":[1.1214817E-4,9.373324E-2,-8.5043706E-2,2.0791136E-1,7.082881E-2,-4.3213174E-2,-1.0988426E-1,7.121907E-2,2.4194773E-1,1.1533619E-1,2.479562E-2,-1.9775331E-2,-7.356978E-2,-3.0008098E-3,-1.13837756E-1,1.3313757E-2,1.0381723E-1,1.7458508E-2,2.2241822E-1,1.3984376E-1,8.289773E-2,4.7074158E-2,-6.607039E-3,2.4078751E-2,-4.6169404E-2,-4.9735628E-2,-9.407615E-2,-5.6426715E-2,4.657876E-2,-9.265759E-2,-1.22305974E-1,-8.7329897E-4,1.8087896E-2,1.2204507E-1,6.0440406E-2,2.4522226E-1,1.4077398E-1,1.6128024E-1,6.791428E-2,2.009141E-1,6.969446E-2,6.7461007E-3,7.7008046E-2,6.927141E-2,-2.467554E-2,1.4346418E-1,4.541643E-3,1.1361104E-2,-6.6186205E-2,-5.6921992E-2,8.5145116E-2,-1.1447098E-2,-1.0246181E-1,-7.9308145E-2,2.548032E-3,5.8907005E-3,2.9067677E-2,-1.4641325E-2,-9.935359E-2,-1.23855606E-1,-3.8876884E-2,1.3372186E-3,2.080021E-4,2.9129998E-3,6.778192E-3,4.5515234E-3,2.052063E-3,1.359599E-2,1.0165262E-2,4.5949533E-3,9.591895E-3,1.0811173E-3,8.537048E-3,5.6809424E-3,1.2443259E-3,6.827585E-3,1.3842764E-2,1.663912E-3,4.7084363E-3,2.274077E-3,-1.0900503E-3,8.1386445E-3,3.016414E-3,2.678585E-3,9.809363E-3,-1.8171164E-3,4.8476527E-4,9.171859E-5,8.5176965E-3,-5.2874424E-3,1.089604E-3,-4.6095788E-3,2.3436523E-3,8.995714E-3,-3.4641754E-3,-3.1526394E-3,-4.6044566E-5,8.3506556E-4,5.8291736E-3,-2.639358E-3,1.1708617E-3,-1.6900938E-3,-5.4093366E-3,-2.26323E-3,-5.6114793E-3,2.1031823E-3,-3.5796666E-3,-2.889272E-3,7.384993E-3,-5.116932E-3,2.2204036E-3,-3.523262E-3,-6.3193752E-3,1.04276165E-4,-3.79758E-3],"categories":[],"categories_nodes":[],"categories_segments":[],"categories_sizes":[],"default_left":[0,0,0,0,0,0,0,0,0,0,0,0,0,0,0,0,0,0,0,0,0,0,0,0,0,0,0,0,0,0,0,0,0,0,0,0,0,0,0,0,0,0,0,0,0,0,0,0,0,0,0,0,0,0,0,0,0,0,0,0,0,0,0,0,0,0,0,0,0,0,0,0,0,0,0,0,0,0,0,0,0,0,0,0,0,0,0,0,0,0,0,0,0,0,0,0,0,0,0,0,0,0,0,0,0,0,0,0,0,0,0,0,0,0,0],"id":6,"left_children":[1,3,5,7,9,11,13,15,17,19,21,23,25,27,29,31,33,-1,35,37,39,41,43,45,47,49,51,53,55,57,59,-1,61,63,65,67,69,71,73,75,77,79,81,83,85,87,89,91,93,95,97,99,101,103,-1,-1,105,107,109,111,113,-1,-1,-1,-1,-1,-1,-1,-1,-1,-1,-1,-1,-1,-1,-1,-1,-1,-1,-1,-1,-1,-1,-1,-1,-1,-1,-1,-1,-1,-1,-1,-1,-1,-1,-1,-1,-1,-1,-1,-1,-1,-1,-1,-1,-1,-1,-1,-1,-1,-1,-1,-1,-1,-1],"loss_changes":[3.401019E1,5.2993298E0,2.3165894E0,1.559969E0,3.4678354E0,5.919306E-1,5.916691E-1,1.2886265E-1,4.898138E-1,6.728926E-1,5.837818E-1,5.474459E-1,1.727382E-1,1.377188E-1,2.3098183E-1,4.136537E-3,2.7412832E-2,0E0,3.9742088E-1,7.430439E-1,5.6720686E-1,5.885824E-1,4.7744972E-1,4.1452387E-1,3.404671E-1,1.6962802E-1,1.332494E-1,6.5471E-2,3.0255403E-2,2.0228004E-1,1.1955643E-1,0E0,2.6617632E-3,1.797098E-2,5.165316E-3,1.461525E-1,1.14644766E-1,4.9310207E-1,2.2136086E-1,1.4304185E-1,2.9722083E-1,2.3210052E-1,3.9073086E-1,1.2299022E-1,1.13032594E-1,9.489727E-2,2.952986E-1,2.8747776E-1,1.7939746E-1,5.5561602E-2,1.741875E-2,2.8620705E-2,6.552398E-2,1.8455982E-2,0E0,0E0,3.3099785E-2,2.3266503E-1,1.5860438E-1,1.1870289E-1,2.9013125E-2,0E0,0E0,0E0,0E0,0E0,0E0,0E0,0E0,0E0,0E0,0E0,0E0,0E0,0E0,0E0,0E0,0E0,0E0,0E0,0E0,0E0,0E0,0E0,0E0,0E0,0E0,0E0,0E0,0E0,0E0,0E0,0E0,0E0,0E0,0E0,0E0,0E0,0E0,0E0,0E0,0E0,0E0,0E0,0E0,0E0,0E0,0E0,0E0,0E0,0E0,0E0,0E0,0E0,0E0],"parents":[2147483647,0,0,1,1,2,2,3,3,4,4,5,5,6,6,7,7,8,8,9,9,10,10,11,11,12,12,13,13,14,14,15,15,16,16,18,18,19,19,20,20,21,21,22,22,23,23,24,24,25,25,26,26,27,27,28,28,29,29,30,30,32,32,33,33,34,34,35,35,36,36,37,37,38,38,39,39,40,40,41,41,42,42,43,43,44,44,45,45,46,46,47,47,48,48,49,49,50,50,51,51,52,52,53,53,56,56,57,57,58,58,59,59,60,60],"right_children":[2,4,6,8,10,12,14,16,18,20,22,24,26,28,30,32,34,-1,36,38,40,42,44,46,48,50,52,54,56,58,60,-1,62,64,66,68,70,72,74,76,78,80,82,84,86,88,90,92,94,96,98,100,102,104,-1,-1,106,108,110,112,114,-1,-1,-1,-1,-1,-1,-1,-1,-1,-1,-1,-1,-1,-1,-1,-1,-1,-1,-1,-1,-1,-1,-1,-1,-1,-1,-1,-1,-1,-1,-1,-1,-1,-1,-1,-1,-1,-1,-1,-1,-1,-1,-1,-1,-1,-1,-1,-1,-1,-1,-1,-1,-1,-1],"split_conditions":[-3.9480102E-1,-1.0900109E0,-2.3847105E-1,-6.756561E-2,-4.622625E-1,6.13564E-1,-9.0683025E-1,-3.505143E-1,-4.4275352E-1,-4.6342507E-1,-2.7427974E-1,-1.8180974E-1,4.4599837E-1,2.3175366E-2,-1.2657724E-1,-4.638942E-1,-4.5553923E-1,1.7458508E-2,-4.4842726E-1,7.326014E-1,-8.4535176E-1,-6.1878874E-3,-5.6876296E-1,-3.3697644E-1,-1.2915533E0,5.230797E-1,-4.638942E-1,4.501222E-1,-1.2652244E-1,-3.719957E-1,7.729154E0,-8.7329897E-4,-1.0573136E0,-4.7011074E-1,-2.767482E-1,-6.6965E-1,-9.476035E-1,-1.3892281E0,-4.192737E-1,8.3518255E-1,-8.773543E-1,-4.412356E-1,-8.1544644E-1,-1.870378E-1,4.262578E-1,-3.775091E-1,-1.2509685E0,-3.4377098E-1,-1.1889263E0,-1.1341061E-1,-3.2429928E-1,3.0196506E-1,-3.695579E-1,1.0364008E-1,2.548032E-3,5.8907005E-3,-6.45631E-1,-2.4507926E-1,1.7150412E0,-2.1599526E0,2.1582866E0,1.3372186E-3,2.080021E-4,2.9129998E-3,6.778192E-3,4.5515234E-3,2.052063E-3,1.359599E-2,1.0165262E-2,4.5949533E-3,9.591895E-3,1.0811173E-3,8.537048E-3,5.6809424E-3,1.2443259E-3,6.827585E-3,1.3842764E-2,1.663912E-3,4.7084363E-3,2.274077E-3,-1.0900503E-3,8.1386445E-3,3.016414E-3,2.678585E-3,9.809363E-3,-1.8171164E-3,4.8476527E-4,9.171859E-5,8.5176965E-3,-5.2874424E-3,1.089604E-3,-4.6095788E-3,2.3436523E-3,8.995714E-3,-3.4641754E-3,-3.1526394E-3,-4.6044566E-5,8.3506556E-4,5.8291736E-3,-2.639358E-3,1.1708617E-3,-1.6900938E-3,-5.4093366E-3,-2.26323E-3,-5.6114793E-3,2.1031823E-3,-3.5796666E-3,-2.889272E-3,7.384993E-3,-5.116932E-3,2.2204036E-3,-3.523262E-3,-6.3193752E-3,1.04276165E-4,-3.79758E-3],"split_indices":[5,1,5,8,5,9,1,7,2,0,7,6,8,8,1,2,6,0,5,8,10,8,9,7,10,1,2,4,6,2,7,0,4,0,4,3,4,8,2,3,6,5,1,8,4,4,8,7,1,6,7,1,5,5,0,0,9,1,6,9,5,0,0,0,0,0,0,0,0,0,0,0,0,0,0,0,0,0,0,0,0,0,0,0,0,0,0,0,0,0,0,0,0,0,0,0,0,0,0,0,0,0,0,0,0,0,0,0,0,0,0,0,0,0,0],"split_type":[0,0,0,0,0,0,0,0,0,0,0,0,0,0,0,0,0,0,0,0,0,0,0,0,0,0,0,0,0,0,0,0,0,0,0,0,0,0,0,0,0,0,0,0,0,0,0,0,0,0,0,0,0,0,0,0,0,0,0,0,0,0,0,0,0,0,0,0,0,0,0,0,0,0,0,0,0,0,0,0,0,0,0,0,0,0,0,0,0,0,0,0,0,0,0,0,0,0,0,0,0,0,0,0,0,0,0,0,0,0,0,0,0,0,0],"sum_hessian":[4.264E3,2.031E3,2.233E3,3.38E2,1.693E3,8.33E2,1.4E3,6.8E1,2.7E2,8.6E2,8.33E2,4.71E2,3.62E2,5E1,1.35E3,2.5E1,4.3E1,3.9E1,2.31E2,4.88E2,3.72E2,4.87E2,3.46E2,1.77E2,2.94E2,1.69E2,1.93E2,2.4E1,2.6E1,3.89E2,9.61E2,3E0,2.2E1,2.9E1,1.4E1,1.79E2,5.2E1,3.75E2,1.13E2,3.6E1,3.36E2,2.08E2,2.79E2,6.6E1,2.8E2,2.4E1,1.53E2,7.6E1,2.18E2,1.61E2,8E0,1.8E1,1.75E2,2E1,4E0,4E0,2.2E1,3.1E1,3.58E2,9.43E2,1.8E1,1.3E1,9E0,6E0,2.3E1,4E0,1E1,1.06E2,7.3E1,2.8E1,2.4E1,2.4E1,3.51E2,5.4E1,5.9E1,2.1E1,1.5E1,1.36E2,2E2,8.8E1,1.2E2,4.4E1,2.35E2,6E1,6E0,2.09E2,7.1E1,4E0,2E1,2E1,1.33E2,1.9E1,5.7E1,2E0,2.16E2,1.45E2,1.6E1,3E0,5E0,8E0,1E1,1.4E1,1.61E2,1.1E1,9E0,2E1,2E0,2.5E1,6E0,3.51E2,7E0,4.4E1,8.99E2,9E0,9E0],"tree_param":{"num_deleted":"0","num_feature":"11","num_nodes":"115","size_leaf_vector":"1"}},{"base_weights":[1.3682785E-4,1.1161942E-1,-6.458839E-2,2.1793471E-1,8.872171E-2,-1.3451663E-2,-9.874497E-2,7.468341E-2,2.397081E-1,1.2878905E-1,6.1964657E-2,5.3940892E-2,-2.7501836E-2,-4.7464974E-2,-1.0884438E-1,2.6067773E-2,1.2725258E-1,1.6509641E-2,2.2212163E-1,1.4752619E-1,6.5039694E-2,8.091126E-2,1.6071452E-2,-6.029755E-3,1.4160894E-1,-3.403893E-2,9.985367E-2,-7.23257E-3,-9.628259E-2,5.0506897E-2,-1.0971191E-1,4.0837746E-2,5.7370276E-3,8.6127315E-3,3.155558E-3,2.7711546E-1,1.983767E-1,2.1857724E-2,1.6073048E-1,1.10330485E-1,2.302993E-2,2.7738541E-2,1.06988765E-1,6.098821E-2,-7.6918514E-3,3.4860216E-2,-5.931401E-2,1.3470358E-2,1.1096157E-1,-2.0887878E-2,-5.324903E-2,1.3311884E-2,1.5384991E-1,-4.9472615E-2,1.6162796E-2,1.8283693E-2,-1.0565206E-1,4.63744E-4,3.1352544E-3,-9.8545365E-2,-1.2021585E-1,1.0264091E-3,2.8862974E-3,-6.205329E-4,1.803061E-3,1.4732395E-2,9.620619E-3,1.0521053E-2,6.0462872E-3,-1.1841818E-4,3.524604E-3,9.207652E-3,6.1082738E-3,6.7835423E-4,5.8688703E-3,-2.3912205E-3,2.5127446E-3,-9.71717E-4,2.7695436E-3,7.13445E-3,3.1100942E-3,9.3877055E-3,1.6587205E-3,1.6810358E-4,-2.3492456E-3,-4.3213132E-4,2.8926597E-3,3.232764E-3,-3.743543E-3,1.8124817E-3,6.781208E-3,-4.414583E-3,-6.086614E-4,-3.0421526E-3,6.917006E-4,5.0296984E-3,-1.3998074E-3,8.215237E-3,7.7214785E-4,-3.1945638E-3,-9.639217E-6,2.9293294E-3,-1.2019412E-3,2.8508992E-3,-8.521081E-4,-5.6798956E-3,-2.7283258E-3,-5.034677E-3,7.8088837E-4,-2.564377E-3,-6.126135E-3],"categories":[],"categories_nodes":[],"categories_segments":[],"categories_sizes":[],"default_left":[0,0,0,0,0,0,0,0,0,0,0,0,0,0,0,0,0,0,0,0,0,0,0,0,0,0,0,0,0,0,0,0,0,0,0,0,0,0,0,0,0,0,0,0,0,0,0,0,0,0,0,0,0,0,0,0,0,0,0,0,0,0,0,0,0,0,0,0,0,0,0,0,0,0,0,0,0,0,0,0,0,0,0,0,0,0,0,0,0,0,0,0,0,0,0,0,0,0,0,0,0,0,0,0,0,0,0,0,0,0,0],"id":7,"left_children":[1,3,5,7,9,11,13,15,17,19,21,23,25,27,29,31,33,-1,35,37,39,41,43,45,47,49,51,53,55,57,59,61,63,-1,-1,65,67,69,71,73,75,77,79,81,83,85,87,-1,89,91,93,95,97,99,101,103,105,-1,-1,107,109,-1,-1,-1,-1,-1,-1,-1,-1,-1,-1,-1,-1,-1,-1,-1,-1,-1,-1,-1,-1,-1,-1,-1,-1,-1,-1,-1,-1,-1,-1,-1,-1,-1,-1,-1,-1,-1,-1,-1,-1,-1,-1,-1,-1,-1,-1,-1,-1,-1,-1],"loss_changes":[3.0782322E1,3.7953339E0,4.7128954E0,8.460789E-1,1.3760796E0,1.0260044E0,8.3279324E-1,9.37988E-2,3.0857086E-1,6.0675716E-1,6.734474E-1,9.840081E-1,7.493502E-1,5.256691E-1,1.9230461E-1,6.0716886E-3,4.108569E-2,0E0,2.1141529E-1,6.5691376E-1,2.2387505E-1,7.582822E-1,2.438296E-1,2.4609236E-1,2.6777375E-1,2.1438372E-1,2.0356092E-1,1.4705639E-1,1.3181615E-1,3.4420658E-3,1.4579582E-1,2.9308945E-3,5.950682E-3,0E0,0E0,3.0923843E-2,1.10750675E-1,4.6117537E-2,3.0268764E-1,3.7274957E-2,1.2393083E-1,2.3848453E-1,5.795207E-1,2.7231285E-1,6.530934E-2,6.4516634E-2,9.9340856E-2,0E0,1.11166835E-1,2.973246E-1,1.7710447E-1,6.771436E-2,3.6532164E-2,3.7646785E-2,1.6513683E-1,1.4654931E-2,3.9264202E-2,0E0,0E0,1.6269732E-1,1.0311413E-1,0E0,0E0,0E0,0E0,0E0,0E0,0E0,0E0,0E0,0E0,0E0,0E0,0E0,0E0,0E0,0E0,0E0,0E0,0E0,0E0,0E0,0E0,0E0,0E0,0E0,0E0,0E0,0E0,0E0,0E0,0E0,0E0,0E0,0E0,0E0,0E0,0E0,0E0,0E0,0E0,0E0,0E0,0E0,0E0,0E0,0E0,0E0,0E0,0E0,0E0],"parents":[2147483647,0,0,1,1,2,2,3,3,4,4,5,5,6,6,7,7,8,8,9,9,10,10,11,11,12,12,13,13,14,14,15,15,16,16,18,18,19,19,20,20,21,21,22,22,23,23,24,24,25,25,26,26,27,27,28,28,29,29,30,30,31,31,32,32,35,35,36,36,37,37,38,38,39,39,40,40,41,41,42,42,43,43,44,44,45,45,46,46,48,48,49,49,50,50,51,51,52,52,53,53,54,54,55,55,56,56,59,59,60,60],"right_children":[2,4,6,8,10,12,14,16,18,20,22,24,26,28,30,32,34,-1,36,38,40,42,44,46,48,50,52,54,56,58,60,62,64,-1,-1,66,68,70,72,74,76,78,80,82,84,86,88,-1,90,92,94,96,98,100,102,104,106,-1,-1,108,110,-1,-1,-1,-1,-1,-1,-1,-1,-1,-1,-1,-1,-1,-1,-1,-1,-1,-1,-1,-1,-1,-1,-1,-1,-1,-1,-1,-1,-1,-1,-1,-1,-1,-1,-1,-1,-1,-1,-1,-1,-1,-1,-1,-1,-1,-1,-1,-1,-1,-1],"split_conditions":[-4.3528482E-1,-1.0900109E0,-2.891844E-1,-6.756561E-2,-4.6342507E-1,-9.0683025E-1,-4.5781654E-1,-2.9926798E-1,-4.4275352E-1,7.326014E-1,-2.732352E-1,-1.7262693E-1,2.2594476E0,-9.874599E-2,-4.6575955E-1,-1.1935118E0,-2.4224317E-1,1.6509641E-2,-1.197451E0,-1.3311917E0,-4.192737E-1,-3.546914E-1,-2.441295E-1,-3.2833454E-1,-4.3197677E-1,7.543653E-1,-1.7665024E-1,-5.5645384E-2,-1.0259418E0,-2.5838545E-1,2.6327974E-1,-1.2372812E0,-3.881795E-1,8.6127315E-3,3.155558E-3,-9.757768E-1,-4.4842726E-1,4.5580283E-2,-8.175765E-3,-1.9746878E0,-8.5140663E-1,-4.4566163E-1,-6.768021E-2,-4.7727114E-1,-1.6862127E-1,-3.50821E-1,-4.1905016E-1,1.3470358E-2,-9.100062E-1,-1.5958437E0,-1.6750003E-1,5.230797E-1,1.5725482E0,4.7212604E-2,2.4439973E-1,-1.1341061E-1,1.6782503E-1,4.63744E-4,3.1352544E-3,3.3792615E0,-4.4072708E-1,1.0264091E-3,2.8862974E-3,-6.205329E-4,1.803061E-3,1.4732395E-2,9.620619E-3,1.0521053E-2,6.0462872E-3,-1.1841818E-4,3.524604E-3,9.207652E-3,6.1082738E-3,6.7835423E-4,5.8688703E-3,-2.3912205E-3,2.5127446E-3,-9.71717E-4,2.7695436E-3,7.13445E-3,3.1100942E-3,9.3877055E-3,1.6587205E-3,1.6810358E-4,-2.3492456E-3,-4.3213132E-4,2.8926597E-3,3.232764E-3,-3.743543E-3,1.8124817E-3,6.781208E-3,-4.414583E-3,-6.086614E-4,-3.0421526E-3,6.917006E-4,5.0296984E-3,-1.3998074E-3,8.215237E-3,7.7214785E-4,-3.1945638E-3,-9.639217E-6,2.9293294E-3,-1.2019412E-3,2.8508992E-3,-8.521081E-4,-5.6798956E-3,-2.7283258E-3,-5.034677E-3,7.8088837E-4,-2.564377E-3,-6.126135E-3],"split_indices":[5,1,5,8,0,1,1,7,2,8,7,8,6,5,2,6,7,0,9,8,2,8,8,0,2,9,4,8,1,5,0,6,2,0,0,4,5,3,3,9,3,0,1,5,1,7,5,0,6,8,0,1,1,2,2,6,7,0,0,1,6,0,0,0,0,0,0,0,0,0,0,0,0,0,0,0,0,0,0,0,0,0,0,0,0,0,0,0,0,0,0,0,0,0,0,0,0,0,0,0,0,0,0,0,0,0,0,0,0,0,0],"split_type":[0,0,0,0,0,0,0,0,0,0,0,0,0,0,0,0,0,0,0,0,0,0,0,0,0,0,0,0,0,0,0,0,0,0,0,0,0,0,0,0,0,0,0,0,0,0,0,0,0,0,0,0,0,0,0,0,0,0,0,0,0,0,0,0,0,0,0,0,0,0,0,0,0,0,0,0,0,0,0,0,0,0,0,0,0,0,0,0,0,0,0,0,0,0,0,0,0,0,0,0,0,0,0,0,0,0,0,0,0,0,0],"sum_hessian":[4.264E3,1.566E3,2.698E3,2.76E2,1.29E3,1.081E3,1.617E3,3.7E1,2.39E2,5.15E2,7.75E2,1.86E2,8.95E2,2.67E2,1.35E3,2E1,1.7E1,3.6E1,2.03E2,3.97E2,1.18E2,5.48E2,2.27E2,1.11E2,7.5E1,8.52E2,4.3E1,1.47E2,1.2E2,7E0,1.343E3,1.1E1,9E0,9E0,8E0,5.8E1,1.45E2,3.8E1,3.59E2,5.6E1,6.2E1,1.81E2,3.67E2,7.8E1,1.49E2,6.3E1,4.8E1,1.3E1,6.2E1,5.07E2,3.45E2,1.7E1,2.6E1,5.2E1,9.5E1,9E0,1.11E2,2E0,5E0,6.56E2,6.87E2,6E0,5E0,6E0,3E0,4.6E1,1.2E1,1.24E2,2.1E1,2.6E1,1.2E1,2.21E2,1.38E2,4E0,5.2E1,1.7E1,4.5E1,6.7E1,1.14E2,2.03E2,1.64E2,1.3E1,6.5E1,1.17E2,3.2E1,2.2E1,4.1E1,5E0,4.3E1,1.6E1,4.6E1,5.7E1,4.5E2,3.1E2,3.5E1,5E0,1.2E1,2.4E1,2E0,4E1,1.2E1,4.6E1,4.9E1,4E0,5E0,9.5E1,1.6E1,6.44E2,1.2E1,2.3E1,6.64E2],"tree_param":{"num_deleted":"0","num_feature":"11","num_nodes":"111","size_leaf_vector":"1"}},{"base_weights":[1.6107968E-4,8.4861845E-2,-7.688105E-2,1.8822016E-1,6.4127885E-2,-3.920497E-2,-9.925433E-2,6.5093555E-2,2.1887518E-1,1.03096895E-1,2.106637E-2,-1.7877365E-2,-6.682873E-2,-1.1734952E-3,-1.028834E-1,1.2110934E-2,9.4922066E-2,1.5813958E-2,2.0113797E-1,1.1660652E-1,5.504986E-2,4.490031E-2,-3.7235683E-3,2.3160066E-2,-4.2578332E-2,-4.440328E-2,-8.613541E-2,-5.061189E-2,4.464626E-2,-8.3413705E-2,-1.1066957E-1,-8.2199037E-4,1.6549718E-2,1.1156699E-1,5.5304084E-2,2.2162773E-1,1.2775508E-1,7.717164E-2,1.4529964E-1,1.0039983E-1,1.3531138E-2,7.5861514E-3,7.5712964E-2,7.873468E-2,-1.6694477E-2,1.3742654E-1,4.4599245E-3,1.0486297E-2,-6.104134E-2,-5.1096786E-2,8.101349E-2,-2.3209818E-2,-9.573574E-2,-7.17636E-2,2.417382E-3,-7.827103E-4,6.740423E-2,-9.618172E-3,-8.975923E-2,-1.1213199E-1,-3.21854E-2,1.2402394E-3,1.6688235E-4,2.652919E-3,6.199169E-3,4.253756E-3,1.8372079E-3,1.2331119E-2,9.124593E-3,7.5950697E-3,2.088699E-3,2.0716123E-3,6.0969773E-3,1.35773E-2,6.6603944E-3,3.995317E-3,7.5462437E-3,5.5710627E-3,3.2004574E-4,2.4840487E-3,-9.600438E-4,7.124249E-4,5.056845E-3,-2.2465175E-3,4.7564427E-3,-2.3713259E-3,-1.8322284E-5,2.2470062E-3,8.915301E-3,-4.255673E-3,1.1239451E-3,-4.298884E-3,2.178447E-3,8.534014E-3,-3.1981785E-3,-2.8446426E-3,8.434323E-5,7.7781215E-4,5.5574705E-3,-2.5789298E-3,8.2746847E-4,-3.7058473E-3,-5.7743597E-3,-1.8843719E-3,-4.9657896E-3,-1.974551E-4,3.9609522E-4,3.9658863E-3,-9.301237E-4,-2.5551347E-3,7.2920616E-3,-4.631093E-3,2.3708143E-3,-3.1566825E-3,-5.722866E-3,3.261438E-4,-3.3837573E-3],"categories":[],"categories_nodes":[],"categories_segments":[],"categories_sizes":[],"default_left":[0,0,0,0,0,0,0,0,0,0,0,0,0,0,0,0,0,0,0,0,0,0,0,0,0,0,0,0,0,0,0,0,0,0,0,0,0,0,0,0,0,0,0,0,0,0,0,0,0,0,0,0,0,0,0,0,0,0,0,0,0,0,0,0,0,0,0,0,0,0,0,0,0,0,0,0,0,0,0,0,0,0,0,0,0,0,0,0,0,0,0,0,0,0,0,0,0,0,0,0,0,0,0,0,0,0,0,0,0,0,0,0,0,0,0,0,0],"id":8,"left_children":[1,3,5,7,9,11,13,15,17,19,21,23,25,27,29,31,33,-1,35,37,39,41,43,45,47,49,51,53,55,57,59,-1,61,63,65,67,69,71,73,75,77,79,81,83,85,87,89,91,93,95,97,99,101,103,-1,105,107,109,111,113,115,-1,-1,-1,-1,-1,-1,-1,-1,-1,-1,-1,-1,-1,-1,-1,-1,-1,-1,-1,-1,-1,-1,-1,-1,-1,-1,-1,-1,-1,-1,-1,-1,-1,-1,-1,-1,-1,-1,-1,-1,-1,-1,-1,-1,-1,-1,-1,-1,-1,-1,-1,-1,-1,-1,-1,-1],"loss_changes":[2.7837898E1,4.34256E0,1.8792305E0,1.2652922E0,2.8404703E0,4.901551E-1,4.9855423E-1,1.0789749E-1,4.0458298E-1,5.7062817E-1,4.7638577E-1,4.7943565E-1,1.533401E-1,1.1778765E-1,1.9557285E-1,3.5670688E-3,2.2845209E-2,0E0,3.2052135E-1,7.7292347E-1,3.695674E-1,4.7197205E-1,4.2485955E-1,3.7973738E-1,2.8966123E-1,1.4685073E-1,1.1497462E-1,5.5798672E-2,2.7967274E-2,1.8176222E-1,1.06806755E-1,0E0,2.4257423E-3,1.52156055E-2,5.1622093E-3,1.3106728E-1,1.03689194E-1,4.6534085E-1,5.744448E-1,8.527106E-2,7.1876556E-2,2.1181421E-1,3.501594E-1,1.1375308E-1,1.7209788E-1,8.650687E-2,2.5047243E-1,2.4947473E-1,1.5921175E-1,4.965782E-2,1.6024463E-2,3.1307418E-2,6.317687E-2,1.5973367E-2,0E0,3.0690662E-4,1.991903E-2,2.1382597E-1,1.4536524E-1,1.0033035E-1,2.6542624E-2,0E0,0E0,0E0,0E0,0E0,0E0,0E0,0E0,0E0,0E0,0E0,0E0,0E0,0E0,0E0,0E0,0E0,0E0,0E0,0E0,0E0,0E0,0E0,0E0,0E0,0E0,0E0,0E0,0E0,0E0,0E0,0E0,0E0,0E0,0E0,0E0,0E0,0E0,0E0,0E0,0E0,0E0,0E0,0E0,0E0,0E0,0E0,0E0,0E0,0E0,0E0,0E0,0E0,0E0,0E0,0E0],"parents":[2147483647,0,0,1,1,2,2,3,3,4,4,5,5,6,6,7,7,8,8,9,9,10,10,11,11,12,12,13,13,14,14,15,15,16,16,18,18,19,19,20,20,21,21,22,22,23,23,24,24,25,25,26,26,27,27,28,28,29,29,30,30,32,32,33,33,34,34,35,35,36,36,37,37,38,38,39,39,40,40,41,41,42,42,43,43,44,44,45,45,46,46,47,47,48,48,49,49,50,50,51,51,52,52,53,53,55,55,56,56,57,57,58,58,59,59,60,60],"right_children":[2,4,6,8,10,12,14,16,18,20,22,24,26,28,30,32,34,-1,36,38,40,42,44,46,48,50,52,54,56,58,60,-1,62,64,66,68,70,72,74,76,78,80,82,84,86,88,90,92,94,96,98,100,102,104,-1,106,108,110,112,114,116,-1,-1,-1,-1,-1,-1,-1,-1,-1,-1,-1,-1,-1,-1,-1,-1,-1,-1,-1,-1,-1,-1,-1,-1,-1,-1,-1,-1,-1,-1,-1,-1,-1,-1,-1,-1,-1,-1,-1,-1,-1,-1,-1,-1,-1,-1,-1,-1,-1,-1,-1,-1,-1,-1,-1,-1],"split_conditions":[-3.9480102E-1,-1.0900109E0,-2.3847105E-1,-6.756561E-2,-4.609328E-1,6.13564E-1,-9.0683025E-1,-3.505143E-1,-4.4275352E-1,7.254421E-1,-2.9507914E-1,-1.8180974E-1,4.4599837E-1,2.3175366E-2,-1.2657724E-1,-4.638942E-1,-4.5553923E-1,1.5813958E-2,-4.4842726E-1,-2.6626852E-1,-3.181295E-1,-6.1878874E-3,-8.9341444E-1,-3.3697644E-1,-1.2915533E0,5.230797E-1,-4.5767635E-1,4.501222E-1,-8.3982897E-1,-3.719957E-1,7.729154E0,-8.2199037E-4,-1.0573136E0,-4.7011074E-1,-2.767482E-1,-6.6965E-1,-5.086024E-1,-3.6546758E-1,-7.158705E-1,1.0057341E0,-4.192737E-1,-4.412356E-1,-3.4225863E-1,-8.0120945E-1,-4.1529444E-1,-3.0160698E-1,-7.0173603E-1,-3.4377098E-1,-1.1889263E0,-1.1341061E-1,-3.2429928E-1,7.9760474E-1,2.6582056E-1,2.0210315E-1,2.417382E-3,3.2325733E-2,-9.2336863E-1,-2.4507926E-1,1.7150412E0,-2.1599526E0,2.1582866E0,1.2402394E-3,1.6688235E-4,2.652919E-3,6.199169E-3,4.253756E-3,1.8372079E-3,1.2331119E-2,9.124593E-3,7.5950697E-3,2.088699E-3,2.0716123E-3,6.0969773E-3,1.35773E-2,6.6603944E-3,3.995317E-3,7.5462437E-3,5.5710627E-3,3.2004574E-4,2.4840487E-3,-9.600438E-4,7.124249E-4,5.056845E-3,-2.2465175E-3,4.7564427E-3,-2.3713259E-3,-1.8322284E-5,2.2470062E-3,8.915301E-3,-4.255673E-3,1.1239451E-3,-4.298884E-3,2.178447E-3,8.534014E-3,-3.1981785E-3,-2.8446426E-3,8.434323E-5,7.7781215E-4,5.5574705E-3,-2.5789298E-3,8.2746847E-4,-3.7058473E-3,-5.7743597E-3,-1.8843719E-3,-4.9657896E-3,-1.974551E-4,3.9609522E-4,3.9658863E-3,-9.301237E-4,-2.5551347E-3,7.2920616E-3,-4.631093E-3,2.3708143E-3,-3.1566825E-3,-5.722866E-3,3.261438E-4,-3.3837573E-3],"split_indices":[5,1,5,8,5,9,1,7,2,8,7,6,8,8,1,2,6,0,5,8,7,8,9,7,10,1,2,4,3,2,7,0,4,0,4,3,9,2,10,6,2,5,7,3,4,4,8,7,1,6,7,1,1,6,0,0,1,1,6,9,5,0,0,0,0,0,0,0,0,0,0,0,0,0,0,0,0,0,0,0,0,0,0,0,0,0,0,0,0,0,0,0,0,0,0,0,0,0,0,0,0,0,0,0,0,0,0,0,0,0,0,0,0,0,0,0,0],"split_type":[0,0,0,0,0,0,0,0,0,0,0,0,0,0,0,0,0,0,0,0,0,0,0,0,0,0,0,0,0,0,0,0,0,0,0,0,0,0,0,0,0,0,0,0,0,0,0,0,0,0,0,0,0,0,0,0,0,0,0,0,0,0,0,0,0,0,0,0,0,0,0,0,0,0,0,0,0,0,0,0,0,0,0,0,0,0,0,0,0,0,0,0,0,0,0,0,0,0,0,0,0,0,0,0,0,0,0,0,0,0,0,0,0,0,0,0,0],"sum_hessian":[4.264E3,2.031E3,2.233E3,3.38E2,1.693E3,8.33E2,1.4E3,6.8E1,2.7E2,8.88E2,8.05E2,4.71E2,3.62E2,5E1,1.35E3,2.5E1,4.3E1,3.9E1,2.31E2,6.92E2,1.96E2,4.1E2,3.95E2,1.77E2,2.94E2,1.69E2,1.93E2,2.4E1,2.6E1,3.89E2,9.61E2,3E0,2.2E1,2.9E1,1.4E1,1.79E2,5.2E1,2.93E2,3.99E2,9.3E1,1.03E2,1.86E2,2.24E2,5.3E1,3.42E2,2.4E1,1.53E2,7.6E1,2.18E2,1.61E2,8E0,2.6E1,1.67E2,2E1,4E0,9E0,1.7E1,3.1E1,3.58E2,9.43E2,1.8E1,1.3E1,9E0,6E0,2.3E1,4E0,1E1,1.06E2,7.3E1,4E1,1.2E1,1.64E2,1.29E2,3.3E1,3.66E2,6.8E1,2.5E1,6E0,9.7E1,7.2E1,1.14E2,6.6E1,1.58E2,6E0,4.7E1,1.18E2,2.24E2,8E0,1.6E1,2.5E1,1.28E2,1.9E1,5.7E1,2E0,2.16E2,1.45E2,1.6E1,3E0,5E0,1.5E1,1.1E1,8.2E1,8.5E1,1E1,1E1,7E0,2E0,1.5E1,2E0,2.5E1,6E0,3.51E2,7E0,4.4E1,8.99E2,9E0,9E0],"tree_param":{"num_deleted":"0","num_feature":"11","num_nodes":"117","size_leaf_vector":"1"}},{"base_weights":[1.7850145E-4,1.0099846E-1,-5.8356162E-2,1.9710475E-1,8.029944E-2,-1.2228558E-2,-8.9166865E-2,6.8010226E-2,2.1672346E-1,1.17315926E-1,5.5581905E-2,4.98833E-2,-2.5177987E-2,-4.2295493E-2,-9.839881E-2,2.2890933E-2,1.1687106E-1,1.493714E-2,2.0078503E-1,1.3443801E-1,5.90646E-2,7.2997384E-2,1.340349E-2,-5.312839E-3,1.3056862E-1,-3.1220693E-2,9.254034E-2,-4.9537746E-3,-8.762011E-2,4.937779E-2,-9.920522E-2,3.2029577E-2,-5.293938E-3,7.946196E-3,2.8580006E-3,2.2286001E-1,1.501499E-1,1.802827E-2,1.4667563E-1,1.0001846E-1,2.1073576E-2,3.0511726E-2,1.0025458E-1,4.2904638E-2,-1.7534347E-2,3.231492E-2,-5.435087E-2,1.250113E-2,1.0195077E-1,-3.243867E-2,1.461233E-1,1.1406347E-2,1.4320225E-1,-4.484228E-2,1.7119607E-2,-2.1258915E-2,-1.0215231E-1,4.7747718E-4,3.053114E-3,-8.9281544E-2,-1.09415494E-1,2.1119132E-4,2.0473087E-3,-1.6708048E-3,8.560583E-4,1.1877439E-2,8.503944E-3,8.443709E-3,1.5139469E-3,-2.1863995E-4,3.158339E-3,8.433535E-3,5.5245804E-3,5.961716E-3,3.0699577E-3,-2.309306E-3,2.3467233E-3,-1.5695684E-3,2.3956564E-3,6.859726E-3,3.032998E-3,8.17085E-3,1.2468873E-3,-2.5001152E-3,9.132307E-4,-3.877068E-4,2.6744045E-3,5.7856576E-3,-3.2024812E-3,1.5960711E-3,6.2555685E-3,-3.8961638E-3,-1.3962369E-3,2.8070696E-3,8.853946E-3,4.6649096E-3,-1.3633651E-3,7.6669524E-3,5.4974336E-4,-2.9195156E-3,6.677658E-5,2.7606122E-3,-1.1061641E-3,1.525154E-3,-3.1711112E-3,-5.3722723E-3,-3.1170368E-3,-3.727134E-3,-5.213977E-3,-6.0088015E-3,-4.7924826E-3],"categories":[],"categories_nodes":[],"categories_segments":[],"categories_sizes":[],"default_left":[0,0,0,0,0,0,0,0,0,0,0,0,0,0,0,0,0,0,0,0,0,0,0,0,0,0,0,0,0,0,0,0,0,0,0,0,0,0,0,0,0,0,0,0,0,0,0,0,0,0,0,0,0,0,0,0,0,0,0,0,0,0,0,0,0,0,0,0,0,0,0,0,0,0,0,0,0,0,0,0,0,0,0,0,0,0,0,0,0,0,0,0,0,0,0,0,0,0,0,0,0,0,0,0,0,0,0,0,0,0,0],"id":9,"left_children":[1,3,5,7,9,11,13,15,17,19,21,23,25,27,29,31,33,-1,35,37,39,41,43,45,47,49,51,53,55,57,59,61,63,-1,-1,65,67,69,71,73,75,77,79,81,83,85,87,-1,89,91,93,95,97,99,101,103,105,-1,-1,107,109,-1,-1,-1,-1,-1,-1,-1,-1,-1,-1,-1,-1,-1,-1,-1,-1,-1,-1,-1,-1,-1,-1,-1,-1,-1,-1,-1,-1,-1,-1,-1,-1,-1,-1,-1,-1,-1,-1,-1,-1,-1,-1,-1,-1,-1,-1,-1,-1,-1,-1],"loss_changes":[2.5175634E1,3.1014147E0,3.8347921E0,6.8680954E-1,1.1746883E0,8.715227E-1,6.959696E-1,8.109823E-2,2.5375938E-1,5.0671005E-1,5.690379E-1,8.335016E-1,6.4024734E-1,4.531557E-1,1.6589451E-1,5.5785617E-3,3.6114246E-2,0E0,1.9456291E-1,5.6433773E-1,1.8304184E-1,6.32705E-1,2.0884828E-1,2.0841777E-1,2.3431706E-1,1.8898857E-1,1.7922428E-1,1.3107787E-1,1.1451757E-1,3.1398647E-3,1.2641048E-1,3.7939753E-3,4.3542897E-3,0E0,0E0,6.81386E-2,1.4077902E-1,3.97111E-2,2.6787663E-1,3.4978986E-2,1.1174964E-1,2.3417939E-1,4.8019385E-1,2.4925697E-1,1.3109303E-1,5.4711647E-2,8.823237E-2,0E0,9.818739E-2,1.7193061E-1,6.7712218E-3,5.9551004E-2,3.4498394E-2,3.3235766E-2,1.447285E-1,5.213108E-2,1.4163852E-2,0E0,0E0,1.4409018E-1,8.453369E-2,0E0,0E0,0E0,0E0,0E0,0E0,0E0,0E0,0E0,0E0,0E0,0E0,0E0,0E0,0E0,0E0,0E0,0E0,0E0,0E0,0E0,0E0,0E0,0E0,0E0,0E0,0E0,0E0,0E0,0E0,0E0,0E0,0E0,0E0,0E0,0E0,0E0,0E0,0E0,0E0,0E0,0E0,0E0,0E0,0E0,0E0,0E0,0E0,0E0,0E0],"parents":[2147483647,0,0,1,1,2,2,3,3,4,4,5,5,6,6,7,7,8,8,9,9,10,10,11,11,12,12,13,13,14,14,15,15,16,16,18,18,19,19,20,20,21,21,22,22,23,23,24,24,25,25,26,26,27,27,28,28,29,29,30,30,31,31,32,32,35,35,36,36,37,37,38,38,39,39,40,40,41,41,42,42,43,43,44,44,45,45,46,46,48,48,49,49,50,50,51,51,52,52,53,53,54,54,55,55,56,56,59,59,60,60],"right_children":[2,4,6,8,10,12,14,16,18,20,22,24,26,28,30,32,34,-1,36,38,40,42,44,46,48,50,52,54,56,58,60,62,64,-1,-1,66,68,70,72,74,76,78,80,82,84,86,88,-1,90,92,94,96,98,100,102,104,106,-1,-1,108,110,-1,-1,-1,-1,-1,-1,-1,-1,-1,-1,-1,-1,-1,-1,-1,-1,-1,-1,-1,-1,-1,-1,-1,-1,-1,-1,-1,-1,-1,-1,-1,-1,-1,-1,-1,-1,-1,-1,-1,-1,-1,-1,-1,-1,-1,-1,-1,-1,-1,-1],"split_conditions":[-4.3528482E-1,-1.0900109E0,-2.891844E-1,-6.756561E-2,-4.6342507E-1,-9.0683025E-1,-4.5781654E-1,-2.9926798E-1,-4.4275352E-1,7.326014E-1,-2.732352E-1,-1.7262693E-1,2.2594476E0,-9.874599E-2,-4.6575955E-1,-9.7147197E-1,-2.4224317E-1,1.493714E-2,-7.6682794E-1,-1.3311917E0,-4.192737E-1,-9.676146E-2,3.9767686E-1,-3.2833454E-1,-4.3197677E-1,3.584349E0,-1.7665024E-1,-5.5645384E-2,-9.7087955E-1,-2.5838545E-1,2.9660442E-1,-3.5135955E-1,-4.202244E-1,7.946196E-3,2.8580006E-3,-2.083408E-1,-2.4815178E-1,4.5580283E-2,-8.175765E-3,6.20894E-1,-8.5140663E-1,-1.1418295E0,-1.1161209E-1,-4.7727114E-1,-3.775091E-1,-3.50821E-1,-4.1003212E-1,1.250113E-2,-9.100062E-1,-1.6866803E0,-3.7934515E-1,5.230797E-1,-3.0828747E-1,4.7212604E-2,-7.2154546E-1,-4.3122476E-1,1.6782503E-1,4.7747718E-4,3.053114E-3,6.250841E-1,2.4433675E-1,2.1119132E-4,2.0473087E-3,-1.6708048E-3,8.560583E-4,1.1877439E-2,8.503944E-3,8.443709E-3,1.5139469E-3,-2.1863995E-4,3.158339E-3,8.433535E-3,5.5245804E-3,5.961716E-3,3.0699577E-3,-2.309306E-3,2.3467233E-3,-1.5695684E-3,2.3956564E-3,6.859726E-3,3.032998E-3,8.17085E-3,1.2468873E-3,-2.5001152E-3,9.132307E-4,-3.877068E-4,2.6744045E-3,5.7856576E-3,-3.2024812E-3,1.5960711E-3,6.2555685E-3,-3.8961638E-3,-1.3962369E-3,2.8070696E-3,8.853946E-3,4.6649096E-3,-1.3633651E-3,7.6669524E-3,5.4974336E-4,-2.9195156E-3,6.677658E-5,2.7606122E-3,-1.1061641E-3,1.525154E-3,-3.1711112E-3,-5.3722723E-3,-3.1170368E-3,-3.727134E-3,-5.213977E-3,-6.0088015E-3,-4.7924826E-3],"split_indices":[5,1,5,8,0,1,1,7,2,8,7,8,6,5,2,6,7,0,9,8,2,8,8,0,2,1,4,8,1,5,0,7,2,0,0,2,2,3,3,1,3,8,1,5,4,7,2,0,6,8,0,1,5,2,1,3,7,0,0,9,8,0,0,0,0,0,0,0,0,0,0,0,0,0,0,0,0,0,0,0,0,0,0,0,0,0,0,0,0,0,0,0,0,0,0,0,0,0,0,0,0,0,0,0,0,0,0,0,0,0,0],"split_type":[0,0,0,0,0,0,0,0,0,0,0,0,0,0,0,0,0,0,0,0,0,0,0,0,0,0,0,0,0,0,0,0,0,0,0,0,0,0,0,0,0,0,0,0,0,0,0,0,0,0,0,0,0,0,0,0,0,0,0,0,0,0,0,0,0,0,0,0,0,0,0,0,0,0,0,0,0,0,0,0,0,0,0,0,0,0,0,0,0,0,0,0,0,0,0,0,0,0,0,0,0,0,0,0,0,0,0,0,0,0,0],"sum_hessian":[4.264E3,1.566E3,2.698E3,2.76E2,1.29E3,1.081E3,1.617E3,3.7E1,2.39E2,5.15E2,7.75E2,1.86E2,8.95E2,2.67E2,1.35E3,2E1,1.7E1,3.6E1,2.03E2,3.97E2,1.18E2,5.48E2,2.27E2,1.11E2,7.5E1,8.52E2,4.3E1,1.47E2,1.2E2,7E0,1.343E3,1.5E1,5E0,9E0,8E0,1.39E2,6.4E1,3.8E1,3.59E2,5.6E1,6.2E1,2.15E2,3.33E2,1.16E2,1.11E2,6.3E1,4.8E1,1.3E1,6.2E1,8.47E2,5E0,1.7E1,2.6E1,5.2E1,9.5E1,2.2E1,9.8E1,2E0,5E0,6.86E2,6.57E2,4E0,1.1E1,2E0,3E0,1.06E2,3.3E1,5.5E1,9E0,2.6E1,1.2E1,2.21E2,1.38E2,3.6E1,2E1,1.7E1,4.5E1,4.7E1,1.68E2,1.71E2,1.62E2,1.4E1,1.02E2,5.8E1,5.3E1,2.2E1,4.1E1,2E0,4.6E1,1.6E1,4.6E1,7.5E1,7.72E2,2E0,3E0,5E0,1.2E1,2.4E1,2E0,4E1,1.2E1,4.8E1,4.7E1,1E1,1.2E1,8.5E1,1.3E1,3.49E2,3.37E2,3.62E2,2.95E2],"tree_param":{"num_deleted":"0","num_feature":"11","num_nodes":"111","size_leaf_vector":"1"}},{"base_weights":[1.971521E-4,7.681967E-2,-6.949719E-2,1.7039615E-1,5.8047984E-2,-3.919208E-2,-9.2553616E-2,5.6527603E-2,1.9720244E-1,9.127466E-2,1.670156E-2,-2.3047924E-2,-7.317124E-2,-2.4476035E-3,-9.5410965E-2,1.1479265E-2,8.3716124E-2,2.4310575E-1,1.6679259E-1,1.1457529E-1,6.470258E-2,3.8938526E-2,-6.2359655E-3,-9.597812E-2,-1.3907835E-2,-8.160332E-2,-8.522827E-3,-4.271153E-2,3.9951902E-2,-7.958427E-2,-1.0157227E-1,-7.605877E-4,1.5622082E-2,1.0380938E-1,5.7427734E-2,4.4968375E-3,2.481809E-1,2.4752373E-1,1.4887834E-1,1.3118565E-1,5.8601547E-2,1.5514003E-1,5.4033823E-2,2.7924161E-3,6.856168E-2,6.4478986E-2,-2.1368923E-2,-1.0684029E-1,-3.185872E-2,7.548405E-3,-4.5669597E-2,-6.1391838E-2,-1.01514205E-1,5.065019E-3,-3.3046685E-2,-6.632979E-2,2.3066434E-3,7.530911E-2,-2.9362217E-3,1.7169477E-2,-8.583122E-2,-1.09704666E-1,-8.363173E-2,1.1376432E-3,2.0383902E-4,3.1616304E-3,6.931887E-3,3.7026242E-3,1.6698869E-3,1.2992965E-2,9.668565E-3,1.3115957E-2,7.354407E-3,8.51203E-3,5.219366E-3,8.847139E-4,7.020347E-3,5.834202E-3,1.8491714E-3,5.0829607E-3,1.2019603E-2,1.2277354E-3,3.6148615E-3,-2.923807E-3,9.320221E-4,2.829458E-4,4.7052205E-3,1.9917868E-3,6.399061E-3,-2.426471E-3,-1.6465313E-4,-5.4990005E-4,-5.4925866E-3,-5.5331853E-4,-2.5403337E-3,3.7646391E-3,-3.5013407E-5,5.230642E-3,-2.853737E-3,-3.7995882E-3,-2.2957444E-3,-6.1310716E-3,-3.776141E-3,-2.5892742E-3,1.9299273E-3,-4.0543815E-3,9.525344E-5,4.1785007E-3,1.2711694E-3,-2.9415014E-4,2.9503007E-4,-2.499756E-3,7.0478455E-3,-4.4463747E-3,2.4567868E-3,-2.5723751E-3,-5.545055E-3,-5.0306143E-3,-2.1846227E-3],"categories":[],"categories_nodes":[],"categories_segments":[],"categories_sizes":[],"default_left":[0,0,0,0,0,0,0,0,0,0,0,0,0,0,0,0,0,0,0,0,0,0,0,0,0,0,0,0,0,0,0,0,0,0,0,0,0,0,0,0,0,0,0,0,0,0,0,0,0,0,0,0,0,0,0,0,0,0,0,0,0,0,0,0,0,0,0,0,0,0,0,0,0,0,0,0,0,0,0,0,0,0,0,0,0,0,0,0,0,0,0,0,0,0,0,0,0,0,0,0,0,0,0,0,0,0,0,0,0,0,0,0,0,0,0,0,0,0,0],"id":10,"left_children":[1,3,5,7,9,11,13,15,17,19,21,23,25,27,29,31,33,35,37,39,41,43,45,47,49,51,53,55,57,59,61,-1,63,65,67,-1,69,71,73,75,77,79,81,83,85,87,89,91,93,95,97,99,101,-1,103,105,-1,107,109,111,113,115,117,-1,-1,-1,-1,-1,-1,-1,-1,-1,-1,-1,-1,-1,-1,-1,-1,-1,-1,-1,-1,-1,-1,-1,-1,-1,-1,-1,-1,-1,-1,-1,-1,-1,-1,-1,-1,-1,-1,-1,-1,-1,-1,-1,-1,-1,-1,-1,-1,-1,-1,-1,-1,-1,-1,-1,-1],"loss_changes":[2.2781105E1,3.5594969E0,1.5573292E0,1.0236149E0,2.3256998E0,5.2877593E-1,3.2623196E-1,7.987563E-2,3.419323E-1,5.739646E-1,3.8584894E-1,4.3661383E-1,1.6883683E-1,6.999323E-2,1.1176014E-1,3.112616E-3,1.5695453E-2,6.0855865E-2,2.0611715E-1,4.5625496E-1,4.1711795E-1,4.1098106E-1,4.0053496E-1,4.743886E-2,3.990152E-1,1.0443556E-1,1.0299932E-1,4.7125336E-2,3.054921E-2,2.1241474E-1,1.1936283E-1,0E0,1.8007634E-3,2.2324473E-2,5.5166557E-3,0E0,1.5679836E-2,4.509568E-3,1.1528921E-1,3.9938498E-1,1.4133817E-1,1.85292E-1,2.1142673E-1,1.7004153E-1,3.3848286E-1,9.818527E-2,1.5105258E-1,1.6686559E-2,4.165424E-3,1.9563314E-1,4.1047308E-1,2.791959E-2,6.58983E-2,0E0,4.361775E-2,1.7273448E-2,0E0,2.408471E-3,2.9511505E-4,1.8995807E-1,1.4143896E-1,3.63245E-2,1.8481922E-1,0E0,0E0,0E0,0E0,0E0,0E0,0E0,0E0,0E0,0E0,0E0,0E0,0E0,0E0,0E0,0E0,0E0,0E0,0E0,0E0,0E0,0E0,0E0,0E0,0E0,0E0,0E0,0E0,0E0,0E0,0E0,0E0,0E0,0E0,0E0,0E0,0E0,0E0,0E0,0E0,0E0,0E0,0E0,0E0,0E0,0E0,0E0,0E0,0E0,0E0,0E0,0E0,0E0,0E0,0E0,0E0],"parents":[2147483647,0,0,1,1,2,2,3,3,4,4,5,5,6,6,7,7,8,8,9,9,10,10,11,11,12,12,13,13,14,14,15,15,16,16,17,17,18,18,19,19,20,20,21,21,22,22,23,23,24,24,25,25,26,26,27,27,28,28,29,29,30,30,32,32,33,33,34,34,36,36,37,37,38,38,39,39,40,40,41,41,42,42,43,43,44,44,45,45,46,46,47,47,48,48,49,49,50,50,51,51,52,52,54,54,55,55,57,57,58,58,59,59,60,60,61,61,62,62],"right_children":[2,4,6,8,10,12,14,16,18,20,22,24,26,28,30,32,34,36,38,40,42,44,46,48,50,52,54,56,58,60,62,-1,64,66,68,-1,70,72,74,76,78,80,82,84,86,88,90,92,94,96,98,100,102,-1,104,106,-1,108,110,112,114,116,118,-1,-1,-1,-1,-1,-1,-1,-1,-1,-1,-1,-1,-1,-1,-1,-1,-1,-1,-1,-1,-1,-1,-1,-1,-1,-1,-1,-1,-1,-1,-1,-1,-1,-1,-1,-1,-1,-1,-1,-1,-1,-1,-1,-1,-1,-1,-1,-1,-1,-1,-1,-1,-1,-1,-1,-1],"split_conditions":[-3.9480102E-1,-1.0900109E0,-1.9242813E-1,-1.5438272E-1,-4.5860744E-1,9.5478827E-1,-9.7087955E-1,-3.505143E-1,-4.4321144E-1,-4.6342507E-1,-2.9507914E-1,-1.6866803E0,-9.509922E-2,1.5443453E-1,-1.2657724E-1,-4.638942E-1,-8.947882E-2,-1.018937E0,-1.292374E0,7.326014E-1,-8.3537227E-1,-6.1878874E-3,-5.6876296E-1,-2.8757438E-1,4.6421182E-1,-5.745204E-1,-8.029642E-1,4.501222E-1,5.50111E-1,-3.754982E-1,7.450341E-1,-7.605877E-4,-1.0573136E0,-3.0667022E-1,-3.8513255E-1,4.4968375E-3,-6.761492E-1,-3.6432552E-1,-4.4842726E-1,-1.3892281E0,-1.3908309E-1,8.3518255E-1,-8.773543E-1,-1.6360013E0,-3.4225863E-1,-9.5088553E-1,-3.775091E-1,-1.2550174E0,-2.876437E-1,-3.9611968E-1,-9.0683025E-1,-2.767482E-1,1.6706368E-1,5.065019E-3,6.0744303E-1,6.6517144E-2,2.3066434E-3,-9.8372084E-1,3.2325733E-2,-2.7109623E-1,1.7150412E0,-1.3455899E0,9.0287215E-1,1.1376432E-3,2.0383902E-4,3.1616304E-3,6.931887E-3,3.7026242E-3,1.6698869E-3,1.2992965E-2,9.668565E-3,1.3115957E-2,7.354407E-3,8.51203E-3,5.219366E-3,8.847139E-4,7.020347E-3,5.834202E-3,1.8491714E-3,5.0829607E-3,1.2019603E-2,1.2277354E-3,3.6148615E-3,-2.923807E-3,9.320221E-4,2.829458E-4,4.7052205E-3,1.9917868E-3,6.399061E-3,-2.426471E-3,-1.6465313E-4,-5.4990005E-4,-5.4925866E-3,-5.5331853E-4,-2.5403337E-3,3.7646391E-3,-3.5013407E-5,5.230642E-3,-2.853737E-3,-3.7995882E-3,-2.2957444E-3,-6.1310716E-3,-3.776141E-3,-2.5892742E-3,1.9299273E-3,-4.0543815E-3,9.525344E-5,4.1785007E-3,1.2711694E-3,-2.9415014E-4,2.9503007E-4,-2.499756E-3,7.0478455E-3,-4.4463747E-3,2.4567868E-3,-2.5723751E-3,-5.545055E-3,-5.0306143E-3,-2.1846227E-3],"split_indices":[5,1,5,8,5,9,1,7,0,0,7,8,0,8,1,2,4,3,9,8,10,8,9,7,8,6,6,4,6,2,8,0,4,7,3,0,9,3,5,8,9,3,6,8,7,8,4,10,0,2,1,4,4,0,1,2,0,1,0,1,6,6,1,0,0,0,0,0,0,0,0,0,0,0,0,0,0,0,0,0,0,0,0,0,0,0,0,0,0,0,0,0,0,0,0,0,0,0,0,0,0,0,0,0,0,0,0,0,0,0,0,0,0,0,0,0,0,0,0],"split_type":[0,0,0,0,0,0,0,0,0,0,0,0,0,0,0,0,0,0,0,0,0,0,0,0,0,0,0,0,0,0,0,0,0,0,0,0,0,0,0,0,0,0,0,0,0,0,0,0,0,0,0,0,0,0,0,0,0,0,0,0,0,0,0,0,0,0,0,0,0,0,0,0,0,0,0,0,0,0,0,0,0,0,0,0,0,0,0,0,0,0,0,0,0,0,0,0,0,0,0,0,0,0,0,0,0,0,0,0,0,0,0,0,0,0,0,0,0,0,0],"sum_hessian":[4.264E3,2.031E3,2.233E3,3.38E2,1.693E3,9.66E2,1.267E3,6.5E1,2.73E2,9.38E2,7.55E2,6.56E2,3.1E2,3.9E1,1.228E3,2.5E1,4E1,1.06E2,1.67E2,4.98E2,4.4E2,3.83E2,3.72E2,7.2E1,5.84E2,2.74E2,3.6E1,2E1,1.9E1,3.48E2,8.8E2,3E0,2.2E1,2.1E1,1.9E1,4E0,1.02E2,2.8E1,1.39E2,3.83E2,1.15E2,4.5E1,3.95E2,1.73E2,2.1E2,6.5E1,3.07E2,6.1E1,1.1E1,3.49E2,2.35E2,1.38E2,1.36E2,6E0,3E1,1.6E1,4E0,1E1,9E0,2.1E1,3.27E2,6.02E2,2.78E2,1.3E1,9E0,1.1E1,1E1,1E1,9E0,8.1E1,2.1E1,2.3E1,5E0,9.2E1,4.7E1,2.9E1,3.54E2,3E1,8.5E1,2.9E1,1.6E1,1.52E2,2.43E2,3.5E1,1.38E2,6.1E1,1.49E2,4.8E1,1.7E1,1.22E2,1.85E2,2E0,5.9E1,6E0,5E0,3.7E1,3.12E2,1.6E1,2.19E2,6.9E1,6.9E1,7.3E1,6.3E1,2.4E1,6E0,1.3E1,3E0,8E0,2E0,7E0,2E0,1.4E1,7E0,3.2E2,7E0,1.3E1,5.89E2,1.94E2,8.4E1],"tree_param":{"num_deleted":"0","num_feature":"11","num_nodes":"119","size_leaf_vector":"1"}},{"base_weights":[2.1077153E-4,9.2183195E-2,-5.2330457E-2,1.7971452E-1,7.3344566E-2,-1.0664528E-2,-8.057327E-2,6.1852727E-2,1.978539E-1,1.12146474E-1,5.462219E-2,4.5416012E-2,-2.2374801E-2,-3.7764512E-2,-8.9005664E-2,2.0467332E-2,1.0669942E-1,1.3614719E-2,1.8316658E-1,1.2709394E-1,5.9026305E-2,6.63329E-2,-2.3171798E-4,-5.5043153E-3,1.1703197E-1,-2.783281E-2,8.062725E-2,-3.3125142E-3,-7.959204E-2,4.9994208E-2,-8.976682E-2,2.91718E-2,-6.155804E-3,7.31722E-3,2.5396983E-3,2.2919008E-1,1.6289696E-1,8.5869946E-2,1.510398E-1,1.3368028E-1,3.258742E-2,8.0762506E-2,1.6045988E-2,1.3418135E-2,-3.4351084E-2,2.884844E-2,-5.0260887E-2,1.1553595E-2,9.106847E-2,-2.8977104E-2,1.4063086E-1,4.2873602E-3,1.3418911E-1,-4.137858E-2,1.773763E-2,-1.9331627E-2,-9.278797E-2,5.2474835E-4,3.070573E-3,-2.8655581E-2,-9.114025E-2,1.8525214E-4,1.8675983E-3,-1.6551287E-3,7.796612E-4,1.2259239E-2,7.6866536E-3,2.8359373E-3,8.438444E-3,1.0058205E-3,5.013933E-3,7.2050267E-3,1.510858E-2,1.9214839E-3,7.836181E-3,-1.8933964E-3,2.2480555E-3,3.7140162E-3,1.0214697E-2,-2.477623E-4,4.18007E-3,-2.0309938E-3,1.408547E-3,-5.459648E-3,-9.830225E-4,-4.0334655E-4,2.4188566E-3,5.5245752E-3,-2.972615E-3,1.1775348E-3,5.79485E-3,-8.549563E-4,-2.2389353E-3,2.7093687E-3,8.515287E-3,4.421327E-3,-1.4827069E-3,7.1766647E-3,5.795643E-4,-2.7108386E-3,1.1470357E-4,2.4833025E-3,-1.4101904E-3,1.9077763E-3,-2.6267571E-3,-4.8904438E-3,-2.7658783E-3,6.85133E-4,-3.0004452E-3,-3.8238924E-3,-4.79308E-3],"categories":[],"categories_nodes":[],"categories_segments":[],"categories_sizes":[],"default_left":[0,0,0,0,0,0,0,0,0,0,0,0,0,0,0,0,0,0,0,0,0,0,0,0,0,0,0,0,0,0,0,0,0,0,0,0,0,0,0,0,0,0,0,0,0,0,0,0,0,0,0,0,0,0,0,0,0,0,0,0,0,0,0,0,0,0,0,0,0,0,0,0,0,0,0,0,0,0,0,0,0,0,0,0,0,0,0,0,0,0,0,0,0,0,0,0,0,0,0,0,0,0,0,0,0,0,0,0,0,0,0],"id":11,"left_children":[1,3,5,7,9,11,13,15,17,19,21,23,25,27,29,31,33,-1,35,37,39,41,43,45,47,49,51,53,55,57,59,61,63,-1,-1,65,67,69,71,73,75,77,79,81,83,85,87,-1,89,91,93,95,97,99,101,103,105,-1,-1,107,109,-1,-1,-1,-1,-1,-1,-1,-1,-1,-1,-1,-1,-1,-1,-1,-1,-1,-1,-1,-1,-1,-1,-1,-1,-1,-1,-1,-1,-1,-1,-1,-1,-1,-1,-1,-1,-1,-1,-1,-1,-1,-1,-1,-1,-1,-1,-1,-1,-1,-1],"loss_changes":[2.0614773E1,2.5443697E0,3.1940513E0,5.7355785E-1,9.222951E-1,7.22093E-1,5.807066E-1,6.834407E-2,2.0924377E-1,3.2201338E-1,5.550301E-1,6.9351864E-1,5.132712E-1,3.8593557E-1,1.4742374E-1,5.046121E-3,3.246124E-2,0E0,1.5017462E-1,3.058777E-1,1.7920414E-1,5.153458E-1,7.1716756E-2,1.7365123E-1,2.1286571E-1,1.7063016E-1,1.8751442E-1,1.1932581E-1,9.4424546E-2,2.963271E-3,1.1019325E-1,3.1947661E-3,4.032572E-3,0E0,0E0,3.3514738E-2,7.958341E-2,1.1262095E-1,1.6935158E-1,4.6654552E-2,6.272807E-2,4.2764163E-1,2.2741379E-1,8.883765E-2,4.6230104E-2,4.6528418E-2,7.8968495E-2,0E0,1.0791075E-1,1.6046095E-1,6.1627924E-3,5.97384E-2,2.9266775E-2,2.9840305E-2,1.4221717E-1,4.590635E-2,1.3214827E-2,0E0,0E0,4.1992497E-2,8.3631516E-2,0E0,0E0,0E0,0E0,0E0,0E0,0E0,0E0,0E0,0E0,0E0,0E0,0E0,0E0,0E0,0E0,0E0,0E0,0E0,0E0,0E0,0E0,0E0,0E0,0E0,0E0,0E0,0E0,0E0,0E0,0E0,0E0,0E0,0E0,0E0,0E0,0E0,0E0,0E0,0E0,0E0,0E0,0E0,0E0,0E0,0E0,0E0,0E0,0E0,0E0],"parents":[2147483647,0,0,1,1,2,2,3,3,4,4,5,5,6,6,7,7,8,8,9,9,10,10,11,11,12,12,13,13,14,14,15,15,16,16,18,18,19,19,20,20,21,21,22,22,23,23,24,24,25,25,26,26,27,27,28,28,29,29,30,30,31,31,32,32,35,35,36,36,37,37,38,38,39,39,40,40,41,41,42,42,43,43,44,44,45,45,46,46,48,48,49,49,50,50,51,51,52,52,53,53,54,54,55,55,56,56,59,59,60,60],"right_children":[2,4,6,8,10,12,14,16,18,20,22,24,26,28,30,32,34,-1,36,38,40,42,44,46,48,50,52,54,56,58,60,62,64,-1,-1,66,68,70,72,74,76,78,80,82,84,86,88,-1,90,92,94,96,98,100,102,104,106,-1,-1,108,110,-1,-1,-1,-1,-1,-1,-1,-1,-1,-1,-1,-1,-1,-1,-1,-1,-1,-1,-1,-1,-1,-1,-1,-1,-1,-1,-1,-1,-1,-1,-1,-1,-1,-1,-1,-1,-1,-1,-1,-1,-1,-1,-1,-1,-1,-1,-1,-1,-1,-1],"split_conditions":[-4.368252E-1,-1.0900109E0,-2.891844E-1,-6.756561E-2,-4.7088504E-1,-9.0683025E-1,-4.5781654E-1,-2.9926798E-1,-4.4275352E-1,7.3689085E-1,9.65401E-1,-1.7262693E-1,2.2594476E0,-9.874599E-2,-4.6575955E-1,-9.7147197E-1,-2.4224317E-1,1.3614719E-2,-1.197451E0,-2.967541E-1,-1.3908309E-1,-2.4224317E-1,-3.2212734E-1,-3.2833454E-1,-4.3197677E-1,3.584349E0,-1.7665024E-1,-5.5645384E-2,-9.7087955E-1,8.591916E-1,-8.217531E-1,-3.5135955E-1,-4.202244E-1,7.31722E-3,2.5396983E-3,-9.757768E-1,-1.4918449E0,-4.31869E-1,4.6327192E-1,-1.5230012E0,-5.9667194E-1,1.9573605E0,5.2275056E-1,-4.5394564E-1,-3.143432E-1,-3.50821E-1,-4.1003212E-1,1.1553595E-2,-9.100062E-1,-3.695579E-1,-3.7934515E-1,5.230797E-1,-3.0828747E-1,4.7212604E-2,3.7372902E-1,-6.47731E-2,1.6782503E-1,5.2474835E-4,3.070573E-3,-1.9766222E-1,-7.312745E-2,1.8525214E-4,1.8675983E-3,-1.6551287E-3,7.796612E-4,1.2259239E-2,7.6866536E-3,2.8359373E-3,8.438444E-3,1.0058205E-3,5.013933E-3,7.2050267E-3,1.510858E-2,1.9214839E-3,7.836181E-3,-1.8933964E-3,2.2480555E-3,3.7140162E-3,1.0214697E-2,-2.477623E-4,4.18007E-3,-2.0309938E-3,1.408547E-3,-5.459648E-3,-9.830225E-4,-4.0334655E-4,2.4188566E-3,5.5245752E-3,-2.972615E-3,1.1775348E-3,5.79485E-3,-8.549563E-4,-2.2389353E-3,2.7093687E-3,8.515287E-3,4.421327E-3,-1.4827069E-3,7.1766647E-3,5.795643E-4,-2.7108386E-3,1.1470357E-4,2.4833025E-3,-1.4101904E-3,1.9077763E-3,-2.6267571E-3,-4.8904438E-3,-2.7658783E-3,6.85133E-4,-3.0004452E-3,-3.8238924E-3,-4.79308E-3],"split_indices":[5,1,5,8,0,1,1,7,2,8,10,8,6,5,2,6,7,0,9,8,9,7,2,0,2,1,4,8,1,9,6,7,2,0,0,4,4,9,6,4,1,3,9,2,2,7,2,0,6,5,0,1,5,2,2,6,7,0,0,0,1,0,0,0,0,0,0,0,0,0,0,0,0,0,0,0,0,0,0,0,0,0,0,0,0,0,0,0,0,0,0,0,0,0,0,0,0,0,0,0,0,0,0,0,0,0,0,0,0,0,0],"split_type":[0,0,0,0,0,0,0,0,0,0,0,0,0,0,0,0,0,0,0,0,0,0,0,0,0,0,0,0,0,0,0,0,0,0,0,0,0,0,0,0,0,0,0,0,0,0,0,0,0,0,0,0,0,0,0,0,0,0,0,0,0,0,0,0,0,0,0,0,0,0,0,0,0,0,0,0,0,0,0,0,0,0,0,0,0,0,0,0,0,0,0,0,0,0,0,0,0,0,0,0,0,0,0,0,0,0,0,0,0,0,0],"sum_hessian":[4.264E3,1.55E3,2.714E3,2.73E2,1.277E3,1.097E3,1.617E3,3.7E1,2.36E2,4.14E2,8.63E2,1.89E2,9.08E2,2.67E2,1.35E3,2E1,1.7E1,3.6E1,2E2,3.22E2,9.2E1,7.11E2,1.52E2,1.11E2,7.8E1,8.63E2,4.5E1,1.47E2,1.2E2,7E0,1.343E3,1.5E1,5E0,9E0,8E0,5.8E1,1.42E2,1.2E2,2.02E2,2.3E1,6.9E1,5.52E2,1.59E2,1.09E2,4.3E1,6.3E1,4.8E1,1.3E1,6.5E1,8.58E2,5E0,1.9E1,2.6E1,5.2E1,9.5E1,2.2E1,9.8E1,2E0,5E0,3E1,1.313E3,4E0,1.1E1,2E0,3E0,4.6E1,1.2E1,8E0,1.34E2,2.2E1,9.8E1,1.95E2,7E0,5E0,1.8E1,1E1,5.9E1,5.26E2,2.6E1,1.22E2,3.7E1,2.3E1,8.6E1,6E0,3.7E1,2.2E1,4.1E1,2E0,4.6E1,1.8E1,4.7E1,4.91E2,3.67E2,2E0,3E0,5E0,1.4E1,2.4E1,2E0,4E1,1.2E1,5.6E1,3.9E1,8E0,1.4E1,8.5E1,1.3E1,1.3E1,1.7E1,3.24E2,9.89E2],"tree_param":{"num_deleted":"0","num_feature":"11","num_nodes":"111","size_leaf_vector":"1"}},{"base_weights":[2.3066315E-4,8.694555E-2,-5.011482E-2,1.6960147E-1,6.9143355E-2,-1.0530036E-2,-7.655525E-2,5.905047E-2,1.863987E-1,1.009538E-1,4.7901947E-2,4.3190558E-2,-2.1730058E-2,-3.591322E-2,-8.456081E-2,1.9500036E-2,1.0191207E-1,1.295238E-2,1.7230846E-1,1.1581492E-1,5.0401896E-2,6.329585E-2,1.0624944E-2,-5.1883184E-3,1.1391744E-1,-2.7089236E-2,8.2658775E-2,-3.157184E-3,-7.568166E-2,4.7943912E-2,-8.528662E-2,2.7841518E-2,-5.9939227E-3,6.987945E-3,2.4268231E-3,1.9212392E-1,1.2697813E-1,1.5206957E-2,1.2639241E-1,8.716851E-2,1.6336836E-2,1.8587504E-2,8.5235044E-2,4.8881833E-2,-9.594515E-3,2.7437508E-2,-4.769576E-2,1.1017178E-2,8.845898E-2,-1.5686128E-2,-4.375308E-2,2.155167E-2,6.8757595E-3,-3.935864E-2,1.6861923E-2,-1.8396305E-2,-8.822591E-2,4.9676374E-4,2.9478788E-3,-7.632544E-2,-9.4513126E-2,1.7784208E-4,1.7820003E-3,-1.5999576E-3,7.50424E-4,4.5791785E-3,9.876173E-3,7.2331736E-3,7.621191E-4,-3.0162046E-4,2.9074862E-3,7.3459903E-3,4.634918E-3,5.2917283E-3,2.50649E-3,-2.2915395E-3,2.0154074E-3,-1.2474199E-3,2.2084422E-3,5.81162E-3,2.3197231E-3,7.98764E-3,1.2311556E-3,3.3294866E-5,-2.2996261E-3,-3.8405613E-4,2.3007933E-3,2.9768988E-3,-3.0617274E-3,1.2425551E-3,5.4791993E-3,3.174445E-4,-1.8281759E-3,-2.528921E-3,8.2128134E-4,4.900401E-3,-1.456912E-3,-4.2536384E-3,-1.3374503E-3,2.720633E-3,-9.3865034E-4,1.4155031E-3,-2.8250988E-3,-4.648765E-3,-2.6374625E-3,-3.9788503E-3,-7.6578563E-4,-4.0310915E-3,-5.2107596E-3],"categories":[],"categories_nodes":[],"categories_segments":[],"categories_sizes":[],"default_left":[0,0,0,0,0,0,0,0,0,0,0,0,0,0,0,0,0,0,0,0,0,0,0,0,0,0,0,0,0,0,0,0,0,0,0,0,0,0,0,0,0,0,0,0,0,0,0,0,0,0,0,0,0,0,0,0,0,0,0,0,0,0,0,0,0,0,0,0,0,0,0,0,0,0,0,0,0,0,0,0,0,0,0,0,0,0,0,0,0,0,0,0,0,0,0,0,0,0,0,0,0,0,0,0,0,0,0,0,0],"id":12,"left_children":[1,3,5,7,9,11,13,15,17,19,21,23,25,27,29,31,33,-1,35,37,39,41,43,45,47,49,51,53,55,57,59,61,63,-1,-1,65,67,69,71,73,75,77,79,81,83,85,87,-1,89,91,93,95,-1,97,99,101,103,-1,-1,105,107,-1,-1,-1,-1,-1,-1,-1,-1,-1,-1,-1,-1,-1,-1,-1,-1,-1,-1,-1,-1,-1,-1,-1,-1,-1,-1,-1,-1,-1,-1,-1,-1,-1,-1,-1,-1,-1,-1,-1,-1,-1,-1,-1,-1,-1,-1,-1,-1],"loss_changes":[1.8624079E1,2.2940464E0,2.8240728E0,5.033684E-1,8.6749125E-1,6.5194744E-1,5.2339935E-1,6.24301E-2,2.010374E-1,3.8181162E-1,4.446261E-1,6.4044654E-1,5.034958E-1,3.488729E-1,1.3401699E-1,4.6326853E-3,2.9578358E-2,0E0,1.5884542E-1,4.216218E-1,1.476183E-1,5.369108E-1,1.7683466E-1,1.5663478E-1,1.8642646E-1,1.614005E-1,1.4452946E-1,1.07922345E-1,8.532786E-2,2.7631558E-3,1.0390949E-1,2.9033748E-3,3.7572924E-3,0E0,0E0,5.791235E-2,1.2624049E-1,3.592179E-2,2.3537493E-1,3.410244E-2,9.573244E-2,2.0379652E-1,4.3766308E-1,2.0854382E-1,5.6049407E-2,4.2110022E-2,7.4784696E-2,0E0,8.1930876E-2,2.339292E-1,1.4294678E-1,8.81182E-2,0E0,2.8275616E-2,1.2948081E-1,4.253446E-2,1.1776328E-2,0E0,0E0,1.3506651E-1,8.027983E-2,0E0,0E0,0E0,0E0,0E0,0E0,0E0,0E0,0E0,0E0,0E0,0E0,0E0,0E0,0E0,0E0,0E0,0E0,0E0,0E0,0E0,0E0,0E0,0E0,0E0,0E0,0E0,0E0,0E0,0E0,0E0,0E0,0E0,0E0,0E0,0E0,0E0,0E0,0E0,0E0,0E0,0E0,0E0,0E0,0E0,0E0,0E0,0E0],"parents":[2147483647,0,0,1,1,2,2,3,3,4,4,5,5,6,6,7,7,8,8,9,9,10,10,11,11,12,12,13,13,14,14,15,15,16,16,18,18,19,19,20,20,21,21,22,22,23,23,24,24,25,25,26,26,27,27,28,28,29,29,30,30,31,31,32,32,35,35,36,36,37,37,38,38,39,39,40,40,41,41,42,42,43,43,44,44,45,45,46,46,48,48,49,49,50,50,51,51,53,53,54,54,55,55,56,56,59,59,60,60],"right_children":[2,4,6,8,10,12,14,16,18,20,22,24,26,28,30,32,34,-1,36,38,40,42,44,46,48,50,52,54,56,58,60,62,64,-1,-1,66,68,70,72,74,76,78,80,82,84,86,88,-1,90,92,94,96,-1,98,100,102,104,-1,-1,106,108,-1,-1,-1,-1,-1,-1,-1,-1,-1,-1,-1,-1,-1,-1,-1,-1,-1,-1,-1,-1,-1,-1,-1,-1,-1,-1,-1,-1,-1,-1,-1,-1,-1,-1,-1,-1,-1,-1,-1,-1,-1,-1,-1,-1,-1,-1,-1,-1],"split_conditions":[-4.3528482E-1,-1.0900109E0,-2.891844E-1,-6.756561E-2,-4.6342507E-1,-9.0683025E-1,-4.5781654E-1,-2.9926798E-1,-4.4275352E-1,7.326014E-1,-2.732352E-1,-1.7262693E-1,2.2594476E0,-9.874599E-2,-4.6575955E-1,-9.7147197E-1,-2.4224317E-1,1.295238E-2,-7.6682794E-1,-1.3311917E0,-4.192737E-1,-3.546914E-1,-2.441295E-1,-3.2833454E-1,-4.3197677E-1,7.543653E-1,-5.290456E-3,-5.5645384E-2,-9.7087955E-1,-2.5838545E-1,2.9660442E-1,-3.5135955E-1,-4.202244E-1,6.987945E-3,2.4268231E-3,6.1872546E-2,-2.4815178E-1,4.5580283E-2,-8.175765E-3,6.20894E-1,-8.5140663E-1,-4.4566163E-1,-6.768021E-2,-4.7727114E-1,-1.6862127E-1,-3.50821E-1,-4.1905016E-1,1.1017178E-2,-9.100062E-1,-1.8180974E-1,-1.6750003E-1,5.230797E-1,6.8757595E-3,-5.143164E-1,2.4439973E-1,-4.3122476E-1,1.6782503E-1,4.9676374E-4,2.9478788E-3,2.3591855E0,4.501222E-1,1.7784208E-4,1.7820003E-3,-1.5999576E-3,7.50424E-4,4.5791785E-3,9.876173E-3,7.2331736E-3,7.621191E-4,-3.0162046E-4,2.9074862E-3,7.3459903E-3,4.634918E-3,5.2917283E-3,2.50649E-3,-2.2915395E-3,2.0154074E-3,-1.2474199E-3,2.2084422E-3,5.81162E-3,2.3197231E-3,7.98764E-3,1.2311556E-3,3.3294866E-5,-2.2996261E-3,-3.8405613E-4,2.3007933E-3,2.9768988E-3,-3.0617274E-3,1.2425551E-3,5.4791993E-3,3.174445E-4,-1.8281759E-3,-2.528921E-3,8.2128134E-4,4.900401E-3,-1.456912E-3,-4.2536384E-3,-1.3374503E-3,2.720633E-3,-9.3865034E-4,1.4155031E-3,-2.8250988E-3,-4.648765E-3,-2.6374625E-3,-3.9788503E-3,-7.6578563E-4,-4.0310915E-3,-5.2107596E-3],"split_indices":[5,1,5,8,0,1,1,7,2,8,7,8,6,5,2,6,7,0,9,8,2,8,8,0,2,9,4,8,1,5,0,7,2,0,0,8,2,3,3,1,3,0,1,5,1,7,5,0,6,6,0,1,0,3,2,3,7,0,0,2,4,0,0,0,0,0,0,0,0,0,0,0,0,0,0,0,0,0,0,0,0,0,0,0,0,0,0,0,0,0,0,0,0,0,0,0,0,0,0,0,0,0,0,0,0,0,0,0,0],"split_type":[0,0,0,0,0,0,0,0,0,0,0,0,0,0,0,0,0,0,0,0,0,0,0,0,0,0,0,0,0,0,0,0,0,0,0,0,0,0,0,0,0,0,0,0,0,0,0,0,0,0,0,0,0,0,0,0,0,0,0,0,0,0,0,0,0,0,0,0,0,0,0,0,0,0,0,0,0,0,0,0,0,0,0,0,0,0,0,0,0,0,0,0,0,0,0,0,0,0,0,0,0,0,0,0,0,0,0,0,0],"sum_hessian":[4.264E3,1.566E3,2.698E3,2.76E2,1.29E3,1.081E3,1.617E3,3.7E1,2.39E2,5.15E2,7.75E2,1.86E2,8.95E2,2.67E2,1.35E3,2E1,1.7E1,3.6E1,2.03E2,3.97E2,1.18E2,5.48E2,2.27E2,1.11E2,7.5E1,8.52E2,4.3E1,1.47E2,1.2E2,7E0,1.343E3,1.5E1,5E0,9E0,8E0,1.39E2,6.4E1,3.8E1,3.59E2,5.6E1,6.2E1,1.81E2,3.67E2,7.8E1,1.49E2,6.3E1,4.8E1,1.3E1,6.2E1,5.07E2,3.45E2,2.1E1,2.2E1,5.2E1,9.5E1,2.2E1,9.8E1,2E0,5E0,6.86E2,6.57E2,4E0,1.1E1,2E0,3E0,8E0,1.31E2,5.5E1,9E0,2.6E1,1.2E1,2.21E2,1.38E2,3.6E1,2E1,1.7E1,4.5E1,6.7E1,1.14E2,2.03E2,1.64E2,1.3E1,6.5E1,1.17E2,3.2E1,2.2E1,4.1E1,5E0,4.3E1,1.6E1,4.6E1,2.47E2,2.6E2,3.1E2,3.5E1,8E0,1.3E1,1E1,4.2E1,4.6E1,4.9E1,1E1,1.2E1,8.5E1,1.3E1,6.51E2,3.5E1,2.74E2,3.83E2],"tree_param":{"num_deleted":"0","num_feature":"11","num_nodes":"109","size_leaf_vector":"1"}},{"base_weights":[2.3969356E-4,6.613675E-2,-5.9699006E-2,1.4687355E-1,4.9940817E-2,-3.9335154E-2,-8.5480854E-2,4.9745858E-2,1.6973323E-1,8.051303E-2,1.6158385E-2,-2.138312E-2,-6.305349E-2,-9.259906E-2,-6.883975E-2,1.0227619E-2,7.359289E-2,1.2453433E-2,1.5550706E-1,8.5720345E-2,-1.5949248E-3,3.5620973E-2,-4.0822276E-3,-9.311039E-2,-1.1914424E-2,-4.1550286E-2,-7.658729E-2,1.9367129E-2,-9.3448326E-2,4.0314797E-2,-7.5153485E-2,-6.71692E-4,1.3897976E-2,9.4586805E-2,5.116238E-2,1.7186412E-1,9.749791E-2,-1.2709843E-3,9.125576E-2,2.5015803E-2,-3.3464E-2,-1.4800182E-2,5.3868346E-2,4.9470343E-2,-1.844112E-2,1.1293206E-3,-9.6245944E-2,3.3142306E-2,-2.7162649E-2,-2.8026238E-2,-7.735999E-2,2.9226006E-3,-8.14699E-2,-2.2343398E-4,1.6201101E-3,-6.442687E-2,-9.604258E-2,6.05217E-2,-3.7078988E-3,-8.152777E-2,-2.967322E-3,1.0063483E-3,1.893796E-4,2.929387E-4,5.2059996E-3,3.4244754E-3,1.3804468E-3,1.0198182E-2,7.372912E-3,2.861061E-3,7.0965015E-3,-3.2870842E-3,6.1262207E-4,5.6938017E-3,3.229145E-3,3.3891231E-3,4.5263997E-4,9.7025436E-4,-2.3825765E-3,1.0708167E-2,-1.0511621E-3,5.3607034E-3,1.8351333E-3,-1.9039346E-3,3.1592143E-3,-2.91715E-3,-1.4112539E-4,-3.8574976E-3,-6.153788E-3,2.3591574E-3,-5.2865697E-3,-9.7551494E-4,-5.7023554E-3,-2.056368E-3,1.6198816E-3,-4.246415E-3,-5.584009E-4,-3.4430572E-3,9.820488E-4,-4.269834E-3,-1.3091594E-3,-3.5411052E-3,3.9279102E-3,-4.8476006E-3,-2.2920712E-3,4.693541E-3,2.4085117E-3,-4.249185E-3,-1.1756752E-3,1.2125988E-3,-2.174977E-3],"categories":[],"categories_nodes":[],"categories_segments":[],"categories_sizes":[],"default_left":[0,0,0,0,0,0,0,0,0,0,0,0,0,0,0,0,0,0,0,0,0,0,0,0,0,0,0,0,0,0,0,0,0,0,0,0,0,0,0,0,0,0,0,0,0,0,0,0,0,0,0,0,0,0,0,0,0,0,0,0,0,0,0,0,0,0,0,0,0,0,0,0,0,0,0,0,0,0,0,0,0,0,0,0,0,0,0,0,0,0,0,0,0,0,0,0,0,0,0,0,0,0,0,0,0,0,0,0,0,0,0],"id":13,"left_children":[1,3,5,7,9,11,13,15,17,19,21,23,25,27,29,31,33,-1,35,37,39,41,43,45,47,49,51,53,55,57,59,-1,61,63,65,67,69,71,73,75,77,79,81,83,85,-1,87,89,91,93,95,97,99,-1,-1,101,103,105,-1,107,109,-1,-1,-1,-1,-1,-1,-1,-1,-1,-1,-1,-1,-1,-1,-1,-1,-1,-1,-1,-1,-1,-1,-1,-1,-1,-1,-1,-1,-1,-1,-1,-1,-1,-1,-1,-1,-1,-1,-1,-1,-1,-1,-1,-1,-1,-1,-1,-1,-1,-1],"loss_changes":[1.6849777E1,2.649724E0,1.169527E0,7.4424076E-1,1.7482681E0,5.3089213E-1,1.1030388E-1,6.144525E-2,2.7051497E-1,3.8023996E-1,3.1765682E-1,4.8313436E-1,1.5338635E-1,6.713629E-2,2.0909262E-1,2.4446994E-3,1.4467791E-2,0E0,2.0622587E-1,4.0267754E-1,4.6632335E-2,3.7893927E-1,3.054187E-1,3.228408E-2,4.344194E-1,9.953323E-2,1.2796152E-1,2.0090044E-3,4.5158863E-2,4.3811545E-2,1.2997627E-1,0E0,1.3722489E-3,1.630719E-2,7.0875697E-3,1.12505436E-1,8.851588E-2,4.5270592E-2,4.668765E-1,1.986691E-2,1.9676723E-2,1.6123629E-1,2.7261108E-1,1.0325998E-1,1.9490069E-1,0E0,3.2004356E-2,3.1697336E-1,3.1159365E-1,1.2324196E-1,2.7606308E-2,2.5354648E-2,6.506467E-2,0E0,0E0,5.951464E-2,2.4044037E-2,1.6568787E-3,0E0,5.012989E-2,2.7533147E-2,0E0,0E0,0E0,0E0,0E0,0E0,0E0,0E0,0E0,0E0,0E0,0E0,0E0,0E0,0E0,0E0,0E0,0E0,0E0,0E0,0E0,0E0,0E0,0E0,0E0,0E0,0E0,0E0,0E0,0E0,0E0,0E0,0E0,0E0,0E0,0E0,0E0,0E0,0E0,0E0,0E0,0E0,0E0,0E0,0E0,0E0,0E0,0E0,0E0,0E0],"parents":[2147483647,0,0,1,1,2,2,3,3,4,4,5,5,6,6,7,7,8,8,9,9,10,10,11,11,12,12,13,13,14,14,15,15,16,16,18,18,19,19,20,20,21,21,22,22,23,23,24,24,25,25,26,26,27,27,28,28,29,29,30,30,32,32,33,33,34,34,35,35,36,36,37,37,38,38,39,39,40,40,41,41,42,42,43,43,44,44,46,46,47,47,48,48,49,49,50,50,51,51,52,52,55,55,56,56,57,57,59,59,60,60],"right_children":[2,4,6,8,10,12,14,16,18,20,22,24,26,28,30,32,34,-1,36,38,40,42,44,46,48,50,52,54,56,58,60,-1,62,64,66,68,70,72,74,76,78,80,82,84,86,-1,88,90,92,94,96,98,100,-1,-1,102,104,106,-1,108,110,-1,-1,-1,-1,-1,-1,-1,-1,-1,-1,-1,-1,-1,-1,-1,-1,-1,-1,-1,-1,-1,-1,-1,-1,-1,-1,-1,-1,-1,-1,-1,-1,-1,-1,-1,-1,-1,-1,-1,-1,-1,-1,-1,-1,-1,-1,-1,-1,-1,-1],"split_conditions":[-3.9480102E-1,-1.0900109E0,-2.6303034E-2,-1.5438272E-1,-4.609328E-1,6.13564E-1,6.3178855E-1,-3.505143E-1,-4.4275352E-1,1.1211807E0,-2.9507914E-1,-1.6866803E0,4.52828E-1,-1.0259418E0,-9.946695E-1,-4.638942E-1,-9.643928E-2,1.2453433E-2,-4.4842726E-1,-1.3892281E0,-2.6509994E-1,-4.4026637E-1,-3.7843192E-1,-1.4184215E0,-3.5669222E-1,-2.6519528E-1,-4.638942E-1,5.8366694E-2,-1.8180974E-1,3.7912655E0,4.895897E0,-6.71692E-4,-1.0573136E0,-1.0791893E0,-3.8513255E-1,-1.3491185E0,-9.476035E-1,-5.5978054E-1,-1.2789357E-1,-4.7576833E-1,1.1821774E0,-1.5267372E0,-6.164856E-1,-9.4910413E-1,-4.6633777E-1,1.1293206E-3,4.6327192E-1,4.969018E-1,1.2551081E0,-2.0336469E-1,1.0152448E0,-2.689475E-2,1.3373502E-1,-2.2343398E-4,1.6201101E-3,1.8845775E0,6.2342124E0,-1.5646593E-1,-3.7078988E-3,2.0825548E0,2.1582866E0,1.0063483E-3,1.893796E-4,2.929387E-4,5.2059996E-3,3.4244754E-3,1.3804468E-3,1.0198182E-2,7.372912E-3,2.861061E-3,7.0965015E-3,-3.2870842E-3,6.1262207E-4,5.6938017E-3,3.229145E-3,3.3891231E-3,4.5263997E-4,9.7025436E-4,-2.3825765E-3,1.0708167E-2,-1.0511621E-3,5.3607034E-3,1.8351333E-3,-1.9039346E-3,3.1592143E-3,-2.91715E-3,-1.4112539E-4,-3.8574976E-3,-6.153788E-3,2.3591574E-3,-5.2865697E-3,-9.7551494E-4,-5.7023554E-3,-2.056368E-3,1.6198816E-3,-4.246415E-3,-5.584009E-4,-3.4430572E-3,9.820488E-4,-4.269834E-3,-1.3091594E-3,-3.5411052E-3,3.9279102E-3,-4.8476006E-3,-2.2920712E-3,4.693541E-3,2.4085117E-3,-4.249185E-3,-1.1756752E-3,1.2125988E-3,-2.174977E-3],"split_indices":[5,1,5,8,5,9,8,7,2,8,7,8,8,1,4,2,4,0,5,8,7,2,10,9,6,5,2,0,6,1,7,0,4,4,3,1,4,3,3,0,8,6,3,6,4,0,6,0,8,0,4,1,0,0,0,0,0,2,0,6,5,0,0,0,0,0,0,0,0,0,0,0,0,0,0,0,0,0,0,0,0,0,0,0,0,0,0,0,0,0,0,0,0,0,0,0,0,0,0,0,0,0,0,0,0,0,0,0,0,0,0],"split_type":[0,0,0,0,0,0,0,0,0,0,0,0,0,0,0,0,0,0,0,0,0,0,0,0,0,0,0,0,0,0,0,0,0,0,0,0,0,0,0,0,0,0,0,0,0,0,0,0,0,0,0,0,0,0,0,0,0,0,0,0,0,0,0,0,0,0,0,0,0,0,0,0,0,0,0,0,0,0,0,0,0,0,0,0,0,0,0,0,0,0,0,0,0,0,0,0,0,0,0,0,0,0,0,0,0,0,0,0,0,0,0],"sum_hessian":[4.264E3,2.031E3,2.233E3,3.38E2,1.693E3,1.249E3,9.84E2,6.5E1,2.73E2,8.88E2,8.05E2,7.12E2,5.37E2,6.86E2,2.98E2,2.5E1,4E1,3.9E1,2.34E2,8.35E2,5.3E1,4.1E2,3.95E2,8.2E1,6.3E2,2.09E2,3.28E2,5E0,6.81E2,1.6E1,2.82E2,3E0,2.2E1,1.9E1,2.1E1,1.81E2,5.3E1,5E1,7.85E2,2.9E1,2.4E1,1.09E2,3.01E2,8.3E1,3.12E2,2E0,8E1,1.59E2,4.71E2,1.53E2,5.6E1,1.9E1,3.09E2,2E0,3E0,5.8E1,6.23E2,1.4E1,2E0,2.59E2,2.3E1,1.3E1,9E0,2E0,1.7E1,1.1E1,1E1,7.5E1,1.06E2,2.9E1,2.4E1,8E0,4.2E1,4.23E2,3.62E2,7E0,2.2E1,5E0,1.9E1,2E0,1.07E2,7.2E1,2.29E2,1.1E1,7.2E1,8.7E1,2.25E2,4.9E1,3.1E1,1.45E2,1.4E1,4.34E2,3.7E1,1.26E2,2.7E1,5E1,6E0,3E0,1.6E1,2.88E2,2.1E1,5.6E1,2E0,6.11E2,1.2E1,2E0,1.2E1,2.44E2,1.5E1,1.4E1,9E0],"tree_param":{"num_deleted":"0","num_feature":"11","num_nodes":"111","size_leaf_vector":"1"}},{"base_weights":[2.3578174E-4,7.9392664E-2,-4.4984315E-2,1.5461427E-1,6.3203216E-2,-7.784435E-3,-6.832993E-2,5.3605095E-2,1.7015745E-1,9.191435E-2,4.3703683E-2,3.4253307E-2,-2.0178553E-2,-2.8701613E-2,-7.559397E-2,1.7053409E-2,9.327067E-2,1.8247297E-1,1.0863369E-1,1.05922244E-1,4.4292E-2,6.1375566E-2,1.3513298E-2,-1.3863688E-2,6.1390072E-2,9.600487E-3,-3.1648442E-2,5.7003493E-3,-6.1594468E-2,3.0298026E-2,-7.637254E-2,2.2969313E-2,-6.915756E-4,6.4640134E-3,2.14483E-3,1.9757979E-1,1.3440946E-1,1.3077816E-1,-1.8275809E-3,1.3738679E-2,1.1561457E-1,9.42776E-2,2.2342313E-2,2.4247495E-2,8.909969E-2,7.77968E-2,-2.802419E-4,-3.2378256E-2,1.0117842E-2,4.6819292E-2,1.2476608E-1,4.510455E-2,-2.8250199E-2,5.095973E-3,-4.0552814E-2,-5.4422643E-2,2.630825E-2,1.8124169E-2,-6.893077E-2,-4.8364076E-4,2.726017E-3,-2.3153406E-2,-7.784144E-2,1.8136452E-4,1.5064765E-3,2.4864662E-3,1.0015733E-2,7.5953635E-3,1.8909335E-3,1.133651E-3,6.832146E-3,7.5669587E-4,-1.1286279E-3,-3.242747E-4,2.7342956E-3,9.869373E-3,5.351747E-3,1.2790672E-3,5.811445E-3,-6.690043E-4,1.8427138E-3,2.2572966E-3,-1.3255908E-3,6.5239356E-3,2.4712214E-3,6.6375225E-3,2.2732303E-3,5.709595E-3,-2.9501953E-4,9.83514E-4,-4.899266E-3,1.2037647E-3,3.989714E-3,2.9427533E-3,7.644472E-3,-2.894461E-3,3.2207712E-3,-2.718944E-3,2.6935583E-4,-3.1882096E-3,1.1035557E-3,-3.0012706E-3,-9.2207704E-4,-1.8323193E-3,-5.2696327E-3,1.9704888E-3,-3.925676E-3,3.6457719E-3,-6.281361E-6,-2.0846627E-3,-3.907598E-3,6.9368765E-4,-2.1100296E-3,-3.2193412E-3,-4.12089E-3],"categories":[],"categories_nodes":[],"categories_segments":[],"categories_sizes":[],"default_left":[0,0,0,0,0,0,0,0,0,0,0,0,0,0,0,0,0,0,0,0,0,0,0,0,0,0,0,0,0,0,0,0,0,0,0,0,0,0,0,0,0,0,0,0,0,0,0,0,0,0,0,0,0,0,0,0,0,0,0,0,0,0,0,0,0,0,0,0,0,0,0,0,0,0,0,0,0,0,0,0,0,0,0,0,0,0,0,0,0,0,0,0,0,0,0,0,0,0,0,0,0,0,0,0,0,0,0,0,0,0,0,0,0,0,0],"id":14,"left_children":[1,3,5,7,9,11,13,15,17,19,21,23,25,27,29,31,33,35,37,39,41,43,45,47,49,51,53,55,57,59,61,63,-1,-1,-1,65,67,69,71,73,75,77,79,81,83,85,87,89,-1,91,93,95,97,99,101,103,105,107,109,-1,-1,111,113,-1,-1,-1,-1,-1,-1,-1,-1,-1,-1,-1,-1,-1,-1,-1,-1,-1,-1,-1,-1,-1,-1,-1,-1,-1,-1,-1,-1,-1,-1,-1,-1,-1,-1,-1,-1,-1,-1,-1,-1,-1,-1,-1,-1,-1,-1,-1,-1,-1,-1,-1,-1],"loss_changes":[1.5270061E1,1.8790293E0,2.3573208E0,4.210601E-1,7.1147585E-1,5.467209E-1,4.7798395E-1,5.350347E-2,1.5975094E-1,3.3952618E-1,4.0624702E-1,3.1292284E-1,2.7696925E-1,2.9456162E-1,1.1847782E-1,4.1546565E-3,2.710542E-2,1.1575651E-1,1.0297549E-1,3.540144E-1,1.2845665E-1,4.929539E-1,2.5095707E-1,3.548329E-1,1.3544452E-1,3.04985E-1,1.9161046E-1,1.6002487E-1,7.903302E-2,1.1177411E-2,1.0756302E-1,2.3835879E-3,0E0,0E0,0E0,4.947853E-2,7.876134E-2,1.9092262E-2,3.1565386E-3,3.265149E-2,2.3144197E-1,5.131367E-2,4.403888E-2,2.207805E-1,4.4502497E-1,8.280316E-2,1.5121779E-1,2.7852225E-1,0E0,9.25768E-2,4.2903602E-2,2.3643029E-1,9.69718E-2,1.3583209E-1,2.0168859E-1,2.6037589E-2,1.3493341E-1,1.2008313E-2,2.7383447E-2,0E0,0E0,2.8090743E-2,7.849407E-2,0E0,0E0,0E0,0E0,0E0,0E0,0E0,0E0,0E0,0E0,0E0,0E0,0E0,0E0,0E0,0E0,0E0,0E0,0E0,0E0,0E0,0E0,0E0,0E0,0E0,0E0,0E0,0E0,0E0,0E0,0E0,0E0,0E0,0E0,0E0,0E0,0E0,0E0,0E0,0E0,0E0,0E0,0E0,0E0,0E0,0E0,0E0,0E0,0E0,0E0,0E0,0E0],"parents":[2147483647,0,0,1,1,2,2,3,3,4,4,5,5,6,6,7,7,8,8,9,9,10,10,11,11,12,12,13,13,14,14,15,15,16,16,17,17,18,18,19,19,20,20,21,21,22,22,23,23,24,24,25,25,26,26,27,27,28,28,29,29,30,30,31,31,35,35,36,36,37,37,38,38,39,39,40,40,41,41,42,42,43,43,44,44,45,45,46,46,47,47,49,49,50,50,51,51,52,52,53,53,54,54,55,55,56,56,57,57,58,58,61,61,62,62],"right_children":[2,4,6,8,10,12,14,16,18,20,22,24,26,28,30,32,34,36,38,40,42,44,46,48,50,52,54,56,58,60,62,64,-1,-1,-1,66,68,70,72,74,76,78,80,82,84,86,88,90,-1,92,94,96,98,100,102,104,106,108,110,-1,-1,112,114,-1,-1,-1,-1,-1,-1,-1,-1,-1,-1,-1,-1,-1,-1,-1,-1,-1,-1,-1,-1,-1,-1,-1,-1,-1,-1,-1,-1,-1,-1,-1,-1,-1,-1,-1,-1,-1,-1,-1,-1,-1,-1,-1,-1,-1,-1,-1,-1,-1,-1,-1,-1],"split_conditions":[-4.368252E-1,-1.0900109E0,-3.0143815E-1,-6.756561E-2,-4.6342507E-1,-5.633399E-1,-5.0918186E-1,-2.9926798E-1,-2.1508156E-1,7.326014E-1,-2.9507914E-1,-3.250648E-1,-3.754982E-1,-1.3028385E-1,-4.6575955E-1,-1.1285348E0,-2.4224317E-1,-6.761492E-1,-7.6682794E-1,-1.3311917E0,-7.514985E-2,7.71085E-2,-9.2336863E-1,-8.947262E-2,6.8199086E-1,7.29843E-1,-5.4849243E-1,-2.0440224E-1,-1.0259418E0,3.0196506E-1,